{"number":1,"population":[{"net":{"name":"xwx","generation":0,"inputs":32,"layers":[40,10,1],"weights":[-0.048145687893572375,0.08146543897257502,-0.12977242581620196,0.1162750875079584,-0.055875648065053435,-0.18442432291306032,-0.07432393922622219,0.11211565106060795,0.022226147649055505,-0.119576002191749,0.020943889049561987,0.16494313917341702,0.1769600670247531,0.015097502148242181,-0.1109438299969189,0.055578139941511395,-0.0388637549594229,0.021937527271254087,-0.03533890242045218,-0.07190867838060822,0.16880354072250608,-0.07571912063809272,-0.0491811865907093,0.12196020502735855,-0.12310330276576442,0.12713251978143258,0.1178896507429249,0.11387008778845747,-0.08892835294352466,0.08700924969333723,-0.19385910270210216,0.09438882026113227,-0.12440063333595958,0.03208724811769281,-0.07871137085266905,-0.15866147216708432,-0.15244906963371482,-0.1310158177773551,0.04386948018466991,0.10421306836056438,0.18034356493337073,0.05337984933348788,-0.033055389746276365,-0.14015436494043199,-0.1621400198550326,-0.05459569031885245,-0.10098693474747603,0.10328562861188378,0.00858976696271102,-0.0046458135562764125,0.12037673992124037,0.15432340256544003,-0.16220315843935548,-0.10665265297684474,-0.012954171703942918,0.08964490691786536,-0.027460878989707727,-0.08025156938212463,-0.18772606158909957,0.17352941715383147,0.07181426382413136,-0.09913144065691154,0.1662343992123515,-0.1940236730043294,-0.10417004434547678,-0.04928634782328051,-0.07942733465850518,-0.06503145783252418,-0.11624955258867198,0.05117405713024492,0.03479399739088462,-0.17061213771080858,-0.1501829334709009,0.09346521925017015,0.07968001790415047,0.033108740322577296,-0.04039076531172353,0.0029050564025248637,-0.1996036574731692,-0.11132770900492073,-0.06407854883165057,-0.1409786559674382,0.003662631174291331,0.15529571864603348,-0.1046350784228098,0.16993533124435606,0.18467527180616877,0.12126249510960962,0.10639901155583392,-0.024936653387225338,0.1143513435941767,-0.13708936844038383,0.012036056606739454,0.08177600421968806,-0.11561212429671981,-0.10055152216095742,0.12454948880443828,0.10752444394825061,-0.19862313055824174,-0.10552239561943698,0.16109813964934594,0.12133374638677846,-0.03921988972351639,-0.19691583314525377,0.1682261729070187,0.19077673261912048,0.17190995211076404,0.01288550424089524,-0.001643414649794922,0.08110648489496547,0.14920730933409976,-0.13632777848514382,0.09743601268110041,-0.0002786678655165298,0.039623801563115985,-0.005534381607921024,-0.15607543118375428,0.16618173312354506,-0.16211357443200392,0.0051860066521302595,0.09424148336850313,-0.06588209069680656,0.1489578349168884,-0.041368249239996935,-0.1166512221993064,0.055453393547734486,-0.10881811744634265,0.18733222163466784,0.02012349392667226,-0.05925635675173532,0.1162506156750725,0.13594285388633404,0.047337079640315055,-0.13371108115554825,-0.03367052705415752,-0.026508751680912657,-0.009077859056532939,0.1721526613612463,-0.053269014887340926,0.0947952776085047,0.06237493877476802,0.1948558285758759,-0.16007908530144077,-0.15249867525461092,0.029765538294269783,-0.13659941442774937,-0.1613606149056384,0.188850440262813,-0.0365276558376883,-0.003439811327423936,-0.09682458204084465,-0.03503497422796001,0.15038308122114546,0.10946556621024478,0.166981925988761,-0.03316291457301804,-0.11089464554133191,0.11547458658961068,-0.036978550123395765,0.1897556470270173,-0.17307100420846908,0.12881711400150186,-0.168098695733549,0.15134502179566223,-0.0668385204744574,-0.1896246099329388,0.14702813877080684,-0.018498197835386698,-0.13852951276980907,0.08381733425965826,-0.19282061636040837,-0.06812706489967102,0.17324403489342316,-0.02509780723346927,0.06455879963369882,-0.07388302869382066,0.013818475835550625,-0.03236090184176216,-0.112256629073568,0.08713020769456142,-0.06799312315929437,0.1598870765279563,-0.15721794789508367,-0.03674456676729704,0.0675916121054807,0.12582569490103035,-0.057995599293462874,0.017623996946011994,-0.030912936185752138,-0.16149892810149957,-0.10465901911399458,0.03874601077740972,-0.05872402197966606,-0.05400459174342995,-0.12777051157367225,-0.10506332822287075,-0.04150612510869872,-0.05518474485476563,-0.17268156246651573,-0.006459702917479604,0.12478101951588833,-0.18761359678136832,-0.08280680120081119,0.06820840375360654,0.10938277964495163,-0.18407018639280848,-0.11684527526903876,0.015581212740783723,-0.19149099705791273,-0.15170476094192092,-0.18984431663609025,0.1916827623223769,-0.04954659406170503,-0.1556202161122923,-0.13142088208598884,-0.1010189039908128,0.18208159808210994,-0.16648069049513278,0.008874339673258985,-0.1811969464944582,-0.10429140536150419,-0.05320713878989489,0.14124983452784518,-0.17851831723594033,-0.14634863845517954,0.0052214439118691836,-0.037567769184570554,-0.07279726456979016,-0.04908860511402208,0.1623324793015017,0.1772554140538728,0.12311109758413041,0.03776090882139432,-0.011114254964116027,0.11568923793039182,0.16506230147359696,0.03506763984342562,-0.12227419346158248,0.12219898290542458,-0.043548364254108574,0.030691777484578603,-0.09851242462882004,-0.02313978031189129,0.10460567235855134,-0.001558408744577633,0.011807309554481282,-0.026410551445813363,-0.012197181460538331,0.14186476727658176,0.030189094256631854,0.18772290679448939,-0.14574731405710947,-0.0723277309604054,-0.018297146395269415,-0.04686792939984502,-0.009655121043728704,0.016294983354585207,-0.02117960419397774,0.03856861008335652,-0.035909914252955755,0.08445402526348145,0.12013011349628755,-0.11252468580704136,-0.1787443655520667,-0.18317655610938424,0.1903807637348332,0.14609976682342118,-0.023403008780806367,-0.18397814505439705,0.017944857519283985,0.11188861255542576,0.16743224408709917,-0.13721899900278445,-0.17076455024972176,0.07894709261402666,-0.021052988858982852,-0.15093284260413764,-0.17657712044008306,-0.10826968342324826,-0.05973589764014839,0.059970129479525736,0.025268813881241498,-0.14989261210719046,0.1719490703558459,0.026483553449216657,-0.11246880162938791,0.009357985303671768,-0.028825768743002828,0.19115126085942719,0.06932779838384995,0.1320081000132981,0.04558848832936188,-0.12914712949882834,0.07290497401056378,-0.17455403437409134,0.1492830457944554,-0.006457581349231578,0.0865461862097553,-0.17178631449303766,0.1775439897185649,-0.18815093557686513,-0.06914459959756078,0.12808659185220544,0.1344308056516012,0.04916675547713495,-0.19261654358720195,-0.18222195791439788,0.14133118794616728,-0.1576270203939384,-0.007987035148221466,-0.05150626917310755,-0.012904104154195906,0.023725826965408647,0.0009098276551283146,-0.12367805253980971,0.05178838100463423,0.19681546316415482,-0.1825393512846347,-0.06780597525635601,-0.009780018395484813,-0.15139154452255107,0.13583186572587946,0.10562620357021574,-0.13671535291361608,0.15653529450613046,-0.04202605901217185,0.1069785247118979,-0.19771901963338198,0.11928377325383893,0.11945347810535606,-0.08001078126308513,-0.08894024944452968,0.1600220646163768,0.027408704339861423,-0.17007039100338198,0.03773808973659748,0.17117998126108652,0.05337738236431083,0.06447829732442562,0.08824003694206961,-0.04983547010352546,0.10977750385815616,0.03569684932283401,0.19982007434286236,-0.11602252190569651,0.1828515170799469,0.11444454370522034,0.16844619958927726,0.053957009403444445,0.12716801616295775,0.0075996382556755004,-0.10538442559495441,-0.12439204095861554,-0.09274606750840127,-0.04357533140918113,0.03406375450282706,0.003545162749064079,0.07593291533486629,0.03161781558325635,0.1994235446713155,-0.05570620451698183,-0.12273375642577929,-0.1724360233998847,0.12640595141642824,0.07496726191061304,0.022199484922695856,-0.1063743065779085,0.06034536720266337,-0.08121348294595486,-0.00011145668772788442,-0.09667308595286528,-0.14761585662333518,-0.06783117219951748,0.19137318421470528,0.09896769853846221,-0.18411258179214915,0.15795070238736636,0.008015986180894524,-0.1675422927465757,0.09814105912496007,-0.11461264552838024,-0.16392790684696373,0.020844777840072493,-0.16263110383010693,0.016216615003268153,0.046998120028029694,0.13191741706801202,-0.021632374754287392,-0.08276362768171151,0.06168549625822395,-0.16670498973838052,-0.1440602507493539,0.09889667216413767,0.06955781877187583,-0.0725536699642185,-0.001853584541352482,0.19249467038518325,0.16602127247220644,-0.10289382052772096,0.049005522433771376,-0.13336965816845564,-0.10698644844912222,-0.11390775922140267,-0.12244423679315047,-0.06231578017628908,-0.12440117115712974,0.030648707576249823,-0.18664871836931587,0.048296166582870004,-0.12933513012662495,0.03708906852231966,0.006230508065721535,0.11984972226511426,0.15707295756879208,0.047392736077198544,-0.1601863198614135,-0.05150038080365124,0.04866381252178717,-0.13432317187024223,0.03654480619494277,0.17120524961057876,-0.016199967393033254,-0.01916652107027686,-0.16528358158102785,0.07420376743068752,0.14960438738710863,-0.04123091299686871,-0.005326567831427903,-0.10342411310047216,-0.015322436502881842,-0.15079463338295396,-0.09068736196959373,-0.18778770615392917,0.1814759593458365,-0.09828788285584711,0.14159390621599172,-0.13778101273963675,0.06433674476855805,0.19527127482316015,-0.1148467355098764,0.19164219799017995,-0.10788922493074696,0.12446561157546426,0.01846177550879577,0.11916668568506994,0.06112436662241921,0.09174207782919253,0.024182251622243356,0.010050616346174823,-0.19497594644520586,-0.1441163229565616,-0.0829253475928966,0.1744574320570509,0.08266682953319948,-0.17912429159964055,0.01796794883841296,0.12641855902889265,-0.14039423508631962,0.19193148838517438,0.04967957795028646,-0.15879976763134557,0.1347029364902655,-0.1740095204137848,-0.08300702339638724,0.016376915615894022,0.19297119287882264,-0.01255011445853968,-0.05926838695987177,-0.14701432957115418,0.14946158609795657,-0.04877864745903518,0.03103080628469429,0.13778758854271755,0.1260898402438299,-0.1970426064966005,0.07384574377542619,0.0830068163063789,0.15689296688974025,-0.03377479406408607,0.014463616775897747,-0.08747660779513025,0.16208534778437989,-0.15673552973903054,-0.07365466713638957,0.018171775490549352,0.10345736021059065,-0.15334776261837568,-0.05464127009470188,0.14895132175305692,-0.10536104463801524,0.12994919734709293,0.19056892810468423,0.013043243162349949,-0.04140834420667919,0.08956581735158486,0.07375318764100125,-0.19163803696009316,-0.15958487024438864,-0.1305186657349413,-0.1689107823534938,-0.14191088178251957,-0.14327230108418354,-0.012177110958190435,-0.04716662211961725,0.09009268885427879,-0.11897349736828754,0.18042180408639102,-0.06012699135497865,0.1289231524788771,-0.08572922905125911,-0.10821549275610796,0.0008658385035371086,0.10128958130023707,-0.1550145453621733,0.13347010788489316,-0.11499328617442278,-0.18634806057667763,0.10917725470227052,0.08290307380780837,0.06737932484691933,-0.17742442779455062,0.06459503401617672,0.13787748796749916,-0.07895072771782995,0.055726109246502176,-0.0796652965587553,-0.023871821525127318,0.17667693135578338,0.15520669873747162,-0.15321216290604314,-0.1490225378387942,0.05542553032967196,-0.18124940100199655,-0.06770477372657976,0.19462307172653331,0.1245788290388144,0.14351901578469317,-0.10654439037964708,-0.03200175546715345,0.08711814424775277,0.09437782170937242,0.04351995298491662,-0.10804447580194926,0.14721062168618293,0.07398441034747033,0.13619497482424814,-0.10154412846274337,-0.03030774505807346,-0.028098285642652876,0.08342188447556759,-0.16382294665025637,0.005827910079374193,-0.14629289083899596,0.03821931957503927,-0.17722417326199535,0.19121505851411114,0.1274188111529319,0.19653510267724805,0.17906545975565752,-0.09222858926870839,-0.15821243880967784,0.16112092609482603,-0.012691710469795753,-0.07464591250404312,-0.18610037877235985,0.02749175006119947,0.004528193845741768,0.07627351948574262,0.0837245716947771,-0.0005350360780647934,-0.152235325300264,0.18539541207613558,0.01184236698525315,0.03374556986057228,-0.13024252678040318,-0.015593156363579747,0.14240353135642086,-0.000047739806059349243,0.033651265748240705,0.013355655034695518,0.09466646343022733,0.05051768204347279,0.05178688725444358,0.14966959333528246,0.023053357037265354,-0.1963744008251571,0.06098705150312567,-0.06810007371226573,-0.18382587558886634,0.1823091347921159,0.06538869574235173,0.009458582750314803,0.19887227128771612,0.1905515433705703,-0.04623210935561978,-0.10330292462006324,-0.10158675285664308,-0.05020106495225979,-0.08445696070436198,-0.05861347684307408,-0.13087328677945786,0.030164904344883336,-0.025846585626562918,-0.10162287898339768,0.14688880732372794,-0.06608144245028677,-0.03347249605800337,0.08028538455764711,0.0625485477744595,-0.0422027151444479,-0.13684640441713825,-0.0857287873132,-0.044801091755751254,-0.04709466478239016,-0.11488932576666677,-0.049405898196007214,0.044758166882708394,0.15899124611543564,0.16598747137418862,0.18230848225589152,-0.14624332246496055,-0.04946595605214971,-0.17941316084701803,0.12880491001187178,-0.09954974073171662,0.0865685055509261,-0.07216059435165365,0.12530942978671117,-0.14073583408166812,-0.06158401122589627,-0.14278233761037873,0.16445739665656672,0.09979245402183112,0.059494206413277406,0.009248142716577756,0.005394870144130703,-0.10282787221331269,0.12117683604486013,-0.12506671617131032,0.10360770825639681,0.1440316769442445,0.14390143202176836,0.005762601555616087,-0.03088759415284964,0.024149149842317197,-0.1725624585983816,0.014538769369762672,0.0037699749058154874,0.13317283952831094,0.09693126256732326,-0.17127506857486552,0.14716107589626387,0.08329536784726466,0.008512445925846102,-0.19777649914475026,-0.11092544847680648,0.15413440964823782,0.12936253723325758,0.03455174685463733,-0.04828209172745987,0.0951346538780059,-0.034233964993565624,0.026625503599638195,-0.17153439947071095,-0.19468190663424212,-0.053261790289971966,0.18886960268613823,-0.15374008555475005,-0.15408787874543056,-0.07570212791473985,0.19816969264865442,0.14236089778485594,-0.1313922646594529,0.0866826057885417,0.17645976180047074,-0.04842709776373405,-0.13979588907022544,-0.07331447180883757,0.038093945374234994,0.016151869881519787,-0.08538597311323654,0.1414891290492834,0.11740166413699143,0.041704489871584205,-0.009848539506830623,-0.1242194258628687,-0.09961256795589,0.005947063035990741,-0.13724103349146627,-0.08117032499765174,-0.06984886090748307,0.04724280861753147,0.0953427524212403,-0.03761147170654669,0.17627216171916676,0.17121798892750217,0.11257762113277059,0.08202550744749859,0.1884551295894072,0.03438286089958015,0.14844191998543776,-0.03858040900729459,0.03562365444562757,0.12868571949206464,0.14975760491734408,-0.08780005978385629,-0.15231168147615026,-0.0010892797216358885,0.015524478285437932,0.02932860337261367,-0.03712127449347155,0.020713113198057798,0.11497097852044585,0.1221213599645295,-0.14778355828629258,-0.034868215225105914,-0.08030080713818624,-0.08824465820700517,-0.17139911179872522,-0.14813668933246343,-0.029037648795332938,-0.1997103548693219,-0.11114486053467046,0.0756782786209877,-0.16498853585715967,0.10454933139147293,0.14928870406731554,-0.07646668806148976,-0.16568558114622675,-0.007733481757536076,0.08365868841098517,-0.07151147783899425,0.1461376775452129,-0.12271648667893986,0.02546408115698995,-0.13958432533474882,-0.10838886562982869,0.09833255011906816,-0.10435429933019674,-0.11025325159424729,-0.19563107368503518,0.10213231945423135,0.09033539188565365,0.1640536100511789,-0.1360536348519658,-0.08004724740231728,-0.003373236582723843,0.0612383645282778,-0.09307052520370727,-0.1557235242739571,0.07203392798780667,0.16670400369683208,-0.06290835978581111,0.1998431807236571,0.15373298120147788,0.014471701677279458,0.12847922911945336,-0.1774282773876352,0.08905698744881985,0.16092578479106595,0.1599768982063271,-0.10247505922528194,0.09885732667482267,-0.00802230910381932,0.09860885041209455,0.11055035647113354,0.0904098391533002,-0.037265344107890896,0.05001589990588301,-0.11739964541506814,0.09538026635197855,-0.08059927118229418,-0.16571970496914706,0.10624917045140514,-0.11180363027535219,0.1447856975981478,0.0847293054465621,0.0477994419670619,0.184937518638084,-0.10073798460908101,-0.0307281662607104,-0.06526985058412693,-0.1908151508195883,-0.19621718792402812,-0.05152629156440397,0.17729881630995664,0.079700523148656,0.07150511438505208,-0.04744446288970519,0.09034640597232019,0.14476084799178474,0.00817527180523045,-0.19036725168923685,0.03574562481482202,0.12900940223627322,-0.09994583046594513,-0.18145238882382025,-0.19132193059503413,0.11430972953931201,0.04480573237656191,0.1877460669328352,0.07756965090603735,-0.1906276560483825,-0.13522388391565004,-0.06203119963783196,-0.11887925810674504,0.023167128387724667,0.06201706426936582,0.0767885014925932,0.1892703026008568,-0.12714398379352448,0.14071231140739188,0.12935133695601442,0.1357150491539293,-0.19344081876203126,-0.11838808528698622,0.012783418624589704,-0.02173000313142942,-0.07558442547893805,0.18497923832992358,0.12303602536896047,-0.1916996364341988,0.13791513810117317,-0.17308965694139308,-0.12854581386231761,-0.05294263910177835,-0.1601988593350595,-0.12742269465827738,-0.03366373228016303,0.1617532557823244,0.17655813639149115,-0.0182342821393065,-0.07314534978601772,-0.16298197753878407,-0.1047079335182831,-0.13909740192470077,-0.031155754991360057,-0.09353050909200099,0.06944983086885931,-0.1593190218612991,0.0155193924128402,-0.0046234162657596,-0.1810649884901289,0.07162932693297275,-0.021827849037000746,0.19261956896417481,0.11741658493756385,-0.14267110436658506,-0.08738648155148745,0.09187196910945239,0.16813679212147453,-0.12199180708616444,-0.06198561151723325,0.18624523254894765,-0.08399730224947898,0.17422291386136168,0.023514040316217233,0.08384126818607801,0.14007048066796202,0.09906643990731812,0.13372109892570816,-0.1028408369300987,-0.18610158499851695,0.023162828404359376,-0.04740683794246642,-0.11161802208318967,-0.08801755335642447,-0.06697677781845304,0.1288493515916989,0.12899753262362562,0.02415516666209347,0.07095622728973161,0.0642356654634022,-0.05711944717575551,-0.11272917879407203,0.15228050013423183,-0.0873976888604581,-0.08688583951322003,0.0962244387492025,0.17088251573507124,0.14241984112755973,0.05001666964514301,0.05669559825734671,-0.16972665356860067,0.12986938432689732,-0.10493936602366878,0.053176131427881745,0.019217542292648215,0.01751859885613083,0.19161534269289587,-0.18692829724610452,-0.1900317690112286,-0.1370135235693616,0.11911014953335403,0.03507530428940803,0.059949683415265576,0.19783181225666546,0.0979395341918517,0.052110284831148934,0.02948639637967504,-0.1499014817945434,-0.027969462268777334,0.19335297154578912,-0.0912119954416494,-0.19518019012988735,-0.11391570836835437,0.04990914687270659,0.05391025737184785,0.05784914949302583,-0.10175098303610436,0.11618653866121947,-0.09527326976310119,-0.1091574811423639,-0.059752648900158606,-0.06863941104116789,0.1399456419520262,0.16728417399372114,-0.1849489578522242,-0.00645820620433471,0.05178956153767944,0.012358253647458545,-0.07570159858957332,0.1665255611690612,-0.039563667085026205,-0.19339163154027458,0.19980876994654545,0.06277681961017645,-0.11594198308754766,0.0018718583194681782,-0.12759888541501602,0.020497996076796532,-0.1944333730556129,-0.04361658494749018,-0.016011282378646546,-0.09782818244515959,0.19166463874948175,-0.18525878439618426,-0.16699681750459716,0.035274102331685236,-0.10484176885035411,0.07366576293772287,0.16583011036422102,-0.015092744803467534,0.10995666275970278,0.1857984198032409,0.053269413603844296,-0.058371684261624424,0.19756302959507782,0.18648888236993139,0.1642315805317473,-0.11574544093041893,0.07013160885964281,0.05535551205040978,-0.06509717221391673,-0.09767848471589922,-0.11306580891148857,-0.013799476259588689,0.012164391438612837,-0.0043291304545483855,0.06317140210724492,-0.06288263749624373,0.11152406796985037,-0.16689522162851606,0.11326709281583591,-0.056994651473460584,-0.18014103783231716,-0.11315582382601007,0.12653603178517214,0.180790094446231,-0.056841017154361684,-0.15436364614954617,-0.005586470146452249,0.1428700317092843,-0.1295621137893317,0.0060318212311464,0.014293773458828513,-0.06507890883305764,0.02404734196541644,0.0075403865263640735,0.1789481627218949,-0.00643892032930965,-0.0906006426751195,0.08018725192163878,-0.00008704464136410905,-0.019387591030899737,-0.11528180942548208,0.04530853504604798,-0.17696844852013163,-0.03905506334023645,-0.0367504116564806,0.14802164169977322,-0.11897728348006363,0.13202703624101647,-0.07497967624204005,0.14674402951992438,-0.0012915159066384518,0.012941511451869225,-0.05756913791149296,-0.03851586799833129,-0.05496514427009966,0.12914728693171373,-0.08094974714001185,0.10336005030003914,-0.04593396549036627,-0.17798358524754443,-0.09689540016581591,0.013002146729472225,0.15358849389411217,0.014597267528089208,-0.1457351547385069,-0.08386688796001805,-0.14288600452399108,-0.09972662051273923,0.1365297175481427,-0.057118568525609176,0.06117535442320071,0.13250666420996027,0.09863556861771017,0.019364495488889133,-0.10639653044983746,-0.013715994221418087,0.0010179900519360352,0.07965875964527375,-0.16097187201393057,-0.15621630139301976,0.09937423381970856,0.16092130046014702,-0.10065958966159849,0.1423846725946219,-0.10455308674875408,-0.03398697152030161,-0.19629071551169225,-0.06709045219469098,-0.16796463656875205,-0.04643821049759689,-0.19662945476648785,-0.11535042109651901,-0.10059332631492923,-0.1938964824467278,-0.12338871705493909,0.18862527801519174,-0.11410045637312419,0.109862853596915,0.08432842591869028,0.010475299696408064,-0.10499152848337029,-0.19435192460129633,-0.05371149130176606,-0.06801385684358738,-0.024319769156856103,-0.0824548991066588,-0.0900640731574657,-0.1289009509828908,-0.06951011561870032,0.18228385647158857,0.10517022095541506,-0.055028417032704446,0.18836465108731942,0.10747076879333156,-0.002645814038111538,-0.1653815901596424,-0.19685609742714627,-0.1887968981526009,0.14679602847577888,0.15718580451918085,-0.13279957428431038,0.16311732083418012,-0.0010019428587480783,0.19964706468787308,0.11770974617114488,-0.15724553171366332,-0.1300042158421798,0.08832690996905362,0.18399445443250262,-0.08096590015886918,-0.020887241641583815,0.027472576331904197,-0.12702942834602907,0.16160809254208147,0.18788844084001993,-0.07709148787316203,-0.1670538120879063,-0.06985015702130637,0.07214483776056602,0.17129183128126746,0.15540855545133153,-0.08698032973082742,0.13156478387591247,-0.1434928073919906,0.07835055631384485,-0.07464858177768488,0.07422529712495285,-0.0715183411706172,-0.11890655488434004,0.13313635381130462,-0.15158391144407135,-0.018459522742705292,0.05029019321979267,-0.010906139571063733,0.0743145210009648,-0.1632577536561219,0.19224854764049132,0.103513440249694,-0.1891849875695072,0.09790255920703067,0.07386565637265974,0.08803284945404732,-0.13203257388765727,-0.1628247967207991,-0.011734758916646715,0.18895323711442247,0.019971992886757384,-0.19920132371712526,0.11633159038132801,-0.12933555100402466,0.15795393034146316,-0.05314414094737918,-0.03489428437222014,0.11537260962689189,0.09397011331170235,-0.06373390587600367,-0.12454402860409415,-0.02098669597263711,0.05767817016667964,0.09263856060713965,-0.1322629353074305,-0.13707319640795462,0.07120312127375927,0.13810288267450893,-0.0032407268662688615,0.1858687556313351,0.10789248013527869,-0.1271123354582705,0.17621980224457529,0.030567517494232532,-0.11413939788134392,-0.16888257441360716,-0.18798469851488725,-0.151417920868394,0.15891618674211822,-0.007478546801094416,0.14084636059592176,0.02626419996196122,0.1018869183713112,-0.13294370266326244,0.023137159099203414,-0.010869080352729016,0.11409579492242566,0.19933525614692205,0.034768706716547554,-0.01976623040817707,-0.01424786672518294,-0.0412135421940972,0.12350453668387323,-0.05667677201622645,-0.12988406560659377,-0.0020548325419746938,0.06308336149606841,-0.09047767801053636,0.10100747028106899,0.12132598368588249,-0.09164622866395318,-0.01289134039468659,0.044966730126223375,0.0841224846767929,-0.0014767963207080181,0.09946663182951038,-0.03335954360615742,0.052214453442484765,0.1784880746094757,-0.15661147672998485,-0.11121660150998958,0.17555388571649094,0.11793022229189337,0.11572665892578549,-0.0214446806933907,-0.02542863638391682,0.056779133093354084,-0.10224752623993566,-0.1628078197909904,0.027745758092791922,-0.10568953857883737,0.011317928627285478,0.06313734409465771,0.08471542106451607,0.012510612449454589,0.09944779902281031,0.19824670725837573,0.006003988268399596,-0.06437930241578735,-0.15573531215809214,0.16936639081437693,-0.06604029432991274,-0.1306662281036955,-0.023270128481816144,-0.036620463834703104,0.16224932640150014,0.09172831586507862,-0.1529434555212176,-0.13907935575983368,-0.0065190666912102735,-0.006952516989169766,-0.08010700700958645,0.12114605805775414,0.14362999701389595,-0.10958260600950753,0.16136570078666618,-0.18434320304182128,0.03193018309256085,-0.03983526361741463,-0.006212255562225433,-0.09553516649410483,-0.09287603007213613,0.11551245743846972,0.1894244887587519,0.15545329221908588,-0.1798792320022515,-0.12820984079767256,0.00866687979534042,0.07281699308942063,0.03510626506065248,-0.013214811793728465,0.07749673433449294,-0.10884475777470791,0.06992946398583222,0.1390854506901868,0.1106987809952596,-0.18722710163012826,-0.11132912816544877,0.1417015034961091,-0.02900273511201573,-0.14560048187785216,-0.13063180972417526,0.11761597505805294,-0.09807836299742229,-0.010505964751013064,0.1251587346941771,0.12692048408080253,0.07022961039532688,0.0972544558279676,0.10323938445577652,0.14632766871580788,0.15249881710444396,0.10023264812277655,-0.11119150642113924,-0.09382249209730623,-0.08785919008703696,-0.17701482576894972,-0.09851637725829186,0.05468196079606846,-0.04876921125264139,-0.11156592468043885,-0.09290246426071774,0.015576265365166986,-0.16386647926218256,-0.028734877097114087,-0.11888230865124144,0.002176469391980518,0.055444434647939744,0.14610476486363738,0.13311761241351333,-0.09535373257746667,-0.07081061501018066,-0.04118535705827703,0.12505034934908732,-0.12638432482388867,0.17900452865681976,0.12818289092118046,-0.17935589893085613,0.03729783462015143,0.018354943644771193,-0.005519467576163006,0.05040804586194464,-0.1897825310479564,-0.105137510132922,0.15132588649095208,-0.09022685993828726,0.07794676264356876,0.0003271325652009216,-0.18572410476210033,-0.1015083450591491,0.05432985218891745,0.1829351620471651,0.10959108210095975,0.11646427991720332,0.18116097438290035,-0.11116132705674167,0.010585084170528974,0.007413255170012428,-0.011885095739549462,-0.0975629453859269,-0.10497789285471022,-0.12875836775119343,-0.13859714455584138,-0.004318691807255692,-0.08848976545438747,-0.05336673711880388,0.10716671311788017,-0.0810338099622121,0.14280149113730822,-0.19191453113816773,-0.0029405772056808333,0.012428044672214172,0.1284537397089543,-0.014065497509542363,-0.16183000865291586,-0.16709983430615552,0.11813506017833986,-0.03404904815803489,-0.18312441494568513,-0.14602678968564434,0.07666662211342662,-0.04179127105060482,-0.032670710392564584,-0.009475447289612055,0.10349058225064373,-0.05710344898972916,-0.09807606479974602,-0.16624884310378052,-0.0036224765610948784,0.17848623284130405,-0.05265766049740481,0.0833449410513496,0.10767441689001889,-0.11934193333045187,0.08172141373735231,0.03920093155817872,0.12716016699155203,-0.08510694466570562,0.07579680241997205,-0.18053279118656446,-0.002920305200057538,0.08244422796967915,-0.14678402376838875,-0.19207040893513164,-0.16241663711811327,0.15100598292945094,0.09093509961079294,-0.04014285861572836,0.08509637900455697,-0.13656983512863857,-0.07024579981446166,0.12017787536261965,-0.03377180294955667,-0.129204724027361,-0.08174605136495226,0.09707888825866984,-0.03761598721368847,0.017108885058345263,-0.10463834701251207,0.05134592487578643,0.13302809167041074,-0.09029840458356926,-0.01895728692720508,0.08576805648602964,0.09899561300491799,0.08623155328633764,-0.051783879345102785,-0.10531693297435654,-0.00140013148061921,-0.06421913702201218,-0.011439117544045002,0.028399597928673692,0.15386228728572365,-0.08432182178603674,0.10535127727557264,-0.06399565368282767,-0.18699428509816463,0.13988011011238694,0.14787640859382506,0.03277542960716334,-0.04453605839304267,0.18036365600448967,0.08478203533670159,0.05887979874571336,-0.11301168720215715,0.16738020167350198,0.146817603539583,0.09859736151056692,-0.0939258037021018,0.15452190006445504,-0.09384842460830499,-0.005310398792332721,-0.0073960654073422505,-0.04531353020421411,-0.06452372985692109,-0.044771464341452016,0.0642531210468743,-0.026174419099380064,-0.1485388325879038,0.1871041641453816,-0.07150194543850114,0.17482544377057313,-0.14528419396773293,-0.004829183209646176,0.16140822034893393,0.15322244049342837,-0.0031759990922640147,-0.012219528884503006,0.0031111009709455517,0.16756286973665668,0.12414997326320426,0.0379371993349423,0.011812439697974242,0.0033400352897277885,-0.18791980704456704,0.04635806534429249,-0.09021292397248822,0.10968008597363993,0.019247581835752398,-0.08596024464634074,0.16407843487049262,0.14698851107101057,-0.037505182449803776,-0.09164576591782839,-0.1839587612283018,-0.020019615404338692,0.16132662861215213,-0.03429236447118872,0.11735922213278166,-0.19302598733382725,-0.010773529403357157,0.16410768412396132,0.03641276495776671,0.09573677835216365,0.1336622714090065,0.19236352812902463,-0.1730644107484471,-0.13254114369776807,0.18723048228029987,0.06934072684890885,-0.00938219385143163,-0.02983504655302624,-0.12958768754519437,-0.10934493617149599,-0.06461361615144626,-0.07826785421205376,-0.050551973859040894,-0.040974165583761935,0.008588969541916042,0.183601568727558,0.08851368328501741,0.15823667801599556,0.06323876187256161,-0.15640743545198854,-0.06586661817924197,-0.009509171577161635,0.03594287544445596,0.04821150008386513,0.005741240543080395,-0.04569056039591271,0.11808429565004719,-0.17330442810964186,-0.09004585205571702,-0.12172730465884118,-0.15614316904144793,0.01528051640937722,0.06740189771327654,0.17892035551408808,-0.026311816548464595,-0.19623524551006366,-0.03568878091667224,-0.025154685107882824,-0.1286294856318274,0.014618529950373826,-0.14993941690773183,0.01990595570515677,-0.032586489697971815,0.0770685357587147,0.16830411884107072,-0.16402891615746543,0.0032856700311593434,-0.08832832232014481,-0.1651427829307285,-0.18313716128637295,-0.05741513822805519,-0.15333364972162702,0.17816742446310113,0.19546327940470293,0.07584885351048881,0.02390593343824951,0.1337480504756653,-0.1572710868805145,-0.16158839048234885,-0.10804537663628162,0.002559978503267335,0.05061736612101014,-0.07043531179825965,0.06911675309723142,-0.0633110207181111,0.02876126341237334,-0.06097518840501817,-0.19638200835230146,0.07478947443067357,0.055785753996231424,0.046978262531492815,0.04297230954075673,0.18958749711054984,-0.08431586457948104,-0.02013126606881438,-0.026816017970543532,0.017790297914356656,0.07161027349095522,-0.009471255675969015,-0.10174613781678597,-0.08721840567336381,-0.09887985168573339,0.18118138228119607,0.1977604057305558,-0.1344230106813778,-0.06475684607329299,0.0858814137994598,0.18095512757368687,0.05546998506865419,-0.19271219579558396,0.01850796583035122,-0.11325022113232396,-0.057655291395477815,0.03498353864947906,-0.117951728036231,0.1349418857584498,0.06736456337628971,0.034642454127643774,-0.07414629799526687,-0.10631647159646125,0.1494877675219981,0.08858982863308762,-0.02334622925820229,-0.04759837832142183,-0.039852167857242826,-0.05199816947608468,-0.13096837608011358,0.11668971632094172,0.13064518964151334,0.12183899074483434,0.09949377212611099,-0.023049735388008502,-0.0037032270428328518,0.19203142942324364,0.18172547575853726,0.0016800671297899916,-0.018722963080695543,0.08995529646422556,-0.013022006631788846,0.08399226590486847,0.10345592505576234,0.05883621318567006,-0.031411407058304974,0.19662047393220766,0.019042735195033078,-0.18532569545950972,0.05090690364531314,0.01512656814786667,0.0355790495869365,-0.19954132453987494,0.01936736608262829,-0.06867919710503109,0.07504789389862321,0.1501895435294422,-0.07886766835677915,0.07054543509084654,-0.05469471283806451,0.04162599658339819,-0.1601058543056209,0.15733811401170839,-0.0052325960970597,-0.10870768381724193,-0.11315152917629866,0.18207882637074235,0.18733950941331962,-0.03251254999533257,0.1326863423452173,-0.12881042615800675,0.17529583151109335,0.1445091250845673,-0.0779181297068739,0.16880724398992303,-0.1435548055515537,-0.06156923462512848,0.1120515218362898,0.16101319643408657,0.16702832176749904,0.016904236230847747,-0.04520983637440104,-0.10410562369623806,0.11140807140814585,-0.12366982497342693,-0.09420758706871189,0.14615906158460917,0.0014359054772089819,-0.19392812875808182,0.06842342182330102,-0.0349219438513691,-0.05214855131669155,-0.04219859470054654,-0.06691563440453363,0.001865467594415915,0.14070468210870085,-0.09927811114264706,-0.13618756780924068,0.17957199109689048,-0.015021435106899184,-0.028626255479736434,-0.00741346468107143,-0.017498904070593208,-0.15487875576566248,-0.04623288916968454,0.1066069473889743,-0.002792175040224887,-0.08683605447848147,-0.04581974354314369,-0.11863560102462989,-0.003624717320549392,0.006035174872133731,-0.01523220386386076,0.19682035603027614,-0.015509701213201499,0.005909110638856602,-0.06581842298987689,-0.16042548129634673,0.10479753308576845,-0.0046538995083868495,-0.1935349117579671,0.03753132245301857,-0.18026382615225423,0.13802658560652548,-0.1389437221188642,-0.001773762405946927,-0.17511623685509595,0.040245767112682185,0.16847970448349286,-0.19877765423582627,-0.11024396202090392,0.05147443128873441,0.1636564942520784,0.1062482617238737,0.005743630404916711,-0.025283661575599414,0.157306148264579,-0.03959231714982234,-0.0737387741371281,-0.13306173743866517,0.12185700980824649,-0.15475721436176004,0.1702674027426223,-0.012866853212782636,-0.05557981592794059,0.03594053921861534,0.08226764198292813,-0.023918470164133954,0.062106818642128414,0.06492817374171744,-0.10889529204223614,0.1443774848520089,-0.12414937789765057,-0.08773843437299407,-0.019032525176409992,0.09086191918436937,0.09183208703964035,0.003990579104551639,0.14227928580294286,-0.14538810338023966,-0.024081347619054394,-0.05522255621808422,-0.12594752249278543,0.03676552256439497,-0.10390241045709399,0.13953649761021197,0.19882054849565955,-0.05138490322396727,-0.0017379345832197468,-0.11192550181846857,0.0333622850298112,-0.19787398942847176,0.13045865436457244,-0.059193776501468065,0.18722889398939557,0.025121461947552687,0.09150242159339816,0.01278818299980991,0.09819600814407908,0.11785149529717653,0.08464235134838854,-0.14911258857001064,-0.11893092890333855,0.09888943065397227,-0.12299476901489736,-0.05950322897972313,-0.0573632143584378,-0.06685741700533718],"biases":[0.02692635641729693,0.12978406381023888,-0.1749103392977344,-0.16907077714971974,-0.17979139999135052,-0.08772524129700346,-0.0006801713853987756,-0.1382284174572341,0.11352098300068109,0.141825829058624,-0.07762530516907039,0.04340334223970377,0.17380534311142876,0.10476120560731844,-0.014266521682419875,0.08461475446061728,-0.1840703109684414,0.034896190886211625,0.07953835400062853,0.08180549459786263,0.0643525927466479,0.10947083746666902,0.19758627737504186,0.07834398939214537,0.03655671387841011,0.01137765088250653,-0.015005760214938768,0.1927669544616068,-0.06484103878341393,-0.0550774125158264,0.036159020176371376,-0.033576553798859876,0.0019245856657740812,-0.17908721438457312,-0.1711785975528411,-0.07533014698881334,0.19490216393540455,0.18711720792652192,0.1294820237234432,-0.16330250755160058,-0.02844874106211162,-0.08907312224033026,-0.18885320795895677,-0.16815670323768367,-0.09490087926385532,-0.19649217927592666,-0.021694889035703657,0.17546994694275142,0.025792888331364783,-0.04407248440689565,0.11096726438144044],"K":2},"score":7,"won":9,"lose":1,"draw":1,"sigma":[0.05,0.05,0.05,0.05,0.05,0.05,0.05,0.05,0.05,0.05,0.05,0.05,0.05,0.05,0.05,0.05,0.05,0.05,0.05,0.05,0.05,0.05,0.05,0.05,0.05,0.05,0.05,0.05,0.05,0.05,0.05,0.05,0.05,0.05,0.05,0.05,0.05,0.05,0.05,0.05,0.05,0.05,0.05,0.05,0.05,0.05,0.05,0.05,0.05,0.05,0.05,0.05,0.05,0.05,0.05,0.05,0.05,0.05,0.05,0.05,0.05,0.05,0.05,0.05,0.05,0.05,0.05,0.05,0.05,0.05,0.05,0.05,0.05,0.05,0.05,0.05,0.05,0.05,0.05,0.05,0.05,0.05,0.05,0.05,0.05,0.05,0.05,0.05,0.05,0.05,0.05,0.05,0.05,0.05,0.05,0.05,0.05,0.05,0.05,0.05,0.05,0.05,0.05,0.05,0.05,0.05,0.05,0.05,0.05,0.05,0.05,0.05,0.05,0.05,0.05,0.05,0.05,0.05,0.05,0.05,0.05,0.05,0.05,0.05,0.05,0.05,0.05,0.05,0.05,0.05,0.05,0.05,0.05,0.05,0.05,0.05,0.05,0.05,0.05,0.05,0.05,0.05,0.05,0.05,0.05,0.05,0.05,0.05,0.05,0.05,0.05,0.05,0.05,0.05,0.05,0.05,0.05,0.05,0.05,0.05,0.05,0.05,0.05,0.05,0.05,0.05,0.05,0.05,0.05,0.05,0.05,0.05,0.05,0.05,0.05,0.05,0.05,0.05,0.05,0.05,0.05,0.05,0.05,0.05,0.05,0.05,0.05,0.05,0.05,0.05,0.05,0.05,0.05,0.05,0.05,0.05,0.05,0.05,0.05,0.05,0.05,0.05,0.05,0.05,0.05,0.05,0.05,0.05,0.05,0.05,0.05,0.05,0.05,0.05,0.05,0.05,0.05,0.05,0.05,0.05,0.05,0.05,0.05,0.05,0.05,0.05,0.05,0.05,0.05,0.05,0.05,0.05,0.05,0.05,0.05,0.05,0.05,0.05,0.05,0.05,0.05,0.05,0.05,0.05,0.05,0.05,0.05,0.05,0.05,0.05,0.05,0.05,0.05,0.05,0.05,0.05,0.05,0.05,0.05,0.05,0.05,0.05,0.05,0.05,0.05,0.05,0.05,0.05,0.05,0.05,0.05,0.05,0.05,0.05,0.05,0.05,0.05,0.05,0.05,0.05,0.05,0.05,0.05,0.05,0.05,0.05,0.05,0.05,0.05,0.05,0.05,0.05,0.05,0.05,0.05,0.05,0.05,0.05,0.05,0.05,0.05,0.05,0.05,0.05,0.05,0.05,0.05,0.05,0.05,0.05,0.05,0.05,0.05,0.05,0.05,0.05,0.05,0.05,0.05,0.05,0.05,0.05,0.05,0.05,0.05,0.05,0.05,0.05,0.05,0.05,0.05,0.05,0.05,0.05,0.05,0.05,0.05,0.05,0.05,0.05,0.05,0.05,0.05,0.05,0.05,0.05,0.05,0.05,0.05,0.05,0.05,0.05,0.05,0.05,0.05,0.05,0.05,0.05,0.05,0.05,0.05,0.05,0.05,0.05,0.05,0.05,0.05,0.05,0.05,0.05,0.05,0.05,0.05,0.05,0.05,0.05,0.05,0.05,0.05,0.05,0.05,0.05,0.05,0.05,0.05,0.05,0.05,0.05,0.05,0.05,0.05,0.05,0.05,0.05,0.05,0.05,0.05,0.05,0.05,0.05,0.05,0.05,0.05,0.05,0.05,0.05,0.05,0.05,0.05,0.05,0.05,0.05,0.05,0.05,0.05,0.05,0.05,0.05,0.05,0.05,0.05,0.05,0.05,0.05,0.05,0.05,0.05,0.05,0.05,0.05,0.05,0.05,0.05,0.05,0.05,0.05,0.05,0.05,0.05,0.05,0.05,0.05,0.05,0.05,0.05,0.05,0.05,0.05,0.05,0.05,0.05,0.05,0.05,0.05,0.05,0.05,0.05,0.05,0.05,0.05,0.05,0.05,0.05,0.05,0.05,0.05,0.05,0.05,0.05,0.05,0.05,0.05,0.05,0.05,0.05,0.05,0.05,0.05,0.05,0.05,0.05,0.05,0.05,0.05,0.05,0.05,0.05,0.05,0.05,0.05,0.05,0.05,0.05,0.05,0.05,0.05,0.05,0.05,0.05,0.05,0.05,0.05,0.05,0.05,0.05,0.05,0.05,0.05,0.05,0.05,0.05,0.05,0.05,0.05,0.05,0.05,0.05,0.05,0.05,0.05,0.05,0.05,0.05,0.05,0.05,0.05,0.05,0.05,0.05,0.05,0.05,0.05,0.05,0.05,0.05,0.05,0.05,0.05,0.05,0.05,0.05,0.05,0.05,0.05,0.05,0.05,0.05,0.05,0.05,0.05,0.05,0.05,0.05,0.05,0.05,0.05,0.05,0.05,0.05,0.05,0.05,0.05,0.05,0.05,0.05,0.05,0.05,0.05,0.05,0.05,0.05,0.05,0.05,0.05,0.05,0.05,0.05,0.05,0.05,0.05,0.05,0.05,0.05,0.05,0.05,0.05,0.05,0.05,0.05,0.05,0.05,0.05,0.05,0.05,0.05,0.05,0.05,0.05,0.05,0.05,0.05,0.05,0.05,0.05,0.05,0.05,0.05,0.05,0.05,0.05,0.05,0.05,0.05,0.05,0.05,0.05,0.05,0.05,0.05,0.05,0.05,0.05,0.05,0.05,0.05,0.05,0.05,0.05,0.05,0.05,0.05,0.05,0.05,0.05,0.05,0.05,0.05,0.05,0.05,0.05,0.05,0.05,0.05,0.05,0.05,0.05,0.05,0.05,0.05,0.05,0.05,0.05,0.05,0.05,0.05,0.05,0.05,0.05,0.05,0.05,0.05,0.05,0.05,0.05,0.05,0.05,0.05,0.05,0.05,0.05,0.05,0.05,0.05,0.05,0.05,0.05,0.05,0.05,0.05,0.05,0.05,0.05,0.05,0.05,0.05,0.05,0.05,0.05,0.05,0.05,0.05,0.05,0.05,0.05,0.05,0.05,0.05,0.05,0.05,0.05,0.05,0.05,0.05,0.05,0.05,0.05,0.05,0.05,0.05,0.05,0.05,0.05,0.05,0.05,0.05,0.05,0.05,0.05,0.05,0.05,0.05,0.05,0.05,0.05,0.05,0.05,0.05,0.05,0.05,0.05,0.05,0.05,0.05,0.05,0.05,0.05,0.05,0.05,0.05,0.05,0.05,0.05,0.05,0.05,0.05,0.05,0.05,0.05,0.05,0.05,0.05,0.05,0.05,0.05,0.05,0.05,0.05,0.05,0.05,0.05,0.05,0.05,0.05,0.05,0.05,0.05,0.05,0.05,0.05,0.05,0.05,0.05,0.05,0.05,0.05,0.05,0.05,0.05,0.05,0.05,0.05,0.05,0.05,0.05,0.05,0.05,0.05,0.05,0.05,0.05,0.05,0.05,0.05,0.05,0.05,0.05,0.05,0.05,0.05,0.05,0.05,0.05,0.05,0.05,0.05,0.05,0.05,0.05,0.05,0.05,0.05,0.05,0.05,0.05,0.05,0.05,0.05,0.05,0.05,0.05,0.05,0.05,0.05,0.05,0.05,0.05,0.05,0.05,0.05,0.05,0.05,0.05,0.05,0.05,0.05,0.05,0.05,0.05,0.05,0.05,0.05,0.05,0.05,0.05,0.05,0.05,0.05,0.05,0.05,0.05,0.05,0.05,0.05,0.05,0.05,0.05,0.05,0.05,0.05,0.05,0.05,0.05,0.05,0.05,0.05,0.05,0.05,0.05,0.05,0.05,0.05,0.05,0.05,0.05,0.05,0.05,0.05,0.05,0.05,0.05,0.05,0.05,0.05,0.05,0.05,0.05,0.05,0.05,0.05,0.05,0.05,0.05,0.05,0.05,0.05,0.05,0.05,0.05,0.05,0.05,0.05,0.05,0.05,0.05,0.05,0.05,0.05,0.05,0.05,0.05,0.05,0.05,0.05,0.05,0.05,0.05,0.05,0.05,0.05,0.05,0.05,0.05,0.05,0.05,0.05,0.05,0.05,0.05,0.05,0.05,0.05,0.05,0.05,0.05,0.05,0.05,0.05,0.05,0.05,0.05,0.05,0.05,0.05,0.05,0.05,0.05,0.05,0.05,0.05,0.05,0.05,0.05,0.05,0.05,0.05,0.05,0.05,0.05,0.05,0.05,0.05,0.05,0.05,0.05,0.05,0.05,0.05,0.05,0.05,0.05,0.05,0.05,0.05,0.05,0.05,0.05,0.05,0.05,0.05,0.05,0.05,0.05,0.05,0.05,0.05,0.05,0.05,0.05,0.05,0.05,0.05,0.05,0.05,0.05,0.05,0.05,0.05,0.05,0.05,0.05,0.05,0.05,0.05,0.05,0.05,0.05,0.05,0.05,0.05,0.05,0.05,0.05,0.05,0.05,0.05,0.05,0.05,0.05,0.05,0.05,0.05,0.05,0.05,0.05,0.05,0.05,0.05,0.05,0.05,0.05,0.05,0.05,0.05,0.05,0.05,0.05,0.05,0.05,0.05,0.05,0.05,0.05,0.05,0.05,0.05,0.05,0.05,0.05,0.05,0.05,0.05,0.05,0.05,0.05,0.05,0.05,0.05,0.05,0.05,0.05,0.05,0.05,0.05,0.05,0.05,0.05,0.05,0.05,0.05,0.05,0.05,0.05,0.05,0.05,0.05,0.05,0.05,0.05,0.05,0.05,0.05,0.05,0.05,0.05,0.05,0.05,0.05,0.05,0.05,0.05,0.05,0.05,0.05,0.05,0.05,0.05,0.05,0.05,0.05,0.05,0.05,0.05,0.05,0.05,0.05,0.05,0.05,0.05,0.05,0.05,0.05,0.05,0.05,0.05,0.05,0.05,0.05,0.05,0.05,0.05,0.05,0.05,0.05,0.05,0.05,0.05,0.05,0.05,0.05,0.05,0.05,0.05,0.05,0.05,0.05,0.05,0.05,0.05,0.05,0.05,0.05,0.05,0.05,0.05,0.05,0.05,0.05,0.05,0.05,0.05,0.05,0.05,0.05,0.05,0.05,0.05,0.05,0.05,0.05,0.05,0.05,0.05,0.05,0.05,0.05,0.05,0.05,0.05,0.05,0.05,0.05,0.05,0.05,0.05,0.05,0.05,0.05,0.05,0.05,0.05,0.05,0.05,0.05,0.05,0.05,0.05,0.05,0.05,0.05,0.05,0.05,0.05,0.05,0.05,0.05,0.05,0.05,0.05,0.05,0.05,0.05,0.05,0.05,0.05,0.05,0.05,0.05,0.05,0.05,0.05,0.05,0.05,0.05,0.05,0.05,0.05,0.05,0.05,0.05,0.05,0.05,0.05,0.05,0.05,0.05,0.05,0.05,0.05,0.05,0.05,0.05,0.05,0.05,0.05,0.05,0.05,0.05,0.05,0.05,0.05,0.05,0.05,0.05,0.05,0.05,0.05,0.05,0.05,0.05,0.05,0.05,0.05,0.05,0.05,0.05,0.05,0.05,0.05,0.05,0.05,0.05,0.05,0.05,0.05,0.05,0.05,0.05,0.05,0.05,0.05,0.05,0.05,0.05,0.05,0.05,0.05,0.05,0.05,0.05,0.05,0.05,0.05,0.05,0.05,0.05,0.05,0.05,0.05,0.05,0.05,0.05,0.05,0.05,0.05,0.05,0.05,0.05,0.05,0.05,0.05,0.05,0.05,0.05,0.05,0.05,0.05,0.05,0.05,0.05,0.05,0.05,0.05,0.05,0.05,0.05,0.05,0.05,0.05,0.05,0.05,0.05,0.05,0.05,0.05,0.05,0.05,0.05,0.05,0.05,0.05,0.05,0.05,0.05,0.05,0.05,0.05,0.05,0.05,0.05,0.05,0.05,0.05,0.05,0.05,0.05,0.05,0.05,0.05,0.05,0.05,0.05,0.05,0.05,0.05,0.05,0.05,0.05,0.05,0.05,0.05,0.05,0.05,0.05,0.05,0.05,0.05,0.05,0.05,0.05,0.05,0.05,0.05,0.05,0.05,0.05,0.05,0.05,0.05,0.05,0.05,0.05,0.05,0.05,0.05,0.05,0.05,0.05,0.05,0.05,0.05,0.05,0.05,0.05,0.05,0.05,0.05,0.05,0.05,0.05,0.05,0.05,0.05,0.05,0.05,0.05,0.05,0.05,0.05,0.05,0.05,0.05,0.05,0.05,0.05,0.05,0.05,0.05,0.05,0.05,0.05,0.05,0.05,0.05,0.05,0.05,0.05,0.05,0.05,0.05,0.05,0.05,0.05,0.05,0.05,0.05,0.05,0.05,0.05,0.05,0.05,0.05,0.05,0.05,0.05,0.05,0.05,0.05,0.05,0.05,0.05,0.05,0.05,0.05,0.05,0.05,0.05,0.05,0.05,0.05,0.05,0.05,0.05,0.05,0.05,0.05,0.05,0.05,0.05,0.05,0.05,0.05,0.05,0.05,0.05,0.05,0.05,0.05,0.05,0.05,0.05,0.05,0.05,0.05,0.05,0.05,0.05,0.05,0.05,0.05,0.05,0.05,0.05,0.05,0.05,0.05,0.05,0.05,0.05,0.05,0.05,0.05,0.05,0.05,0.05,0.05,0.05,0.05,0.05,0.05,0.05,0.05,0.05,0.05,0.05,0.05,0.05,0.05,0.05,0.05,0.05,0.05,0.05,0.05,0.05,0.05,0.05,0.05,0.05,0.05,0.05,0.05,0.05,0.05,0.05,0.05,0.05,0.05,0.05,0.05,0.05,0.05,0.05,0.05,0.05,0.05,0.05,0.05,0.05,0.05,0.05,0.05,0.05,0.05,0.05,0.05,0.05,0.05,0.05,0.05,0.05,0.05,0.05,0.05,0.05,0.05,0.05,0.05,0.05,0.05,0.05,0.05,0.05,0.05,0.05,0.05,0.05,0.05,0.05,0.05,0.05,0.05,0.05,0.05,0.05,0.05,0.05,0.05,0.05,0.05,0.05,0.05,0.05,0.05,0.05,0.05,0.05,0.05,0.05,0.05,0.05,0.05,0.05,0.05,0.05,0.05,0.05,0.05,0.05,0.05,0.05,0.05,0.05,0.05,0.05,0.05,0.05,0.05,0.05,0.05,0.05,0.05,0.05,0.05,0.05,0.05,0.05,0.05,0.05,0.05,0.05,0.05,0.05,0.05,0.05,0.05,0.05,0.05,0.05,0.05,0.05,0.05,0.05,0.05,0.05,0.05,0.05,0.05,0.05,0.05,0.05,0.05,0.05,0.05,0.05,0.05,0.05,0.05,0.05,0.05,0.05,0.05,0.05,0.05,0.05,0.05,0.05,0.05,0.05,0.05,0.05,0.05,0.05,0.05,0.05,0.05,0.05,0.05,0.05,0.05,0.05,0.05,0.05,0.05,0.05,0.05,0.05,0.05,0.05,0.05,0.05,0.05,0.05,0.05,0.05,0.05,0.05,0.05,0.05,0.05,0.05,0.05,0.05,0.05,0.05,0.05,0.05,0.05,0.05,0.05,0.05,0.05,0.05,0.05,0.05,0.05,0.05,0.05,0.05,0.05,0.05,0.05,0.05,0.05,0.05,0.05,0.05,0.05,0.05,0.05,0.05,0.05,0.05,0.05,0.05,0.05,0.05,0.05,0.05,0.05,0.05,0.05,0.05]},{"net":{"name":"pjg","generation":0,"inputs":32,"layers":[40,10,1],"weights":[0.1072557788531655,0.017868598367436206,0.1823436132576391,0.09321655117972927,0.05938186219031116,-0.10883287639491385,0.057553874058168586,0.013108162382995558,0.04859822758901161,-0.19827055514133188,0.06550670711866963,-0.003054960260551187,-0.057581350810996856,-0.11273212079591968,-0.13746865895140062,-0.014592818643877792,0.03728347920101199,0.03640517871229107,0.1571327634160981,0.07701615143329332,0.019954626471386572,-0.08936235993037905,0.04862295781896639,0.08421904672187075,0.06498348776867752,-0.17783383980918785,0.1258104069607841,0.18304305887930916,-0.18438796170743776,-0.17578683129446093,-0.08522747457708882,-0.144248275897375,-0.012714237528521632,-0.11630790794548584,0.07740010987463447,-0.10883828433103854,0.0978765587282654,-0.16682192948041924,-0.002522714810751392,0.15012328835241012,-0.11976958863805615,0.0899056156679171,-0.11398135463250672,-0.1912511089596423,0.17066974037934018,-0.11055746942448828,-0.1664289590954196,0.04378913347935445,-0.07318163657072949,-0.006410421656382781,-0.08697803568080253,-0.1168801295553112,0.12553432829476252,-0.12841502265810548,0.006753228946754841,-0.09856372300342767,0.004736341478752237,0.11474223333384143,0.06373199870477703,-0.125857290842948,-0.06229482300437558,-0.1738248632153832,-0.048772995144664405,-0.09296635602814574,-0.14981946864506313,0.06760748919991133,0.02023859166873221,0.014029916991106534,-0.06744430943171037,-0.13642206403915208,0.040718598368484654,0.0007112120824365742,-0.021085004326095114,-0.15990500834543583,-0.12525800373566626,0.1902745633808932,-0.09926578580994194,0.13541581315513618,0.0897000878546832,-0.08697246767939931,0.19972882165604816,-0.15144244995206702,-0.10849128471417267,0.14749073905955407,-0.021254940597426858,-0.163900769668272,0.0200195270940787,-0.19753829943465934,-0.17449547703271426,-0.1294570809432498,-0.06308892166055921,0.16107142524528756,0.14597193857635288,-0.07775910119374885,0.09773007293381913,-0.1686974099378431,0.11233865867925497,0.06628372548623285,-0.0581417457635193,-0.09611889368790197,-0.07579992566237506,0.11997355256417236,0.06407495340594255,-0.05906895399645187,-0.1582115691978901,-0.045547097486969335,0.14770162829690586,-0.0503044181381517,-0.09489217958330949,0.06823276116160021,-0.12530485258765447,-0.1025798450716148,0.029980731504745173,-0.18564936439053767,-0.14722205477860317,0.03834455914501725,-0.014852818995396339,-0.14452734935036915,0.19641898428909493,0.035623850109622796,0.15691678804932752,-0.12828820361403262,-0.14930158071623306,0.06740043884331859,0.03756060960669522,-0.05645330381402111,0.03189188684197469,-0.003912129479462928,0.05528413252293313,0.18336964459590066,0.11736782140153779,-0.12046079400358743,-0.05358120718810086,0.01444997311171256,0.051643298106080315,-0.12556676723654875,0.011848785212400958,0.18530256126670847,-0.17198403460448386,0.01831490635022162,0.055900393717733365,-0.041370472687577486,-0.09459879301145735,0.17250932615046793,0.11926580121041336,-0.1784499459298619,0.07167722811116323,-0.06877794490546352,0.11218086368115304,-0.06996713745756386,-0.12800961828211577,0.19620831026152635,0.18863654941850955,-0.036970594992234485,-0.07539754522577101,0.1764929695265242,0.12037274581655144,0.14130210421550454,0.19166106838858193,-0.07340495851670809,-0.11258708902385664,0.05458110647327069,-0.19074861687486422,0.01605573543633748,-0.13822528568252368,-0.1403023459052209,-0.1630692917625859,0.1714976244288331,0.007202696611768644,0.04140834582385128,-0.19044389277559617,0.03857941705314136,-0.07762609403833692,0.005136934976821911,0.08776738442518106,-0.03025267873811277,0.1881334388505202,0.04342751783537632,0.014246364440476722,0.07676614000547988,-0.09606053927405381,-0.17784934089759893,0.06595382217610835,0.10253159506711101,-0.1348034258794474,0.06600533762915806,-0.18268506367221857,-0.024861535199810797,0.184444358392779,0.09752408125780782,-0.13012884169106168,0.1064703149675365,0.04638941085699155,0.04819463627386861,-0.14987863833401127,0.08669915380251803,-0.12969251953741515,0.1128442920247893,0.12272392107125202,-0.0011834395020531296,-0.13001839565359508,0.15023783218424952,0.17412610717549998,0.19476365818423264,-0.19296617073222155,-0.10601240321926096,-0.09296596121937171,-0.0983772170385997,-0.1846617317997631,0.060755699252848405,-0.03223377383713713,0.18701568731059837,0.0669025999024025,-0.07353906378955744,0.06288401223762846,-0.1217470268215112,0.06818772285018976,-0.015230277186535524,0.04708186458065544,-0.02506625511151056,0.18710546613139467,-0.1272360937934808,-0.14815416485000688,-0.032089262308950595,0.01958898432878159,0.15968942675753112,0.015165514323198181,-0.06342572105399907,0.11341605601672561,-0.04585032512410292,-0.07430195915221952,0.1728554182606012,-0.17816897869749804,0.01890837834355824,0.049620729336053604,-0.1553536863451962,-0.052100187920859214,0.16057031843141623,-0.032090672278584004,-0.19916560403260297,0.12092622045478846,0.01710821522818859,-0.10108897819138507,-0.13566777173910632,0.04324686784257184,0.0685720491012985,0.17399820668255356,0.16542995820722323,-0.19025983801111154,0.02603499879058485,0.11954271087010149,-0.025383462773288457,-0.07797241558409188,-0.0473305105372738,0.07207200556145371,0.19207311672524846,-0.15383895462861796,-0.004281206029809054,0.13812898261142736,-0.06604242611332153,0.09530960044600656,-0.09600006718305752,0.16500039546011236,-0.014115244544525923,-0.09073377354028614,-0.10509261793572611,-0.03314909569786789,-0.13839166441995882,-0.027185147397607523,0.10084722218962078,-0.08016543935312469,0.05359388263307918,0.1166779656476768,0.12090188518369616,0.06849521027931615,-0.11539944101671705,0.058074341871626634,-0.14539443515475314,0.062410265237470786,0.05341273083811798,0.06715238972416715,-0.012300851762302945,-0.11930857272924121,-0.02718676829443148,-0.11024430314100826,-0.0350520017607181,0.13084147039171468,0.18936935721294174,0.025233971078044787,0.036288165706595876,-0.0664871062283808,-0.03466564796712185,0.07671687858816262,-0.12217612694371437,-0.1323362507670766,-0.036991241047527545,-0.07431788082267873,0.11384911255558211,0.12319485366658967,-0.09735354041573335,0.14055573169409613,0.13674928243304596,0.06365040071385247,-0.1892091047260733,-0.018308026701745556,0.04431547801000252,-0.0035732944247075515,0.19833040815150332,0.17501561406113064,-0.07368577155598599,0.08789954643360165,-0.02703969363973932,0.10693116534918795,-0.1745306144330442,-0.1794832779077213,0.12670873635973384,0.07802493234154567,0.0946362905971303,0.18702807329538018,-0.15398715318805423,-0.024618692138667964,-0.13500417380993313,0.09794158470467851,0.1769237231559152,-0.19865497065918475,-0.0917422434897282,0.0740755518869462,0.10490423012783429,-0.0949805648085209,-0.0029557231711012655,-0.018722568235734455,-0.04810059458763288,-0.027045560718681305,-0.12210911542766922,-0.11548617305238658,0.1806212403519642,-0.16063414918927343,0.056888724334016705,-0.14345542911248466,0.12144385834833854,0.1777459666660815,-0.17351516847565185,0.06656595685706856,0.09506893282608031,-0.19847993427304766,-0.09155588275302265,-0.014166297867872768,-0.19563116109759973,0.08651770418073729,-0.027257306295568107,0.11424274757501646,0.09075575424839799,-0.10351561032522012,0.19637443916350233,-0.03305384317215729,0.0913755023962618,0.06507236827719537,0.0769002264197245,-0.14957918062073183,-0.196326800591309,0.05334012512907221,0.1177163800545511,0.07803181866554187,0.12370146318362302,-0.1928774605815777,-0.13194151517592012,0.18229817667446196,0.1401905072137874,-0.014070255322600117,-0.10351040018220453,-0.04809574297852831,-0.07201432937424945,0.15443572141845596,-0.1396177013209945,0.08130600163347124,0.06987682545219165,-0.1423210985291844,0.16405860794301041,-0.06601812361427131,-0.13863150588729117,0.09690870288520415,0.16028945442996828,-0.1518389570971988,0.14174996074237373,-0.11971140074820959,-0.13431421447045644,-0.1996071291768292,0.07897890075280889,-0.16461765087521202,-0.19703847657981122,0.10988988002385441,-0.01101757301662909,-0.0468406743111866,0.011590510162610007,0.1540175929645048,-0.10524342779819094,-0.13135390470833314,0.07100762021435542,0.11676260459151816,-0.08388556584576926,0.08951040489018747,-0.026418248728521027,-0.10901251204356655,-0.089188047539559,-0.006586025823521802,0.10558896040325677,0.19737779014503581,-0.10180578174046202,0.03290111227297646,0.1270047893038383,0.1258098402544402,0.12811402384171133,0.10945929427931428,-0.07140315664093633,0.08944102181035135,0.10765591554038306,0.08555430380608098,0.09279936724590632,0.00008113638634163478,0.16760052743685128,-0.10821727179901615,-0.1566429715123821,0.10407084889653911,0.16238709665523893,0.14711785229204905,-0.16064566953171752,0.026593891913485657,0.1831205601052947,0.03449048737931423,-0.14308870894821518,-0.056986765195587374,0.06778225089246648,0.13152986258181276,-0.142698890738658,-0.04761182944724976,-0.169906314012861,0.10349172073904223,-0.04672175880411339,-0.04234343678459282,-0.17112731551320728,-0.05320805694305841,0.11842582305116772,0.017330938053272238,-0.055314630965576594,0.1744306668959883,-0.031049400734274535,-0.14087778807974774,0.004423227000278196,-0.1365473956579809,-0.06582698829728786,0.08568095184690988,0.08603669779486556,0.05967939644208603,-0.02135193879647207,-0.08314158345014394,0.15330447452350898,0.029876386334821786,-0.08304056006523108,-0.08494379214902265,0.11558970408685643,0.02458944616665998,-0.04926599743854823,-0.15779404849196155,0.08819264230115093,0.02299117924531907,0.03960585952000112,0.18306087903284762,-0.1854573061230066,-0.18236255809909832,-0.1001809004888675,0.052025489113415424,0.17614948415838666,0.01975001643036345,0.12682479269952884,0.01933707332441284,0.07953514748801815,-0.06471703498101605,-0.18474340779932003,0.1942471331030841,-0.15040908266213446,0.01673323686148276,-0.01687465305849295,0.18526606729088496,0.17936241354928723,0.009858680158867733,-0.03090509907543809,-0.05597626150478882,-0.00533517366156433,-0.09547093466453181,0.15322064691889858,-0.05688653076193548,-0.12203194936879669,0.15148151116696557,-0.03250519146184913,-0.13471843562502717,0.10417926318002702,0.10280586083009541,-0.1382311752188099,-0.12864986436183978,0.15122856701162013,0.03841239623021231,-0.021216962818398966,-0.18398819551692303,-0.04647082796542526,0.04128069618472577,-0.03465554379281244,0.09717108263403018,0.05561425470893522,0.06746471944075516,0.09962118705395423,-0.11089319327453495,0.104735053657455,0.1345587812589023,-0.1834516466489154,0.041405643329826075,0.1861597731335114,0.0581074611137673,-0.04554976507993133,0.12287697965310268,0.19306518285489122,-0.06295979570179835,-0.04109812797302101,0.08870718679609507,-0.010980718292400576,0.04313809194644849,0.0029434864419461415,-0.007643300037097844,0.19572158003757467,-0.17253257171671355,0.11551018714406258,0.07838513447459772,0.1698411746804263,-0.17731417117416257,0.1324015242125966,-0.04302154810919037,-0.1872186316368638,0.1313829765282188,0.11408386625716388,-0.11335415050686581,-0.01405436816374861,-0.003227889984284804,0.14780682706541387,0.04645453669127769,-0.1834628921534007,-0.14576140835973758,0.07682846058779891,-0.03263917108866882,-0.03155709766273099,0.17350616154359733,-0.060429054948601374,-0.13577582253905013,-0.19305479745894943,0.060446622179092746,0.19423848959717133,0.13689267884749923,0.04333089300723447,0.061859413178193545,0.016224370581369024,-0.03307636843389075,0.037987874629770074,0.11461735884785007,-0.18810618696042936,-0.18006969652542404,0.04931047350605028,-0.1686506019218367,0.04048810349093451,0.09708662998978512,-0.1458590974235463,-0.06853195267673959,-0.15077050160311362,-0.08564243268772725,0.1629465458860775,-0.10772311194485616,0.1539692971489373,-0.05477120774533936,0.129571505744197,-0.18530738214481668,0.08604271050613416,0.051631694936830175,0.1379890826139682,0.03653587963873087,0.1844036924119693,-0.0364659767948064,0.1342478892349241,-0.16799689955552355,0.07941591502435558,-0.15648099231577905,0.07651997095743795,0.023601014209045618,0.07555935675661851,-0.018962225949297112,-0.19241644006941724,-0.1686407462219738,-0.1313386141325747,-0.03808320308967161,-0.08953289782820716,0.08088338725602595,-0.11509672344548641,-0.025547842271687132,-0.14254539064877383,0.1530019600938083,0.19205781217035983,0.04574349043507367,0.11492737198849978,0.05646614747269574,0.08062671985757663,-0.06580532745504356,0.11095786718119688,-0.026749230176174976,-0.03765331245630027,0.17543129795315915,-0.008181146273561979,0.022843409349933008,0.13640399632360983,0.12564375581828674,0.042698317107459,0.07943906670963763,0.17303651705925532,-0.1824098424689031,0.03885185665184032,0.18669373484384394,-0.042665336450512015,-0.09370060716606039,0.021629985688499165,-0.07676408160382042,-0.18806401404229894,0.025050060722769357,0.151176236461723,0.1053164339971499,-0.07248094338350333,-0.08207879783308458,-0.08053396519839967,0.13889126180335776,-0.16010873074327936,0.12293892200834772,0.16081224414704354,-0.10492534253556221,-0.14722080305998403,0.02092788526388878,-0.1741368420082101,0.05330225228462043,-0.09031052801020244,0.13433323834894378,-0.058047495581843744,0.08573256619164338,0.12659598533216948,0.03423228006849452,-0.19445332151297168,-0.09848237808566883,-0.10809004425043876,-0.08441051471731918,-0.03260864763726906,-0.08274701054768929,-0.19201988481164944,-0.09612140424245715,0.16770838130431304,-0.12753137980953033,0.07309549862449727,0.1174775741131831,0.17141363776475532,-0.14788007591803032,-0.07832691647222312,0.08537205944799925,-0.10659452663221423,-0.18803975381669719,-0.09847047392205939,-0.09569115534187533,-0.0016866451472907218,-0.04979971124953336,0.06401189383814854,0.16091614629513568,-0.19661859047987332,0.11358362071294703,-0.0315866169845635,0.17390576828455018,0.12769362130016199,0.06912563197001403,-0.189849830421805,-0.033219253830960055,0.026876258466685787,0.05647136562767263,0.05258195785590597,0.10621045948556951,0.09983119326271889,0.056453029855537185,-0.19632238864463736,0.08021603025045626,0.06738825331899106,0.0677918290875465,-0.08966492286514322,-0.05526253257416905,0.16766252246551122,-0.18157798123574428,-0.06340619476075152,0.0315104381263204,0.02543260213546389,-0.11500891707202854,0.13402859939196,-0.029763671883681397,0.17525974681951173,0.1322017804273551,0.06928455995437577,-0.061025518133972334,0.13357983266160806,-0.18652079009041822,-0.18377619539414233,-0.019339731081648992,0.1110837815174387,0.03211928010469381,0.10874545984073042,0.15857375644420335,0.15751136618990674,-0.17082538248948786,0.15570068764730732,0.030245560843418506,-0.17708389789930756,0.05442949517457896,0.010514076570594721,0.0942353531955093,0.0494100401952422,0.17646994177751907,0.17805823231822798,-0.14787134521677495,-0.14240312791294382,-0.08070562894473615,-0.044565818458814827,-0.18376096984726686,0.01592287480467877,-0.10602604217081374,0.19617339588670335,0.16444512169650044,0.12281378994992187,-0.07298429181306318,0.08776369839394221,-0.14006229355204136,-0.14066349350688495,0.12135890984132136,-0.12159925205662248,0.1218572233768711,0.03373281551070262,-0.1132233888125243,0.17545038803230473,0.08313987012184398,-0.124387671594672,-0.1494202783220036,-0.1006225020387208,-0.05701516787060987,-0.08190149375163697,0.18043345872856387,0.0775013941274601,-0.166954214913147,-0.07412395697303673,0.01980780531071691,0.02256600006044468,-0.08738397158487343,-0.1407220416569123,-0.019534677525832767,0.013414567355781337,-0.13956609418989985,0.164252580545035,-0.13845019771947875,0.14587221501908026,0.04512521752533322,-0.05157460583959575,-0.18651562729032076,0.015158551917543311,-0.034823231279655975,0.14337311904467925,-0.18906241851758027,-0.19664583822621254,0.0773290970072229,0.1393987853890039,0.01802515457641335,0.041721619675558846,0.041899087264124446,0.05906451450297778,0.05198553173745141,-0.19101123785889032,-0.09149189555004478,0.08931097865123111,0.03972584702247267,0.08012450095525903,-0.18907384037373012,-0.11446459236906144,0.1614908796776094,0.0007912560478517128,-0.04871911871385351,-0.1867659136359798,0.10030163090616168,0.10442691046920488,-0.15998348678082783,0.006031291295423624,0.03405075362737078,0.00987823312512609,0.044280126654671736,0.14092587236513793,0.11967818941893865,0.036165690710325105,-0.1711785655823193,0.007600403119054189,0.003866485662313679,-0.16466788943439647,-0.14463421263879167,-0.19762553191475318,0.07205584290757489,-0.017533356813023815,0.07204568176634663,0.16533781048800755,-0.04526523858323489,0.16600219624435114,0.16822721409875757,0.18503899424930836,-0.19843272626869812,-0.125369603804541,-0.1681280980539368,0.04899714682049233,0.0853192444226038,0.07556393623632623,0.07192114158632795,-0.1791846239870175,-0.08889852085892738,0.07782192146899874,-0.15761084892585409,0.16841160080477335,0.13901572973821102,-0.146467777817107,-0.19312672636256467,0.14712948651069618,-0.19722915374861527,-0.008030431496135387,0.07551750155200515,-0.1571168508430729,0.08458657805444886,0.18874069854519943,0.053595586986062926,-0.13180525579703906,0.10125838688579542,0.09415981008822694,0.06325863989877112,-0.13823455800828893,0.18225057038381687,0.07599079078533455,-0.113748815059816,-0.11077615049790497,0.09741824575470981,0.0411115700470579,0.149379586344692,0.11050517622854861,-0.11703923002806321,0.08759935176859762,-0.16642043134932472,0.1490618918177929,0.05518877083205842,0.148817521899813,0.02727522497923554,0.19842127276931187,0.16003382390068827,-0.0705568652124482,0.15500089368944536,0.046787842378622185,0.15443456695961838,0.04885382063456811,-0.14312337153519758,0.1380386060998608,0.18382053554215155,-0.06908342871729786,-0.08436808950717688,0.13077377276025076,-0.03661771097678965,0.039648920717620856,-0.03483368898434866,0.0469034878188718,0.12255092745087487,-0.13077142310479442,0.06823836742881612,-0.1373233467348004,0.09192334290429588,0.036934567507240695,-0.05049836880522776,0.11560597455937505,0.04534592839739818,0.0053148194445096775,-0.13757938266404368,0.16836039113423168,-0.13163886518233597,0.010772098394880386,-0.03137951962544755,-0.10226622456474327,0.10916116549245114,-0.1447315767297691,-0.07412702030510818,0.04546818412605652,-0.028218191787632657,0.046259328247385156,0.08280402507334372,0.03693441129798228,0.16127890430668668,-0.12074536044559069,-0.03476783108111842,0.05584611757315533,0.0733702847667968,0.029510384736802647,0.07868678835953558,0.04267095251840694,-0.03203595831578171,-0.13601890341170064,0.02984065126267224,0.0472353528842448,0.1745521967450105,-0.1373807740178684,-0.04758793596521435,0.07551464919000878,0.11255257373846383,0.0941168819136613,0.10192159210450419,0.12393573268152125,0.19337611005889493,0.09217660695808794,-0.0050368670414848715,0.08326604132514748,0.007930293050335713,0.08201644497788002,-0.1256768645719683,-0.005581621917903595,-0.1345970403118006,0.1931340542018935,-0.14305644218019511,-0.16188584425379773,0.10180015511855223,-0.012478941445125347,-0.17787772583741532,0.19549391478536265,0.009019158583354253,0.1499446703461927,0.08043307834984531,-0.017727465895976735,0.05235502242291218,0.008713975680828046,0.0001602955222410607,0.17962217172369288,-0.018738554616851755,0.12447730477339308,-0.15918537942566158,0.16409765420313943,0.035694236636158644,-0.14778497839055904,0.1281195831117981,0.00891320502986126,0.0694241509111288,0.1533661268634668,-0.05584048888791432,-0.12676398442546405,0.18056423684063605,-0.08577010253622008,0.16264053927994787,-0.08923721761719615,0.16647230470470203,-0.11526233659628682,0.11085768235151322,0.15786276268901095,-0.10996684536382331,-0.03396970204394964,0.08364309786507923,-0.12292986240266064,0.15882036117717657,0.11189098719794821,0.014716943226950996,-0.18404000908939047,0.15225636403498782,-0.14237190193457458,0.06817242767527676,0.08154531632368023,0.0019059476744315573,-0.18161596082193354,-0.09224382377374347,-0.19419511323359606,-0.12808516883119758,0.09129504222826179,0.015224510027772725,-0.1411463695628065,0.11164681527340792,0.024914618800407518,-0.19894989576851865,0.13420707485217154,-0.1616176221806792,-0.014414895382080684,-0.16910340831310258,0.0447532165127682,-0.10907803972757524,-0.15069362053549568,-0.050154043297390594,-0.0680536709531693,-0.0841823455795705,-0.1077486445370603,0.07421869606051795,-0.09533930596782546,0.0072764115729855305,0.02151285625839386,0.08791445217749383,-0.00005820795112887467,0.14882169226984843,0.18360802331772658,0.006350883594287288,-0.19891026297090103,0.08124657708485616,0.1296558562138323,-0.11533506677219325,-0.1640490554570934,-0.19461321190523906,0.0863250559776726,-0.09430236967107,0.19780702777411213,-0.19210311319891915,-0.1827940969567144,0.1323657443223798,-0.15845132970501885,-0.13754611427898747,0.10733470802555606,-0.17693672523957843,-0.06356064730697383,-0.029716910902367555,-0.08729799026036043,0.04918206848949894,0.016830366406027863,0.10926827496298464,0.13090889992001137,-0.0831133669415948,-0.14951583272070829,0.13967321885710898,-0.09108029666947522,-0.13123756929767583,0.19033968754091551,-0.13381280907253368,0.1480397725855398,-0.1919152763103334,0.12126136236571511,0.07899453532444711,0.10568865476031991,-0.14472030060474161,-0.039927409828502736,-0.14175704997327065,0.032513066110009176,0.048843773974471205,-0.062288983970234496,-0.10268139966588974,0.12149031975638203,-0.0864814886481721,0.09694882545917649,-0.026433200808550966,-0.08032452509578746,-0.08071782890060888,0.12112282761686982,-0.1988864657660014,0.08292414995421193,-0.1664049327109118,0.19255744734451036,-0.15656094747696025,0.10484410001102268,-0.05971467474259687,0.08597031493326418,0.18510690196027363,-0.015090455274007292,0.16376654672184404,-0.03811736237075758,-0.17178880621576226,0.006332347094945234,0.07705827491741868,0.1290703728378471,0.13064301914375048,-0.12912210591981577,-0.14026504289747133,-0.167518991290176,0.11422343177913774,-0.05176432075865006,0.1713044394553377,0.10309865223797648,0.12782239869072765,0.029866195313326738,-0.17952068750139133,-0.14584037127215232,0.007272227683084165,0.18451162876502186,-0.16742718696361197,0.15342364329719382,-0.08600121771623614,-0.17679211420521243,-0.16824806584194932,-0.059465967961818494,0.1475364960376389,-0.09972354030437086,0.16379377666352596,-0.19248358380165637,-0.14982324615119147,-0.11545753129109215,-0.04272840272101827,-0.1829318835747211,-0.11570695122230248,-0.16593355334803217,-0.012069065780513366,0.10128572831852517,0.04345403376202003,0.17878301915973188,-0.14017270506709745,-0.05980727419331863,0.07918054851848949,-0.11490678089700497,0.12491690128480376,-0.17107534799383198,-0.09011771173531208,-0.032046067774607334,-0.026057850851636755,0.0906038161045033,-0.09351203096393981,-0.10191370190845782,-0.16334832057639517,0.19205106857318166,-0.08626882334545272,0.0008050536065113967,0.11229419998452722,0.10078232434871354,0.024939657870332865,-0.14252055068538622,-0.16215750220636896,0.11176834022149429,-0.10222335436568325,0.05149170643397838,0.12962147231646365,0.07520335952294943,-0.18355453455432516,0.10515553838035585,0.09546592027437584,-0.06498197759726373,0.15697818082354342,0.10734140699250239,-0.13997874135644495,-0.1576160442117372,0.026280244736750558,0.03836937313888972,0.04422719852416987,0.16543912536132716,-0.058171740282903533,0.03148036729637704,-0.10705771639817199,0.14173681548011502,0.07741996352673775,0.13067906957009123,0.18967330964090862,-0.03182200167485805,0.15918867423272937,0.17471973329185086,0.17245563947092463,0.0013551476085550962,0.015901226675715557,0.024044347845615988,-0.05555618531106196,0.14807720442063393,-0.16202904675720636,0.03686906417211383,0.06896444036896154,0.04933779913125802,-0.0038390013885918894,-0.1184950429588258,0.16791022472647416,0.016953579620484938,0.15752041442306125,-0.17365791819585077,0.12303582331336854,0.14220752816687965,-0.01261359179817606,0.09604608896860134,0.05896346255441587,-0.1613160610160197,0.06489181909334513,0.15083667371606568,0.04316100228002018,-0.019907139180404793,0.10412631825997654,-0.0023235411576391363,-0.14805690700212334,0.15431126309513282,-0.19287911514780368,0.03790304624603538,-0.08403535653247732,-0.05485274520385311,-0.16833782148256723,0.1722244573044009,0.1820343999149836,-0.08406589915144719,0.007257329317114619,0.10181193645046172,-0.08862819619617257,0.03770499793909893,-0.13169579714293533,0.11937654017355304,-0.17353515787990795,-0.08569414211749385,-0.019036571290779486,0.1543396398787526,-0.10263673377214096,-0.18363219072261067,0.0622269429070621,-0.1632650982297406,-0.03275213924326356,0.1493850058063056,0.16352750588765785,0.14479360200459024,0.14631905139417695,0.10866679037418753,-0.17377457452833936,-0.13486027774404546,0.14965853219667496,-0.023611234387856866,0.1925878682015874,0.02277822591252132,-0.06484774878697933,0.05648057400907991,-0.03306595821878053,-0.055981894797726195,-0.01805251789061807,0.047111116069620984,-0.03641564792108659,-0.049314041640087514,0.1871840952065772,-0.18747436409456092,-0.042110175868691424,-0.0393180348222458,0.137791054687953,0.03571449073689542,0.03591913432465796,-0.13046249511640573,-0.03758392975461966,0.05261001192885589,0.1301527055515141,0.11866752439824174,-0.002433233184916006,0.01479483786137284,-0.04032609142147922,-0.08518101456828715,-0.14595956544006938,0.10946076770794078,-0.1247292599234454,0.1974391953076462,0.1518121807549644,-0.008090191027375238,-0.16754543497263966,-0.007586093768654406,0.028022288914778315,-0.17292523466045573,-0.01968469846006632,0.16224172224804106,-0.01845021834441446,0.10579287117716801,-0.05520568281698032,0.11744958538673772,0.14883667393643263,-0.11911148285773142,0.1690976144259439,-0.08689362562798629,0.02632728601059134,-0.1337314630253421,-0.109971737269007,-0.02562530107183561,-0.14275067101396532,0.15261195498888708,0.09270975559318784,0.07876653235241282,0.19759001569594387,-0.005891361804349321,-0.12349463948556316,0.18705805455961155,-0.08370773546920258,0.16925965874186827,-0.17005287612261688,0.04320775957193837,-0.11913052884901082,-0.17723647822328764,-0.041928322524210776,-0.053420914997456326,-0.1324006997699411,0.1756510508991938,-0.13699069256340585,0.0769822317156984,0.11938306492539036,-0.09116400619608767,-0.190400621314941,-0.11485374160325179,-0.12299823740213522,0.1406797344223854,-0.14639431070410264,-0.14021468795439285,0.05260232196280701,0.14363829419350388,0.03230857530924486,0.011801327914501586,-0.18420147425745262,0.08024927355410527,0.17720073449316898,-0.1815236716371926,-0.008204293248098071,0.07619618208783913,-0.16523500154456727,0.1546474583485115,0.1275562832861315,0.05051858780156088,0.01818766488413609,-0.1717389475776444,-0.13192783852197687,0.058726912005996834,0.0949072932307759,-0.15442032739263167,0.11393982944858988,-0.027797711647993217,0.02196093365800636,0.12510119381727086,-0.11593821424612019,0.15780272504939125,0.1997977821014449,-0.10076135906567824,0.010368741861875364,0.0832447551941084,0.025702745391186083,0.1755041996769941,0.09900769581791868,-0.12251703765279771,-0.1489926490125713,-0.14499014876265248,-0.014779402854537521,0.166372668699521,0.1999519055772142,0.051900182051190735,0.03635209976678039,-0.17928260653938094,-0.1407563805728853,0.018410427007182928,-0.04822493512137793,0.1813280639982211,-0.1992120463988325,-0.16322846952458417,-0.13345035358886131,0.012616763459585373,-0.18300868713134513,0.16502778144976427,-0.0958494361653398,-0.03830171594540416,-0.15543240433233807,0.17187965325551663,-0.026904553871477527,0.037872462156839065,-0.05843068726808545,0.010028136670606008,0.15337191798730582,-0.05397919542790364,0.10650284205715721,0.13632365733094648,0.12089766828139092,0.17291383534513266,0.019175848306783733,-0.19045804050648157,0.010590984784268537,-0.09256521386688217,-0.04481892430537418,-0.052404109810972266,-0.07023704384155255,0.07505186748619891,0.05002838429133061,-0.13437661045214322,0.048229603311250896,0.15647317525474386,0.040869659337681774,-0.07801269588609294,0.02948404678951172,-0.09520904424402499,0.0694464917732538,0.1166561197099556,0.05815428568539688,0.17456982138591332,-0.12984893798433408,-0.18904920735056444,-0.1793088363761883,-0.09125712818619079,0.051314444922250124,-0.10557223090414586,0.025930120819595448,0.020672566034612844,-0.06027153640786728,-0.05112855228321145,0.03215396753375249,-0.06908971814322973,-0.12882604993570662,-0.016278836909862537,-0.17163160848572476,-0.06484536197054008,-0.17393201199118843,-0.07513980693730193,0.10330098222118578,0.09575377418498049,0.13570116340261373,0.03632211623352416,0.016450681421804086,-0.04807679718118604,0.1035145360074039,-0.057113315079121485,0.07671910083498473,0.13011261097778626,-0.05882853418172748,0.1440459410049419,-0.1299427191264143,-0.011012242718486054,-0.05420007530330981,-0.1718554392928251,0.175714051578105,-0.04077350952424269,0.04553756876265619,0.029111166742693317,-0.058851083029993756,0.13388729640589692,0.061758525741643644,-0.16953223323693126,0.05339484640080272,0.012009630908187324,0.0476959100036419,0.1110770639490683,-0.19356277630567284,-0.08409421273531291,0.1420509104275105,-0.16654777443688903,0.13309965630625403,-0.14441080618123606,-0.1530597253306114,0.09241826659771224,0.0449946034501581,0.16205896145660054,0.02692293716202024,0.07663601776621565,0.06654155452360289,-0.0841382351260795,-0.011893148566023276,0.19461754836055772,0.003418351498194472,-0.17416408393257773,-0.09651361396274707,0.04549645477512643,0.034433283130752834,0.050656445973549846,-0.07933313933311821,-0.15139003055104194,0.19820898417158717,0.10913949685624447,-0.05331418982025182,-0.14515663476072416,0.06138848544893982,-0.19415514321465316,0.05734591489281443,0.09121580672112539,0.15151305164083767,0.18737305057891235,0.09368823411149457,0.12017085570132374,-0.11949189815540136,0.0041723485609474475,-0.16371275669298618,-0.11163002604437758,0.18196934978625573,0.07011706235702608,-0.09477104620110817,-0.13150745549725498,-0.14510944864298558,0.09472273372506945,-0.12767855190363264,0.08048673296926029,-0.04681210522406881,-0.16009780019429362,0.16218364766084664,0.13294607015570215,-0.09220092480237314,-0.17011296697248968,0.17789180986918973,0.18283372371984435,-0.012777783901538525,-0.004519033470665346,-0.13575376796654232,-0.17760995136210625,0.0055161306268249055,-0.13425175402674522,-0.09325447422267788,-0.1940552984300113,-0.0006339922512133833,-0.16778862908802727,0.11487680978629239,-0.08026203213886784,-0.03066149181350522,0.18475794028424952,0.09244428304121233,-0.1590406255547297,0.1752472551918139,-0.1352910631395653,-0.021600166815912758,-0.021454278938343757,-0.16481737663436036,-0.1711375015377742,0.05459330790624206,-0.010167227320066724,-0.03053008467305629,-0.06670688385678183,0.1369680372208868,0.08204361021357282,-0.07442296977066462,-0.0000826069746572844,0.055400874622897334,-0.19069386246678752,-0.06443066890085439,-0.16835273365275807,0.13395688966403724,0.07917015316285625,-0.07152184449829521,0.06939865592345962,-0.04794055837951766,0.16983924536706746,-0.1625912856177351,0.09009381587091048,-0.0057586755531842115,-0.13380446738620977,-0.15292452421420571,-0.11950177997828329,-0.13433203554954992,-0.10502323409660762,0.051506600943071856,-0.10102392967793801,0.1980082692746043,-0.029606500840816175,-0.13921271761372742,0.18036144832469952,0.06959526408690542,0.06924648055969473,-0.005148959823919608,-0.03147937147937227,-0.1803589291870763,-0.17316487014246595,0.010810690249772936,0.02552085063838963,0.029661250910314962,-0.13319191179529605,-0.12086818020412596,0.07546122822586243,0.1940010783772092,-0.14339826547423673,-0.19455023493206458,0.015425237752849597,-0.1502245624601793,0.07144323508071293,0.030169493178863138,0.11869087014486723,0.06104953871803548,0.07219165531128502,-0.16563872753431852,0.07046437688886309,-0.14333302441432513,0.1195503365014452,-0.004880496085829744,-0.11577441589571294,0.12928703347689519,-0.18169365284349379,0.19873224016703867,0.08056250941600462,-0.05268635396428589,0.14263201775038453,0.14857870826411468,-0.07166493712166355,0.05662885476712276,-0.06375452854083904,0.0882483146084384,0.1786601597670323,0.018731487136318503,-0.08101519540860772,-0.1959480871816095,0.06679219679115656,0.12890174283525235,-0.15175478940347029,0.026908939639977175,-0.1318699053935548,-0.17717219810080068,-0.06575501245910048,-0.06570195881222327,0.05978372811451227,-0.19115529244811774,-0.1442040681154131,0.06635158293329069,-0.02321930064250885,0.008916014223421698,-0.17341976657776598,0.11276122864559729,0.10222721551885988,0.1536955317681355,-0.0686826483851955,-0.09492731291597378,0.00034716558655426,0.05798851961393908,0.12444986896732796,0.1360331888707692,0.09153941315575348,0.10972579338355087,-0.08016370830779335,0.13343502877776486,-0.193295973983063,0.13824420149183825,-0.030736175103958263,0.08998160617997364,-0.0098728812439762,-0.09993312355186888,-0.12857102973909865,0.02412290029198011,0.07229519123370293,0.19042076336484925,0.059870002007948286,-0.12997372385678618,0.08313256496637161,-0.1982711262545955,0.01921171130843602,0.10308658120417741,-0.030677502986521776,-0.15443426658361137,0.18897192655540646,0.1437719452862405,0.11046308917059067,0.19294261369679788,-0.020145115475678932,-0.19797341652695657,-0.1478431069828787,0.08201954743376094,0.03874140043360849,0.15293540010864265,-0.019217298441233155,-0.03169341201096562,0.0010664270569486212,0.10560785095394526,0.16343372680760693,0.19519585815926083,0.05188215770780735,0.1034931957523475,0.1247559392477306,-0.05267637601512548,-0.03917474905297019,-0.14380526033713414,0.033971586944735954,0.011943397286452578,-0.007951764587738192,-0.11050587817214393,0.06609444206356246,-0.16579096188154108,0.18453623237006583,-0.05536028157289047,-0.17200814571563747,0.06158375331591903,-0.09010534568899926,-0.028325579149845848,0.02433698849730037,0.13895512719347247,0.032812965379750925,0.03508753098640388,-0.05576332225822664,0.09867784774106925,-0.17838654839613338,-0.17021848522309987,0.18122214919504293,-0.1806656873466551,-0.018121121122650408,0.047984261540986506,0.03374946104250798,-0.07744382521805156,0.04258276237430633,-0.0002528348983960593,-0.037525772409649966,-0.0034198094370976873,-0.07482026626163832,-0.02608832072044684,0.0025661347351696173,0.09707247331530777,0.13906054040091925,0.02380089348029593,0.0865250529054154,-0.02128821892866356,0.06439020380277183,0.12025642835300848,-0.15477054245914446,0.04531857017728455,0.07359915653407512,-0.009630379863155458,-0.18082876903264378,-0.19939258285988615,0.13016538012946893],"biases":[-0.17954831752328096,0.19613252354225613,-0.16006393858701717,0.06192900010738944,-0.0887980474112692,-0.1802240408714881,-0.036244242767225904,-0.11842287475009511,-0.1380950221045783,-0.19674892094937022,-0.07732789906976692,0.037586728594132535,0.017042654080804104,0.060971103215687106,0.1993689452220015,0.08478383698951963,-0.02246741200454841,0.13522243822713015,-0.10179826732699881,-0.10274654209064638,-0.14149817720195115,-0.16217088634507412,0.1259398426605719,0.19740930627738695,-0.07137191358776232,0.02507129834129662,0.06467821211354974,0.02125013861135966,-0.03548334581499413,0.047245048533038236,-0.0824692852223719,0.07162849769478585,-0.09221669992774775,-0.04819805472224026,-0.06981756863167368,-0.05714533755419213,-0.1467923562611123,-0.13817799707170908,-0.16950263565390175,0.14349331553217226,-0.11161337182828097,0.19195614338303707,0.1030683047585989,-0.034423288175715966,0.04363671315624301,-0.11276599061569535,-0.1655376564311083,-0.09066889805036782,-0.0009072220666324904,0.03878086251376231,0.08874718536872689],"K":2},"score":4,"won":4,"lose":0,"draw":4,"sigma":[0.05,0.05,0.05,0.05,0.05,0.05,0.05,0.05,0.05,0.05,0.05,0.05,0.05,0.05,0.05,0.05,0.05,0.05,0.05,0.05,0.05,0.05,0.05,0.05,0.05,0.05,0.05,0.05,0.05,0.05,0.05,0.05,0.05,0.05,0.05,0.05,0.05,0.05,0.05,0.05,0.05,0.05,0.05,0.05,0.05,0.05,0.05,0.05,0.05,0.05,0.05,0.05,0.05,0.05,0.05,0.05,0.05,0.05,0.05,0.05,0.05,0.05,0.05,0.05,0.05,0.05,0.05,0.05,0.05,0.05,0.05,0.05,0.05,0.05,0.05,0.05,0.05,0.05,0.05,0.05,0.05,0.05,0.05,0.05,0.05,0.05,0.05,0.05,0.05,0.05,0.05,0.05,0.05,0.05,0.05,0.05,0.05,0.05,0.05,0.05,0.05,0.05,0.05,0.05,0.05,0.05,0.05,0.05,0.05,0.05,0.05,0.05,0.05,0.05,0.05,0.05,0.05,0.05,0.05,0.05,0.05,0.05,0.05,0.05,0.05,0.05,0.05,0.05,0.05,0.05,0.05,0.05,0.05,0.05,0.05,0.05,0.05,0.05,0.05,0.05,0.05,0.05,0.05,0.05,0.05,0.05,0.05,0.05,0.05,0.05,0.05,0.05,0.05,0.05,0.05,0.05,0.05,0.05,0.05,0.05,0.05,0.05,0.05,0.05,0.05,0.05,0.05,0.05,0.05,0.05,0.05,0.05,0.05,0.05,0.05,0.05,0.05,0.05,0.05,0.05,0.05,0.05,0.05,0.05,0.05,0.05,0.05,0.05,0.05,0.05,0.05,0.05,0.05,0.05,0.05,0.05,0.05,0.05,0.05,0.05,0.05,0.05,0.05,0.05,0.05,0.05,0.05,0.05,0.05,0.05,0.05,0.05,0.05,0.05,0.05,0.05,0.05,0.05,0.05,0.05,0.05,0.05,0.05,0.05,0.05,0.05,0.05,0.05,0.05,0.05,0.05,0.05,0.05,0.05,0.05,0.05,0.05,0.05,0.05,0.05,0.05,0.05,0.05,0.05,0.05,0.05,0.05,0.05,0.05,0.05,0.05,0.05,0.05,0.05,0.05,0.05,0.05,0.05,0.05,0.05,0.05,0.05,0.05,0.05,0.05,0.05,0.05,0.05,0.05,0.05,0.05,0.05,0.05,0.05,0.05,0.05,0.05,0.05,0.05,0.05,0.05,0.05,0.05,0.05,0.05,0.05,0.05,0.05,0.05,0.05,0.05,0.05,0.05,0.05,0.05,0.05,0.05,0.05,0.05,0.05,0.05,0.05,0.05,0.05,0.05,0.05,0.05,0.05,0.05,0.05,0.05,0.05,0.05,0.05,0.05,0.05,0.05,0.05,0.05,0.05,0.05,0.05,0.05,0.05,0.05,0.05,0.05,0.05,0.05,0.05,0.05,0.05,0.05,0.05,0.05,0.05,0.05,0.05,0.05,0.05,0.05,0.05,0.05,0.05,0.05,0.05,0.05,0.05,0.05,0.05,0.05,0.05,0.05,0.05,0.05,0.05,0.05,0.05,0.05,0.05,0.05,0.05,0.05,0.05,0.05,0.05,0.05,0.05,0.05,0.05,0.05,0.05,0.05,0.05,0.05,0.05,0.05,0.05,0.05,0.05,0.05,0.05,0.05,0.05,0.05,0.05,0.05,0.05,0.05,0.05,0.05,0.05,0.05,0.05,0.05,0.05,0.05,0.05,0.05,0.05,0.05,0.05,0.05,0.05,0.05,0.05,0.05,0.05,0.05,0.05,0.05,0.05,0.05,0.05,0.05,0.05,0.05,0.05,0.05,0.05,0.05,0.05,0.05,0.05,0.05,0.05,0.05,0.05,0.05,0.05,0.05,0.05,0.05,0.05,0.05,0.05,0.05,0.05,0.05,0.05,0.05,0.05,0.05,0.05,0.05,0.05,0.05,0.05,0.05,0.05,0.05,0.05,0.05,0.05,0.05,0.05,0.05,0.05,0.05,0.05,0.05,0.05,0.05,0.05,0.05,0.05,0.05,0.05,0.05,0.05,0.05,0.05,0.05,0.05,0.05,0.05,0.05,0.05,0.05,0.05,0.05,0.05,0.05,0.05,0.05,0.05,0.05,0.05,0.05,0.05,0.05,0.05,0.05,0.05,0.05,0.05,0.05,0.05,0.05,0.05,0.05,0.05,0.05,0.05,0.05,0.05,0.05,0.05,0.05,0.05,0.05,0.05,0.05,0.05,0.05,0.05,0.05,0.05,0.05,0.05,0.05,0.05,0.05,0.05,0.05,0.05,0.05,0.05,0.05,0.05,0.05,0.05,0.05,0.05,0.05,0.05,0.05,0.05,0.05,0.05,0.05,0.05,0.05,0.05,0.05,0.05,0.05,0.05,0.05,0.05,0.05,0.05,0.05,0.05,0.05,0.05,0.05,0.05,0.05,0.05,0.05,0.05,0.05,0.05,0.05,0.05,0.05,0.05,0.05,0.05,0.05,0.05,0.05,0.05,0.05,0.05,0.05,0.05,0.05,0.05,0.05,0.05,0.05,0.05,0.05,0.05,0.05,0.05,0.05,0.05,0.05,0.05,0.05,0.05,0.05,0.05,0.05,0.05,0.05,0.05,0.05,0.05,0.05,0.05,0.05,0.05,0.05,0.05,0.05,0.05,0.05,0.05,0.05,0.05,0.05,0.05,0.05,0.05,0.05,0.05,0.05,0.05,0.05,0.05,0.05,0.05,0.05,0.05,0.05,0.05,0.05,0.05,0.05,0.05,0.05,0.05,0.05,0.05,0.05,0.05,0.05,0.05,0.05,0.05,0.05,0.05,0.05,0.05,0.05,0.05,0.05,0.05,0.05,0.05,0.05,0.05,0.05,0.05,0.05,0.05,0.05,0.05,0.05,0.05,0.05,0.05,0.05,0.05,0.05,0.05,0.05,0.05,0.05,0.05,0.05,0.05,0.05,0.05,0.05,0.05,0.05,0.05,0.05,0.05,0.05,0.05,0.05,0.05,0.05,0.05,0.05,0.05,0.05,0.05,0.05,0.05,0.05,0.05,0.05,0.05,0.05,0.05,0.05,0.05,0.05,0.05,0.05,0.05,0.05,0.05,0.05,0.05,0.05,0.05,0.05,0.05,0.05,0.05,0.05,0.05,0.05,0.05,0.05,0.05,0.05,0.05,0.05,0.05,0.05,0.05,0.05,0.05,0.05,0.05,0.05,0.05,0.05,0.05,0.05,0.05,0.05,0.05,0.05,0.05,0.05,0.05,0.05,0.05,0.05,0.05,0.05,0.05,0.05,0.05,0.05,0.05,0.05,0.05,0.05,0.05,0.05,0.05,0.05,0.05,0.05,0.05,0.05,0.05,0.05,0.05,0.05,0.05,0.05,0.05,0.05,0.05,0.05,0.05,0.05,0.05,0.05,0.05,0.05,0.05,0.05,0.05,0.05,0.05,0.05,0.05,0.05,0.05,0.05,0.05,0.05,0.05,0.05,0.05,0.05,0.05,0.05,0.05,0.05,0.05,0.05,0.05,0.05,0.05,0.05,0.05,0.05,0.05,0.05,0.05,0.05,0.05,0.05,0.05,0.05,0.05,0.05,0.05,0.05,0.05,0.05,0.05,0.05,0.05,0.05,0.05,0.05,0.05,0.05,0.05,0.05,0.05,0.05,0.05,0.05,0.05,0.05,0.05,0.05,0.05,0.05,0.05,0.05,0.05,0.05,0.05,0.05,0.05,0.05,0.05,0.05,0.05,0.05,0.05,0.05,0.05,0.05,0.05,0.05,0.05,0.05,0.05,0.05,0.05,0.05,0.05,0.05,0.05,0.05,0.05,0.05,0.05,0.05,0.05,0.05,0.05,0.05,0.05,0.05,0.05,0.05,0.05,0.05,0.05,0.05,0.05,0.05,0.05,0.05,0.05,0.05,0.05,0.05,0.05,0.05,0.05,0.05,0.05,0.05,0.05,0.05,0.05,0.05,0.05,0.05,0.05,0.05,0.05,0.05,0.05,0.05,0.05,0.05,0.05,0.05,0.05,0.05,0.05,0.05,0.05,0.05,0.05,0.05,0.05,0.05,0.05,0.05,0.05,0.05,0.05,0.05,0.05,0.05,0.05,0.05,0.05,0.05,0.05,0.05,0.05,0.05,0.05,0.05,0.05,0.05,0.05,0.05,0.05,0.05,0.05,0.05,0.05,0.05,0.05,0.05,0.05,0.05,0.05,0.05,0.05,0.05,0.05,0.05,0.05,0.05,0.05,0.05,0.05,0.05,0.05,0.05,0.05,0.05,0.05,0.05,0.05,0.05,0.05,0.05,0.05,0.05,0.05,0.05,0.05,0.05,0.05,0.05,0.05,0.05,0.05,0.05,0.05,0.05,0.05,0.05,0.05,0.05,0.05,0.05,0.05,0.05,0.05,0.05,0.05,0.05,0.05,0.05,0.05,0.05,0.05,0.05,0.05,0.05,0.05,0.05,0.05,0.05,0.05,0.05,0.05,0.05,0.05,0.05,0.05,0.05,0.05,0.05,0.05,0.05,0.05,0.05,0.05,0.05,0.05,0.05,0.05,0.05,0.05,0.05,0.05,0.05,0.05,0.05,0.05,0.05,0.05,0.05,0.05,0.05,0.05,0.05,0.05,0.05,0.05,0.05,0.05,0.05,0.05,0.05,0.05,0.05,0.05,0.05,0.05,0.05,0.05,0.05,0.05,0.05,0.05,0.05,0.05,0.05,0.05,0.05,0.05,0.05,0.05,0.05,0.05,0.05,0.05,0.05,0.05,0.05,0.05,0.05,0.05,0.05,0.05,0.05,0.05,0.05,0.05,0.05,0.05,0.05,0.05,0.05,0.05,0.05,0.05,0.05,0.05,0.05,0.05,0.05,0.05,0.05,0.05,0.05,0.05,0.05,0.05,0.05,0.05,0.05,0.05,0.05,0.05,0.05,0.05,0.05,0.05,0.05,0.05,0.05,0.05,0.05,0.05,0.05,0.05,0.05,0.05,0.05,0.05,0.05,0.05,0.05,0.05,0.05,0.05,0.05,0.05,0.05,0.05,0.05,0.05,0.05,0.05,0.05,0.05,0.05,0.05,0.05,0.05,0.05,0.05,0.05,0.05,0.05,0.05,0.05,0.05,0.05,0.05,0.05,0.05,0.05,0.05,0.05,0.05,0.05,0.05,0.05,0.05,0.05,0.05,0.05,0.05,0.05,0.05,0.05,0.05,0.05,0.05,0.05,0.05,0.05,0.05,0.05,0.05,0.05,0.05,0.05,0.05,0.05,0.05,0.05,0.05,0.05,0.05,0.05,0.05,0.05,0.05,0.05,0.05,0.05,0.05,0.05,0.05,0.05,0.05,0.05,0.05,0.05,0.05,0.05,0.05,0.05,0.05,0.05,0.05,0.05,0.05,0.05,0.05,0.05,0.05,0.05,0.05,0.05,0.05,0.05,0.05,0.05,0.05,0.05,0.05,0.05,0.05,0.05,0.05,0.05,0.05,0.05,0.05,0.05,0.05,0.05,0.05,0.05,0.05,0.05,0.05,0.05,0.05,0.05,0.05,0.05,0.05,0.05,0.05,0.05,0.05,0.05,0.05,0.05,0.05,0.05,0.05,0.05,0.05,0.05,0.05,0.05,0.05,0.05,0.05,0.05,0.05,0.05,0.05,0.05,0.05,0.05,0.05,0.05,0.05,0.05,0.05,0.05,0.05,0.05,0.05,0.05,0.05,0.05,0.05,0.05,0.05,0.05,0.05,0.05,0.05,0.05,0.05,0.05,0.05,0.05,0.05,0.05,0.05,0.05,0.05,0.05,0.05,0.05,0.05,0.05,0.05,0.05,0.05,0.05,0.05,0.05,0.05,0.05,0.05,0.05,0.05,0.05,0.05,0.05,0.05,0.05,0.05,0.05,0.05,0.05,0.05,0.05,0.05,0.05,0.05,0.05,0.05,0.05,0.05,0.05,0.05,0.05,0.05,0.05,0.05,0.05,0.05,0.05,0.05,0.05,0.05,0.05,0.05,0.05,0.05,0.05,0.05,0.05,0.05,0.05,0.05,0.05,0.05,0.05,0.05,0.05,0.05,0.05,0.05,0.05,0.05,0.05,0.05,0.05,0.05,0.05,0.05,0.05,0.05,0.05,0.05,0.05,0.05,0.05,0.05,0.05,0.05,0.05,0.05,0.05,0.05,0.05,0.05,0.05,0.05,0.05,0.05,0.05,0.05,0.05,0.05,0.05,0.05,0.05,0.05,0.05,0.05,0.05,0.05,0.05,0.05,0.05,0.05,0.05,0.05,0.05,0.05,0.05,0.05,0.05,0.05,0.05,0.05,0.05,0.05,0.05,0.05,0.05,0.05,0.05,0.05,0.05,0.05,0.05,0.05,0.05,0.05,0.05,0.05,0.05,0.05,0.05,0.05,0.05,0.05,0.05,0.05,0.05,0.05,0.05,0.05,0.05,0.05,0.05,0.05,0.05,0.05,0.05,0.05,0.05,0.05,0.05,0.05,0.05,0.05,0.05,0.05,0.05,0.05,0.05,0.05,0.05,0.05,0.05,0.05,0.05,0.05,0.05,0.05,0.05,0.05,0.05,0.05,0.05,0.05,0.05,0.05,0.05,0.05,0.05,0.05,0.05,0.05,0.05,0.05,0.05,0.05,0.05,0.05,0.05,0.05,0.05,0.05,0.05,0.05,0.05,0.05,0.05,0.05,0.05,0.05,0.05,0.05,0.05,0.05,0.05,0.05,0.05,0.05,0.05,0.05,0.05,0.05,0.05,0.05,0.05,0.05,0.05,0.05,0.05,0.05,0.05,0.05,0.05,0.05,0.05,0.05,0.05,0.05,0.05,0.05,0.05,0.05,0.05,0.05,0.05,0.05,0.05,0.05,0.05,0.05,0.05,0.05,0.05,0.05,0.05,0.05,0.05,0.05,0.05,0.05,0.05,0.05,0.05,0.05,0.05,0.05,0.05,0.05,0.05,0.05,0.05,0.05,0.05,0.05,0.05,0.05,0.05,0.05,0.05,0.05,0.05,0.05,0.05,0.05,0.05,0.05,0.05,0.05,0.05,0.05,0.05,0.05,0.05,0.05,0.05,0.05,0.05,0.05,0.05,0.05,0.05,0.05,0.05,0.05,0.05,0.05,0.05,0.05,0.05,0.05,0.05,0.05,0.05,0.05,0.05,0.05,0.05,0.05,0.05,0.05,0.05,0.05,0.05,0.05,0.05,0.05,0.05,0.05,0.05,0.05,0.05,0.05,0.05,0.05,0.05,0.05,0.05,0.05,0.05,0.05,0.05,0.05,0.05,0.05,0.05,0.05,0.05,0.05,0.05,0.05,0.05,0.05,0.05,0.05,0.05,0.05,0.05,0.05,0.05,0.05,0.05,0.05,0.05,0.05,0.05,0.05,0.05,0.05,0.05,0.05,0.05,0.05,0.05,0.05,0.05,0.05,0.05,0.05,0.05,0.05,0.05,0.05,0.05,0.05,0.05,0.05,0.05,0.05,0.05,0.05,0.05,0.05,0.05,0.05,0.05,0.05,0.05,0.05,0.05,0.05,0.05,0.05,0.05,0.05,0.05,0.05,0.05,0.05,0.05,0.05,0.05,0.05,0.05,0.05,0.05,0.05,0.05,0.05,0.05,0.05,0.05,0.05,0.05,0.05,0.05,0.05]},{"net":{"name":"fnf","generation":0,"inputs":32,"layers":[40,10,1],"weights":[0.13952355331781519,-0.09895203216235116,-0.09844952353855563,0.08777206995957282,-0.1701565303291167,-0.04163685768181544,-0.11504663226859312,0.1908683615060106,0.10188722858169907,-0.10840225190798113,0.10080214648716518,-0.0724465050282217,0.1966732705008652,-0.18873511938628884,-0.19023304047651948,-0.1831903912654468,0.1494967876357684,-0.048006510991737084,0.11435711232118922,-0.04498439817449046,-0.09011555084241617,0.06315067057457763,-0.17615705104838586,0.12688414866286063,-0.17202416368436468,-0.04810325468015905,-0.04877075849212095,-0.08424442784543924,-0.14292082519110122,-0.13719299908205684,0.1162697208784757,-0.19139948340996452,-0.1896154982403683,0.025839976161571798,-0.11409007891212825,0.1730462686721289,0.16742030147203668,-0.056587201670479564,-0.16445237879041788,0.003190746718783277,0.18874022588252698,-0.17281673333746206,-0.18810615871162498,0.19960774952099775,-0.17275157397158997,-0.15406732788963354,-0.1506195508762116,0.19147610523838604,0.14431677931980025,-0.018707879852921494,0.1567639015719478,-0.17261912788632927,-0.03529760302441706,-0.02612337625392777,-0.001922012695107167,0.14993714363613891,0.03343397161600495,-0.15605238253473264,-0.006940081195280362,-0.1361664624035254,-0.06133665816587161,-0.09736312891702488,-0.042757773832999835,-0.06424529777102378,-0.10740952323939378,0.03493342324746279,-0.1098811349451399,0.06417346129025853,-0.07051054194964532,0.021619389598892452,0.03864108467462374,-0.127679193923602,0.1424210752985383,0.12851248519748532,0.15200161493762032,0.06946662050758368,-0.19844540100599845,0.16801802050584175,-0.05077725854465323,-0.0016942123165666345,-0.08561588373875528,-0.14955598902454056,-0.16862218428229048,0.007522758943976526,-0.14862820205380922,0.011197764259623877,0.07603655297126233,-0.06266396634288968,-0.16340565976636096,0.027054730405674132,-0.15567733749728552,-0.12922903890272064,0.04437745463809409,-0.10762145329297904,-0.166027178842499,-0.15437759392405256,-0.06996997078765635,-0.14746978588777016,-0.10373223736375606,0.0701574655050341,0.11233469669148732,-0.17617557565890057,-0.06524736305712739,0.18325737347655668,0.08672199639688011,-0.12177417560538162,0.1437009510407526,0.19178867700515728,0.0668597481235425,0.16484302152761166,0.008583058192522308,-0.17010023609969346,0.16438829887907397,-0.18715496320556665,0.050086558054116215,0.06647663167492884,0.09148038328387009,-0.17713622476029106,0.1372455306294385,0.14044728290082403,-0.011831738361914285,-0.0998032626346971,-0.06037614921323256,-0.17751130627056144,-0.18958924681142603,-0.11152590805240115,-0.13583840892676458,-0.09290998782522548,0.03405947542480492,0.003445831582273129,-0.04332378139005638,0.026966927796790774,0.06587812289259337,-0.006096778913168788,0.09200932622391039,-0.0081781990363127,-0.17758351294465857,-0.06786779760435904,-0.003312961913511353,-0.19860800922198518,0.1044243216179776,0.1313845675719567,0.10142063315299671,0.10071772719625294,0.010819685231232057,0.08974573668398067,0.18072933185170836,0.055301614409813904,0.039547814709315954,-0.18318747563056645,-0.16640279180297962,-0.08299735381462946,-0.11340759246794274,0.12479394419713635,0.18829040531167562,0.1731285023641057,-0.14169386865381517,-0.06344873365499906,-0.051050130016199013,0.1505168393980646,-0.16906029343797002,-0.1896456261678149,-0.11776294078668387,-0.16390122676113805,-0.0340382915827398,0.017559049663872534,0.013945789989807722,0.031751184073902566,0.07733362573245828,-0.033171686546488915,0.038175261734973265,-0.014859317832047136,0.06499859235116234,0.19403858851513317,-0.06975450386721568,-0.16625219678003714,-0.08082856935835131,0.05469312572165108,-0.19655990945898427,-0.14569694922381676,0.1402660357239351,0.16411514618444406,0.0839337120721339,0.0798952548977141,-0.11199024938524138,0.1639416880192494,0.028061878921608774,-0.04888987063003797,0.06307369938425811,0.03693234311251209,0.017614732073618355,0.02630594003928932,-0.1738158204927415,0.1724596705815027,-0.08662644809615241,0.16354066403147932,-0.1924270322567777,0.11546087965192448,0.017734302280715403,0.13934901274213457,-0.17895024436328405,0.10716548278264643,0.1018894688872089,0.05263989643493572,-0.1364665373836328,0.10256768627815455,-0.0036439141903042704,0.19488326324479072,-0.15105792853867445,0.1445187321837404,0.18616257683304543,0.015015155592897955,-0.03184456431309721,-0.13679076238276516,0.06432380280478911,0.06781841110924508,0.04937708933458024,0.10495467033865918,-0.06977319420964642,-0.13387233128193357,0.09076856432784092,-0.16806228082479058,-0.014089925472950349,-0.05848502067761513,-0.08887808705589695,-0.18776211247684885,0.04382056533401971,-0.0670555683236164,0.17727461912062037,-0.12891223260783438,0.07375948191549792,-0.19311973933597548,0.1473476151227961,-0.0446982515401837,-0.16086518091448643,0.1893331295367262,0.16174140118839775,0.009924917102009989,0.16482160252471906,0.08812979892927081,-0.0864722204021855,-0.08579007501897254,0.09433015546478296,0.11913782236577769,-0.15274598926869257,-0.10469856578869088,0.18262967283530357,0.1446664848440617,0.08713582152295968,-0.08202409132835325,-0.0098299253845191,0.1748316701153554,-0.09007006584744204,-0.1325032944700132,-0.040167854142367704,0.11075418211521149,0.03837686630789411,0.1315089960146832,-0.04877108700112745,-0.1911077169093794,-0.09295501075993187,-0.014613808767791892,-0.11595654339882017,-0.08466725149465396,-0.030644747525627375,0.16549471846774794,-0.14738199037592487,0.0016749995442364995,-0.17267858055236404,-0.16006433779730625,-0.19269242056317903,0.09457657963879129,-0.10212969501871197,-0.16424983325373238,0.1517499821937207,-0.15443406499250856,0.15949445257783285,0.17741279801210313,0.10648011336850927,-0.10708250722863318,-0.03744365733915292,-0.05021962884162426,0.04937418257783177,-0.17523380227166055,0.13969084194867626,-0.18099246722042095,0.04993692836215774,-0.1433118955056969,0.13910266807407912,-0.18327174336451205,0.021562593895158327,-0.1307664075463163,-0.04283405447664945,0.050443406509053434,0.1758408643938834,0.1058468139706541,0.04580691724926772,-0.19618757430253153,-0.18689906163810024,0.16861032880537252,0.18188572374870438,0.028155686988785178,0.11120131635554281,-0.04796551682284028,-0.11036717309957789,-0.13201301329321016,-0.08595851172937606,-0.03852496069861805,0.08876226384474062,0.15842014457247355,0.02036465716511221,-0.12824076311209956,-0.06658182339240079,0.16890232946532846,-0.19113580047279238,0.08937841961673076,0.15232440789916096,-0.1436330086813059,-0.054557390421684365,0.13914278150432463,-0.03322182024941309,0.10470049096307354,-0.12679746013083432,0.18555942086520993,-0.059546589484671036,-0.12474243062640218,-0.07456592441377943,-0.06310218722771027,0.11245521309529743,0.1440914296212425,0.18527369152027706,-0.0373498315484464,0.17130319833065893,-0.07676483180525491,-0.19000021720238022,0.08800887780671296,0.005263910195949156,-0.026262008078165616,-0.13201109023325364,0.1794859749124476,0.11147018038508433,0.010323080993074274,-0.12538106775781657,-0.007539614576567377,-0.028978861570734094,-0.1143528400856365,-0.15132940923619637,-0.08965218376167483,0.06208319626951886,0.03982746458637906,-0.049513274703892496,-0.14211192797013317,0.17886460856157316,-0.02077214014601028,-0.14835140076191042,-0.1343588125483474,0.15997318875650385,-0.12654519614146445,0.08559682362874338,0.19725200682256405,-0.11374800209430154,-0.014906227684770817,0.08260192677488137,0.126618722757791,-0.09923609985757098,0.19253832889747874,-0.07132034727924061,0.04584346790002139,0.12102203415126411,-0.08033284606294036,-0.03371925735179096,-0.027076373931077757,-0.02131021197698199,-0.12742303860992915,-0.03613127678407588,-0.07910880822623403,0.1581322074947002,-0.16437612797128376,0.18998594478455594,0.17026519843195437,-0.08728469064499188,0.021267183363120695,0.06644575283368903,-0.009599000447412992,-0.10905008736852438,0.05098266067118773,0.05199595611960889,0.015470243991417387,0.17262095340666578,0.132962832323392,-0.09043562459006137,0.01176758195501329,-0.12493410378397743,-0.1612698705320459,0.18617948887763697,-0.08656737069353433,0.15998546366696342,-0.15605870729502316,-0.07763811569535761,-0.0031071580347332706,0.1941252671056451,0.18310566723230481,-0.1211395152917496,-0.0740085795678038,-0.008223529085472414,-0.130195854846977,-0.019926493394418016,0.02070492856722747,0.18987331539088637,0.059486046962116235,-0.1472848657212163,0.15149895685843912,-0.07847544912966758,-0.19407903273149146,-0.18649715061116076,0.0033776538964770952,0.11113239779551914,0.12644741942316395,0.1869428575668045,-0.0017368149631188656,0.06829281504222856,0.057338497395052646,0.19472694166999788,-0.07184653094236887,-0.19856673808671443,0.1676024305966487,0.14003048878495755,-0.15908002091078377,-0.1428469227180581,0.17592181231937432,0.06900794360470452,-0.12882826604059697,-0.0022469998969507077,0.06734995694836082,0.03858911044034824,0.1755655653690073,-0.11427195701743385,0.09666945848091046,-0.0290390062309423,0.05470688114231048,-0.11025114225265087,-0.08725438968163078,-0.04057378334686393,0.19278945126775726,0.1710214346869745,-0.02258809067018125,-0.14394532458337272,-0.07232050823222788,0.044758268968114134,-0.03586794657662659,-0.07673755971664163,-0.016496547572695974,0.053298645011122914,0.10598736195376013,-0.06544932279179072,-0.04263205798391906,0.010562453495702062,0.07013107810022073,0.05531165772599095,0.11792825553375197,-0.10567983011551396,-0.007123921004956568,0.03772320133360124,-0.13462072415019088,0.08549229354941479,-0.16934170533278214,0.06024179526600104,0.11816918825608774,0.15913069415336534,0.012284262789488937,-0.19797895490169248,-0.13822156766108382,0.09765460951989507,0.052582608222345506,-0.09927333003172345,0.04839160426647249,0.09995047477494234,-0.09801753157860756,-0.15092068280031148,-0.18995769764255038,0.07060736198050277,0.12209746343522898,-0.13894022628663674,-0.030702136938777352,-0.13849294556949054,0.14151747554319477,-0.024783823280824346,0.023776395157987018,-0.07751385244722658,-0.10935158816859492,0.05626067228618303,0.05408588584926688,-0.05267079605930566,-0.15156455595801097,0.1527524772035247,0.04619714667629146,-0.08298949176589226,-0.11052046153360823,-0.011063907426340419,-0.05942706608311374,0.027276691870889186,0.08232314515466266,0.08701331958473152,-0.1938504694145352,0.12503954849228693,-0.16476193565977582,-0.07004534795361464,-0.12283542365465641,0.1213371604555098,-0.018779489539107963,-0.02102628707100135,0.06982592004379018,-0.18317466583135814,-0.16030293720302016,0.034025169610663486,0.1026777411051813,0.013359540139885329,-0.006781139490550536,0.02794038705001345,0.0221022316112493,-0.10071248406333799,0.08980631993033583,0.10345865576851887,