{"number":2,"population":[{"score":6,"won":6,"lose":0,"draw":5,"net":{"name":"fcr/myi","generation":1,"inputs":32,"layers":[40,10,1],"weights":[-0.1159063755275855,0.16055585434794242,0.12499433238050664,0.08007195457037053,-0.039881475449868475,0.19927521882528557,-0.14061361911791226,-0.09433805791370248,-0.20062471360184725,-0.06849438142976755,0.10384226190582803,-0.11336924645550836,-0.1247348100613077,0.06824999395028768,0.08625698529278966,-0.11508038454877892,-0.09688681150359409,-0.08173431192641027,0.17691719409414966,-0.13088036571245315,-0.20154160147311054,0.14540561316366857,-0.08990608110850422,-0.08337939115006232,0.19638535170546148,-0.015589575724599639,-0.141852255347193,-0.07216978102772277,-0.02503449350812849,0.2934825162368863,-0.007549501585249311,0.05060709044601633,-0.06913476647458183,-0.014162999859937922,0.025641251856203896,0.017486456296435533,0.04744429274169628,-0.06959351643950394,-0.15050815669011489,0.16991558885373337,0.02086078591265205,-0.27245842544953536,-0.1115061008593455,-0.13208416892158864,0.06646839036772373,0.1522117971747779,-0.06297749969802467,0.02991788599263038,-0.05325089084853918,-0.009980814719028255,0.06155779582950326,-0.12507441363321195,0.003373012038450751,0.20189675552575853,-0.1841177489680927,0.003783024702678217,-0.04757907012074972,0.17092989683942275,-0.12987344720555566,0.1902091280526127,-0.03396859918273031,0.026352531411035524,-0.061934599044477304,-0.1669108744473328,0.12018377301258645,-0.0988558407543769,-0.1374833110095189,-0.144848991817812,-0.028195365249277862,-0.1297612467659585,-0.17083610363635893,0.2020230759928863,-0.008930521641947464,-0.077921393378528,-0.14744864297477794,-0.11330464608609228,0.17041595474571808,0.17576736017839706,-0.04498778545813351,-0.10544614157469122,-0.09986210756118614,0.09207213154055054,0.2292679218479569,0.04783959060090684,0.057596676739252506,-0.04443393022285749,0.23736758405637476,0.1571132001632074,0.05363827780032318,0.17519376542211576,0.020316196142186264,0.11970664909941009,0.06885549924894939,-0.056190967830366575,0.05978544367606572,0.018482947320421203,-0.115168108471171,0.05971583368543032,-0.13816619079808956,0.29482739817043485,0.11379155045324733,-0.06030053514791024,0.16599544820986928,0.03794603142644819,0.15557009702460584,0.05169376316348145,-0.18919613355616036,-0.1572499895230083,-0.041995543354082045,-0.14298196853809703,0.01073925020365267,-0.10008971667189262,0.16341897821342666,-0.25604748256732934,-0.1256111501287464,-0.09556711147000464,-0.030131474519101392,0.08759732064237415,0.23973586766487764,-0.17723709722252634,-0.0343315024346493,0.029731008096642753,-0.04103681355513569,0.14144642620924505,-0.08362534992887106,-0.11775833011862849,0.057218557637594175,0.20711874490058527,0.26539649993317804,-0.177166407023673,-0.21207974256760265,-0.07725926042282068,0.21009745620021036,0.013280101297662793,0.06448978530646736,0.11298500760256347,-0.19006921562547222,-0.08424625853821702,0.18346621660839682,-0.01445869121946091,-0.16528188420533657,0.14890540170964098,-0.026917971805414817,0.17944782857129118,0.1374212653949469,-0.18107581247077548,-0.0093692069030352,0.01007422134184141,-0.15001820888221848,-0.20135658445561672,-0.05160780817191034,-0.10059118319253876,-0.1323912409565119,-0.13833036988880204,-0.08560048534650698,0.010965477272553214,-0.08335635900184178,0.04224583470915269,-0.13427036439344384,0.09078203191416112,0.04531964166212827,0.1447510237553619,-0.138802107497519,0.10450064523835799,0.038355403523808985,0.05158209987011182,0.16993318291290474,-0.10373378135233494,0.04280955992569606,-0.016000922328684233,-0.1721940084021483,0.13768012334091204,-0.16501535339684686,0.22054731373361347,0.1608178376365315,-0.04324056214174548,-0.15719767466275916,0.16083743628513197,-0.03390023298609123,0.26121565788067264,-0.09307674447449805,0.16047882337623165,-0.10715132474057376,-0.18033523917339833,-0.020319617942833018,0.24658965427169277,0.1404960350999774,0.0020871504412229985,-0.15298422360518968,-0.030535736927369654,0.25456516513969,-0.1600583684053727,-0.2789922430346513,0.0227233918327397,0.12523812803383658,0.06980253232182004,0.19051116032625565,-0.06276840634667405,-0.21624165403911277,0.09678445031634197,0.21627535699114075,0.06157100619896082,0.07848386390060133,-0.09520280810279078,-0.09625194577107152,-0.13839616148003972,0.017923986476122762,-0.02502736270786998,0.11364455923171753,-0.17343197601709687,-0.25392167367138296,-0.0747156969861088,0.1213965293556521,-0.14198226462003333,-0.12414122428339508,0.08239215437802615,0.02477779604116201,-0.06034352364092739,0.10555918751391863,0.1427910411504924,-0.029681404099456615,0.14419000706688082,0.1986568578365074,-0.012299546727493949,0.15000056639479026,0.13477326694080957,-0.2449028951870477,-0.035990730672620416,-0.20521293232586862,-0.0982063832860939,0.00397745021832157,0.15049046856156267,-0.18679954575946395,-0.10830334245773439,0.07979196480390854,-0.0876662100209709,0.10894896202468694,0.09732613809071146,-0.1734269412110736,0.2055857571009933,0.10195855749382507,0.03263308263578732,0.09510138835878106,0.020686807209401553,-0.15879720798081318,0.047203770309456716,0.05130441864740284,-0.09842796048499158,0.07593498944871278,-0.12133231729778668,-0.06748245897003262,0.070104650164834,-0.0028099364631657964,-0.08051940198034144,-0.10501096632033957,0.13441040198699364,0.08389081461826692,-0.05834671192255576,0.04979999106151311,-0.11197586391362643,0.18904571475132925,-0.11021755281135426,0.06205188274616297,0.06645358187869024,0.16116167797393383,-0.18734159804768807,-0.18755801526251867,0.0021378578337654004,-0.1544063975808568,-0.15815374617071762,0.09787200765366322,0.15356160301556043,-0.02387195976114395,-0.18327036941901562,-0.14257602771019726,-0.049263950946811144,-0.083813480343721,-0.1443209460899358,0.054814804808284656,0.11693127493235242,-0.19683472562470153,0.08792785138302656,-0.07619842208390053,-0.21540452044956132,0.17558452666799756,0.15600883843956448,-0.20727540932907823,0.19024753608381462,0.1631605394546904,-0.08180821894068112,0.19158496271965422,0.12481625690184886,-0.11938227535876283,0.019652119819216017,-0.17175477978149314,-0.14319092796839994,0.06842308203370231,-0.04925960527255502,-0.2214332473971261,-0.15972775154744784,0.10968686366557588,-0.007203898433868067,-0.04953748863632436,-0.1295459572627262,-0.0377079823906454,0.02085843048718889,0.10812466043315186,-0.09043439389666968,0.13087084442674402,-0.1169556255549217,-0.0014088874263316759,0.12520825713776146,-0.13263941707479998,-0.08350555598274248,0.07917602236692604,0.08475816995643082,-0.01348420065429963,0.013933531456126826,0.07274018095579085,-0.021536992402982166,0.14894930223708583,-0.27820474835897235,-0.14133477311004816,0.014299635988565387,0.11819840562270434,0.16661817534775245,-0.06279353860322001,-0.060800463447688816,-0.016209548981797887,0.026025562434604133,0.22422065480552922,-0.07317822793482179,0.19273291788803543,0.07867332800067534,0.03435805086004943,-0.12172936995609429,0.07059150750516699,-0.13259693468025696,0.007230193064911704,0.034777669214065526,-0.15651742354629544,0.04711873805017798,-0.009632963186653479,0.19027482070112162,0.19562067436413264,-0.09107312165610482,0.20632948014736913,-0.0989121772356349,-0.05178629100186005,0.13383786773627188,-0.08250355683644757,-0.10102468634471976,-0.13303342115014785,-0.18955137259777102,0.026276946847118406,-0.12145115527549015,0.08643279875963182,0.11521296794134192,0.18138309144240913,-0.0722121470759604,0.059955478506696615,-0.08444941453681157,-0.08590802224207708,0.24600290850160533,-0.21776614609967154,0.12496716270760364,-0.2059266272199093,-0.13888611517872496,0.12298310021707047,0.05427864043817805,-0.2373184683602183,-0.02846887817736709,0.22982761242479738,-0.0220379470550311,0.1839897661805603,-0.149556236072397,-0.1787544050246437,0.11154227185045637,0.1522799645758276,0.029912861916987818,0.13624035467533807,0.06240114424819543,0.15246155561050717,-0.08446161009870393,-0.06581046692563827,-0.030966458505074963,0.07182769030764617,-0.1529326468346629,-0.23918948971788845,-0.031733733015937765,-0.041975569146318205,-0.14526548601199418,0.08618835594089308,-0.040753064926333696,-0.12596273098707478,0.1114519898605225,-0.07711063101645362,-0.07015432193021343,0.07349886072275727,-0.19244174741140624,0.21219143423959635,-0.16372528784875823,-0.021106608166005805,0.20750178421895699,-0.025877333032934505,-0.12200847907754803,-0.1829376566658981,-0.162491677255623,-0.02477963612986371,-0.20886852410101003,0.024690080506788926,-0.06144043363762321,0.07688202002573429,0.10718319523217743,0.11741576902823106,0.041227155028723095,-0.1567471472737347,-0.09195902767318169,0.15562053473323523,0.08544333760452816,0.020671929701375977,-0.11829531137958227,-0.10421960579350117,-0.23643108518828454,0.19056841582347292,0.1591586326804414,0.15639936621951062,0.046730304858285034,0.15644515410180607,-0.01033401290916076,-0.1890254915831614,0.19853927703907298,-0.07560008668374042,-0.007946061581992125,-0.17298896187686552,0.20480460073169687,0.05103678714903702,-0.050410823903975006,0.015879964814378617,0.06358589987511128,0.11484677280036501,-0.058471243928404054,-0.0955030694367193,0.1338388298009545,0.1547838915418328,0.07846699766383738,-0.20905073706142954,0.1992176280698874,-0.09132228629759262,0.0028422572417003827,0.03278358842933339,-0.1391551255680315,0.18537461390723378,0.22482607164522167,-0.03853560640083995,0.13168183463100536,-0.1551214961677687,0.012085538291504279,0.2360841204020582,-0.014518063451518542,0.03385553019871376,0.005679742754277704,-0.04946835798502826,0.10453664209880775,-0.12619426805396594,-0.22742513220650626,0.005352422771147405,-0.13945574601950622,-0.06994915384994621,-0.12344762260465975,-0.07064613654110355,-0.06853309085336398,0.1344482151452351,-0.08152733635337805,0.006375797433946454,-0.15665600507829086,-0.06172424015812951,0.011006918596641331,0.04521539099855587,0.1904758727471713,0.1450711247540999,-0.07045326560502255,-0.09589490389798763,0.12371773927847834,0.10576057232766764,0.12993128897522083,-0.14548491071237846,-0.012253157405782509,0.01567221003885115,-0.0068706885975234715,0.17002477231242835,-0.08692522900876973,-0.0030011071769239783,0.052456063609155834,0.1419648576774672,0.10263132880135793,-0.09533466665464047,-0.019517439518669577,0.12680695104425876,0.0694902542631883,-0.04658142439765672,-0.06437207238343594,-0.038712248297085444,-0.041506431124424155,0.12066507642338609,0.01995390058321428,0.013073288477289845,-0.14170107716194622,-0.11410105751324892,-0.11547931852427798,0.11449153050476191,-0.07720907101350978,-0.16113851411425517,-0.16776797077582495,0.05370472344197951,-0.09946373295986208,-0.10288315912765306,0.026344820405555955,0.1803847065233267,0.2027573536789162,0.06922325639252809,0.03928791400517852,-0.278089133578424,0.04348802476363618,-0.0657425695168806,-0.14173371904212392,-0.0735992566543647,-0.05225537965345215,0.08299168316060732,-0.17783796312364444,0.23003962777999065,0.20592250885468122,0.12132331427777038,-0.081782834125759,-0.051039978113015354,0.047644181658106355,-0.05346680262481808,-0.06778420082731973,-0.2472299785831298,0.018392490276046832,-0.1956405947719745,0.26542094765575497,0.09566132380661466,0.03926897181646183,-0.20283729770508135,0.32158909574838357,0.04238710201646358,0.06597479957113794,-0.25472823612969714,0.1000719940221829,-0.12576830831148256,-0.005909912209807119,-0.10755132933785136,0.2119900445805015,-0.1493252350037877,-0.01660531689073185,0.0905353233186402,-0.03185228019297344,-0.16467648005964478,0.048732436594605744,-0.03137284121373678,0.2593580059837557,-0.08539068548145548,-0.11757733212543733,-0.07898509134159584,-0.009341433990552317,0.0327636125331367,-0.08819175880387506,0.012931280866980723,0.018483556115717614,0.0915993257552544,-0.1156427375506498,-0.10637751904162678,-0.13081426468028184,-0.16995352951759032,0.10057011240292049,-0.11911168889423288,-0.13720859958842907,0.11437560295354039,0.026563462356053134,-0.1585581969723469,0.13957525115293792,-0.16841830729527335,0.13140452344094744,0.08007991633816589,-0.005504591841564342,0.17711053558642928,0.030394559119751086,0.04973932193424847,-0.0963836386950266,0.12205723681761421,0.11340920351862155,-0.013910435850958407,-0.09037803696979653,0.05450275644093697,-0.09332269275600116,0.20382321535543338,0.013874206195790275,-0.11404056965692172,-0.13716183658199244,0.048252238630480886,-0.14910150951443674,0.09024299970250799,0.03373704710688596,0.09820312069141901,0.175419861886501,-0.08994668934901184,0.11724981998257913,-0.3062630922616011,-0.15506125226098866,-0.08068961342215936,0.1721773060190344,-0.03187990047220825,0.15343405860179565,-0.06190222390270166,0.03282716607142816,0.1914387046547531,-0.14605310193574939,-0.12909495679762395,0.0008069045211262851,0.2173808341777373,-0.019582170194066204,-0.06110030164451066,0.07884263777714698,-0.14697178465396254,0.23834213319223096,0.14917239635665652,0.0005676631934361451,0.21489275178167272,-0.0841582196246311,-0.08225831868620447,-0.17214052055118484,-0.12286887359942528,0.031012583533814655,0.07135011825292616,0.22753802158738584,0.1370931936299527,-0.05979108712551682,-0.01564441568081853,-0.13088163708596356,-0.06773752039593858,0.13055665496628224,-0.1795404327188768,0.06574966414033503,0.06577857862974094,0.1590492480334744,-0.06750890985795979,-0.010002841931213861,-0.09201399397682368,-0.07801749087133011,0.011857322642551276,0.04988741780656172,0.019066759240411943,-0.2421389950762085,-0.19107055533051842,0.08565930630958601,0.04261957185304633,0.042191719911477146,0.030369187194654222,-0.18387770007902268,0.18269346173407922,-0.06837606286154183,0.17331309546126025,0.03802321613188245,-0.1852465679824648,-0.05598687168398159,0.21727799344672674,-0.12714811769065468,0.08141950802669966,-0.002245330976891177,-0.16624438936611177,-0.07964198828269595,0.053889062272073296,-0.1986801977224926,-0.10956281138365208,-0.16411146701069373,-0.010879735669739973,0.04347155836591411,-0.16764750774753437,-0.1471465057996894,-0.16272066709825284,0.09548056992803769,-0.005741743814396752,-0.1510682686102945,-0.18739130980807317,0.19204283554647808,0.02777573363404607,-0.19250871961556926,-0.13149959155035398,-0.03240836027694523,-0.18823197344952197,-0.051023046050733385,0.045218323263671645,-0.023604543995705364,0.12506471773528502,-0.02004718425654367,0.076772895392841,0.12003927965084536,-0.052120467641735474,-0.110867394744986,-0.015565501376758481,0.06363927428446206,0.137576000316435,0.1962361386136774,-0.03786212729193718,-0.017555783805433885,0.14164653747235,-0.05669059323879965,0.19361653810545879,0.21857244926446595,0.007640196244742763,-0.013921193847906306,-0.13266180659567176,-0.04472221130170354,0.08670285185386153,0.025779886684225144,-0.1421458047960797,-0.27828037935575856,0.13271363812834247,-0.04267507775559841,0.057910379585163305,-0.18470654941108283,0.09776093896072023,-0.1406362420878331,0.13806787617806285,0.04431881878976095,-0.012931285211599924,-0.1165326111722045,-0.025766071952043286,-0.09244635887821488,-0.0183785324630934,-0.11795158338692423,0.1808656041078463,0.16299393846944332,-0.15203355696316131,-0.14993293915542708,-0.16920235408910944,-0.06402465670986068,0.1863030494394855,-0.200508368057923,-0.2944031697315657,0.02185036067575997,0.015244558142399271,-0.13436925666692842,0.0631300886969483,-0.05130684239519169,-0.09445701727834735,0.1521059075597658,-0.05839005739603512,-0.19738553483703977,-0.1484904596514235,0.25134583584854636,0.09092629937123417,0.025651730394319644,0.08478696647583009,-0.11373119493471409,-0.12865400829684556,0.0037729822742291197,0.04790540618884949,-0.0769383917619762,-0.15969052977639536,-0.005594937200031833,-0.21605251101518605,-0.123054346552715,-0.15408926373515183,0.014556160318811073,0.015227909067427905,-0.13966661286253423,-0.14492370710229024,-0.07004238845158142,-0.1754646984205983,-0.051182695511201776,0.08288489797421908,0.20949136447386274,0.027498409966426697,-0.13228153964009212,0.18167323432740606,-0.0865386888896933,0.16197380188415067,0.0974090073304736,0.03476114378948481,-0.12091173924274276,0.1077315606287602,-0.12855122279132414,-0.02757613325560397,0.039929833787210434,-0.07059289651060667,0.09216686144757488,0.21932142221733414,0.13022567665504728,-0.01591312814716792,-0.07827976672447376,0.042524163224721856,-0.14085510140531615,-0.18842714312322792,0.01795028519977153,-0.24810858614161674,0.05968938385205312,-0.3065057203171072,0.05353647058581976,-0.01850577174585187,-0.17725809508653195,-0.10131268218925421,0.14694512606835156,-0.21208495841845337,0.010464427969004528,0.0022627824940132848,-0.14783570138991042,-0.1525104771926638,-0.158739785172767,0.03692154199154532,-0.20875187315617003,0.13149628967222443,0.08919034009696518,0.015272591652977147,-0.16567962432356068,0.18547208293893888,0.2101064332218474,0.004652703901780714,-0.11929958930522742,-0.06433188445472132,0.020517319211172627,0.19168087462952024,0.22256140398552982,0.14258910859373702,0.14164658054612966,0.1710295747014893,-0.0154888133047636,-0.15041684005798778,-0.008004398633072327,0.16613791416378434,-0.009219662484560631,0.07098492160670562,0.12014729128357649,0.06611242635998439,-0.209507109248592,0.26162495233158123,0.15805985607895068,-0.13321454089710633,0.029737707321628597,0.05092144343892366,0.1656691460385211,0.12381311301594845,0.12416259009651374,0.12173223843235215,-0.1398745657261452,0.21500473985376173,0.13189430150746922,-0.08809304712372248,-0.12073619375168765,-0.09146453016514253,-0.10462503433632798,0.12899017892323977,0.15874778584756627,0.0896516006200033,0.17519851036916415,0.04056567178376748,0.04443385417447648,-0.1905012613046909,0.05288267842111748,-0.04000107293873511,-0.2217408089314439,-0.1278267221693746,0.26470076924918695,-0.14614473594597793,-0.10742005972610996,0.12395451783706773,0.005924847745432931,-0.07507189063956986,-0.12333486509241483,-0.16379596681889227,0.06229234366733167,-0.21985575018776293,0.030511686979855873,0.0012996765447118742,0.22136148887382717,-0.1458700847616685,0.13370789228006366,-0.052310007009319245,0.15761329905654248,0.1978289593030562,-0.007539083615000691,0.018502602858438938,-0.15754455275692364,0.16987145768657724,-0.050228760745492235,0.22176671183399452,-0.024686009460445787,-0.005011397329746058,-0.08110051005895563,-0.06366579945855942,0.24648967309392877,-0.2873952075841103,-0.23443243863793556,-0.06931279322161636,-0.028959446104091978,0.13584545187527314,0.30836875296071603,0.12153112881954964,0.11334931033854546,0.09389718190157946,-0.11462845748606261,0.13854466633899404,0.0802091671199062,-0.057466145722506926,-0.1367189928119648,-0.3106291119165717,0.04485320690419059,0.028022550032898136,-0.17208643153448833,0.06340637238008846,0.08213542314373663,0.11992568863410154,0.0504027002468112,-0.27833136031923905,0.0522151178519723,0.15270294805658832,-0.10518489986373872,-0.19648726114895065,-0.08853995079325917,-0.18291391986756722,0.22576577511719506,-0.09442579010402016,-0.017068948282880997,0.22169117096403987,-0.0009554637047606823,0.21476709868730096,-0.12956053555170016,-0.0260889540019857,0.1544053316501825,-0.16050612141932344,0.10220677400141108,0.0946636006070277,0.15054674830968712,0.255198122703566,-0.2529371938801195,0.16022867544249747,-0.1384260817825161,-0.14642825449521224,0.023702253157090174,-0.002546743771091894,0.19347959135640275,0.2074687250580301,-0.06691876542278855,-0.03234013217461015,0.14794693129687386,-0.03396026286525661,-0.19507408383888264,0.04160025650361981,-0.07164623568592304,0.1436300911401519,0.03224413330862979,0.08452908549128876,0.05246861270530851,0.1688509857566869,0.18951481530227612,-0.021709333494433658,-0.014165549691730436,0.016681015586548043,-0.11294553793305623,0.2492717449308105,-0.14868926631473045,-0.183038989158748,-0.06531483414409212,-0.027742823874957797,0.09190899462875571,-0.15339229177981842,0.12099820228371469,0.11802956914891452,0.051748537050504355,-0.13610066301079868,0.12011436281592384,0.05702604663292823,0.03459108112285373,0.19071940668840998,-0.07145338052800218,-0.07543851417661057,-0.1968755563728969,-0.03639262875981154,0.09492217781626289,-0.12615290927117134,0.1102752628712211,0.14240384800475253,-0.057467522261991436,-0.1673145938310117,-0.0832740129824939,0.09779694180818377,0.014222431872124321,-0.006463187751319557,0.02827032946893411,0.021566317096400375,0.10207180196377723,-0.1739498737616456,-0.03664490749542566,-0.08977216123248469,-0.16591112963103358,-0.022535632973605203,-0.1401230747609203,-0.07668513168556926,-0.040979211305784066,-0.009203122176674815,0.09071681075985386,-0.2424125628517228,-0.2842623975131521,-0.10888230620778067,0.13071895965253666,-0.11577468154967946,0.1674059806868806,0.04900285183019491,-0.07011487083320617,0.039507180863421275,0.12400310217400592,0.11846706856890368,-0.050192253264187914,0.013492892445716831,0.00020298449985266254,0.004668729867237126,-0.02202086632649468,0.08179323150923976,0.13296680446124937,0.005259129716595036,-0.056301490989037264,0.10710003382295302,0.05802837823679154,-0.05960422031063175,-0.1222737927610344,-0.1572462113346093,-0.22274178674935363,-0.1424963519679091,-0.17710564999274694,0.21201525187493023,-0.07481889132549338,-0.06839471209057722,-0.20483648318074307,-0.04009088428242525,-0.07752665880479044,-0.07695298539799254,-0.06865419382324986,0.12837390590652842,-0.09838104438199385,0.08976302823488386,-0.13300090505788467,-0.0004926267913763632,0.06582870324825886,0.16395864411025338,0.1340513010824749,0.09905399767463655,-0.09685226193492485,0.13336974038396832,-0.10105555088239108,-0.21043037391218852,-0.17652210520878053,0.07805057259185261,0.02323497016669035,-0.10956004710724107,0.0400029716164362,0.17095418818298466,0.06776910889859118,-0.0034337944453494453,-0.01612172496081661,0.08007619095655807,-0.09423270990509344,0.08970049991253887,-0.1361409847516694,0.025184730722683304,-0.10113283115491989,-0.07292677567890972,-0.05337520966408647,-0.2240789966423723,0.011205102737724577,0.25914203159596255,0.07185545053292229,0.07074061213989358,-0.07411054077569579,-0.1024124531014155,-0.09328141765576724,0.041377507598848146,0.12560523745760882,0.15965625365021716,-0.19516392212899847,-0.17670955845857952,-0.05700622710830637,-0.15625224643916502,0.0687887625097816,0.12558906847336512,0.09045109641998733,0.045548272012786314,-0.0705057489698419,-0.22182238701404206,0.14577190243745355,-0.07211144084634984,0.03493712142538517,0.026910096391763394,0.12492318124462543,0.1952106976277089,-0.15404544698918973,0.07064176230726658,0.13990975688262827,0.20726347602105588,0.06252043470911668,-0.26942325545421375,0.08098225306706015,-0.14944683017265722,-0.021478716157229807,0.18815846106039164,-0.16617330272301206,-0.08257468659998318,0.13667449037424031,-0.0030300893173578203,0.07637043678392133,-0.05589273002095881,-0.012873755533821222,0.10783628353275893,-0.012624327018622133,-0.027575898553899397,0.05148858177301704,0.16188525916224553,-0.14501323480447573,-0.17382086983360331,-0.08332781752521243,-0.06752035522695041,-0.1526400238227914,0.048821843145312335,0.09739110722991569,-0.07721653398879294,-0.2689069831214694,-0.15560386812583243,0.05813516516706531,-0.06367456668964423,0.00541073557732738,0.15133071397798367,0.14379977273776468,0.04476378503444685,0.09627175080964272,-0.11433533394582995,-0.13139432271163537,0.021871454193595014,0.15658137148601137,-0.022748659699120606,-0.05815197990667366,-0.18196410922658926,-0.12300424099692332,-0.05100476887070739,0.052418296351081736,0.08470075938326345,0.1481997472593931,-0.04487720796350887,0.07565018085412663,0.03448376462683621,0.10346191233409507,-0.07833272181565012,-0.030134186457697665,0.023113726336751753,-0.13251421214027104,0.13528631946489744,-0.1883566474123072,0.1457702451464205,0.16233529660233953,-0.0834057524147317,0.16661936818469997,0.12966679083635824,0.020553408030973566,0.029754658079078684,0.11809513399516702,-0.14273650526695875,0.10176930685350052,0.01124759216243583,0.011386381553643705,-0.21776818777639914,0.10199610784544402,0.17851569229636244,-0.10475295094709527,-0.02288978211385354,0.030142058123950356,0.11398803330766198,-0.1535396942213173,0.054147680836549604,0.1357422971880512,-0.1052861743495933,0.021823891768075393,0.16967358318264805,-0.2308426766433319,0.18363169385461117,-0.05951579531000906,0.11328741345340805,-0.020455726638939256,0.19318188836381103,-0.08172670607302453,-0.1970380953286092,-0.02568272702391279,0.018383357957329885,0.049448944142966834,0.07501725972050284,-0.05375601314640971,0.029842393122133562,-0.01773108989414743,-0.1032457715906431,0.04239605312443694,0.1311569560966321,-0.034543950178315366,-0.12994609927860148,0.12824748142413753,-0.11396864824415717,-0.025967464014119493,0.1679224537646603,0.11526554818871604,-0.18048253914244672,0.1321447094860938,0.0803500753454876,0.023064516533253136,-0.1270704228143279,-0.015091535522857524,0.13212641687911442,-0.024385867943089213,-0.12749749996385787,-0.09333586372401739,0.0032488407479625905,-0.03713576263788504,0.1594072702721371,-0.03775743200511812,-0.0895605882952027,0.10510281343665412,-0.13331845767733508,-0.20915009230165446,-0.09216842938839315,0.0866859852110844,0.03257554221472171,0.1872769850633424,0.30719440059014813,-0.22317840916658505,-0.042431345928298655,-0.22474328176338293,0.13566521471498327,0.11642716095385351,0.14152433020030628,-0.23037722685363254,-0.13007133813199895,-0.08118913371180073,-0.1574805408852229,-0.05150484096125871,-0.01960508341205907,0.21967351713123423,-0.03234508724130161,0.00178034525807182,-0.1404528873834574,0.1342563859404028,-0.037702591256358706,-0.14782753083272557,0.29294361343964004,0.11612348028066441,-0.003462574907199041,0.04912113974782566,0.14731996161274122,-0.01949643130254066,-0.04811793621130622,0.194550401258885,0.11403451340842616,-0.10456613140129797,0.08819536078034296,-0.20312415676770407,0.03872412508569926,0.19360039036165522,0.042786532233594465,0.1176130527652678,0.1609104506071333,0.11024112252759972,-0.028351032580369154,-0.13377926589949346,-0.00382783487305266,0.19328999684268688,-0.02968638377858674,-0.008734106627855658,-0.008919910417790888,0.08018285421303513,-0.0006537519877875134,-0.14489312644293428,0.13464868358218884,-0.10463654845884637,-0.24345964509859092,-0.1277112724561491,-0.003139775050680929,0.1614216873541444,0.0677604472492126,0.0277832570490371,0.0019443708582199924,-0.24459585302747006,0.08752208672730277,0.07801488183943175,-0.04113570534325493,-0.1843588282074191,-0.12093106948110763,0.09997225334319026,0.08153011374614925,-0.14787234274792044,-0.15306790626167294,-0.02201571933720638,0.20980559133789287,0.1172115673368799,0.17127366758341395,-0.05379865819365413,-0.11077281429377668,0.018880135373711984,0.04031193600990715,-0.16047011733811384,-0.02079733355316199,0.0690067614182688,-0.08319904561171296,0.0890490478429636,-0.0805582615594984,0.1502728171457974,0.2990868921165342,0.009054566585782938,-0.03856304553413996,0.12145144216382243,0.28544511719536125,0.11715460737150594,0.06857207118137858,0.07836259459945395,-0.2415373203318114,-0.1907553447588029,-0.1008467650306019,0.24344577392165456,0.13324036015900456,-0.14624027399121825,0.11067227443060858,0.06641806979065253,0.004848133934103036,0.17774990518345515,0.08365139463076872,0.031511036532271566,-0.09568354846787791,-0.16287989614254852,-0.023592767970713645,-0.19906438903354523,-0.006116778093561551,0.01150531510302858,-0.08925929137021192,-0.0811925887950442,0.08546778396906715,-0.017633694193265336,-0.2318486650132755,0.03522631075280372,-0.1535008887131499,-0.05057406204422313,-0.22906313873996478,-0.08332792550482496,-0.021674876690055557,0.08660419676626388,0.05256723210879763,-0.05885857852874013,0.23355745022932328,-0.13990196201029106,0.12564405181489552,-0.08114318366931479,0.1479889709832852,0.11880288487142468,0.017045292809865786,-0.3121201992745577,-0.1700627808833564,0.015594767057608018,-0.14392540662266443,-0.21540421169456714,-0.0018305477268462675,-0.20309381613304614,-0.14686736606499315,0.1637551568253255,0.09722938390908531,0.08821102784572118,0.1698462617991464,0.042625113448116314,0.1493614748754339,0.06220015032644248,-0.1573848655425626,-0.05799389713560949,-0.06877770452950795,-0.02600309389615883,-0.1294226245691725,0.025570840857428424,0.017150284311702936,0.10088321637747527,-0.05412686459432843,0.14859320806097184,-0.0970635643944571,-0.05485446341378676,-0.11330369793861184,-0.10872793598151351,-0.2128437030132525,-0.09672388562552499,-0.08157611610366358,-0.13421707250124346,-0.10585062001743092,-0.06598222781983511,0.14367616352926008,-0.07505614664748572,-0.058007537161513786,0.0026523097230025244,0.23207985672220227,-0.08207796287873277,0.02928092730721371,0.00837188563712131,0.05836353041231819,-0.006178575403692391,-0.054843470251372116,0.11203961368907521,0.27929897861659747,-0.1221411844599459,0.08962047991737415,-0.19782436910772955,0.061925287832658306,-0.11702124744020254,0.10297673224418916,-0.09776585536388563,-0.07120100137405486,0.1590162218626392,0.023897907911667075,0.11021906153227931,-0.042274396287618914,-0.013712956743241425,-0.05875067374710697,0.009645720910064829,-0.03347849624753498,0.11631286095628679,-0.026173080892425114,-0.12064673386227097,-0.08053574328924032,0.05942179867071213,0.08768262897754997,0.10736971079797587,0.13723690278066994,0.1298236323568818,-0.07374361623670349,0.017110830385395112,-0.04426351666178262,0.11209175011038938,-0.12783020337354864,0.15761827522441327,0.044116224446504045,-0.050479036171891964,0.21259286429805466,0.029281223422232532,-0.07794635940519451,0.17685854855296246,-0.02860783253731175,0.009218918566604745,0.13383960154850835,0.08124276013733957,0.11961728651660086,0.08799422561321288,-0.13887786989000528,-0.21787600855356545,-0.04805579551704735,-0.06453317332308985,-0.08269543610037465,-0.05444076390885134,0.06320174336824635,-0.14399389021087444,-0.19810349215937517,-0.03039503328180176,0.06495783206327466,-0.1775913126090877,-0.18387341900655352,0.3016203929177242,0.044328145720849685,0.03913362785466307,-0.014757272057404722,0.1526756299570684,-0.1353149388417016,0.052374457295278384,-0.028325675202402693,-0.08613219604621095,0.07419193770375512,-0.22018422624678038,0.21012574985030935,-0.1487185319495037,0.017437147606427204,0.17010688096721552,-0.17685430258207252,0.035326321142923306,-0.13329695156853602,0.11986382550385666,-0.03537371096606027,0.11641714998872968,0.06584474300823434,0.07902058178043525,0.00035408682754453635,-0.05265909746089744,-0.06845755825522512,0.13276402068373305,-0.11353898561171498,-0.041676543816596696,0.08372752083078815,-0.13103269664201164,-0.059664079077855176,0.10374524315408803,0.19936588485342774,-0.22459590430268306,0.18586161358953496,-0.13972955614572619,0.1970927274610274,-0.09934113619950535,0.14281924801565984,0.13296362923709432,-0.11509087797686941,0.08004256125492698,0.316837587439565,0.017196151217885498,0.1258444977964509,0.04934452789736818,-0.010433901752274804,-0.03156830311701059,0.11875882412478994,0.06931429175570694,-0.05459578380379805,-0.1237742421176592,-0.08446953714710656,-0.10180213369075938,0.13805955649047796,-0.0789308462553979,0.10927998918230458,-0.20121490666364664,-0.04358726775969071,-0.21108535211299623,0.1691845878531687,-0.11605952341070774,-0.0890501618268051,-0.20360234929051874,-0.2555446339228708,0.05721450750590054,0.2048932696312554,-0.13583086432763694,-0.12207587350375984,0.24415358992033537,-0.022850919281454274,0.023074172676614983,-0.06614543168779025,-0.0960667086685832,-0.015685441259325094,-0.2393321689673981,-0.0034000961671088745,0.15796860376169522,-0.0008314412464488254,-0.006470835483324007,0.04237090016433405,-0.2072851062077813,0.21505069239562757,-0.07195359144208721,0.06260752036717682,-0.18890618305694595,0.05108130185769479,-0.16828763865599525,-0.010418948515789672,-0.11871891992388303,-0.1293426375465823,-0.14300752572206632,0.20023157904833463,0.13839980021205295,0.049576948798741596,-0.017705327881868647,0.15731655343862885,0.12572312892203708,-0.16334418969219644,-0.059953005643067214,0.00022349564092496305,-0.15140658440751179,-0.06740731122821242,-0.05505551592502696,-0.21029094590730404,-0.08293191436638667,0.20816048817891875,-0.05043918522483115,-0.052478234412298555,-0.05378634446909979,0.17896241275720862,-0.01448951335230609,0.08321945893327945,-0.02907602059828368,0.06102553776569999,0.2424781429415867,-0.009251008179357319,-0.20974274797683307,0.04047167970740635,0.13118758148293977,-0.14696518660779212,-0.09301292938444777,-0.03624923607058139,0.08282828993090222,0.14005212715537027,0.02410378861396706,-0.10393619995927145,-0.1719166777098026,0.03251574614961972,0.1473642028217117,-0.02321442197257519,0.14170257498032457,-0.11939300383136177,-0.04286544727459632,-0.21563110676467112,-0.14685224687048454,0.28421239218410266,0.1241897967685103,0.136102676631764,-0.18012356495258353,-0.1956584754568742,-0.09442706168243473,0.15922430351160027,0.17379821291469377,-0.0026867570746654783,0.1176353486099737,0.10179124268648021,-0.06525298387052429,-0.1881421091398221,0.03432105542335888,-0.012968468897131847,0.03713649834116109,0.1350827934559788,0.049469000871301454,0.09154660343331605,-0.019582884549477632,-0.2245984292895701,-0.05499612755648445,-0.10923871717132795,0.005280722896392399,-0.01612239077380699,0.06290321871235559,0.14695915853155117,-0.09957351606077239,-0.033055889400992175,-0.03719018860148994,0.1732149883556684,0.08659682799401708,0.1749226423980514,0.05145355245636429,0.047495610141017,0.020416312312099706,-0.06545359699453396,0.192582911722443,0.11982862321513944,-0.08155390179285649,0.21931403820442655,-0.1716007077927091,0.0020124134039339985,-0.07951828381537142,0.08782512319435734,-0.15818666903092365,0.003914186659170996,-0.05156886688537496,0.09529988210289102,0.18162368983008115,0.0019216191743433308,0.02782946940664579,0.23048851776323792,-0.21989211541264694,0.14662816264552914,0.2361953079963889,0.0023912803898784377,0.14234774248367552,-0.10745833075486219,-0.0882877393362487,-0.042047489992127055,0.1431650715153972,0.2782419729469843,0.06827549603796043,0.07790011129069928,0.2738852054723163,-0.024809477195071178,-0.017356305934743715,0.25426926409100814,-0.07140506361651387,-0.08216587175408957,0.005861562682072257,-0.13238280326135746,0.004465543930524479,0.22489243204987874,0.20423177075445356,0.1886264630885835,0.19255945049257608,-0.10345080407256982,0.01061967661447584,0.25798517866545567,0.14525468155086813,-0.15877082133569118,0.20893584016863612,-0.06289211631144394,-0.019927113663411267,0.15878010316001762,0.06261477191084676,-0.05340863032235915,0.05751143854691617,-0.17308379228723414,-0.12198801843740567],"biases":[0.20270130353911747,-0.20947995327380634,-0.19348190122878842,-0.17819005968953766,0.12557256495161018,0.04934874921692213,0.0519714203554065,0.2837199188103964,0.12017637036773712,-0.15537682826898255,-0.07736866597448386,-0.11474071522481803,0.0041959098059115435,0.10065959803296207,0.1866994641271501,0.09500182604271504,-0.17019494981115008,-0.22991188817558156,0.09909556894656249,-0.1689471916650478,-0.21324216633967724,0.008582996821720016,-0.07331823709631222,-0.02496450622776665,0.030563777382515617,-0.03813800519879465,0.09788526568038194,0.05246814725528558,-0.009255518804436827,0.16112342033453103,0.030107516701966028,-0.024295057411978863,-0.026210412406111886,-0.14738531180036346,0.15184607191926242,0.21410898607805803,-0.1364049850498286,0.15819602911643543,-0.0531882461315196,-0.05340447832162693,0.06452830774777303,0.2196401080064178,-0.01112022525603168,0.20166751852376053,-0.0768696230856928,0.10715802062253643,0.016694425402556876,0.019878872132715615,0.21349084668037807,-0.13159118412379314,0.18268915584811043],"K":1.9769557196481602},"sigma":[0.04280467159078241,0.04817696379987682,0.06487291238325786,0.04387737343758625,0.050229579006441094,0.051329716702746324,0.057352624100120465,0.05043773112916855,0.04954258533650407,0.05249124302929309,0.0535212916330968,0.04990846430601862,0.05672217580104382,0.048469831938801194,0.04797739755925872,0.04543394921271059,0.04677329299676117,0.04857274736205158,0.05153895964829397,0.0437002170989651,0.05558142271372729,0.042721597625789934,0.060135693711712485,0.055716939254105695,0.06374564447412023,0.055250667449996606,0.05682296828202729,0.06399836419526676,0.04960759569763237,0.06043803130860436,0.04514240260864946,0.047458961539609906,0.04670307449309506,0.04838711189900685,0.060067948332291246,0.054566589117497157,0.05538650592286959,0.04945567060752731,0.05696851041176598,0.0542657402304831,0.05055703614290339,0.039575221071313865,0.06187921399437388,0.04495020908505901,0.04158946805243319,0.058611293836740345,0.046809307920071035,0.05048407997935999,0.045915814952665536,0.04831637910622688,0.048166778370591405,0.04060086392509388,0.0461027185018964,0.05498197209773126,0.04659435051307155,0.041995109498406395,0.0397143554549877,0.05502224282719455,0.04583022615271629,0.04855221568216493,0.044314815386496745,0.043219427376490316,0.0501004443973074,0.053302276077131394,0.05084397566141873,0.05791800458027795,0.043170960151919985,0.04884474485750241,0.058296747829785424,0.05846021610795519,0.040872564675202776,0.04612152818577012,0.04620581787953485,0.05754495197750268,0.04987550733009006,0.04604957994805162,0.05295227642305755,0.041372560375000055,0.05577018491854488,0.05100569209526306,0.05353464532177932,0.05268889273794879,0.05254787196035622,0.05265060401309949,0.05905623072828964,0.05627468157386309,0.049465253344232435,0.06529969050262689,0.04213440068628977,0.057127371370742266,0.04880524271680859,0.06069822972472534,0.06442720517616267,0.044499840638149796,0.04732623030521289,0.05083994066830545,0.04357633088779116,0.04589358355242427,0.043559325660179414,0.05783820471997711,0.04936081714880504,0.03982183534368018,0.050404459352182455,0.05015369722417479,0.05612413166117526,0.05149806904917901,0.036118750589982644,0.05933020923243887,0.03906729667955022,0.05385875367844381,0.05920765678357706,0.04530768831786085,0.04779959212863552,0.05951417220151405,0.05096209558093098,0.043830961949225394,0.049627787389449105,0.05010897297201115,0.053013402787949,0.0481400973557386,0.05014995346254128,0.05351445980863354,0.05270254864847396,0.06024125900495961,0.05359194384327496,0.04694891067000694,0.047277710116921806,0.045914176593258665,0.042512009495555766,0.04968826060693942,0.05667470341046913,0.051954698077455376,0.05513914008772583,0.049136687440553044,0.05522835313682511,0.04974677239764343,0.04335859929026334,0.04579899427269461,0.06292498241378118,0.04511803731267201,0.03863666721098173,0.05016153038474724,0.04905346002238702,0.04367806417763337,0.04032715609042942,0.048345533443185595,0.048559182690917274,0.04895839766821454,0.05205745183785926,0.06020134824124484,0.05229950294688569,0.05001922788530066,0.05301858507207207,0.047907083288979226,0.05237662849769675,0.04558750094402239,0.043880476861700074,0.04921221051823358,0.04354315712632997,0.04418607090717572,0.047077962795562686,0.04981676513604614,0.04773399014576654,0.04774328082171208,0.04830572356724536,0.05305006680461947,0.04797830690567658,0.04061347742824744,0.054388714449444354,0.054591182452678945,0.052353860324796636,0.0525719419182743,0.05783020746126867,0.056035665132600915,0.04501210692119937,0.05770204586278647,0.048100557769909055,0.04948415084429928,0.049866859667231846,0.05764261288041536,0.053862939374173247,0.04425374025297493,0.062214210426423,0.04755649812460272,0.04697698052584581,0.051142038131135485,0.05142762141006199,0.0527390270519691,0.05296216023189846,0.05022995717849482,0.051703398280734184,0.04784708481341052,0.04522877199331064,0.04766216038540195,0.057838462091262914,0.05274113741971656,0.04309279523174518,0.058775156059958894,0.047872474926680904,0.06094631943331731,0.044519447929117,0.06494538581610564,0.05227410958488561,0.05138130265383343,0.0507723709296303,0.060877947509862834,0.058976177191368474,0.05435349850065063,0.055456559353968274,0.04935382894107291,0.04841604777297905,0.050279231252169404,0.05238742854093802,0.04707423353200421,0.053416583191007755,0.04969198905691047,0.05079654118878061,0.04964833584358374,0.05392635798797938,0.04636678605946813,0.0467199669602629,0.05425406688718575,0.048403894276763726,0.04991606808938892,0.05759294510903556,0.052753565439865806,0.04815361935396198,0.04720736557380785,0.04368059290980173,0.047853382823965354,0.049639968083733624,0.047830693663696286,0.04390392852067662,0.04704452401013221,0.04892960741529954,0.044204189208007026,0.04033831136983165,0.053160627319961185,0.04495912736170432,0.04972568605208514,0.04365280898776776,0.06316253892745048,0.03977766270234722,0.04940573344203945,0.054565744144455024,0.046981801572214696,0.043945683353610675,0.052548262830701055,0.039424520738105484,0.04894322258896832,0.03739681537851177,0.04731528260249258,0.05427427121720094,0.04943859232185797,0.053338607190320554,0.050787435406851184,0.05058588566974751,0.056033514383903804,0.04677340167640116,0.05049153639442081,0.05135508032541622,0.04867295433239072,0.04276194125382039,0.050097949305881254,0.05012682562194531,0.04685897631389188,0.05261214255618504,0.05267819200911168,0.03624262795247807,0.053336115200619455,0.04793176657505685,0.04824854802236669,0.042657665783458726,0.04806149328173208,0.06045873787892706,0.04525667073062186,0.04915604993612485,0.04998254124591444,0.04850867241220358,0.055189557794485124,0.05466303477031929,0.044614578105908624,0.05140359416715843,0.053782059474211975,0.0401746636995331,0.04837173737225507,0.04663081158491069,0.04732222513987832,0.04815227026839379,0.05531539302032001,0.04821468415515051,0.05585267450326138,0.054657095265350265,0.058375818201284915,0.05695453308160926,0.0531266711487671,0.05941371203331513,0.0507586655707126,0.04592238954196568,0.03886079897112107,0.04271170316076456,0.041242097680569335,0.04496121153063092,0.04809436214178313,0.04878185678178699,0.04190432254219604,0.050114871871144086,0.05035934081741055,0.05533136034443015,0.04754411124475856,0.044415351196961605,0.043204898958455674,0.051301289099127005,0.04825098668665814,0.04656325470926857,0.06193926740470315,0.05347710642026653,0.05216684547123849,0.045956026220973056,0.04811927015058033,0.05648209730660556,0.05460581223746193,0.044423344769092224,0.04743329776482163,0.048539539323046166,0.056170074067933284,0.046683491461921314,0.04266481162366001,0.04680204115632361,0.05364893460407212,0.05906021643866704,0.049832017758008454,0.05326377417025391,0.048995502967932425,0.05262811330399664,0.05949102980096173,0.04514534915623275,0.05713508768213458,0.035594655635633986,0.05244580233281846,0.05437522930904298,0.05262049915361623,0.051827357002107444,0.056989205436317705,0.05370344209677972,0.04721093455445316,0.05396742442545016,0.05045436415086037,0.060941580348777204,0.055816122968437035,0.04516025345959108,0.06053813788918216,0.055424039696387345,0.04886439369384382,0.05730274778522315,0.05620373764721814,0.053814747143290466,0.04793368372430661,0.05557041878572175,0.046208893016838865,0.049517121446938546,0.05040103391141163,0.055563624367928735,0.04315209063041994,0.04958848784152808,0.05453110966382906,0.052629505077742444,0.050545557638479066,0.052119298547731056,0.060178523063656814,0.04721261389725777,0.049761867268421175,0.04914083710830275,0.042475722982537066,0.05300191212534927,0.05729088079705735,0.053115950354150315,0.043727408387452954,0.053901365735817386,0.056605296948590005,0.04643708849371562,0.053305009603026976,0.05223054964552575,0.054214647956321166,0.04832746901607872,0.052168641700412,0.062433353615620094,0.041667760002080584,0.05835283641746474,0.04759767066213866,0.04964954695272984,0.058257130596037376,0.05748192875784628,0.049599321304490476,0.04841456290068066,0.042229064640365056,0.04367706970113998,0.043719069839923734,0.04182010412069573,0.04809927935184677,0.04811944802973286,0.04892865581139307,0.04705806366932151,0.05445663598513931,0.04809960933242483,0.04806323329813248,0.051812467980598964,0.0480405106933096,0.047625833762918075,0.047769532407715316,0.05948061762817111,0.04564589609066575,0.055121915377506096,0.052556028731955154,0.05028730976191851,0.04890907175086284,0.05246520469465696,0.0450319539642676,0.04661033982906185,0.04845251427369797,0.05590788413440834,0.05439473124939817,0.04534865187772176,0.050292397257144496,0.039543973896034104,0.05710280538350272,0.04127807947467831,0.04315846975610252,0.04560992960313849,0.04958624586190356,0.05134801362479307,0.04493913245666563,0.050488260326596396,0.04571888218362346,0.04975121453382956,0.05223939162735291,0.0562840437533309,0.04755944868364776,0.05619191850115549,0.05280903296568761,0.03875168967192464,0.06025088895330282,0.05007408469877364,0.045682586990117874,0.05400123050027583,0.0517257788126465,0.04816181956671291,0.0451285614561876,0.05299319921124515,0.04326108423764056,0.05473357599770067,0.043720905852200315,0.051428237660566783,0.05648782929043372,0.04315272006090995,0.05283953239397554,0.046320159822561276,0.057262494165275984,0.047590186133119154,0.04802227473597344,0.04377921651269939,0.05176009818589836,0.047053506439947664,0.0484522470658303,0.06475487530332494,0.04957098989096442,0.05518638183247448,0.05285583254504152,0.050109920241237504,0.057711568363449255,0.04470075424420268,0.0538464925220368,0.04828104899078685,0.04721953467578368,0.04965504674712136,0.050498368796379825,0.054592809257658984,0.04804239439811653,0.051054138707121034,0.04905399944721303,0.05881938560536681,0.0464857627739098,0.06899857686338173,0.048977475056797226,0.05696161481877461,0.04308837425836359,0.053215097330883115,0.048325961431008584,0.05243562075667283,0.05347008553035987,0.050151037187371905,0.044925959042365196,0.045311997788573186,0.04700199480206719,0.04539747840844778,0.0513350615755363,0.046742479012410826,0.060295668336124986,0.04751525390087846,0.04512625912820152,0.05763441905661511,0.047539721506135564,0.050741932671267566,0.045161007316692287,0.05100601972115909,0.05424304548886732,0.04305627166978369,0.05047906126484596,0.05068700499629141,0.04786105467031253,0.046356804732759514,0.055042400318964915,0.04123962079394031,0.04509992393544723,0.04560686324829457,0.0551823386593443,0.04712647021550326,0.049612874030612784,0.05301121572611657,0.05085552955015789,0.04865236169306539,0.05032400546514443,0.04832340326748345,0.0509292799816506,0.049088210179643266,0.05090944531003688,0.06196904910836418,0.04706690337245246,0.04717335646197199,0.05693862613548274,0.052216905716501005,0.04409020558339559,0.048355011423806916,0.043842456979167346,0.0506735116625804,0.04955536303513955,0.05391623011230791,0.052276721259927585,0.049329903515283116,0.04897938917492209,0.04454097647784888,0.05846575732126744,0.04669495788931649,0.04117029309935351,0.04137275775273282,0.056530068675459115,0.05151940711952327,0.058817157902183274,0.05225250419212849,0.05730956069192059,0.04773338373480536,0.05215393544693328,0.05381287935704398,0.04902359863104175,0.055721560242963486,0.05441931053897732,0.0648704812706667,0.052474406377138454,0.04647063883168726,0.04481517627500477,0.04916937791703827,0.04754522485933227,0.0480551047472942,0.045181888001780024,0.06197320720713744,0.0492020207385212,0.0569746208329843,0.0491077672465515,0.05868129034924757,0.04975250146647888,0.05288612088554956,0.05049719593233625,0.049003881666183344,0.047554588228326464,0.059558313194866756,0.05002488981031923,0.06245525460334486,0.04374653633390196,0.044009102429795416,0.0531749309072349,0.05168703545253679,0.059837499310892744,0.05815623993298241,0.048483794262384604,0.04847389738704807,0.0464461828311095,0.05444243809841064,0.04455516098054244,0.045433384907928594,0.06084165638401332,0.047028213440034564,0.05127975682070401,0.046310260380113086,0.05259706665141664,0.05009720383083868,0.05136272694396574,0.06071502635510842,0.054858643252123376,0.04181028001709833,0.049568790322848014,0.046575315435609714,0.044959666712775403,0.05430109177083351,0.050323633179669605,0.04669033711980408,0.05944041419940447,0.04463062098886317,0.04669246325904051,0.05383731999993076,0.05808163219451423,0.04936602144794981,0.05260557966388638,0.048583805223047546,0.050134055603771224,0.050916134323227,0.05590009941102275,0.05710340467515477,0.046664736177959854,0.05432304041487105,0.05388324698572331,0.04422391883822486,0.05365409182648609,0.05509626149402158,0.06054765695761458,0.055417321121091094,0.05359212542421285,0.05911191080933346,0.04974520557140245,0.04065179001697963,0.04992473513613535,0.05704935541222368,0.043069245228836484,0.047664867074334386,0.04657038589261606,0.044787394797770545,0.06419339703458318,0.055982291746539806,0.05659101877907873,0.04057088537315899,0.04319281784058773,0.045386369743435066,0.05061067441144527,0.06093759536232299,0.05068295483372907,0.04774233605580694,0.05009895719216817,0.05061472105096113,0.05254928322731087,0.059161747168077865,0.04318187198932916,0.04057136673723281,0.057855957786419845,0.04692810772601407,0.05206260900049508,0.04748096745575729,0.05462118131210467,0.03809306366337862,0.052679039039417314,0.05056993746725315,0.04368821747271554,0.04370402023021315,0.058770773766023035,0.04000411775991791,0.04652539040232782,0.0515937199042845,0.04585470195099468,0.059066504142312785,0.05398803467821466,0.05327201289046573,0.05453978042722271,0.0513003062609784,0.05434051203782674,0.059962922857537175,0.049380879619273566,0.04983902931139488,0.043316454223337186,0.04901012142049491,0.051566067669132624,0.05476796769520451,0.04271502444939923,0.044553276295335696,0.045693354802672295,0.046829396380994634,0.05127766796089275,0.04571388583767297,0.04559414210674315,0.05485108839241701,0.04992021318467555,0.05727704918877835,0.046496527714444055,0.05038993680104279,0.04896998332421424,0.05103209577488919,0.059956588621371834,0.05190933519488077,0.046068202924380186,0.0465781298244189,0.054995116039628436,0.05290034900876494,0.05162359140956224,0.042439310785290056,0.04651424251931351,0.04978170538090932,0.0467756195601854,0.04858461926444034,0.05191728169351411,0.046181395342792135,0.043926396156279274,0.05197801542473351,0.04191491281344972,0.05374497859275906,0.048586879455537364,0.05014746095136272,0.054180916318268595,0.05572917822094656,0.05045977259869066,0.06102934346286462,0.051282473769468956,0.040956512071982344,0.04813271665652884,0.06079647613807326,0.06093597933387305,0.047855077030294235,0.056484474540280244,0.053238673561985764,0.04655160629264335,0.05009400775993186,0.044896634031556325,0.04070190855818891,0.04348577830662136,0.0513395154385293,0.04244953073475616,0.05357923931487796,0.03994403864797491,0.05147606674480613,0.04471549195581734,0.05424768361342121,0.05055123828278796,0.05154332976446807,0.05092399212307319,0.04729246392179348,0.05322288240704497,0.05370119223837433,0.05323234125889024,0.06621467474919818,0.05063217984997081,0.05492759306773237,0.062160181543212234,0.04925824810848545,0.047285922908526866,0.05280516325815088,0.050113418480694776,0.046461336149778154,0.0459226291532544,0.04793451497253778,0.05013468652465424,0.04914634709278419,0.044286143064247226,0.04626883521217917,0.05365436452316839,0.049803417037734,0.042994731178784995,0.05080215083754676,0.05110516474675787,0.04762591950195649,0.04617284538493486,0.05776666236915415,0.061611485242486774,0.05193497840583339,0.04390178817475378,0.04893978068242575,0.04538712247432202,0.04504804591541656,0.055851626797721855,0.05113784830022623,0.03967637231990151,0.04562586044236298,0.05061356773887154,0.04027127157858098,0.05267113474077735,0.05460059181458987,0.05735890235954402,0.05071550839363517,0.054228352449565434,0.04883044597628703,0.04277680804322051,0.04638414834386809,0.052130907624165036,0.0505978572584614,0.04855531436870768,0.05403279751957834,0.05719325230313678,0.050901186766338105,0.049090795427050554,0.04649193186909675,0.05189190752727871,0.05738397746617749,0.052014321042840886,0.04141603087542626,0.052029459452379356,0.052005807641791704,0.04841277616787905,0.05208318385939547,0.05148617291847534,0.04987489352118052,0.05556331389324013,0.050338081882925184,0.044185209866101305,0.05447676401354891,0.04936087723316037,0.05800187052862681,0.05020369314875023,0.05010474039269376,0.049858469379862796,0.04542045924370014,0.04910401808534563,0.04688482127997534,0.04805537138284329,0.057788384070782364,0.06115527952244152,0.046291768022389726,0.051701937868072825,0.04988646211689143,0.04118979079873073,0.05440777704213234,0.04480766932115751,0.04538622769349122,0.04894250775063714,0.04478563112257447,0.050441704337486605,0.049586053566712945,0.05100482933599868,0.054963956286829097,0.04563093508351621,0.04711136029003061,0.050593833723465015,0.046130019647774245,0.05008786781090764,0.048628360969860895,0.04642358564418046,0.05406948679716736,0.051275392925438194,0.06459766012787814,0.059248107787717955,0.05337987126343853,0.04516484066262842,0.06196472013599472,0.05258636733471067,0.05280272366466857,0.05124362173971401,0.05003829814906346,0.057298129154757974,0.04669070025436284,0.05206211324794438,0.05468864263707407,0.050198046523926926,0.05083395515539777,0.05180111977175002,0.04406373276638238,0.05631981101638586,0.04564180738816365,0.05475346579076301,0.042951295254529794,0.056921460104483734,0.05382304736467122,0.04950550629002062,0.04543280153286829,0.0465462689423361,0.0477774081667742,0.05070734731231448,0.04897206727151973,0.05260588043205529,0.047557568166718765,0.04593110007215952,0.06226095783390803,0.05204189501125842,0.05022112620952718,0.05587649444728813,0.04682239038271224,0.04555685202920834,0.0457610888143191,0.04524938826579017,0.044950788582842766,0.04273256385244592,0.04793098384547951,0.047435247670465294,0.05052382573557168,0.0484172999222894,0.0594984919639566,0.060123525784555154,0.04423191264829578,0.0542012603780406,0.04578784575650584,0.04180176623710481,0.06399688005917922,0.04332309435862432,0.047046724343960615,0.07003960173388517,0.04981280197352231,0.04746302483213177,0.054368589114172486,0.03752262641878051,0.052786339889479145,0.04900221381622456,0.04481261616163093,0.041312017185534025,0.05789073652801319,0.047499771468026045,0.04647632470713087,0.05034529317813215,0.05956771593508073,0.04831527499519349,0.05180469797288867,0.05049158419312873,0.06675673972555105,0.05313245281543083,0.058236730600811595,0.05087839851563489,0.054992438914193253,0.054307014545199164,0.047807880462921996,0.06348351818650788,0.051548905867697614,0.04458326159455744,0.06853885818405583,0.0474450258437028,0.04574104215910635,0.04941759387157972,0.04931175513826887,0.05623860750336679,0.05095149724790052,0.058303316121858656,0.04543978563731439,0.05466449664789792,0.043578999452348,0.05364576769694582,0.0402354015432892,0.04127017058602226,0.059049169973367656,0.043372079661533836,0.05540319652306013,0.04545090641674232,0.05331076417445422,0.04876825756141416,0.040944334933295225,0.0460879251854029,0.052395870652867965,0.05548973730525685,0.05492714094383351,0.04005573583321953,0.058128970615033276,0.04548957161540283,0.04420589278001012,0.05586508842200627,0.05179124738051706,0.052402167171033034,0.04584453996855154,0.05273197004553931,0.04672609387496828,0.0535260051306707,0.049239422326140606,0.049262182596725004,0.05340211549999353,0.047701062972095476,0.05309104398696532,0.048245012127133086,0.055748352642946745,0.049674735118555566,0.04428171776236585,0.04232046474196221,0.05970483211349952,0.042173332346352635,0.05905924733115114,0.04694604981970543,0.05709727873250484,0.050692161297089616,0.0423143620338883,0.0662353959762895,0.05603173446589926,0.04897815183645299,0.044688650578910145,0.03889994754263834,0.05650061317868282,0.049905100733651175,0.05627802408925628,0.043698684429747975,0.044335039458658944,0.04618301326853865,0.05203195957018042,0.05458657697039585,0.05265695042728346,0.04715679090077514,0.05046482861601967,0.054830076079244186,0.04938845459304536,0.05553180808292907,0.05243868974196983,0.04090666272222214,0.05147203325336524,0.04726050907860957,0.05213786326287706,0.04183956655258714,0.05035251380896057,0.04611728471968591,0.050837509657084105,0.05610261892996519,0.0464148917980389,0.06262243690038848,0.054487225519436244,0.05201491778481198,0.039129124795911366,0.05499752121354036,0.06067545116713489,0.05153031487714526,0.06372078347349919,0.05576474796187633,0.04581960496975089,0.050195917663693496,0.04618305913344564,0.051713512028109615,0.06247482908817682,0.05462941392306706,0.050035336315558676,0.044016639438011,0.05361673042436125,0.06481411115648072,0.050573883083259455,0.05443565017948339,0.04750486572754673,0.05422198567842249,0.05139627209006621,0.04711470797189069,0.04857495480063904,0.053672305033880985,0.0484484579601948,0.04433117462848432,0.05400622914454271,0.039745517276321606,0.04460393136802431,0.04972415462886137,0.05889485582021351,0.04573512680021351,0.052995354794053706,0.045522395837870024,0.04995031314886022,0.053117976883857235,0.052139090510395295,0.05558507072566548,0.054474063208374834,0.05140637580644537,0.04418606393754619,0.04948817145414189,0.04775732737462685,0.057385957472408745,0.04527441301323755,0.046712375531733664,0.052680489455317794,0.045406240402128616,0.048481873777048434,0.04641872031681191,0.05084675043670583,0.055504449333889955,0.047916018438324826,0.05377825085877137,0.057262161861620565,0.051445833098263095,0.043071513701481955,0.04495059463789086,0.04614255055083107,0.04366834175879553,0.05410264388860856,0.04805932439282214,0.04828876084545822,0.04682462580890857,0.051828821079089864,0.05209771275867016,0.05279269702956585,0.043730386851646104,0.04555906632321255,0.05546844858521987,0.04302358179678725,0.05378148270570752,0.04740232182866163,0.046431081678983355,0.04725688716098131,0.04989857590238526,0.05150473799174409,0.057329769420535526,0.043393071661397824,0.05623304361150087,0.04464762538418446,0.056730882707091417,0.060135295846232055,0.048704779040663684,0.04630320512665541,0.05361014921173307,0.05023006164859878,0.04466948215627123,0.0555077528254479,0.05149516306351387,0.05269458421124182,0.05091156738672027,0.04872976335565734,0.05364272227342457,0.04781576742961691,0.04994477032326876,0.042579165105446085,0.05616525173380528,0.05530430159440922,0.04543248479991677,0.04546258622403637,0.045338791092968546,0.04528237654899088,0.047255482498645675,0.04066144090911692,0.04721990682988465,0.0516765179477601,0.043450357568125444,0.048695462039449695,0.04797770041966406,0.04968869658146264,0.052501308159529886,0.05423560820834612,0.04753139024039318,0.059199601073750545,0.05220118350707606,0.05298059166627716,0.047839672639156366,0.05520914404145132,0.05822918351892045,0.052496349332720973,0.046011496756146436,0.050258038587732604,0.051929577342481936,0.05267134299053518,0.05972823439294909,0.04685379032280959,0.05444231105481482,0.051019423767622946,0.043709097795318674,0.055920102871578226,0.0487039521456351,0.053401113341217665,0.052172060339659466,0.049389651515971356,0.05147024634206387,0.05488225395789438,0.05089163586362623,0.04075142581875607,0.055513184333641545,0.0484408539445924,0.054286372896592244,0.044269031996817455,0.05455352437650179,0.05171458155259106,0.0453013818700117,0.05048051963345103,0.05336337752846429,0.058674385290339005,0.04329112019956246,0.04424288938541344,0.043336518815908845,0.05459517660578078,0.054358340573866265,0.0497972633053332,0.05483689418919962,0.043528034435298554,0.0582976412350171,0.05059615006921503,0.046188692254007256,0.055673924932924994,0.0440752057497,0.04726609276781618,0.04173185184630424,0.049077332075824376,0.05915889768299712,0.0527555255251361,0.056846849845519444,0.05095327968128253,0.046108187736754624,0.04264626654232734,0.05545250416619697,0.05324966965845204,0.04822881201794447,0.0428287403478268,0.04976344004380455,0.049639720236202806,0.053187110086103176,0.04717933571723063,0.04087380035998481,0.05193425500935942,0.05552801926784151,0.05138036986488018,0.04839922495160735,0.052128286419568653,0.04423949728483299,0.06313500664750665,0.047068814618964866,0.05701462416278933,0.04386913661112296,0.05561591103892536,0.044970526712885456,0.05161800219854127,0.04443613303836317,0.04300025357479761,0.061339806981926585,0.05713585072979378,0.044018535117367696,0.0513161631131852,0.0494824940760248,0.0539029289110496,0.05695102911048057,0.057847604790413724,0.04321587813029312,0.04793236975332993,0.04326344848506947,0.05169094479819755,0.05721804943437765,0.04399976420155821,0.04648830129201013,0.04918476820658049,0.04748474074291313,0.05805298556923767,0.04532399676689489,0.05415291400374936,0.04528468160235253,0.051171875379752166,0.052452794957075125,0.05454784168285455,0.043745964260481975,0.04739214037219922,0.05533717790748506,0.049290628073078685,0.046174976219390394,0.0558208715529693,0.05066328820947008,0.05566629302924686,0.05792085797493646,0.04854941976369058,0.04724993810132099,0.04265488833076484,0.05887191200290012,0.05160197385175467,0.04750760722785812,0.05355028992203725,0.035707363583682115,0.05038767050965685,0.04840395457598434,0.04824891169183782,0.050993241197916664,0.05289635731251638,0.04806220013212,0.051367751565224454,0.05359578737749831,0.05375221897054477,0.06757570472021257,0.05953711773161842,0.03928061138528971,0.04674135935394069,0.05395085313129036,0.05002410285017385,0.051460863287317,0.05236573123812291,0.056720529720121496,0.06330450741946357,0.05633489096223333,0.054276032318894954,0.04654585418015673,0.041890706415680844,0.04699462389265183,0.04180412809147309,0.059038911525528565,0.049738797843730524,0.04529577695342257,0.05877801457641518,0.04396298626427364,0.049186090046519165,0.04569624632181914,0.04545847820942941,0.05079022349842215,0.05176569916350582,0.0543905433233593,0.04749378949543294,0.04784335450004212,0.039508117888648636,0.05088236764945008,0.045196821431602,0.05418612554952808,0.043871582063515914,0.04499039861105316,0.042727717707501806,0.05066614383922048,0.05304143634349326,0.05919944532583119,0.049867333985732204,0.04932087969490867,0.04910810961486617,0.047449789392034515,0.045172699245381136,0.04489766974220654,0.05250721313591753,0.057642351719882856,0.05487637327369119,0.049713604756434666,0.052293207414958645,0.04850241875621223,0.05186445565076186,0.05185671021683235,0.05713602807311694,0.058246786227422714,0.044675844125670924,0.04827917588440727,0.05327321713231386,0.044047086112063906,0.04791263425431104,0.04404000676361096,0.04970783620730321,0.04519651466643171,0.05243188257611906,0.04248640456409533,0.041316648518966326,0.054202231203180476,0.052462146139980896,0.0384920216081901,0.05398752320114203,0.04455018575849898,0.04536405934928294,0.044969746457800525,0.04398213297061127,0.0487372338116453,0.05590130882571892,0.041866096863637424,0.05341187368491901,0.05140497937376442,0.06026956578800538,0.043424543951382684,0.04037923992561136,0.05606587881278607,0.05440570191751168,0.05683009645575587,0.05582779481437633,0.04457566702234334,0.05750933610854983,0.05146549662963998,0.043402271748106326,0.05965648298910552,0.06267947143175266,0.04958013245390175,0.05461464319263627,0.04590928738610574,0.04802801005163075,0.05253480490226956,0.052555656594991354,0.05671843696876057,0.048370687120936645,0.0569409476663055,0.046432804083056764,0.05456536537877226,0.04382421335695742,0.046919437269165365,0.04721949815696766,0.05168322439424794,0.04843743875537987,0.04228936324882178,0.05801019429241967,0.04759358621307655,0.044260363354900384,0.049208664975753685,0.052164160977694524,0.057035989868864156,0.045111804210531244,0.050946788667039215,0.04722820103107131,0.05305923817119243,0.041177588342306996,0.055838510408041026,0.04785346344547532,0.0469341684199157,0.04698764770830449,0.053392394903752194,0.042079802470206096,0.053275428592282216,0.045155050898952706,0.06048172030825814,0.04656180148437225,0.05258734276606554,0.046620825084822265,0.03689983974472956,0.05224901812160879,0.04820681517294766,0.051409283502009157,0.04784356459058278,0.04559720465359252,0.047779932215746196,0.04805213555195845,0.05796812545704494,0.04653634869004504,0.041739122884697895,0.0468658880694178,0.05801123693168597,0.04703459581901836,0.04926653504849617,0.05066945166233039,0.04893424179085359,0.06022536563301491,0.04299609954641344,0.04287495065559261,0.047704321488276295,0.0458543681972248,0.055691025809093846,0.05235406574110721,0.05835324167445251,0.04411205875561168,0.05057567057701056,0.05202930643177857,0.05408737535043551,0.04720082522542923,0.053341443308845375,0.04556591278685958,0.03889854841427672,0.05802556002996051,0.0548530457414067,0.041431495752564475,0.04963465154548607,0.049498050875108036,0.04815576146355489,0.055188507363799426,0.04882420417596117,0.04593837300633566,0.04561303231869641,0.05778209552463788,0.051864490115384715,0.052907078572305644,0.049195632220625535,0.047289214891431584,0.0480293811875353,0.05856816794394755,0.043464888203954624,0.04666030114168513,0.049195383060874454,0.05530685630245802,0.042113637442625064,0.06315358404731143,0.0567603998838973,0.05174964873730107,0.04732899782188886,0.05179012466140303,0.05391461731513968,0.05856973544044324,0.04158026784746274,0.049655935661392925,0.052613710764562144,0.042585280362793125,0.048604715906967896,0.0534601632275335,0.046621829920952214,0.050050134332597696,0.045866409814082944,0.04696542849150373,0.05064247443539299,0.04531058788188256,0.05663242450090342,0.04581455132986903,0.04415264204320667,0.049024101310295165,0.06268937678853752,0.04065141635021561,0.04884883425363814,0.044690205833445885,0.060225300463081416,0.05935808611400855,0.05494027795004304,0.05585671847168362,0.04869300101992175,0.0593245745972699,0.0520915726801693,0.046387097596758825,0.05215919837102363,0.06233323454232287,0.052183964897800944,0.04727099853532232,0.05191887490841895,0.05003154960185471,0.046128232257726165,0.05008294276968096,0.041979658176578366,0.04038918769354283,0.050446820564894204,0.06643339979321987,0.051769773418025994,0.04826751669879922,0.0494170722720526,0.05311369252160188,0.048091634369705136,0.05267262878674649,0.05842226394633603,0.048932767438575685,0.04587256165247657,0.05714953200696176,0.04897087819905686,0.04988778058659937,0.053343093031446076,0.06065029663206574,0.04511244472559911,0.05041805819489853,0.040872046343093243,0.05027002794177454,0.04331428112957428,0.04869010780056382,0.05025368157782012,0.05722228360917772,0.05816454358642248,0.039022435888782035,0.0634602502264932,0.04869907973051127,0.04713285082082348,0.041146867682919044,0.049158431873866634,0.04803896984733833,0.050634408579650486,0.04472074050711686,0.05273237533728536,0.044512812791835665,0.05562519042024953,0.0589639096271489,0.039828918718374434,0.04720329446726414,0.04602947752709638,0.05758962584175479,0.04024244312181168,0.04845397632850717,0.05582893888397508,0.04720163654492138,0.050278321867897574,0.05354649248528939,0.0411247664765153,0.04221642237823049,0.057832910167316426,0.045922695935026486,0.05515288544839889,0.055195942068197196,0.0449799710539357,0.05050321935791269,0.0493206298827723,0.03652841607485367,0.055165868977519954,0.0684778028820473,0.048151538597464044,0.05586209101495883,0.05110601014436501,0.04780763856466772,0.048163671588880866,0.043931119343213004,0.05531235308214068,0.049228969211807555,0.05175763225710131,0.04607725691165353,0.046049891563534534,0.06317124570817884,0.042986382205330166,0.05268068651495339,0.04329621838122071,0.05860050094223493,0.04767173135510447,0.05870505141528375,0.053215467896104686,0.049952339383176884,0.05459600331958502,0.05242368450135935,0.04850600985260303,0.05287514545723679,0.05045864444424404,0.05183964770901994,0.04419589360045169,0.061994830536225655,0.04663105778330979,0.05298598097667793,0.04770945961706046,0.046805446418358584,0.04927435721737812,0.048521732930738345,0.05081395242256427,0.04841287640905767,0.04610407998131839,0.06241162511866996,0.04633457909643742,0.051592547119455746,0.059514934630177374,0.045520608340013126,0.05330595723351397,0.0381632886755937,0.04806432440792423,0.05653221451868379,0.05442522094230867,0.05147772458717557,0.04730656825908532,0.05205882395547471,0.044314668355364684,0.05750517831990372,0.04054573935288909,0.0482099971529717,0.05147709891519783,0.04209437699973868,0.04591967704196445,0.0560146623130399,0.05352627402116712,0.05461892589463571,0.05083591371700709,0.05005541947924994,0.043602264329147516,0.045630785824291704,0.04628804797513179,0.04643550027444894,0.04289207946800263,0.04890041921851166,0.054469857751937314,0.04801235062978907,0.04745398867244114,0.04434184220583317,0.04778249616663479,0.04858784973816018,0.04806080940282643,0.046365251249027795,0.05679978791311845,0.04611087477481554,0.06062404033533293,0.0595024795266121,0.04821941705896001,0.05080565257646222,0.051232918726506885,0.05146186372827968,0.04394368387888507,0.051425463387677034,0.04843723741625042,0.042620267773246484,0.056442673433114036,0.0538271906353299,0.04399800688171199,0.054826411798755914,0.04577076799840655,0.05123785947577694,0.048122566629981246,0.05036264313297885,0.05236715597567983,0.04045833930903042,0.05814307479039571,0.06313253508515265,0.04853595005059291,0.04902851802000581,0.04835930885552736,0.05209002479185504,0.051452061643615855,0.0443104172719353,0.07077757648224957,0.05108786123338273,0.04736171812458234,0.052648721230022205,0.045114930420277984,0.0587158658910169,0.04889728518054809,0.04246153054561447,0.05070647898610871,0.05442310489026421,0.05856905510324706,0.05374117642538706,0.05513264366902564,0.05332589494137901,0.04979716193736341,0.04965939564082235,0.0602286839140073,0.040344899878172545,0.052688585105689335,0.056450965729749926,0.05142839400321182,0.050254817716214775,0.049380964383816214,0.05043386527531349,0.04422348813985117,0.05059112265639644,0.05161744338919199,0.050611575962386995,0.04505576863847421,0.044710247520896064,0.04147413078901477,0.055852351218609445,0.04835679301322676,0.04955545863335237,0.045741321490515435,0.04025789772526483,0.03966667905919542,0.05326407209979787,0.04756219151389785,0.04778448136088042,0.04353863952243408,0.04467440671247171,0.05042480852723117,0.047372664551051685,0.04099175507191577,0.04634816190240554,0.048280118597063486,0.05414834774589522,0.047239361732973106,0.046972229684287596,0.05180491021152735,0.046796239818705294,0.04809852215959948,0.04922464621568332,0.051342067188992924,0.051630124833141666,0.04695621682654331,0.05115496371669198,0.06493292324723028,0.06250961983401006,0.04733149125618468,0.04948512598896752,0.05140781472650472,0.04530572482091303,0.05229276287109357,0.05066680229660131,0.05281243280134479,0.04431836301950273,0.05383274735195376,0.04652618371040843,0.05146418752310039,0.04172905887075878,0.056352604904818915,0.04606177925412084,0.054068067513777,0.04561523251414644,0.04621365663184913,0.05578128113952649,0.048408710044317294,0.05137337616494928,0.05699699155598953,0.051429146356961435,0.04216972968479461,0.06087373291447689,0.049047054574563265,0.05076525298445586,0.04468892631311664,0.048763578350093706,0.047363815514970334]},{"net":{"name":"bmj","generation":0,"inputs":32,"layers":[40,10,1],"weights":[-0.166411259771422,0.04426200852598522,0.15430285556681306,0.06880725968678458,-0.1228856802773727,0.16505067142616403,-0.05045473439486914,-0.09698066860842953,0.08133424116973209,-0.1388837898161917,0.16684100513228234,0.09886767614835146,0.1165421305392833,0.05194405707188893,-0.1315927862312381,0.005675460649076397,0.17469278716886844,0.06809033304428197,-0.06056518007289011,-0.15497575132297028,-0.037728541676616156,-0.13251436646483333,-0.17934240068790902,0.1337787128214039,0.09547321307254542,-0.14822376786675645,-0.048873997385528334,0.16813019104387456,-0.0842938540161228,0.10751897792252052,-0.1073999066826291,0.06591860460763643,-0.13597132087907618,-0.1640249450137799,-0.1264139620790175,-0.18987296849565088,0.15720619224002075,0.03025719853665204,-0.08053196748632906,-0.10849175942700856,-0.08978413633526934,-0.1865166446715553,-0.07651047685614687,-0.0664564097544342,0.18241085684963654,0.1888192342721981,-0.19305610506006748,-0.18381767441558994,0.022367048359811126,-0.011037295365959376,-0.12888289182696813,0.05539436156364169,0.06791764004736722,0.10103968543570574,-0.13109706495539364,-0.04978224997138819,-0.08874296936055687,0.007459051128500427,0.16850815567471739,0.19157627029752444,-0.0038717544127700454,0.14776374577750978,0.034166584683185064,-0.07565851121289793,0.05981872007330835,-0.03212339828297334,-0.10101571336734141,0.19543798738002255,0.029951110742908404,-0.1430267195617252,0.16446449125375912,0.1374762585002109,0.031046804299270203,0.1545411897434294,0.04636540051582019,-0.041016144495133855,-0.1914684777331047,0.034588955139845,0.042540313384437034,-0.017857624304492614,-0.08908101742310218,-0.18863109552151824,0.045516102873905145,0.15675632920268817,-0.06389726728047665,0.1928425923243921,0.10742270512287772,0.08926003101165819,-0.11539581794800835,-0.03446894158474309,0.10100863565492535,0.03272725300013821,0.1270297775248203,-0.15179765906078402,0.1908878903359496,-0.07031394428496487,0.16219164414360387,0.16260215586689786,-0.13456091168606088,0.1260433706190387,0.008458208318046445,0.05605182463520447,-0.03794907312825763,-0.09051849796016356,-0.004698354499692053,0.14385323058795363,-0.1184106549531177,0.14578968089275168,0.08540665503880246,-0.1548564689209858,-0.06520924642018563,-0.005623330403783988,0.08334923478495054,0.021694111207158168,0.17115768589995178,0.07200125725701911,0.12127926610451933,-0.0717879679950981,-0.021454528378275578,0.11021575457638816,0.1299218371360511,0.16059441331897234,-0.17094392041236786,-0.08931318772241958,-0.18935411821697778,0.13781059239124416,-0.04723984018888344,-0.017044410690166434,-0.04065125264973962,0.011474589953434755,-0.11595207016920012,-0.1570429962333135,-0.1158840605276863,0.16089505112213848,-0.09027144516221278,-0.10660263988643247,-0.07014407238133719,0.1906822001247127,-0.182025449989031,-0.1608869119535557,-0.05388215500042498,-0.08227395716556601,0.1466680904893008,-0.009608939406629352,-0.12369477361045976,-0.03398403463918323,0.16393331037774983,0.15055629665857434,-0.019379020638720046,-0.013334374743254773,-0.1287714404099944,0.11104705891376582,0.13947916995081322,0.0854749517293813,0.057277717319190735,0.1120239655824613,-0.19527714846218702,-0.007241213337555674,-0.17653300923067441,0.07704337930171673,-0.18858629595177068,0.09983101075397344,-0.1354078974598104,-0.004667142835718063,0.02354220659807832,-0.13688555462967722,-0.07026910997027375,-0.08390683211675426,0.04712236065180431,0.1686815857076539,-0.1029346324945232,0.02923675912731652,-0.19739266987712886,0.12909494666649507,-0.05645196271705863,0.1328765087369777,0.18569181067070517,0.05272679571550698,0.07716135495232734,-0.18628205804026374,-0.1997915399203227,-0.14045814592465888,0.09887745854318564,-0.14201828310563497,-0.13048521463157386,-0.06376245648727927,0.06261943939592174,-0.022138664319903356,0.0016569779780494787,-0.11737152259295724,0.18592029867274745,-0.1652191720212285,-0.007250661423909566,0.006198164618239771,0.0014758811057572763,0.09194139127058626,0.06376173848459415,-0.1710834025225738,-0.17261330265873964,0.14664840080978764,-0.14884381650418518,0.040784807408550894,0.09482259862753156,0.15384739726130825,0.042221439976331515,0.14438102936004443,-0.032118264571587674,-0.19187671204240964,-0.11216343223038994,0.18535040833093835,-0.03605210068220374,-0.1825604637415756,-0.12727173318885693,0.1600527651241433,0.1917634580969354,0.06200574552242061,-0.1911345793449556,0.16665569705294364,-0.02186467106977652,-0.035398867364631326,0.1688559039094642,-0.07695051216776108,-0.036161909617389465,-0.07666356992834339,-0.13507504170332166,-0.08643430773184049,-0.0005598488208222174,-0.09779651344014423,0.07718785100962783,0.028224820293926006,0.15190657420198977,-0.17915651826278334,0.10989514183888532,-0.05017587749713304,-0.18211247571386321,0.1981725056227363,0.046939869909687904,-0.07735451783502878,0.1339667331033771,-0.09371338490849945,-0.08686987998044451,0.18381416604660972,0.11724836654796028,0.18239377924955685,-0.1631511613436863,-0.19310932619940901,0.13234275715560645,-0.04780031708945823,0.05394535499899061,0.16245823578739432,0.14455197341451315,0.07469184784555366,-0.07741321376942692,-0.06801272821492452,-0.011626272925426673,0.1347760667488223,0.17369142806228094,-0.1305927714306625,-0.09031135934549744,-0.1562822130259492,-0.05965981407161111,-0.11724555662534897,0.19096291494807166,0.119460869339851,-0.01710661588113363,0.17997294857023205,0.08657718622928695,-0.11656554022061388,0.17138635807394087,-0.1351773288632515,-0.0994890443044417,-0.006759783157433835,-0.07389104752046452,0.12569661055167275,0.027510598555475413,0.12755749529047228,-0.024926462731311633,-0.0009637894477743103,-0.06747468193139314,0.11989440453002953,0.11600534065333318,-0.10555271004044925,-0.10395546942310602,0.01613080712781559,0.11635763596087767,0.020691909842475736,-0.010992372093458602,0.10194035562797538,0.14015204319163105,0.19153780380359847,-0.1598840127615266,0.12312661073262471,0.1593435858574474,-0.16414073747222951,-0.11831194026287886,0.04856003478701565,0.09690394799053281,0.09146736182355752,0.11435627001237353,0.0964549925187067,-0.17038801191914496,0.15129815630819055,-0.13468557076233545,-0.058693762968810764,-0.1272106474613035,-0.06826411311212813,-0.19881107917125684,0.15274942914187556,0.05794459657438911,-0.12581308266582758,0.09562970238971796,0.07928319591209154,-0.13288501995110796,0.19629828443872527,-0.06393616194744692,-0.14794146793128232,0.10806616310456535,-0.08650080322182384,-0.15562746190734122,-0.1642710085756602,-0.006079937770891608,0.11115892788109333,0.1893020752995841,-0.13549065156098897,-0.12588067073253512,0.17499394004226215,-0.17629371588346388,0.12616530366764284,0.003731506680073604,0.052736423000028565,0.12228173872115766,0.12962993335991285,-0.011134605776510403,0.18381158700995004,-0.028387409325469015,-0.006405406526424157,0.18432554672792423,0.12357198019100135,0.14723944158342245,0.13942793758354377,-0.12598556720263412,-0.1129819508960865,-0.17210206813956655,0.14385385410484253,0.035369079450514096,-0.15702327169513355,0.14694897293795783,0.07120635064729902,0.12829721598128235,-0.071998444498069,0.15797984133012682,-0.016926347864320762,-0.048928692821622655,0.16747918104124226,0.10627385666876271,-0.020054132486704734,-0.07649674562043646,0.0721268925887057,-0.061206544574738786,0.1799268256624691,-0.057026818310119604,-0.15179468570409327,-0.1297361653986373,0.038952763902443455,0.12382328420166389,-0.044994344395507646,-0.1701175333781408,0.1130912647198512,-0.16991337572038728,0.19024242562994964,-0.1256546130251106,-0.0007316272955781855,0.04379338251577938,-0.13168078508015038,0.05283956945575008,0.05655008225674285,-0.05102565982970164,0.12127433847287289,-0.024481588114019015,-0.06612015209977784,-0.0210038499058319,0.11661829604039203,-0.05399294395642587,0.16633541540311703,-0.08465833685738905,-0.18835078984175901,0.04452895277258975,0.1828515257782259,-0.12232282891677847,0.015055813839787296,0.14240347802924802,0.037287415072838226,0.02358211351810996,-0.09786103487357148,0.1472476989879969,0.1007879912636544,0.06477874364453723,0.15520913798900454,0.03678087548625769,-0.13155530112373315,-0.07374110584366653,-0.17400892160229056,-0.1183155797107764,-0.13818435605299373,-0.10737661559856147,0.010113315785165,-0.07739887474366408,0.05658142198237809,0.14498344483643094,0.12229260033349637,0.15339321804168993,-0.15079587938810485,-0.19711456362953525,-0.13844026443486906,0.15674375350189207,0.19393073304739278,0.12753714506023484,-0.04099486912508743,-0.11193134561055969,0.07208060990073095,0.02235537026025397,-0.06037533409903181,-0.19131480108754043,-0.0143451612417283,0.18802998271541843,-0.12937051584827525,-0.07424476051315346,-0.12205646994250295,-0.10621603175797559,-0.000037219725924686475,0.10274908584414882,0.08051538723263096,-0.18241172527667376,0.10527323068158934,-0.16062298693160112,0.09182168853589301,-0.1962136921271851,-0.044442898938415354,0.06900738734419604,0.184763013125961,0.19841340275714164,0.15650324466034454,0.10840067261970171,0.019052156335015002,-0.0811614503389297,-0.1125675216698804,-0.05668033952593329,0.12695954983113006,-0.039683154898757345,0.03797508172487776,0.1733114272798017,-0.012148043770051131,-0.148782362400544,-0.024465601022918365,0.03999794889940339,0.1136717858617125,0.10424907572941128,0.11754597448555676,0.005493237455514333,-0.0045587439704704025,0.04060589809504017,0.057485497023914256,-0.05503700339463588,-0.047783489263715145,0.012875113927976578,-0.06947156286341391,0.09763342845880374,-0.09606558392884441,-0.021067831202075032,-0.05910580564768528,-0.12284283157687322,-0.173423744308088,-0.1809580720401452,0.1836945967262179,0.12885175566789037,-0.0016733480542287238,0.033289538664924845,-0.0862569027754022,-0.014050404258822813,-0.010359274115070954,-0.04381540163155878,0.1491191278708941,0.16785184591309277,-0.05818927609276514,0.17772008182031468,0.18456565688867776,-0.08474167317509887,0.11645648280734006,0.10013519588224362,0.055538113616979246,-0.040111731405107154,-0.06037384932606482,0.08527567565602023,0.0330491294920508,-0.17097057381076164,-0.10001412773343016,0.11965592124388696,-0.15985598904283488,0.09714548197327566,-0.13375045992769988,0.055236731297706954,0.12047997790258275,-0.023136752945726535,-0.10798470847539168,-0.15307172129828228,-0.1994479587875856,-0.05883806869005853,-0.02384947935268117,-0.1874128276677597,0.039911979665230135,0.06557875731760154,-0.09743106628903533,-0.024679775459993614,-0.08684570901406818,-0.17727083138548905,-0.16774013894203313,0.08911092936279086,0.0045395939181879785,0.1910648706661257,-0.13518274690413518,-0.08828928092443791,0.03811945735964581,-0.12172708864998559,0.1690299641928889,-0.0020925699524548536,0.19515573650342127,0.14313089136678114,-0.15214237089081292,0.015098919826967705,0.19121091018206915,-0.11742209062242344,-0.05580823071184052,0.045683429702330886,0.14271927366782045,0.028451196173203464,-0.013294732920077657,-0.06894904550305797,0.03410700288853885,0.14223995749166268,-0.06957644864146398,-0.10554572567114279,0.09454349643332727,0.14975697382545866,-0.17136853019991244,0.09848105656970024,0.0235366408288904,0.18357395034674084,-0.07672962163897906,-0.15714094024877606,-0.07029228088657682,-0.04556950727085446,-0.10046047896457058,0.14814064571262958,-0.0409204712689058,-0.06715894080390888,-0.04987753315421628,-0.07127478580009347,-0.023452603342702355,0.07510297644120734,-0.047310751427986825,0.13108946945371408,-0.01946085920164134,-0.06167879236681592,0.019517452910563643,-0.06858003123159656,-0.17980175827738165,-0.0801581345001325,0.17187903791139797,0.16215020519788537,-0.1297481944434729,-0.17482791632870978,0.03356927215490044,-0.18735592114965868,-0.11886335937213738,0.044442637180011874,-0.1264815091031637,-0.03825593796190585,0.02342823864255328,0.17390570756296225,-0.17043874499382383,0.10263396427623167,0.15056758878657606,0.12346090952684963,0.05747039534094023,0.1972554486203255,0.11752374503893276,0.15345648960144181,0.13458871825300717,0.07915318137757871,-0.032220456019955185,-0.09566103908001411,0.17541159873698675,0.025034386385555413,-0.009826035436049818,-0.19788384867608394,-0.10764621422300405,0.127451988274827,-0.1201229167010764,-0.017178411863483234,-0.07280363599308082,-0.1620043642415074,-0.034432500460847754,0.06900734259811908,0.14823747184410946,0.03606361856328427,0.1778780803289814,-0.09842590545088213,-0.1616908236736718,-0.13425185911949822,0.08763611512762248,0.15700857462243273,-0.000141423286550868,-0.030897237420792395,-0.03361442206839155,-0.0981422768054169,-0.06625559351780003,-0.038940026659898846,0.11118106649610315,0.18693372450115797,0.11655087360665783,-0.19239529484665496,-0.19190441157824356,-0.0005325558863322755,-0.11157187183929783,-0.16101898329967457,-0.1915199892382698,0.1554928776080659,0.0372874947642777,-0.17337677975368182,0.052058942527062946,0.12231090033862552,0.01742085892488135,0.07526235381049073,-0.1684503467304074,0.08403435085456745,-0.07004504449239085,0.05324651094886734,-0.1120370489635426,-0.18287555860745475,-0.16243490377327785,-0.06490915929152694,-0.04645804534987502,0.15331825431106688,0.07133508585117088,0.025643485750634104,0.02631700878936974,-0.19165873417511944,-0.1793294622129718,0.19288234470721166,0.1127262708600702,0.16455044040571265,-0.04540618590957096,-0.14373313491391385,-0.15086401225983626,0.0994602927641533,-0.10492732002383393,0.1886255971673036,-0.025132481093923603,0.02756261954907044,-0.15892015024770229,0.18335940813451196,0.04494516622560346,-0.07475723144764146,0.19550295807076895,0.11339461312906701,0.11397428465731885,0.016283537826518923,-0.10984895319554813,0.02460642985997899,0.1340449042184827,0.010008995992836944,-0.009775058540683279,-0.1765401391585386,-0.16080940074090738,-0.08811849028719348,-0.04924906511627877,-0.15238131404009536,-0.021197173664492475,-0.16024573046618526,-0.16744043831066763,-0.009363295203217603,-0.16206891712357807,0.1328972204199837,0.14700751665409711,0.1476017872681079,0.044225817208145723,-0.12811119924843573,0.030996710359927793,0.1458706929938961,0.15941570424523743,0.0825284748430633,-0.14852435846827927,-0.017968803575046988,-0.19193099408578906,-0.18141553500817276,0.04448869577019554,-0.06809827015428108,0.17815319189629347,0.024560316251872383,0.1965719462350985,-0.026081985753863807,0.18776261409197076,-0.05356560743950656,0.01773262895134095,0.08214289592342067,0.12405962658733838,-0.17212040831777753,-0.18284712652085844,0.0967662645065378,0.1482502657843428,0.0189980475522587,-0.11914508911532798,-0.0748804599947647,-0.04110059624148105,-0.09820692753101544,-0.06426394241189445,-0.035643220172627554,0.02382868243057762,0.1797558824498272,0.1362291655305512,-0.11232943008718231,-0.07351366285599426,-0.14678081070947632,-0.0577927511185897,0.1768058553655955,-0.15262581324969063,-0.1106130677717192,-0.05534517840659553,-0.12833674988040392,0.05725225618624952,0.15241877603508974,0.10392096185402366,-0.01763523375223386,-0.0863629820648403,-0.18495706512162213,0.18985956769346446,-0.1579139748958742,-0.08507782614224127,-0.00842098407456024,-0.15407327740382248,0.15330035796243058,-0.07894255183461017,0.1103766638341685,-0.1877007700493339,-0.1909520259701453,0.15837921635950442,0.017557927158813047,-0.06074026986021189,-0.005437675379201423,-0.14238834353578236,0.040121782192497235,0.06642222850374874,-0.1520454322553514,-0.011704909225023125,-0.07126821497077548,-0.12876553396475432,0.07437190123404258,-0.10126410774047381,-0.11440297842378931,0.16404170412881458,0.1050642544472497,0.14620342074253972,0.17092084657627232,0.1140199169598467,-0.03848842330866545,-0.17684017988659104,-0.04112081301682596,0.03822302576883513,0.09434486659718483,0.006956940962669467,-0.05381920829169326,0.03933154359831939,-0.08322345947481402,0.1183510825375903,-0.06935535322509676,-0.00048113324223111875,0.18109812136604503,-0.08161522009006061,-0.053501658536600966,-0.10213283735436961,-0.09501089447759235,-0.16476295383261547,-0.14426605886033422,-0.12727369746631167,0.02476084287691052,0.025837669121954843,0.028092363228847533,0.1957975380565986,0.08276523804354152,-0.07078866455199623,-0.009623211693100486,-0.13568701701026775,-0.16076716000270652,-0.07806212935195607,-0.1346843006344982,-0.18900855168468766,-0.16165484370436847,-0.026248815526362435,0.032491869376328086,0.06746470049621489,-0.01935528284314464,-0.11084428397109686,-0.06458982895551876,0.05790819128252922,-0.12597184837319475,-0.03633575982998191,0.1113736392181992,-0.04297143006255455,0.08475418482451919,-0.06470816045188679,-0.13762045963365807,0.008621929026281366,-0.16729914126537412,0.02537040735319404,-0.04907560864943178,0.040803929178887616,-0.12850949673501838,0.0536374914717036,-0.07183380768106495,-0.022791981466468936,-0.13789415269856964,0.19373782522199345,0.11695757333315948,-0.07620923554228183,0.12668601665048584,0.14471393873718041,0.13480476659005208,0.09435323304012116,-0.17718961746592995,0.02326079534305059,-0.1362621469999682,-0.1690809387944019,-0.1123255247020901,-0.0648154978975855,0.1765982448340611,-0.06635046265433903,-0.0015869687374356067,0.09891865630351859,-0.03325344715082901,-0.022653406025319178,0.19684495456506373,0.10292512432525341,-0.10663637967882247,-0.1669837506030084,-0.008514007101746213,0.14565700042601248,-0.07690220298434856,0.1484352255355127,0.05194989164067182,-0.18771941808742057,0.07829709444128463,-0.11500794819622495,-0.19351108067327205,0.016544948672970794,0.1297126467730939,-0.12111900226930211,0.032001803259931266,-0.1550702700843135,-0.04367490174014366,0.04066018514057265,-0.18656573471316504,-0.0875413020333304,0.11616714097972053,0.1285147368198209,-0.13372820875447983,0.10636497666457817,0.06928221027804843,-0.16852471895892895,0.126595135305884,0.025189129495396756,0.0296134866602058,0.021926763075570233,0.11960066863172542,-0.12602880339512393,-0.051496327512331075,0.1262550176237734,0.18419530282663205,-0.06360881581979366,-0.1645980022841962,-0.14192507773929697,-0.11570616545626172,0.1657671038085204,0.16872802751164012,-0.09111980120232942,0.0696427827239684,-0.0902907522321602,0.004439754868214962,0.05869190123766288,-0.06322291180340053,0.19689712749842309,0.16034652275654537,-0.0859234657845823,0.11757270780084117,0.036360267823571935,-0.13357470203670785,-0.12902180838057964,0.04705884939763508,-0.16993138188470658,0.18948466561633392,-0.1964628740732807,-0.13479524501747422,0.1578700451077341,0.05135333173644907,0.016605749624688138,0.17760500234421078,0.028417726074741967,-0.06587714137005518,0.1459043075518377,0.021922112758131274,-0.1397090692178857,0.07985902345819385,-0.04050369493661546,0.15353694992141165,0.196941493889629,-0.16003270039970366,0.06320377884978728,-0.0711006217447234,-0.04595210093913957,-0.15432366471327796,-0.08689431104600427,0.026030243549215015,0.16793061265660686,0.14268558630769085,0.11708392999663869,0.06710079821013765,0.07678202711761911,0.1157234105763072,0.14548705335422735,0.1463999649034315,0.1266003522385321,0.19705300082657606,0.03856896007504984,0.03798356037368658,-0.1419364381980116,0.14411684895921945,-0.001825402722416769,0.0024819440193905307,-0.12101450901332865,-0.04193111244819664,-0.05949315758592241,-0.1291600194637116,0.07913226003290069,0.04872875229674625,-0.11532182176959696,0.1977766142093526,0.023723564447249684,-0.07731622471920732,0.17887140285490288,-0.04837256112062427,0.08466129999017136,-0.08984024196055485,-0.17182384083979826,-0.1920185890838525,-0.1931969129878076,-0.174217125446404,0.01906540857852787,-0.08890524587303378,0.18894907008462208,-0.053893380898131754,0.07571669017947658,0.16180877880670197,0.18304403477698294,-0.19700479148770544,-0.0018551569205440543,0.1881247772579278,0.11935235463653243,0.019435010935412833,-0.03449591808122365,-0.07134958658540258,-0.134907909841761,0.12578748082714214,0.04111196462036179,0.16641371852006603,-0.11074198299411,0.006321971056293674,0.07208299991437073,-0.024400360454487208,0.1562001343289518,0.04362759748351311,-0.036970803087256254,-0.023656200733180033,0.09161499182855615,-0.06915981289737835,0.02388751028858599,-0.07972066103275638,-0.06775872277711689,0.09340079494158271,-0.1789661940049138,-0.14143650163044594,-0.19064087012060132,-0.11103977702349815,0.17793153765527292,0.1949680905385477,-0.06319916943708703,0.07775531309442651,0.1889270839570591,-0.18667954175255624,0.11879354648474116,0.1207838553557582,-0.08689306803760131,-0.026918939515912232,0.1163067781899651,0.02872496671640193,-0.019056645827317448,-0.004581469903764124,-0.18594345932098105,-0.15262263198661385,0.19672150226222795,-0.11057878776363861,0.1655211266490471,0.0057063734993581805,0.034519242564787694,-0.05076979208923493,-0.11608233523787624,0.029032372054955236,0.07084369854338679,-0.05616391230313153,0.1277646125509766,-0.021752309823427657,0.02858739823240669,-0.11762710420275023,-0.0674189116525743,-0.024600741234671986,-0.018841965604578903,0.051019269803856626,0.18232737330762383,-0.03798350325771099,-0.052720127020210866,-0.11987442770821702,-0.13787511386385756,0.16238283876558385,-0.058393544972266204,0.03188167385169488,-0.1485459837757447,-0.011810884442836761,-0.04909218697990134,-0.004831963023743585,0.05541857463186339,0.17975431318995455,0.09836210879637114,-0.1408102318463776,0.05215736524203568,0.053482825817043556,-0.007758165835408365,-0.1790070615029846,0.008326432705205,0.10104872147848848,-0.16258018872677243,0.05352232253098188,0.09917412005247189,-0.09831579399008508,-0.1533822112259137,-0.05780768249619808,0.007062852813485232,-0.11115017396464388,0.0969641213005571,-0.18475687223066883,-0.14495155420987144,0.148389861734474,0.0663958236088738,0.03823580387892472,0.04907496821738003,0.16776032080899467,-0.1794172061419138,-0.1724757209562484,-0.010170822255686496,-0.007689615347699685,-0.0033135653410533428,0.1974520669636612,-0.11551553203153304,0.005553402707204558,-0.09148125929068858,-0.12288409345691056,-0.0781975463813332,-0.13260343828239832,-0.044477080298705396,-0.02827367087802307,-0.08799279746598937,0.11684879669952059,0.17491194654000725,-0.12593693540002365,-0.18728447990378358,-0.10210575575193825,0.13003277289479664,0.010032197080516336,0.09133476897213277,0.15331315361047632,0.11471865493892691,0.0025996526446142865,0.14863980261392584,-0.1544493072317848,-0.1344816722144757,-0.08225324161887287,-0.16693251289192823,0.024368706702695503,-0.03172874730037786,-0.048403858174471986,0.15722450877920108,0.13000246708539448,0.13059191186331803,0.18273787281101167,0.08332746367933774,0.12863719835027343,-0.05641549883628791,-0.040672258230153246,-0.01756018197753484,-0.045260122009366466,0.04888913790023422,-0.035623665629467366,-0.019803356162799268,0.11157593075810351,0.08795194857640498,-0.1505486308562728,0.1369314402913795,-0.196056662032278,0.13623013534476025,-0.0023587860487108148,0.01572852791494378,-0.01570584743766404,-0.06615811990709528,-0.04966844312428717,-0.019025074262749714,0.1622830845828504,0.16863119600046056,-0.036409025544509255,0.18758308800455392,0.18573534011487303,0.017400289688994153,-0.14028809744981557,-0.16010724518146643,-0.05477207241561147,-0.019336213376694195,-0.16346734910310534,0.040239667379209976,0.11636124939666515,-0.07672409464297908,-0.01468325217515637,-0.04255480990413146,-0.07051008929978606,0.15701412304869067,-0.15724126435862598,-0.03464529086818899,-0.0734980042150272,0.10292296278883012,0.14372531377252784,0.09095395208640011,-0.008058638293331477,0.06912495733652052,0.06920707125703773,0.18464860736521532,0.11789148172050318,-0.04079778925794564,-0.04823094314094947,0.15858325394520584,-0.030872778523099692,0.07083817200468412,-0.11756758882387174,-0.1883384408651513,-0.04084113418678151,-0.11428526259149284,-0.1157685088115521,0.03945034035457057,0.024424940992622435,0.10223945825173841,-0.024588096412131943,-0.04681740642653559,-0.052591929563423984,-0.0870642922634775,-0.19170989629456223,-0.07492741998075747,0.029257382449603492,-0.0026281004979532285,0.10521202976626898,-0.08415451215052921,0.11670299838385062,-0.12058879392681537,0.010993742834714132,-0.16626469487317178,0.16006233486028265,-0.026257819526474158,-0.0868379233075447,-0.19892439098495265,0.04832290824369362,0.01065950851132369,0.021348599640261146,0.15369915536548806,-0.09864019469155956,0.19593450425118814,0.1437259387744768,-0.12355255662345394,-0.07365108806671952,0.07217363379966962,-0.08160845243194546,-0.002987069657492736,-0.012599694312359133,0.12512192016788187,0.025661526539177443,-0.058389801742436215,-0.15526138126400468,0.1675441110934962,-0.13207023342322577,-0.1582301018085678,0.01155417983471202,0.06351157230924198,-0.044993195504542005,0.09784905706628644,-0.18501077513465952,-0.00882907857782883,0.12519124221419287,0.08424244516953061,-0.02541055487703342,0.14495167854655355,-0.05522404018552071,0.13650743201275573,0.012092306517316243,-0.007139960759159625,0.18051128673069494,-0.048914389247278756,-0.14461309010659093,0.12068493645524042,0.01091792149468268,0.05650143323645074,0.00904644264356022,0.19690412877230296,0.16480596414120335,-0.05517929572202568,0.11645028578482108,0.08614516873646788,-0.15981276554718837,0.11392633439074595,0.03224717489428616,-0.17221921429926157,0.10183850606663375,0.14806280399813626,0.12963093763178446,-0.10898527092359772,0.0017800051564088315,-0.036884459206349085,0.19758100941882012,-0.12030956054275653,0.07604324777593419,-0.153279084284374,0.17375756548138915,0.044890615047302684,-0.09464587254655657,0.1249387771140828,0.015421486883264446,-0.09738006451647419,0.11313443185389976,-0.07159605698596636,0.02294235618677662,-0.0901292989364868,-0.01615792562434981,0.06184790514864885,-0.1596960164675439,0.19954358375046316,-0.17551308091077616,-0.07159616310163958,-0.037257184529408516,0.09887945749947907,0.02176238792182597,0.1585093423431982,-0.0170479719459328,0.1526249620675496,0.1377293607365257,-0.14167116221744155,-0.07189809446188855,0.1187888012608217,-0.06184321538186907,0.18200818897581172,0.040091858384639245,-0.07086781273707149,-0.1212266457441773,0.14402240456814924,0.07050358119422839,-0.08885878509411463,0.01977598193790059,-0.11568613080533306,-0.08620906145206836,0.03683042129564251,-0.07727391388410593,-0.1297379989301149,-0.13423894487008453,0.18443388657785215,-0.1781416978899788,0.18865227760421055,-0.1656068855408962,-0.13477994072896687,0.1313336811399332,0.1488441532381698,-0.1864581577671686,0.1262537969546137,-0.17909899558300815,0.15931063747856627,-0.18831072152952277,0.057572473276020386,-0.0953984317702708,0.0952187707368039,-0.09354173054221304,-0.18568368219179565,0.059366794108824894,-0.10262324465051816,0.08444081203058273,-0.07349715965210413,0.16901059352544667,-0.007946406637454217,0.015015512586122798,0.006566355986816319,0.010695292701459469,-0.10458515882837444,-0.18128148611713224,0.1515752717678872,-0.12045694141352153,-0.07793027796593366,-0.004810237863850736,0.04700520874561959,-0.04020659835492485,-0.14809304002425333,0.15938437608804262,0.04209524947902965,0.09358252418886126,0.1457868092415322,-0.10907190505485671,0.12745548317771122,-0.14129124615481983,-0.006246112286860062,-0.12705004380384627,-0.024031203579082477,0.16850233649351404,-0.1249061241057019,-0.11368699429593382,-0.17817797460177998,-0.13190397892753786,-0.07200682320836371,0.0008261194407852557,0.1960524164288865,-0.11205395353660529,-0.16214838679163687,0.185975305636153,-0.056510557808670564,-0.1216395558864079,0.02443379877428073,-0.014979610606464189,-0.013229438986650965,-0.11759275396154285,-0.02081870108898301,-0.1385680971189406,-0.17030218709439043,0.17949465637852285,-0.00640184394526111,-0.04669256599527233,-0.057924401184315855,-0.03845265515574425,0.041267378610341604,0.12558914076811628,0.13158286181211765,-0.11281141273578017,-0.04304606774142136,0.13548219297872954,-0.16176516213595848,-0.1283917957733679,-0.11663022023315,0.10779623323059634,-0.059092871186766066,0.10451213646476604,0.0869173615106657,0.1364113632693919,0.07497767490662782,0.009234284860739628,0.07205984667742271,0.17268637520192742,-0.11288378399651694,0.16036125419490105,-0.010702340253626291,0.09039226292989244,0.10410742803928569,0.010297917934167955,0.15705016268546074,-0.05561207561069656,-0.191759312585128,-0.11172445391885244,-0.02296312815410123,-0.11763603733557454,0.00014618745547947953,0.04129448808715591,0.15683736765819617,-0.017169330444225667,0.015660004951648265,-0.1102610218499307,-0.02740050011960954,-0.07951898090263523,0.047153222049142046,-0.12644390236617004,-0.07728813221276774,0.06314090675679102,-0.01589219212449064,0.10567532146564612,0.00039282854842914716,-0.08068299000350523,0.059602328059471354,0.07529975665434396,-0.08589914458397639,-0.16499286008713243,