{"number":3,"population":[{"net":{"name":"bmj","generation":0,"inputs":32,"layers":[40,10,1],"weights":[-0.166411259771422,0.04426200852598522,0.15430285556681306,0.06880725968678458,-0.1228856802773727,0.16505067142616403,-0.05045473439486914,-0.09698066860842953,0.08133424116973209,-0.1388837898161917,0.16684100513228234,0.09886767614835146,0.1165421305392833,0.05194405707188893,-0.1315927862312381,0.005675460649076397,0.17469278716886844,0.06809033304428197,-0.06056518007289011,-0.15497575132297028,-0.037728541676616156,-0.13251436646483333,-0.17934240068790902,0.1337787128214039,0.09547321307254542,-0.14822376786675645,-0.048873997385528334,0.16813019104387456,-0.0842938540161228,0.10751897792252052,-0.1073999066826291,0.06591860460763643,-0.13597132087907618,-0.1640249450137799,-0.1264139620790175,-0.18987296849565088,0.15720619224002075,0.03025719853665204,-0.08053196748632906,-0.10849175942700856,-0.08978413633526934,-0.1865166446715553,-0.07651047685614687,-0.0664564097544342,0.18241085684963654,0.1888192342721981,-0.19305610506006748,-0.18381767441558994,0.022367048359811126,-0.011037295365959376,-0.12888289182696813,0.05539436156364169,0.06791764004736722,0.10103968543570574,-0.13109706495539364,-0.04978224997138819,-0.08874296936055687,0.007459051128500427,0.16850815567471739,0.19157627029752444,-0.0038717544127700454,0.14776374577750978,0.034166584683185064,-0.07565851121289793,0.05981872007330835,-0.03212339828297334,-0.10101571336734141,0.19543798738002255,0.029951110742908404,-0.1430267195617252,0.16446449125375912,0.1374762585002109,0.031046804299270203,0.1545411897434294,0.04636540051582019,-0.041016144495133855,-0.1914684777331047,0.034588955139845,0.042540313384437034,-0.017857624304492614,-0.08908101742310218,-0.18863109552151824,0.045516102873905145,0.15675632920268817,-0.06389726728047665,0.1928425923243921,0.10742270512287772,0.08926003101165819,-0.11539581794800835,-0.03446894158474309,0.10100863565492535,0.03272725300013821,0.1270297775248203,-0.15179765906078402,0.1908878903359496,-0.07031394428496487,0.16219164414360387,0.16260215586689786,-0.13456091168606088,0.1260433706190387,0.008458208318046445,0.05605182463520447,-0.03794907312825763,-0.09051849796016356,-0.004698354499692053,0.14385323058795363,-0.1184106549531177,0.14578968089275168,0.08540665503880246,-0.1548564689209858,-0.06520924642018563,-0.005623330403783988,0.08334923478495054,0.021694111207158168,0.17115768589995178,0.07200125725701911,0.12127926610451933,-0.0717879679950981,-0.021454528378275578,0.11021575457638816,0.1299218371360511,0.16059441331897234,-0.17094392041236786,-0.08931318772241958,-0.18935411821697778,0.13781059239124416,-0.04723984018888344,-0.017044410690166434,-0.04065125264973962,0.011474589953434755,-0.11595207016920012,-0.1570429962333135,-0.1158840605276863,0.16089505112213848,-0.09027144516221278,-0.10660263988643247,-0.07014407238133719,0.1906822001247127,-0.182025449989031,-0.1608869119535557,-0.05388215500042498,-0.08227395716556601,0.1466680904893008,-0.009608939406629352,-0.12369477361045976,-0.03398403463918323,0.16393331037774983,0.15055629665857434,-0.019379020638720046,-0.013334374743254773,-0.1287714404099944,0.11104705891376582,0.13947916995081322,0.0854749517293813,0.057277717319190735,0.1120239655824613,-0.19527714846218702,-0.007241213337555674,-0.17653300923067441,0.07704337930171673,-0.18858629595177068,0.09983101075397344,-0.1354078974598104,-0.004667142835718063,0.02354220659807832,-0.13688555462967722,-0.07026910997027375,-0.08390683211675426,0.04712236065180431,0.1686815857076539,-0.1029346324945232,0.02923675912731652,-0.19739266987712886,0.12909494666649507,-0.05645196271705863,0.1328765087369777,0.18569181067070517,0.05272679571550698,0.07716135495232734,-0.18628205804026374,-0.1997915399203227,-0.14045814592465888,0.09887745854318564,-0.14201828310563497,-0.13048521463157386,-0.06376245648727927,0.06261943939592174,-0.022138664319903356,0.0016569779780494787,-0.11737152259295724,0.18592029867274745,-0.1652191720212285,-0.007250661423909566,0.006198164618239771,0.0014758811057572763,0.09194139127058626,0.06376173848459415,-0.1710834025225738,-0.17261330265873964,0.14664840080978764,-0.14884381650418518,0.040784807408550894,0.09482259862753156,0.15384739726130825,0.042221439976331515,0.14438102936004443,-0.032118264571587674,-0.19187671204240964,-0.11216343223038994,0.18535040833093835,-0.03605210068220374,-0.1825604637415756,-0.12727173318885693,0.1600527651241433,0.1917634580969354,0.06200574552242061,-0.1911345793449556,0.16665569705294364,-0.02186467106977652,-0.035398867364631326,0.1688559039094642,-0.07695051216776108,-0.036161909617389465,-0.07666356992834339,-0.13507504170332166,-0.08643430773184049,-0.0005598488208222174,-0.09779651344014423,0.07718785100962783,0.028224820293926006,0.15190657420198977,-0.17915651826278334,0.10989514183888532,-0.05017587749713304,-0.18211247571386321,0.1981725056227363,0.046939869909687904,-0.07735451783502878,0.1339667331033771,-0.09371338490849945,-0.08686987998044451,0.18381416604660972,0.11724836654796028,0.18239377924955685,-0.1631511613436863,-0.19310932619940901,0.13234275715560645,-0.04780031708945823,0.05394535499899061,0.16245823578739432,0.14455197341451315,0.07469184784555366,-0.07741321376942692,-0.06801272821492452,-0.011626272925426673,0.1347760667488223,0.17369142806228094,-0.1305927714306625,-0.09031135934549744,-0.1562822130259492,-0.05965981407161111,-0.11724555662534897,0.19096291494807166,0.119460869339851,-0.01710661588113363,0.17997294857023205,0.08657718622928695,-0.11656554022061388,0.17138635807394087,-0.1351773288632515,-0.0994890443044417,-0.006759783157433835,-0.07389104752046452,0.12569661055167275,0.027510598555475413,0.12755749529047228,-0.024926462731311633,-0.0009637894477743103,-0.06747468193139314,0.11989440453002953,0.11600534065333318,-0.10555271004044925,-0.10395546942310602,0.01613080712781559,0.11635763596087767,0.020691909842475736,-0.010992372093458602,0.10194035562797538,0.14015204319163105,0.19153780380359847,-0.1598840127615266,0.12312661073262471,0.1593435858574474,-0.16414073747222951,-0.11831194026287886,0.04856003478701565,0.09690394799053281,0.09146736182355752,0.11435627001237353,0.0964549925187067,-0.17038801191914496,0.15129815630819055,-0.13468557076233545,-0.058693762968810764,-0.1272106474613035,-0.06826411311212813,-0.19881107917125684,0.15274942914187556,0.05794459657438911,-0.12581308266582758,0.09562970238971796,0.07928319591209154,-0.13288501995110796,0.19629828443872527,-0.06393616194744692,-0.14794146793128232,0.10806616310456535,-0.08650080322182384,-0.15562746190734122,-0.1642710085756602,-0.006079937770891608,0.11115892788109333,0.1893020752995841,-0.13549065156098897,-0.12588067073253512,0.17499394004226215,-0.17629371588346388,0.12616530366764284,0.003731506680073604,0.052736423000028565,0.12228173872115766,0.12962993335991285,-0.011134605776510403,0.18381158700995004,-0.028387409325469015,-0.006405406526424157,0.18432554672792423,0.12357198019100135,0.14723944158342245,0.13942793758354377,-0.12598556720263412,-0.1129819508960865,-0.17210206813956655,0.14385385410484253,0.035369079450514096,-0.15702327169513355,0.14694897293795783,0.07120635064729902,0.12829721598128235,-0.071998444498069,0.15797984133012682,-0.016926347864320762,-0.048928692821622655,0.16747918104124226,0.10627385666876271,-0.020054132486704734,-0.07649674562043646,0.0721268925887057,-0.061206544574738786,0.1799268256624691,-0.057026818310119604,-0.15179468570409327,-0.1297361653986373,0.038952763902443455,0.12382328420166389,-0.044994344395507646,-0.1701175333781408,0.1130912647198512,-0.16991337572038728,0.19024242562994964,-0.1256546130251106,-0.0007316272955781855,0.04379338251577938,-0.13168078508015038,0.05283956945575008,0.05655008225674285,-0.05102565982970164,0.12127433847287289,-0.024481588114019015,-0.06612015209977784,-0.0210038499058319,0.11661829604039203,-0.05399294395642587,0.16633541540311703,-0.08465833685738905,-0.18835078984175901,0.04452895277258975,0.1828515257782259,-0.12232282891677847,0.015055813839787296,0.14240347802924802,0.037287415072838226,0.02358211351810996,-0.09786103487357148,0.1472476989879969,0.1007879912636544,0.06477874364453723,0.15520913798900454,0.03678087548625769,-0.13155530112373315,-0.07374110584366653,-0.17400892160229056,-0.1183155797107764,-0.13818435605299373,-0.10737661559856147,0.010113315785165,-0.07739887474366408,0.05658142198237809,0.14498344483643094,0.12229260033349637,0.15339321804168993,-0.15079587938810485,-0.19711456362953525,-0.13844026443486906,0.15674375350189207,0.19393073304739278,0.12753714506023484,-0.04099486912508743,-0.11193134561055969,0.07208060990073095,0.02235537026025397,-0.06037533409903181,-0.19131480108754043,-0.0143451612417283,0.18802998271541843,-0.12937051584827525,-0.07424476051315346,-0.12205646994250295,-0.10621603175797559,-0.000037219725924686475,0.10274908584414882,0.08051538723263096,-0.18241172527667376,0.10527323068158934,-0.16062298693160112,0.09182168853589301,-0.1962136921271851,-0.044442898938415354,0.06900738734419604,0.184763013125961,0.19841340275714164,0.15650324466034454,0.10840067261970171,0.019052156335015002,-0.0811614503389297,-0.1125675216698804,-0.05668033952593329,0.12695954983113006,-0.039683154898757345,0.03797508172487776,0.1733114272798017,-0.012148043770051131,-0.148782362400544,-0.024465601022918365,0.03999794889940339,0.1136717858617125,0.10424907572941128,0.11754597448555676,0.005493237455514333,-0.0045587439704704025,0.04060589809504017,0.057485497023914256,-0.05503700339463588,-0.047783489263715145,0.012875113927976578,-0.06947156286341391,0.09763342845880374,-0.09606558392884441,-0.021067831202075032,-0.05910580564768528,-0.12284283157687322,-0.173423744308088,-0.1809580720401452,0.1836945967262179,0.12885175566789037,-0.0016733480542287238,0.033289538664924845,-0.0862569027754022,-0.014050404258822813,-0.010359274115070954,-0.04381540163155878,0.1491191278708941,0.16785184591309277,-0.05818927609276514,0.17772008182031468,0.18456565688867776,-0.08474167317509887,0.11645648280734006,0.10013519588224362,0.055538113616979246,-0.040111731405107154,-0.06037384932606482,0.08527567565602023,0.0330491294920508,-0.17097057381076164,-0.10001412773343016,0.11965592124388696,-0.15985598904283488,0.09714548197327566,-0.13375045992769988,0.055236731297706954,0.12047997790258275,-0.023136752945726535,-0.10798470847539168,-0.15307172129828228,-0.1994479587875856,-0.05883806869005853,-0.02384947935268117,-0.1874128276677597,0.039911979665230135,0.06557875731760154,-0.09743106628903533,-0.024679775459993614,-0.08684570901406818,-0.17727083138548905,-0.16774013894203313,0.08911092936279086,0.0045395939181879785,0.1910648706661257,-0.13518274690413518,-0.08828928092443791,0.03811945735964581,-0.12172708864998559,0.1690299641928889,-0.0020925699524548536,0.19515573650342127,0.14313089136678114,-0.15214237089081292,0.015098919826967705,0.19121091018206915,-0.11742209062242344,-0.05580823071184052,0.045683429702330886,0.14271927366782045,0.028451196173203464,-0.013294732920077657,-0.06894904550305797,0.03410700288853885,0.14223995749166268,-0.06957644864146398,-0.10554572567114279,0.09454349643332727,0.14975697382545866,-0.17136853019991244,0.09848105656970024,0.0235366408288904,0.18357395034674084,-0.07672962163897906,-0.15714094024877606,-0.07029228088657682,-0.04556950727085446,-0.10046047896457058,0.14814064571262958,-0.0409204712689058,-0.06715894080390888,-0.04987753315421628,-0.07127478580009347,-0.023452603342702355,0.07510297644120734,-0.047310751427986825,0.13108946945371408,-0.01946085920164134,-0.06167879236681592,0.019517452910563643,-0.06858003123159656,-0.17980175827738165,-0.0801581345001325,0.17187903791139797,0.16215020519788537,-0.1297481944434729,-0.17482791632870978,0.03356927215490044,-0.18735592114965868,-0.11886335937213738,0.044442637180011874,-0.1264815091031637,-0.03825593796190585,0.02342823864255328,0.17390570756296225,-0.17043874499382383,0.10263396427623167,0.15056758878657606,0.12346090952684963,0.05747039534094023,0.1972554486203255,0.11752374503893276,0.15345648960144181,0.13458871825300717,0.07915318137757871,-0.032220456019955185,-0.09566103908001411,0.17541159873698675,0.025034386385555413,-0.009826035436049818,-0.19788384867608394,-0.10764621422300405,0.127451988274827,-0.1201229167010764,-0.017178411863483234,-0.07280363599308082,-0.1620043642415074,-0.034432500460847754,0.06900734259811908,0.14823747184410946,0.03606361856328427,0.1778780803289814,-0.09842590545088213,-0.1616908236736718,-0.13425185911949822,0.08763611512762248,0.15700857462243273,-0.000141423286550868,-0.030897237420792395,-0.03361442206839155,-0.0981422768054169,-0.06625559351780003,-0.038940026659898846,0.11118106649610315,0.18693372450115797,0.11655087360665783,-0.19239529484665496,-0.19190441157824356,-0.0005325558863322755,-0.11157187183929783,-0.16101898329967457,-0.1915199892382698,0.1554928776080659,0.0372874947642777,-0.17337677975368182,0.052058942527062946,0.12231090033862552,0.01742085892488135,0.07526235381049073,-0.1684503467304074,0.08403435085456745,-0.07004504449239085,0.05324651094886734,-0.1120370489635426,-0.18287555860745475,-0.16243490377327785,-0.06490915929152694,-0.04645804534987502,0.15331825431106688,0.07133508585117088,0.025643485750634104,0.02631700878936974,-0.19165873417511944,-0.1793294622129718,0.19288234470721166,0.1127262708600702,0.16455044040571265,-0.04540618590957096,-0.14373313491391385,-0.15086401225983626,0.0994602927641533,-0.10492732002383393,0.1886255971673036,-0.025132481093923603,0.02756261954907044,-0.15892015024770229,0.18335940813451196,0.04494516622560346,-0.07475723144764146,0.19550295807076895,0.11339461312906701,0.11397428465731885,0.016283537826518923,-0.10984895319554813,0.02460642985997899,0.1340449042184827,0.010008995992836944,-0.009775058540683279,-0.1765401391585386,-0.16080940074090738,-0.08811849028719348,-0.04924906511627877,-0.15238131404009536,-0.021197173664492475,-0.16024573046618526,-0.16744043831066763,-0.009363295203217603,-0.16206891712357807,0.1328972204199837,0.14700751665409711,0.1476017872681079,0.044225817208145723,-0.12811119924843573,0.030996710359927793,0.1458706929938961,0.15941570424523743,0.0825284748430633,-0.14852435846827927,-0.017968803575046988,-0.19193099408578906,-0.18141553500817276,0.04448869577019554,-0.06809827015428108,0.17815319189629347,0.024560316251872383,0.1965719462350985,-0.026081985753863807,0.18776261409197076,-0.05356560743950656,0.01773262895134095,0.08214289592342067,0.12405962658733838,-0.17212040831777753,-0.18284712652085844,0.0967662645065378,0.1482502657843428,0.0189980475522587,-0.11914508911532798,-0.0748804599947647,-0.04110059624148105,-0.09820692753101544,-0.06426394241189445,-0.035643220172627554,0.02382868243057762,0.1797558824498272,0.1362291655305512,-0.11232943008718231,-0.07351366285599426,-0.14678081070947632,-0.0577927511185897,0.1768058553655955,-0.15262581324969063,-0.1106130677717192,-0.05534517840659553,-0.12833674988040392,0.05725225618624952,0.15241877603508974,0.10392096185402366,-0.01763523375223386,-0.0863629820648403,-0.18495706512162213,0.18985956769346446,-0.1579139748958742,-0.08507782614224127,-0.00842098407456024,-0.15407327740382248,0.15330035796243058,-0.07894255183461017,0.1103766638341685,-0.1877007700493339,-0.1909520259701453,0.15837921635950442,0.017557927158813047,-0.06074026986021189,-0.005437675379201423,-0.14238834353578236,0.040121782192497235,0.06642222850374874,-0.1520454322553514,-0.011704909225023125,-0.07126821497077548,-0.12876553396475432,0.07437190123404258,-0.10126410774047381,-0.11440297842378931,0.16404170412881458,0.1050642544472497,0.14620342074253972,0.17092084657627232,0.1140199169598467,-0.03848842330866545,-0.17684017988659104,-0.04112081301682596,0.03822302576883513,0.09434486659718483,0.006956940962669467,-0.05381920829169326,0.03933154359831939,-0.08322345947481402,0.1183510825375903,-0.06935535322509676,-0.00048113324223111875,0.18109812136604503,-0.08161522009006061,-0.053501658536600966,-0.10213283735436961,-0.09501089447759235,-0.16476295383261547,-0.14426605886033422,-0.12727369746631167,0.02476084287691052,0.025837669121954843,0.028092363228847533,0.1957975380565986,0.08276523804354152,-0.07078866455199623,-0.009623211693100486,-0.13568701701026775,-0.16076716000270652,-0.07806212935195607,-0.1346843006344982,-0.18900855168468766,-0.16165484370436847,-0.026248815526362435,0.032491869376328086,0.06746470049621489,-0.01935528284314464,-0.11084428397109686,-0.06458982895551876,0.05790819128252922,-0.12597184837319475,-0.03633575982998191,0.1113736392181992,-0.04297143006255455,0.08475418482451919,-0.06470816045188679,-0.13762045963365807,0.008621929026281366,-0.16729914126537412,0.02537040735319404,-0.04907560864943178,0.040803929178887616,-0.12850949673501838,0.0536374914717036,-0.07183380768106495,-0.022791981466468936,-0.13789415269856964,0.19373782522199345,0.11695757333315948,-0.07620923554228183,0.12668601665048584,0.14471393873718041,0.13480476659005208,0.09435323304012116,-0.17718961746592995,0.02326079534305059,-0.1362621469999682,-0.1690809387944019,-0.1123255247020901,-0.0648154978975855,0.1765982448340611,-0.06635046265433903,-0.0015869687374356067,0.09891865630351859,-0.03325344715082901,-0.022653406025319178,0.19684495456506373,0.10292512432525341,-0.10663637967882247,-0.1669837506030084,-0.008514007101746213,0.14565700042601248,-0.07690220298434856,0.1484352255355127,0.05194989164067182,-0.18771941808742057,0.07829709444128463,-0.11500794819622495,-0.19351108067327205,0.016544948672970794,0.1297126467730939,-0.12111900226930211,0.032001803259931266,-0.1550702700843135,-0.04367490174014366,0.04066018514057265,-0.18656573471316504,-0.0875413020333304,0.11616714097972053,0.1285147368198209,-0.13372820875447983,0.10636497666457817,0.06928221027804843,-0.16852471895892895,0.126595135305884,0.025189129495396756,0.0296134866602058,0.021926763075570233,0.11960066863172542,-0.12602880339512393,-0.051496327512331075,0.1262550176237734,0.18419530282663205,-0.06360881581979366,-0.1645980022841962,-0.14192507773929697,-0.11570616545626172,0.1657671038085204,0.16872802751164012,-0.09111980120232942,0.0696427827239684,-0.0902907522321602,0.004439754868214962,0.05869190123766288,-0.06322291180340053,0.19689712749842309,0.16034652275654537,-0.0859234657845823,0.11757270780084117,0.036360267823571935,-0.13357470203670785,-0.12902180838057964,0.04705884939763508,-0.16993138188470658,0.18948466561633392,-0.1964628740732807,-0.13479524501747422,0.1578700451077341,0.05135333173644907,0.016605749624688138,0.17760500234421078,0.028417726074741967,-0.06587714137005518,0.1459043075518377,0.021922112758131274,-0.1397090692178857,0.07985902345819385,-0.04050369493661546,0.15353694992141165,0.196941493889629,-0.16003270039970366,0.06320377884978728,-0.0711006217447234,-0.04595210093913957,-0.15432366471327796,-0.08689431104600427,0.026030243549215015,0.16793061265660686,0.14268558630769085,0.11708392999663869,0.06710079821013765,0.07678202711761911,0.1157234105763072,0.14548705335422735,0.1463999649034315,0.1266003522385321,0.19705300082657606,0.03856896007504984,0.03798356037368658,-0.1419364381980116,0.14411684895921945,-0.001825402722416769,0.0024819440193905307,-0.12101450901332865,-0.04193111244819664,-0.05949315758592241,-0.1291600194637116,0.07913226003290069,0.04872875229674625,-0.11532182176959696,0.1977766142093526,0.023723564447249684,-0.07731622471920732,0.17887140285490288,-0.04837256112062427,0.08466129999017136,-0.08984024196055485,-0.17182384083979826,-0.1920185890838525,-0.1931969129878076,-0.174217125446404,0.01906540857852787,-0.08890524587303378,0.18894907008462208,-0.053893380898131754,0.07571669017947658,0.16180877880670197,0.18304403477698294,-0.19700479148770544,-0.0018551569205440543,0.1881247772579278,0.11935235463653243,0.019435010935412833,-0.03449591808122365,-0.07134958658540258,-0.134907909841761,0.12578748082714214,0.04111196462036179,0.16641371852006603,-0.11074198299411,0.006321971056293674,0.07208299991437073,-0.024400360454487208,0.1562001343289518,0.04362759748351311,-0.036970803087256254,-0.023656200733180033,0.09161499182855615,-0.06915981289737835,0.02388751028858599,-0.07972066103275638,-0.06775872277711689,0.09340079494158271,-0.1789661940049138,-0.14143650163044594,-0.19064087012060132,-0.11103977702349815,0.17793153765527292,0.1949680905385477,-0.06319916943708703,0.07775531309442651,0.1889270839570591,-0.18667954175255624,0.11879354648474116,0.1207838553557582,-0.08689306803760131,-0.026918939515912232,0.1163067781899651,0.02872496671640193,-0.019056645827317448,-0.004581469903764124,-0.18594345932098105,-0.15262263198661385,0.19672150226222795,-0.11057878776363861,0.1655211266490471,0.0057063734993581805,0.034519242564787694,-0.05076979208923493,-0.11608233523787624,0.029032372054955236,0.07084369854338679,-0.05616391230313153,0.1277646125509766,-0.021752309823427657,0.02858739823240669,-0.11762710420275023,-0.0674189116525743,-0.024600741234671986,-0.018841965604578903,0.051019269803856626,0.18232737330762383,-0.03798350325771099,-0.052720127020210866,-0.11987442770821702,-0.13787511386385756,0.16238283876558385,-0.058393544972266204,0.03188167385169488,-0.1485459837757447,-0.011810884442836761,-0.04909218697990134,-0.004831963023743585,0.05541857463186339,0.17975431318995455,0.09836210879637114,-0.1408102318463776,0.05215736524203568,0.053482825817043556,-0.007758165835408365,-0.1790070615029846,0.008326432705205,0.10104872147848848,-0.16258018872677243,0.05352232253098188,0.09917412005247189,-0.09831579399008508,-0.1533822112259137,-0.05780768249619808,0.007062852813485232,-0.11115017396464388,0.0969641213005571,-0.18475687223066883,-0.14495155420987144,0.148389861734474,0.0663958236088738,0.03823580387892472,0.04907496821738003,0.16776032080899467,-0.1794172061419138,-0.1724757209562484,-0.010170822255686496,-0.007689615347699685,-0.0033135653410533428,0.1974520669636612,-0.11551553203153304,0.005553402707204558,-0.09148125929068858,-0.12288409345691056,-0.0781975463813332,-0.13260343828239832,-0.044477080298705396,-0.02827367087802307,-0.08799279746598937,0.11684879669952059,0.17491194654000725,-0.12593693540002365,-0.18728447990378358,-0.10210575575193825,0.13003277289479664,0.010032197080516336,0.09133476897213277,0.15331315361047632,0.11471865493892691,0.0025996526446142865,0.14863980261392584,-0.1544493072317848,-0.1344816722144757,-0.08225324161887287,-0.16693251289192823,0.024368706702695503,-0.03172874730037786,-0.048403858174471986,0.15722450877920108,0.13000246708539448,0.13059191186331803,0.18273787281101167,0.08332746367933774,0.12863719835027343,-0.05641549883628791,-0.040672258230153246,-0.01756018197753484,-0.045260122009366466,0.04888913790023422,-0.035623665629467366,-0.019803356162799268,0.11157593075810351,0.08795194857640498,-0.1505486308562728,0.1369314402913795,-0.196056662032278,0.13623013534476025,-0.0023587860487108148,0.01572852791494378,-0.01570584743766404,-0.06615811990709528,-0.04966844312428717,-0.019025074262749714,0.1622830845828504,0.16863119600046056,-0.036409025544509255,0.18758308800455392,0.18573534011487303,0.017400289688994153,-0.14028809744981557,-0.16010724518146643,-0.05477207241561147,-0.019336213376694195,-0.16346734910310534,0.040239667379209976,0.11636124939666515,-0.07672409464297908,-0.01468325217515637,-0.04255480990413146,-0.07051008929978606,0.15701412304869067,-0.15724126435862598,-0.03464529086818899,-0.0734980042150272,0.10292296278883012,0.14372531377252784,0.09095395208640011,-0.008058638293331477,0.06912495733652052,0.06920707125703773,0.18464860736521532,0.11789148172050318,-0.04079778925794564,-0.04823094314094947,0.15858325394520584,-0.030872778523099692,0.07083817200468412,-0.11756758882387174,-0.1883384408651513,-0.04084113418678151,-0.11428526259149284,-0.1157685088115521,0.03945034035457057,0.024424940992622435,0.10223945825173841,-0.024588096412131943,-0.04681740642653559,-0.052591929563423984,-0.0870642922634775,-0.19170989629456223,-0.07492741998075747,0.029257382449603492,-0.0026281004979532285,0.10521202976626898,-0.08415451215052921,0.11670299838385062,-0.12058879392681537,0.010993742834714132,-0.16626469487317178,0.16006233486028265,-0.026257819526474158,-0.0868379233075447,-0.19892439098495265,0.04832290824369362,0.01065950851132369,0.021348599640261146,0.15369915536548806,-0.09864019469155956,0.19593450425118814,0.1437259387744768,-0.12355255662345394,-0.07365108806671952,0.07217363379966962,-0.08160845243194546,-0.002987069657492736,-0.012599694312359133,0.12512192016788187,0.025661526539177443,-0.058389801742436215,-0.15526138126400468,0.1675441110934962,-0.13207023342322577,-0.1582301018085678,0.01155417983471202,0.06351157230924198,-0.044993195504542005,0.09784905706628644,-0.18501077513465952,-0.00882907857782883,0.12519124221419287,0.08424244516953061,-0.02541055487703342,0.14495167854655355,-0.05522404018552071,0.13650743201275573,0.012092306517316243,-0.007139960759159625,0.18051128673069494,-0.048914389247278756,-0.14461309010659093,0.12068493645524042,0.01091792149468268,0.05650143323645074,0.00904644264356022,0.19690412877230296,0.16480596414120335,-0.05517929572202568,0.11645028578482108,0.08614516873646788,-0.15981276554718837,0.11392633439074595,0.03224717489428616,-0.17221921429926157,0.10183850606663375,0.14806280399813626,0.12963093763178446,-0.10898527092359772,0.0017800051564088315,-0.036884459206349085,0.19758100941882012,-0.12030956054275653,0.07604324777593419,-0.153279084284374,0.17375756548138915,0.044890615047302684,-0.09464587254655657,0.1249387771140828,0.015421486883264446,-0.09738006451647419,0.11313443185389976,-0.07159605698596636,0.02294235618677662,-0.0901292989364868,-0.01615792562434981,0.06184790514864885,-0.1596960164675439,0.19954358375046316,-0.17551308091077616,-0.07159616310163958,-0.037257184529408516,0.09887945749947907,0.02176238792182597,0.1585093423431982,-0.0170479719459328,0.1526249620675496,0.1377293607365257,-0.14167116221744155,-0.07189809446188855,0.1187888012608217,-0.06184321538186907,0.18200818897581172,0.040091858384639245,-0.07086781273707149,-0.1212266457441773,0.14402240456814924,0.07050358119422839,-0.08885878509411463,0.01977598193790059,-0.11568613080533306,-0.08620906145206836,0.03683042129564251,-0.07727391388410593,-0.1297379989301149,-0.13423894487008453,0.18443388657785215,-0.1781416978899788,0.18865227760421055,-0.1656068855408962,-0.13477994072896687,0.1313336811399332,0.1488441532381698,-0.1864581577671686,0.1262537969546137,-0.17909899558300815,0.15931063747856627,-0.18831072152952277,0.057572473276020386,-0.0953984317702708,0.0952187707368039,-0.09354173054221304,-0.18568368219179565,0.059366794108824894,-0.10262324465051816,0.08444081203058273,-0.07349715965210413,0.16901059352544667,-0.007946406637454217,0.015015512586122798,0.006566355986816319,0.010695292701459469,-0.10458515882837444,-0.18128148611713224,0.1515752717678872,-0.12045694141352153,-0.07793027796593366,-0.004810237863850736,0.04700520874561959,-0.04020659835492485,-0.14809304002425333,0.15938437608804262,0.04209524947902965,0.09358252418886126,0.1457868092415322,-0.10907190505485671,0.12745548317771122,-0.14129124615481983,-0.006246112286860062,-0.12705004380384627,-0.024031203579082477,0.16850233649351404,-0.1249061241057019,-0.11368699429593382,-0.17817797460177998,-0.13190397892753786,-0.07200682320836371,0.0008261194407852557,0.1960524164288865,-0.11205395353660529,-0.16214838679163687,0.185975305636153,-0.056510557808670564,-0.1216395558864079,0.02443379877428073,-0.014979610606464189,-0.013229438986650965,-0.11759275396154285,-0.02081870108898301,-0.1385680971189406,-0.17030218709439043,0.17949465637852285,-0.00640184394526111,-0.04669256599527233,-0.057924401184315855,-0.03845265515574425,0.041267378610341604,0.12558914076811628,0.13158286181211765,-0.11281141273578017,-0.04304606774142136,0.13548219297872954,-0.16176516213595848,-0.1283917957733679,-0.11663022023315,0.10779623323059634,-0.059092871186766066,0.10451213646476604,0.0869173615106657,0.1364113632693919,0.07497767490662782,0.009234284860739628,0.07205984667742271,0.17268637520192742,-0.11288378399651694,0.16036125419490105,-0.010702340253626291,0.09039226292989244,0.10410742803928569,0.010297917934167955,0.15705016268546074,-0.05561207561069656,-0.191759312585128,-0.11172445391885244,-0.02296312815410123,-0.11763603733557454,0.00014618745547947953,0.04129448808715591,0.15683736765819617,-0.017169330444225667,0.015660004951648265,-0.1102610218499307,-0.02740050011960954,-0.07951898090263523,0.047153222049142046,-0.12644390236617004,-0.07728813221276774,0.06314090675679102,-0.01589219212449064,0.10567532146564612,0.00039282854842914716,-0.08068299000350523,0.059602328059471354,0.07529975665434396,-0.08589914458397639,-0.16499286008713243,0.10947516438436616,0.07026679451742579,-0.039580390552894945,-0.12372293574518914,-0.08960790320083173,0.19852540669509128,0.08231477980074187,0.147355202945334,-0.08199567172762219,-0.14007841580114766,-0.016391558876762413,0.1585239750677766,0.16471555113989755,-0.09228938651420089,-0.06677675381748358,-0.14189437839955935,0.024983072198154765,0.19991451897409568,0.06124886707401844,-0.17828648888436227,-0.14906880663598523,0.1897906221524142,-0.1682126615722157,0.09622737480881371,0.039168319266853935,-0.09579856876153939,0.15804072590836732,0.07275791336270265,0.17495640000357415,-0.017707528591109523,-0.09771090258923004,-0.0008393625411153849,-0.17930392264409437,-0.02907475844476748,-0.18334000502718847,0.042737340292526765,-0.028106689463902435,-0.17518453696296987,0.04246010683683901,-0.16005661238636054,0.051046997698136753,0.13092224205741226,0.16574733731537244,0.11781415692016939,-0.08414938834737731,-0.18454234438938624,0.09207363001557328,0.16230312973941036,-0.1035126028679053,0.17910853191172355,0.025779312685027728,0.03592219131807689,-0.04448912646314804,0.06440954655692516,-0.0773209903741229,-0.15037679812424312,-0.15212319793212342,-0.07167685864981346,0.1882981158841659,0.1180967035165576,0.03528788788516221,0.12385623795403838,0.00010203602837749459,0.0439108288485463,0.07282041060972605,-0.07968280324684739,-0.19088140012486995,-0.05717486967522101,0.01796888508665412,-0.14754233630757138,-0.10866439037011899,0.00949028096231927,0.007409297089272016,0.09207557295647828,0.10922341266955282,-0.05238336893726955,-0.0417289736055137,-0.09941766347189747,0.15752099785338508,0.16320921424427742,-0.1742020077721711,0.10687910254483379,-0.06520268868119103,-0.014326291351842185,-0.014282162803362475,0.10444535069443356,-0.16476618600373075,-0.07693306904419091,0.061911487544613564,-0.03887612554088005,-0.12090831061424484,0.13994138465440403,0.1312996505015952,0.17843818659063232,-0.12924113060408704,-0.08950974460696158,-0.173827053001508,-0.1532547809911125,0.19275049985638787,-0.09807979323929512,0.177076973616707,0.047410115268682856,0.14668987745133688,0.16159194202418686,0.12647614078257025,-0.1667934352805471,-0.14140110608278597,0.1987879186819283,-0.11864786471021241,0.09675161666418486,-0.05730663190345739,-0.17396278566396317,0.05004028901290203,-0.09573107025042411,0.08452774670769775,-0.19841623499420155,-0.1966624399232682,0.07214604220656523,0.006880052443948875,-0.19377435860859205,0.13886730065241704,0.040240586337631085,0.06582002253186187,0.11037773890031838,0.1329400408426668,-0.08922475179001639,-0.08401942964735697,-0.1750628465476627,0.1616892640864423,0.11800623592630322,0.04083398410522285,-0.14452870150245412,-0.12279860809601857,0.006906251332326363,0.149154873651407,-0.14046514089854806,0.13645049002646142,0.006567786164182632,-0.11588356965978647,-0.13510028861291545,-0.023599175229159636,0.1422676329280087,0.18590061013893155,0.018750125534115286,0.1868461872314064,0.06437391390198866,0.19367931584393017,-0.1339455856933533,-0.12781548509307028,0.12668928306095656,-0.17859077703496934,0.019538846639792162,-0.14198257251172583,-0.13371279168894096,-0.11860903588025291,-0.056744800911454896,-0.07249974047270688,-0.018569016797911786,0.05167844380989467,0.18325644140681757,-0.14654519736331598,0.18325629871572274,-0.19603572674726452,0.18302311951105715,-0.03320991451211208,-0.18708579095549638,-0.010963292042443562,0.10059641317462881,0.1972735536949632,-0.14155864207428712,-0.07766997415118332,0.06544989399771761,-0.199915508992562,0.1950653234913604,0.11583400796523435,-0.08389980854081092,-0.06090021852160418,0.1726071829414565,-0.024865828567777026,-0.15732662581296408,0.0663389565762732,-0.10565482864977822,-0.039986541576222556,-0.14562280312812775,0.1995133748436877,-0.028443828092166612,0.06620288941003666,0.17171188191298548,-0.01392988251868238,-0.16935016933340918,0.12940639077701904,-0.11342640106737178,-0.14478622545753456,-0.1726372231284743,-0.003787598148987742,-0.014701790636824252,-0.06656630665388114,0.14797744700193388,0.04772077004567646,0.027325478431283384,0.08496864914693314,-0.05468371024121696,-0.06684924395030026,0.13404659591451556,0.1887969240847453,-0.03453034069909949,0.18108460359971507,0.14729267438399907,-0.1303471086172503,-0.18521251759867116,-0.10310716109245509,0.19300292971432187,0.17823978505755694,-0.10722211842082352,0.09857847511668838,-0.004980327066808149,-0.06971490073004319,0.15211605111492904,0.17208821104863753,-0.1286603862768491,-0.07794959292042974,-0.020023438221253714,0.0159841878406235,-0.09212709737758873,0.06291033764164611,-0.18538213296536432,-0.04553452660181839,0.12523111023804995,0.08564024049653562,0.15787732673360644,-0.19410727918108128,-0.060837042355024906,0.13206889896175006,0.13125497579369538,-0.17276396417827877,0.1606415338126066,-0.043357964627214585,0.008068896764581807,0.12297678885428776,0.0750835410457863,-0.11927894110539726,0.11447564566553903,-0.006918596947121269,0.010829458432137173,-0.19683651933880233,0.055486419806776044,0.0677308953798762,-0.12070988521080982,-0.15119068494876695,0.19933885672486468,-0.00916587811846642,0.009392929766443986,0.14481797824716763,-0.1812493639676247,-0.09650461327826294,-0.1439011369164793,0.08557004166680338,0.18048974995603262,0.0332408338833953,-0.07281435883817763,0.1209618585724111,-0.1415242803511455,0.17756877422973316,0.08578025739271267,-0.18044360656722375,0.10457370142623168,0.08950602843072353,-0.06317872177678022,-0.12543822501310647,0.19589898684704615,-0.03223534943044043,-0.036607074984497945,-0.06885350641982821,0.06587732160991155,-0.09510427808546576,0.16886277293762303,0.010132988038823593,-0.13401378386965412,0.19167486856116034,-0.16735359347399648,-0.10456457969512592,-0.033400761441315735,0.14944851550841326,-0.1358472533140912,0.13246021912009154,0.01760356250221448,-0.132427575301433],"biases":[0.05867033115930048,-0.1848673568830731,0.166838277670671,-0.062286389750751514,0.03456121179837285,0.05492069369224406,0.00753406023926928,0.030204425124222306,-0.016312867023523386,0.1686168695230627,-0.09691520340540363,0.06967568518932321,-0.0015047277500285783,0.06751558644133421,-0.17862597227706856,0.028593550032190856,-0.17439763257002294,0.07198692192060385,0.18028766160345183,0.04417556546802004,0.07849273031744436,-0.1319890011105681,0.020027375444150758,-0.1260330200262314,0.016140325707810266,0.1169681280608012,0.1414931107359615,0.1372494115529107,0.020272374457002584,0.07445373321665671,-0.06566331560699298,-0.15446796873853277,0.02577785712572611,0.12702647970346642,-0.17498391546398864,-0.11520500350013291,0.04075931242004768,0.19748708348984173,0.1460978377514512,0.0093270134390461,0.13800146582838446,-0.08544869032179321,0.058124647325404954,-0.19489384011261707,-0.16510883865161674,-0.05521887359719635,0.17486079429906404,-0.02027951473937789,0.07563835019577414,-0.02377082339593492,0.18469449106327457],"K":2},"score":6,"won":18,"lose":3,"draw":9,"sigma":[0.05,0.05,0.05,0.05,0.05,0.05,0.05,0.05,0.05,0.05,0.05,0.05,0.05,0.05,0.05,0.05,0.05,0.05,0.05,0.05,0.05,0.05,0.05,0.05,0.05,0.05,0.05,0.05,0.05,0.05,0.05,0.05,0.05,0.05,0.05,0.05,0.05,0.05,0.05,0.05,0.05,0.05,0.05,0.05,0.05,0.05,0.05,0.05,0.05,0.05,0.05,0.05,0.05,0.05,0.05,0.05,0.05,0.05,0.05,0.05,0.05,0.05,0.05,0.05,0.05,0.05,0.05,0.05,0.05,0.05,0.05,0.05,0.05,0.05,0.05,0.05,0.05,0.05,0.05,0.05,0.05,0.05,0.05,0.05,0.05,0.05,0.05,0.05,0.05,0.05,0.05,0.05,0.05,0.05,0.05,0.05,0.05,0.05,0.05,0.05,0.05,0.05,0.05,0.05,0.05,0.05,0.05,0.05,0.05,0.05,0.05,0.05,0.05,0.05,0.05,0.05,0.05,0.05,0.05,0.05,0.05,0.05,0.05,0.05,0.05,0.05,0.05,0.05,0.05,0.05,0.05,0.05,0.05,0.05,0.05,0.05,0.05,0.05,0.05,0.05,0.05,0.05,0.05,0.05,0.05,0.05,0.05,0.05,0.05,0.05,0.05,0.05,0.05,0.05,0.05,0.05,0.05,0.05,0.05,0.05,0.05,0.05,0.05,0.05,0.05,0.05,0.05,0.05,0.05,0.05,0.05,0.05,0.05,0.05,0.05,0.05,0.05,0.05,0.05,0.05,0.05,0.05,0.05,0.05,0.05,0.05,0.05,0.05,0.05,0.05,0.05,0.05,0.05,0.05,0.05,0.05,0.05,0.05,0.05,0.05,0.05,0.05,0.05,0.05,0.05,0.05,0.05,0.05,0.05,0.05,0.05,0.05,0.05,0.05,0.05,0.05,0.05,0.05,0.05,0.05,0.05,0.05,0.05,0.05,0.05,0.05,0.05,0.05,0.05,0.05,0.05,0.05,0.05,0.05,0.05,0.05,0.05,0.05,0.05,0.05,0.05,0.05,0.05,0.05,0.05,0.05,0.05,0.05,0.05,0.05,0.05,0.05,0.05,0.05,0.05,0.05,0.05,0.05,0.05,0.05,0.05,0.05,0.05,0.05,0.05,0.05,0.05,0.05,0.05,0.05,0.05,0.05,0.05,0.05,0.05,0.05,0.05,0.05,0.05,0.05,0.05,0.05,0.05,0.05,0.05,0.05,0.05,0.05,0.05,0.05,0.05,0.05,0.05,0.05,0.05,0.05,0.05,0.05,0.05,0.05,0.05,0.05,0.05,0.05,0.05,0.05,0.05,0.05,0.05,0.05,0.05,0.05,0.05,0.05,0.05,0.05,0.05,0.05,0.05,0.05,0.05,0.05,0.05,0.05,0.05,0.05,0.05,0.05,0.05,0.05,0.05,0.05,0.05,0.05,0.05,0.05,0.05,0.05,0.05,0.05,0.05,0.05,0.05,0.05,0.05,0.05,0.05,0.05,0.05,0.05,0.05,0.05,0.05,0.05,0.05,0.05,0.05,0.05,0.05,0.05,0.05,0.05,0.05,0.05,0.05,0.05,0.05,0.05,0.05,0.05,0.05,0.05,0.05,0.05,0.05,0.05,0.05,0.05,0.05,0.05,0.05,0.05,0.05,0.05,0.05,0.05,0.05,0.05,0.05,0.05,0.05,0.05,0.05,0.05,0.05,0.05,0.05,0.05,0.05,0.05,0.05,0.05,0.05,0.05,0.05,0.05,0.05,0.05,0.05,0.05,0.05,0.05,0.05,0.05,0.05,0.05,0.05,0.05,0.05,0.05,0.05,0.05,0.05,0.05,0.05,0.05,0.05,0.05,0.05,0.05,0.05,0.05,0.05,0.05,0.05,0.05,0.05,0.05,0.05,0.05,0.05,0.05,0.05,0.05,0.05,0.05,0.05,0.05,0.05,0.05,0.05,0.05,0.05,0.05,0.05,0.05,0.05,0.05,0.05,0.05,0.05,0.05,0.05,0.05,0.05,0.05,0.05,0.05,0.05,0.05,0.05,0.05,0.05,0.05,0.05,0.05,0.05,0.05,0.05,0.05,0.05,0.05,0.05,0.05,0.05,0.05,0.05,0.05,0.05,0.05,0.05,0.05,0.05,0.05,0.05,0.05,0.05,0.05,0.05,0.05,0.05,0.05,0.05,0.05,0.05,0.05,0.05,0.05,0.05,0.05,0.05,0.05,0.05,0.05,0.05,0.05,0.05,0.05,0.05,0.05,0.05,0.05,0.05,0.05,0.05,0.05,0.05,0.05,0.05,0.05,0.05,0.05,0.05,0.05,0.05,0.05,0.05,0.05,0.05,0.05,0.05,0.05,0.05,0.05,0.05,0.05,0.05,0.05,0.05,0.05,0.05,0.05,0.05,0.05,0.05,0.05,0.05,0.05,0.05,0.05,0.05,0.05,0.05,0.05,0.05,0.05,0.05,0.05,0.05,0.05,0.05,0.05,0.05,0.05,0.05,0.05,0.05,0.05,0.05,0.05,0.05,0.05,0.05,0.05,0.05,0.05,0.05,0.05,0.05,0.05,0.05,0.05,0.05,0.05,0.05,0.05,0.05,0.05,0.05,0.05,0.05,0.05,0.05,0.05,0.05,0.05,0.05,0.05,0.05,0.05,0.05,0.05,0.05,0.05,0.05,0.05,0.05,0.05,0.05,0.05,0.05,0.05,0.05,0.05,0.05,0.05,0.05,0.05,0.05,0.05,0.05,0.05,0.05,0.05,0.05,0.05,0.05,0.05,0.05,0.05,0.05,0.05,0.05,0.05,0.05,0.05,0.05,0.05,0.05,0.05,0.05,0.05,0.05,0.05,0.05,0.05,0.05,0.05,0.05,0.05,0.05,0.05,0.05,0.05,0.05,0.05,0.05,0.05,0.05,0.05,0.05,0.05,0.05,0.05,0.05,0.05,0.05,0.05,0.05,0.05,0.05,0.05,0.05,0.05,0.05,0.05,0.05,0.05,0.05,0.05,0.05,0.05,0.05,0.05,0.05,0.05,0.05,0.05,0.05,0.05,0.05,0.05,0.05,0.05,0.05,0.05,0.05,0.05,0.05,0.05,0.05,0.05,0.05,0.05,0.05,0.05,0.05,0.05,0.05,0.05,0.05,0.05,0.05,0.05,0.05,0.05,0.05,0.05,0.05,0.05,0.05,0.05,0.05,0.05,0.05,0.05,0.05,0.05,0.05,0.05,0.05,0.05,0.05,0.05,0.05,0.05,0.05,0.05,0.05,0.05,0.05,0.05,0.05,0.05,0.05,0.05,0.05,0.05,0.05,0.05,0.05,0.05,0.05,0.05,0.05,0.05,0.05,0.05,0.05,0.05,0.05,0.05,0.05,0.05,0.05,0.05,0.05,0.05,0.05,0.05,0.05,0.05,0.05,0.05,0.05,0.05,0.05,0.05,0.05,0.05,0.05,0.05,0.05,0.05,0.05,0.05,0.05,0.05,0.05,0.05,0.05,0.05,0.05,0.05,0.05,0.05,0.05,0.05,0.05,0.05,0.05,0.05,0.05,0.05,0.05,0.05,0.05,0.05,0.05,0.05,0.05,0.05,0.05,0.05,0.05,0.05,0.05,0.05,0.05,0.05,0.05,0.05,0.05,0.05,0.05,0.05,0.05,0.05,0.05,0.05,0.05,0.05,0.05,0.05,0.05,0.05,0.05,0.05,0.05,0.05,0.05,0.05,0.05,0.05,0.05,0.05,0.05,0.05,0.05,0.05,0.05,0.05,0.05,0.05,0.05,0.05,0.05,0.05,0.05,0.05,0.05,0.05,0.05,0.05,0.05,0.05,0.05,0.05,0.05,0.05,0.05,0.05,0.05,0.05,0.05,0.05,0.05,0.05,0.05,0.05,0.05,0.05,0.05,0.05,0.05,0.05,0.05,0.05,0.05,0.05,0.05,0.05,0.05,0.05,0.05,0.05,0.05,0.05,0.05,0.05,0.05,0.05,0.05,0.05,0.05,0.05,0.05,0.05,0.05,0.05,0.05,0.05,0.05,0.05,0.05,0.05,0.05,0.05,0.05,0.05,0.05,0.05,0.05,0.05,0.05,0.05,0.05,0.05,0.05,0.05,0.05,0.05,0.05,0.05,0.05,0.05,0.05,0.05,0.05,0.05,0.05,0.05,0.05,0.05,0.05,0.05,0.05,0.05,0.05,0.05,0.05,0.05,0.05,0.05,0.05,0.05,0.05,0.05,0.05,0.05,0.05,0.05,0.05,0.05,0.05,0.05,0.05,0.05,0.05,0.05,0.05,0.05,0.05,0.05,0.05,0.05,0.05,0.05,0.05,0.05,0.05,0.05,0.05,0.05,0.05,0.05,0.05,0.05,0.05,0.05,0.05,0.05,0.05,0.05,0.05,0.05,0.05,0.05,0.05,0.05,0.05,0.05,0.05,0.05,0.05,0.05,0.05,0.05,0.05,0.05,0.05,0.05,0.05,0.05,0.05,0.05,0.05,0.05,0.05,0.05,0.05,0.05,0.05,0.05,0.05,0.05,0.05,0.05,0.05,0.05,0.05,0.05,0.05,0.05,0.05,0.05,0.05,0.05,0.05,0.05,0.05,0.05,0.05,0.05,0.05,0.05,0.05,0.05,0.05,0.05,0.05,0.05,0.05,0.05,0.05,0.05,0.05,0.05,0.05,0.05,0.05,0.05,0.05,0.05,0.05,0.05,0.05,0.05,0.05,0.05,0.05,0.05,0.05,0.05,0.05,0.05,0.05,0.05,0.05,0.05,0.05,0.05,0.05,0.05,0.05,0.05,0.05,0.05,0.05,0.05,0.05,0.05,0.05,0.05,0.05,0.05,0.05,0.05,0.05,0.05,0.05,0.05,0.05,0.05,0.05,0.05,0.05,0.05,0.05,0.05,0.05,0.05,0.05,0.05,0.05,0.05,0.05,0.05,0.05,0.05,0.05,0.05,0.05,0.05,0.05,0.05,0.05,0.05,0.05,0.05,0.05,0.05,0.05,0.05,0.05,0.05,0.05,0.05,0.05,0.05,0.05,0.05,0.05,0.05,0.05,0.05,0.05,0.05,0.05,0.05,0.05,0.05,0.05,0.05,0.05,0.05,0.05,0.05,0.05,0.05,0.05,0.05,0.05,0.05,0.05,0.05,0.05,0.05,0.05,0.05,0.05,0.05,0.05,0.05,0.05,0.05,0.05,0.05,0.05,0.05,0.05,0.05,0.05,0.05,0.05,0.05,0.05,0.05,0.05,0.05,0.05,0.05,0.05,0.05,0.05,0.05,0.05,0.05,0.05,0.05,0.05,0.05,0.05,0.05,0.05,0.05,0.05,0.05,0.05,0.05,0.05,0.05,0.05,0.05,0.05,0.05,0.05,0.05,0.05,0.05,0.05,0.05,0.05,0.05,0.05,0.05,0.05,0.05,0.05,0.05,0.05,0.05,0.05,0.05,0.05,0.05,0.05,0.05,0.05,0.05,0.05,0.05,0.05,0.05,0.05,0.05,0.05,0.05,0.05,0.05,0.05,0.05,0.05,0.05,0.05,0.05,0.05,0.05,0.05,0.05,0.05,0.05,0.05,0.05,0.05,0.05,0.05,0.05,0.05,0.05,0.05,0.05,0.05,0.05,0.05,0.05,0.05,0.05,0.05,0.05,0.05,0.05,0.05,0.05,0.05,0.05,0.05,0.05,0.05,0.05,0.05,0.05,0.05,0.05,0.05,0.05,0.05,0.05,0.05,0.05,0.05,0.05,0.05,0.05,0.05,0.05,0.05,0.05,0.05,0.05,0.05,0.05,0.05,0.05,0.05,0.05,0.05,0.05,0.05,0.05,0.05,0.05,0.05,0.05,0.05,0.05,0.05,0.05,0.05,0.05,0.05,0.05,0.05,0.05,0.05,0.05,0.05,0.05,0.05,0.05,0.05,0.05,0.05,0.05,0.05,0.05,0.05,0.05,0.05,0.05,0.05,0.05,0.05,0.05,0.05,0.05,0.05,0.05,0.05,0.05,0.05,0.05,0.05,0.05,0.05,0.05,0.05,0.05,0.05,0.05,0.05,0.05,0.05,0.05,0.05,0.05,0.05,0.05,0.05,0.05,0.05,0.05,0.05,0.05,0.05,0.05,0.05,0.05,0.05,0.05,0.05,0.05,0.05,0.05,0.05,0.05,0.05,0.05,0.05,0.05,0.05,0.05,0.05,0.05,0.05,0.05,0.05,0.05,0.05,0.05,0.05,0.05,0.05,0.05,0.05,0.05,0.05,0.05,0.05,0.05,0.05,0.05,0.05,0.05,0.05,0.05,0.05,0.05,0.05,0.05,0.05,0.05,0.05,0.05,0.05,0.05,0.05,0.05,0.05,0.05,0.05,0.05,0.05,0.05,0.05,0.05,0.05,0.05,0.05,0.05,0.05,0.05,0.05,0.05,0.05,0.05,0.05,0.05,0.05,0.05,0.05,0.05,0.05,0.05,0.05,0.05,0.05,0.05,0.05,0.05,0.05,0.05,0.05,0.05,0.05,0.05,0.05,0.05,0.05,0.05,0.05,0.05,0.05,0.05,0.05,0.05,0.05,0.05,0.05,0.05,0.05,0.05,0.05,0.05,0.05,0.05,0.05,0.05,0.05,0.05,0.05,0.05,0.05,0.05,0.05,0.05,0.05,0.05,0.05,0.05,0.05,0.05,0.05,0.05,0.05,0.05,0.05,0.05,0.05,0.05,0.05,0.05,0.05,0.05,0.05,0.05,0.05,0.05,0.05,0.05,0.05,0.05,0.05,0.05,0.05,0.05,0.05,0.05,0.05,0.05,0.05,0.05,0.05,0.05,0.05,0.05,0.05,0.05,0.05,0.05,0.05,0.05,0.05,0.05,0.05,0.05,0.05,0.05,0.05,0.05,0.05,0.05,0.05,0.05,0.05,0.05,0.05,0.05,0.05,0.05,0.05,0.05,0.05,0.05,0.05,0.05,0.05,0.05,0.05,0.05,0.05,0.05,0.05,0.05,0.05,0.05,0.05,0.05,0.05,0.05,0.05,0.05,0.05,0.05,0.05,0.05,0.05,0.05,0.05,0.05,0.05,0.05,0.05,0.05,0.05,0.05,0.05,0.05,0.05,0.05,0.05,0.05,0.05,0.05,0.05,0.05,0.05,0.05,0.05,0.05,0.05,0.05,0.05,0.05,0.05,0.05,0.05,0.05,0.05,0.05,0.05,0.05,0.05,0.05,0.05,0.05,0.05,0.05,0.05,0.05,0.05,0.05,0.05,0.05,0.05,0.05,0.05,0.05,0.05,0.05,0.05,0.05,0.05,0.05,0.05,0.05,0.05,0.05,0.05,0.05,0.05,0.05,0.05,0.05,0.05,0.05,0.05,0.05,0.05,0.05,0.05,0.05,0.05,0.05,0.05,0.05,0.05,0.05,0.05,0.05,0.05,0.05,0.05,0.05,0.05,0.05,0.05,0.05,0.05,0.05,0.05,0.05,0.05,0.05,0.05,0.05,0.05,0.05,0.05,0.05,0.05,0.05,0.05,0.05,0.05,0.05,0.05,0.05,0.05,0.05,0.05,0.05,0.05,0.05,0.05,0.05,0.05,0.05,0.05,0.05,0.05,0.05,0.05,0.05,0.05,0.05,0.05,0.05,0.05,0.05,0.05,0.05]},{"net":{"name":"jsy","generation":0,"inputs":32,"layers":[40,10,1],"weights":[-0.06215209982400127,-0.13577932732279957,-0.07118391332908489,-0.10667222722968478,0.18180935933521897,-0.04389192237745432,0.15506727482236693,0.039958147940688526,-0.017861411303472075,0.06438342411405024,0.18816381204646326,-0.0365061175117031,-0.006286195813807016,-0.10367325861088182,-0.043048899959282766,0.10100014684068087,0.09660268295716345,-0.18053758423468072,-0.1732872186700739,-0.051114785271455604,0.08047089536101737,-0.06774760625754014,0.19750595563341794,0.030106221424342744,0.02396869109128144,0.0976260010914099,-0.06167962967120699,0.16280684746986618,-0.05388031356248621,-0.013926851260400414,0.08679211682035143,-0.06679136346011791,0.027830383742666248,-0.077476857063406,-0.15516639890525516,0.027329958164899804,0.0766324156480741,0.12024478549300904,-0.0010585303089118148,-0.14256603281840166,0.1370325349505434,0.043222494583077975,0.028202908874750243,-0.1700726459718861,-0.11441556365614236,0.03452085032376076,-0.14899265757660132,0.027611453663420965,-0.14510500092332912,-0.011142979128499958,-0.11381514429303499,-0.1675909825985854,-0.02541221153731721,0.17036803179123183,-0.16094486223599383,-0.14090205130254604,0.051936560136548404,0.07844687529954131,0.14255064878562795,-0.08542546623206411,-0.09701376790066743,0.0426522053709065,-0.0317190794112987,0.06436144594300847,0.18969495920498808,0.073346913510688,0.11211135691760038,0.04730424722009979,0.13854825518616043,-0.18237236483995733,-0.043136133341360516,-0.15419466747260177,-0.1937172656520093,0.037979960647719746,-0.17575313675976406,-0.1505419000188203,-0.05993412555562633,0.18334878447107583,-0.14543864464450662,-0.015626781757353825,-0.11913979559546704,-0.17123773911163145,-0.05385553908994245,0.0838160980990672,-0.06158639477073305,-0.004960175997327898,-0.09898212461254535,-0.08360183424436754,0.11816486147603439,0.13748199160018287,-0.16856837118911835,-0.03470064808349749,0.1237185334738195,0.11932813725017477,-0.07480934496302724,-0.19902517257833818,0.14978068161049907,0.1676248647304472,0.01349652935234208,0.006082242727549675,-0.007486608541035361,0.07004915848756915,0.10047941649052555,0.09517268248853084,0.15997517607607037,-0.15765322417612593,0.06863528910691807,-0.08566136474671132,0.050633872049828166,-0.05762945667998284,-0.07169810954464681,-0.04647839455721953,0.06254852271807321,-0.19105235040290314,0.18241121042528546,0.01941926431201582,0.011389684602772732,0.08834198483838751,-0.09605042985285293,-0.08512145512857527,0.12355727033077957,-0.011288881616194402,-0.071496777626185,-0.12773604304223535,0.06751627162424934,-0.0930616495236719,0.11382213376779138,-0.02777576994765124,0.17625088193815153,0.09399904298266548,-0.10286929853173517,-0.1665335373179535,-0.008097251956096507,0.10883148500923057,0.1723510893483446,0.16646055008751465,-0.0025599728145905,-0.02725463018676652,0.17373270986308437,0.16772496307278922,0.09806398053959897,-0.053624199292337055,0.1560912610100466,0.04190064158362716,-0.059768766063101886,-0.19379001844832786,-0.18821933906582347,0.06464374906821702,-0.028192531479251326,0.04652263399762582,0.17150755486299885,-0.022855949149400534,0.006269030389251917,0.07445403840001752,0.1180526197249342,-0.16895001084469152,-0.123878101837804,0.15871662031624123,0.11422339011467325,0.1811389385516306,0.1649321473159699,0.1316246417109896,-0.04480627199958348,-0.0992486493510473,0.07949240539015234,-0.03385235801194825,-0.16026083196404156,0.055928173835856465,0.16357351877534249,-0.1280946065901155,-0.12037067630077206,-0.014210967331611368,0.017002239625698745,0.00482890588563567,0.15522465308789152,0.0471924302132572,-0.03208770340207093,-0.19341511997306915,-0.023573631111070442,-0.13470481092325864,-0.011972564186719575,-0.04370988801154496,-0.12835830719472918,0.13843472325703993,-0.03600203437530097,-0.07179370478169764,0.007326399960205954,0.1845588744874519,-0.19134576485400112,0.1594909231217096,-0.08117634363627985,-0.16731044073430593,-0.060985623320579496,0.05908577647319052,-0.10959941056515375,-0.09840770418593037,0.021112964556060737,0.11977844241710667,0.07126712439922633,0.196174650774328,0.0835412929579692,0.0999311907324093,-0.09803284187685267,-0.11299353668461656,0.025748105085056316,-0.09358072806036742,0.17179494976563303,-0.05559406475914966,-0.02341204870179253,0.16198510132156035,0.023204951074254965,-0.037664458417932783,-0.13881498312980176,0.06238193048703844,-0.07586103385072107,-0.06052924657934283,0.19663390739040704,-0.07443790644840317,-0.1363196124749383,0.17407858817916672,0.12915649805295254,0.1167971594259945,0.1723763924522307,-0.06686489849314922,-0.10659430015278515,-0.047181746504234845,-0.04576105014673876,0.1930411802494752,0.16933152477892516,0.068646227610906,0.06986331549123204,0.12433661386300149,-0.12455519075885704,0.08203021504742836,0.06378899456778508,-0.16258463647770718,-0.08132510393407931,-0.061404322703146275,-0.07940910487841135,-0.07152017212633588,-0.0009716331089310581,0.14199724043294587,-0.03678461053242971,-0.05816641294823929,-0.056303958359035816,-0.06898749714583471,0.07803801184019504,0.09148055774054553,-0.1642382089757109,0.00920449077047153,-0.02729406402264606,-0.1835948048016981,0.017481657821882657,0.16630489437431573,0.03472356636083998,0.005768394452271591,-0.04886260728239361,0.04457073340130738,0.12530852184778452,0.05647019903463474,0.1653022583324701,0.19908131110010246,0.14186495773704072,0.17036718291545733,-0.02082937855113487,-0.0774713602317279,0.05475485917072653,-0.033156465058127,0.11528210640761583,0.039344130862453947,0.14326656076088168,-0.027389374952849016,0.06906562335471306,-0.04989873722968774,-0.18372083785331217,0.12410572266013764,0.053917522641076854,-0.11255262603811529,0.15661747181640678,0.19827524073068564,0.12189230115292915,-0.17855528642092003,0.08866517451084227,-0.019794522537354003,0.042789140443199425,0.017988604998014968,-0.008059481864384932,-0.08577877426382141,0.03847902630074884,-0.1754565302171688,-0.059351072257445125,-0.13000342967366665,-0.08733176014758195,0.19158409206046878,0.14233858168457492,-0.09800885305464294,0.019168667141772733,0.19679037052039278,0.06488737318552207,-0.05833911618931939,0.009498093506268651,0.07170259680004964,0.03453530034584168,-0.07923414880362811,-0.15109521073980084,-0.14763739341436094,0.1300885642982048,-0.19959898246203941,0.1476481462819823,0.04351946225309106,0.02624138992966829,-0.1751598825761377,-0.11542312334062964,0.05899613425512068,-0.18296672831780683,0.07645912762387075,0.02820740491476509,-0.16042269548135757,0.1643591587264589,-0.015361951606144869,-0.015037154643611578,-0.01138747648460825,0.0384374421668518,0.12480684217297222,0.004543678009603452,-0.05685596045465369,0.021720997350711008,-0.04772802757931077,0.023171824641006283,0.09317146912291302,0.16856383654825108,-0.18379891624353004,0.13964835272677656,0.11335616624979039,0.1639586912914166,0.11912979713857247,-0.18496512522722766,-0.02788616800232263,-0.08933123919725139,0.033419739751616356,0.09116956776257457,0.12308558858641688,0.14916890485365064,0.17305402745305826,-0.08146703347258973,-0.11562602205459403,-0.009397314512344934,-0.06439394451874422,0.04230798262160773,0.19052511234025354,0.19463351339577306,-0.11077021427624444,-0.1566748682048223,0.11024522263290165,0.10143495162448313,-0.14711245750326407,0.017425509184648108,-0.13211510152473027,0.154337418558343,-0.022462667493380023,0.10402833554934116,-0.1484552107817102,0.15044727365029964,-0.1340843240529052,-0.09413478194744594,0.09283832656656016,-0.18294239300257928,0.09095211247174168,-0.028171498113743976,0.08750788863751646,-0.17721377100385213,-0.09382376868183036,0.09524383276164794,-0.17414474793825302,-0.028784334302282832,-0.014162156742199727,0.040576816073926214,-0.16136255419288742,0.012373353291514622,-0.08591314138418014,-0.07588050336969517,-0.06118868017030313,-0.0988032178040304,0.1919548457103752,0.030450002627625677,-0.19173564327860834,-0.03900742805586957,-0.1949806985522624,-0.030060480350541763,-0.0013355223798525162,-0.026831126733938143,0.09148205136493576,-0.13404946356702024,0.07151576233760154,-0.13484970661662876,0.06563425929551636,0.19419023990329842,-0.10007698950726818,-0.00040127113069701736,-0.13397138527424418,-0.19894502958007954,-0.09545886963102862,0.08055319521311233,-0.016368269009715775,0.18479033416334562,-0.10881167769093808,0.1960224243669968,0.03498579585896691,0.19751408500070017,0.19168246139439182,-0.1330148134182877,0.14105234336309236,-0.06919895947296642,0.02478904839172652,0.03961945868809327,0.08120282394701989,-0.14618286922161972,0.13746439338665678,-0.16757584190097063,0.1115280636315869,-0.12749571841564544,-0.14533439651438895,-0.12407468630923316,-0.0892999968120976,-0.18399856156676409,-0.18196204762222506,-0.17152456872895377,-0.1615228174122125,0.036246281428527455,-0.10503450867986519,0.14613888085769772,0.19405036520986169,-0.12538041798985047,0.12030244452083111,0.05730382345149965,0.15496962284450894,0.09410090367004942,0.04385618027740393,0.09382298516865567,-0.04969381091020156,0.001858823939429044,0.010728235519037288,-0.09423383393040252,0.015490021653057712,-0.12571998130064,-0.08284693125614329,-0.11692460470698594,-0.09695657526329776,0.14507916445095503,0.1295710876362759,0.06811454997135824,0.004380511439016382,0.011892398963548795,-0.0597171134153979,0.009317796617183405,-0.08830348936797067,-0.19107633694323073,0.1247371936439059,-0.19713774701346554,0.17610598778506398,-0.14427042849491514,-0.1443453817616793,-0.03555138538683167,0.1939528805204903,0.16966063856018526,-0.07127722448933735,-0.017591343394245396,0.1812846099678545,0.07598901690959164,0.014895763468684098,-0.04053872243625295,0.02043067861053549,0.19390507173112603,-0.15204556291367188,-0.04505908461267544,0.09983528898765864,-0.0563011394380972,-0.06153913800407082,0.0719215239263023,0.07636119244092976,-0.007445125674245379,0.14655199463615393,0.08637919756522916,-0.06353148262387806,0.14377766775116418,0.19415976834784326,0.08177922145773558,0.09269861937941071,0.1709328119415165,0.14096153006036077,0.03911646275832395,-0.035291043978760234,-0.09477077960508425,0.008244785567459806,-0.11521892838866582,0.057742552447982376,-0.12158939231262603,0.09937191778086102,0.1389942804840964,-0.04704799529985895,0.07757435007001201,0.028503668768105866,0.17916034780388046,0.11341427117754393,0.10063543214085985,0.04458506488373856,0.04611486222388814,-0.1325692098264189,-0.05691061369784248,-0.024991464482986447,0.11997489470095318,0.014819202888196326,-0.17237504350377675,0.15238927084624726,-0.026027268265400583,-0.16644794425690126,-0.06402582281105751,-0.1667719678523187,-0.11053483579030648,0.18315591090193345,0.022445357245077707,0.18640816438133279,-0.100962721100883,0.13423653203530445,0.18685455864552403,0.19877332994366476,0.1975204450609397,-0.11063674829202715,-0.18009949701016226,0.011704955052568522,-0.0665891709479168,-0.02700811686723137,0.133302971444746,0.12595812892105213,0.14248942714026608,0.09607432909641,-0.04294919915363993,0.038761627896192946,-0.009394334686534389,0.08784252871559978,-0.1283900774897272,-0.1262174735163999,0.08117855509653021,0.013322500193500092,-0.1327719657767803,-0.16521369409505082,-0.0692631991709641,-0.0695120769701604,-0.12770437329589682,-0.019834134255096114,-0.12852986143621417,0.08388475987324095,0.02357321214255767,0.19855092869482016,0.15969722684265747,0.10520352617812057,-0.156512296440393,-0.037573635681431655,-0.04021181568576476,-0.019594504912676586,0.16863331773418982,0.041675091200896214,0.021526812859629263,0.010802200718266264,0.01881573333368572,0.013022351770270196,0.013188340549519062,-0.041088371431922954,0.10176692845260343,0.18927728491110063,-0.01721609589221132,0.02554593635819885,-0.19469686005719186,0.13491665225399424,0.16915398714934782,0.06535966765228779,-0.15766585474680728,-0.008137742955201949,-0.12841499820134317,-0.016170495239018035,0.015532866404167123,0.09337178609871832,0.14805659892982065,0.070251264043584,-0.17895958437358248,-0.08425045393632198,0.1313488281238951,-0.05403529341655755,0.007701161055172351,0.0021361516516031354,-0.07110474858341442,0.10159607271646032,-0.0020712886301429145,0.08733124887596128,0.1589735114878894,-0.0976617777448511,0.18933193048967123,-0.15582572741631184,0.11732483776237673,-0.17769208679272533,-0.19359389519550874,0.00019586281808878225,0.03509288174998498,-0.07703526748298223,0.0652557583561929,-0.030531094406112486,-0.13752995090527254,-0.13741868072854163,0.039036588194368976,0.17970401122329122,-0.07085150603747908,-0.09731364844086006,-0.0858561824870475,0.03166611733711874,-0.07940046481810965,-0.1616240140248828,-0.17320822393141677,-0.0053730269619359505,-0.15359304247442573,0.1820443909141708,-0.18501172649653583,0.12252422338327168,-0.1545973369943856,0.029587090303172303,0.178463291719078,0.12281444934286423,0.060737924733134996,-0.16192901430541015,-0.021536216753068438,0.00940165155217737,-0.03644692364673788,-0.10371962427875579,0.16703337427793324,0.1429380439241847,0.020311533918382085,0.14852240244576242,-0.1869482346516149,-0.1760454252338044,-0.16518387472709542,-0.06870144361525518,-0.012256014533466086,-0.0954916794348531,-0.15586375464187965,0.1359414834277362,-0.0194744242888035,0.048550330774578127,0.19696698534851093,0.13555501547819954,0.02784966102094702,-0.05536732161196056,-0.09389307225750115,0.12114833946174919,0.13454558113283793,-0.020589093629950483,0.0319837184049688,-0.12425065807752161,-0.14204790572075937,0.05513227994438086,-0.13498717848710787,0.0820202944197182,-0.18080069689579875,0.1713966052094631,0.13314162284195596,-0.0048093191519790746,0.12644073836690634,0.19941007264353888,-0.13392691514879446,-0.06569807526948557,-0.16063793179617383,-0.09118718925833003,-0.0002421313354410981,0.08621599922629575,-0.029151122712618605,0.03472863664200618,-0.13348122500173112,-0.01691561759850249,0.12216909258778746,-0.04864154537033097,-0.18924080579590552,-0.1908430867128595,0.09471763365437891,-0.08036556433474162,-0.19636779085481246,-0.01255892641674708,-0.07450160273232581,0.03744190639233863,-0.017721476581062573,-0.18753891500594344,-0.13715699400556874,-0.1978876027077525,-0.03718036388281448,0.15914399860509265,-0.10797969269723291,0.16103688332849392,0.1389433870272166,-0.076990821720411,-0.1253489625500418,0.00818285425456483,-0.054298831565011973,-0.07167780210501426,0.12205089349532977,-0.07556792132226323,-0.1807506296902263,-0.08595752510028856,-0.07088589705556878,0.05832542386552958,-0.0845389488943603,0.14331456255892133,-0.07456823548163946,0.12634155063832592,-0.03544936593186607,-0.060475545958779436,-0.016461454807192327,0.06348717298601586,0.009503429338059088,0.025527512819683462,-0.005379037036715051,0.038007233393509476,-0.03290383551733553,0.1155686488991216,-0.12259943139591778,-0.1429459637057879,-0.14634660643319972,0.002166487224075475,-0.17728926283536028,0.10789448225928366,0.11164965870650612,0.013403632292319584,-0.046426621514585514,0.013101596152134132,-0.12304516519956198,0.031025370019579335,-0.061155367963211055,0.18140445931227384,0.03815585163984486,0.1406453472455535,0.04465226512098672,-0.1981309280478877,0.10629932166317335,0.17573562660457748,-0.06183112038043534,-0.12847726236573856,-0.17429512034243047,0.043807012166133585,0.05506454394757093,-0.13383307057937233,-0.04119992614394885,0.006542148411237736,-0.14157081750788303,-0.005423790625465497,-0.02118176602240132,0.06176861105406556,-0.1069843801680917,-0.1873397551320248,-0.03442681535782546,0.16875994464813404,-0.11263934632349325,-0.06994945838551825,0.03017945131504085,-0.03765684821569373,-0.1423222630522865,-0.16972101620672292,0.04195021042835262,0.13077985533403674,0.03406094846380031,0.06166705508501258,0.06508162526728317,-0.025789242668698087,-0.1594485037767311,0.044004492380575494,-0.025357345841285378,0.09899527071382447,0.006693712778211125,-0.05205123913755952,-0.14612488884170338,-0.06648077188948198,-0.097549189888655,0.1262912638847576,-0.15450145968045945,0.07748992375154706,-0.138868210541811,0.12620593426834192,0.03363291665177853,-0.07712836044331982,0.08004891427589056,0.11533814450450075,0.04775804960710897,-0.09371342300112247,0.10809445972194148,-0.1632045465236912,0.09019682018193453,-0.11268555636886513,-0.09134937304672999,0.1473124347971715,0.003680615422306216,-0.11894014179973285,0.10691201497683894,0.09139710924525091,0.1706918513729262,-0.018022292253072086,0.1640936106998459,-0.15420701499327516,0.1015388586965732,-0.06526343607562649,0.13529821640119205,0.14421665014254836,-0.025926332604258112,0.1974955702678795,-0.05898963004365934,0.1652706767659301,0.14344536814941788,-0.11960411043842933,-0.01380836375478306,-0.08608336211943009,-0.11672034067074506,-0.12358292093521675,0.046475867946172034,0.12400376238667798,0.1965963689960913,0.0424972373499079,-0.04214935230077871,-0.06614872596787508,0.18708685768080668,0.048805486627968436,0.18516157232292774,-0.04827976065755113,0.12906566951665593,0.1175593601070079,-0.1177206909179553,-0.13494830909901695,0.03068301950816127,-0.10469457972830983,-0.03429489622452228,0.005782782201769809,0.017541474575337196,-0.09337900640220687,0.09491798649109218,-0.16741457351516892,0.15573708038879658,-0.10202871379234653,-0.07390610917119433,-0.08872861094557782,0.17538103605323646,0.04723840527224307,-0.18623550407720463,-0.05270982818844791,0.1342778450773694,0.10147682638317951,0.015131645776824854,0.11295139809884669,-0.1193652893432554,0.010588764600393485,-0.014404975696865385,0.022394251512257574,-0.12019244218161447,0.16396676706406027,0.07040064165914284,0.15985701748940023,-0.07723460089087492,0.19794947326828832,0.021117221868487773,-0.06829742650021126,0.09197241721362842,-0.19957776389510917,0.095641614435858,-0.06783247405634096,-0.11715799036383423,0.059225977297419186,-0.16835715684331554,0.011169253012054181,-0.13035079241472108,-0.02166472196946234,0.10627482434874402,-0.15841824175224428,0.05754721058490253,0.16992112751465244,-0.00995086696136066,-0.13978306286154185,0.06154460763432157,0.03733997755848115,0.0692669206896156,0.16682786074559103,-0.08091754714843669,0.08067965904608326,-0.055521362295324395,0.027926993004866757,0.0040883211807278275,-0.18469786149705156,0.15230552743830633,-0.033145260348347,-0.07372151103193794,0.10857262600081957,-0.06816779338780873,-0.06722260604611438,-0.18728480180280274,0.028579845759550165,-0.07129803478081209,-0.04397991163336154,0.1673155714875521,-0.13366395780279738,-0.02441031020100254,0.025024356337378956,0.19217901725609415,0.10141146967222792,-0.1832235722530464,-0.13821173052937824,-0.04001954582863129,0.02837676177827575,-0.05996276478561979,-0.012789309695334955,-0.19121941703951598,-0.17058570969602221,-0.1540916423924184,-0.17193817528369326,0.004317357827208823,-0.12394029430930731,0.09175582096785162,0.1184866074008964,0.17991120857841753,-0.1410827105360057,-0.07913777310468709,0.06992801505704982,-0.1374500376031853,-0.03249135315567839,-0.09694795556670277,0.11091770757649738,0.1800969817294359,-0.12384476568364607,0.08065373606550547,-0.14622265672539908,0.11396009197624118,0.13028632288892633,0.0929079355636544,0.16419804114999598,0.05380682648365298,-0.10820477273800987,0.09060254714864052,0.06078887686894452,-0.1394746196168801,0.18757083272796227,0.147688341177712,-0.0938718606930613,0.06841622416419568,0.18990302415084764,0.10683982784425006,0.141561026766658,-0.06595281153878085,-0.09588442781160476,0.19962029022409372,0.1315859513974546,0.15740551041346668,-0.1657214094924954,0.1639142561083055,0.1653801956680379,0.14417695355778337,0.16069072843937643,0.17344006701756814,-0.03477905384920038,0.146717470019816,-0.07154622554190945,0.05496311803557702,0.06105886006542366,-0.019698692978748072,0.0031232039507253506,-0.05156351693110414,-0.13842597149175742,-0.04392861827137623,0.04227899900009255,0.033257361807679325,0.10377601611886,0.03380211638305858,-0.09468917461453562,-0.14331755889383768,-0.173060872011778,-0.0063865038429265775,0.08295893068706939,0.19032784536350417,0.05594005269648605,-0.010286753734667281,0.09601618793425953,-0.19897195013338342,-0.03757296312874106,0.14112161343003587,-0.09647779466751044,0.13065544582101446,0.08150168172356292,0.01545147566651206,-0.1938084486429058,0.06860066092499695,-0.012578350326948484,-0.04873825370271287,0.06426361764126859,0.14876308866912197,-0.11361850474700388,0.10164628800714803,0.18521876350223965,-0.14139952323856297,0.06611940736933475,0.15614282716864464,0.140796116672112,-0.1226648314761487,-0.14339014005958842,-0.06512535753009949,0.1704303561654314,-0.06764803231470193,0.033928545576971114,-0.09474399045642451,0.009685722151688753,0.15582328566068065,0.16307256479413762,-0.02453782639030236,-0.14231516178902412,-0.039122905891697174,-0.11495902753653447,0.13896372475792262,0.11682239254484089,0.05203417304924496,0.10637591772100902,0.1557152999460915,-0.10569319205247468,0.04323102316832389,-0.06270323094276337,0.12951660725533848,-0.0643195234362258,-0.07360827897186245,0.006814122750211121,-0.09602844301648102,0.0960479489867897,0.1130648716689347,-0.0967320816215695,-0.14795915279101912,-0.065703048060678,0.17923982256030646,-0.17605935780471313,-0.1983609682121843,0.1853425012438562,-0.10231619904010812,0.16674032857179139,-0.07306773568361402,-0.1759957930373789,0.17285312130125646,0.11887427231464631,0.1860917489373889,0.016764912329219783,-0.06471633106168495,-0.17481223117752434,0.08890490502539433,-0.059418824128500164,-0.16978030460177998,-0.1726890392911461,-0.05492370744114802,0.19547065211964892,-0.032867632208210124,0.09758864224111585,-0.06577155564042228,-0.13149076694687373,-0.05255054824423891,0.1566030296959019,-0.14377376556253882,-0.0199790140708144,0.18992498689903936,-0.11078325740314705,-0.10275158907077318,-0.013791540259217416,0.17703426934033067,-0.010200214553585246,0.18964535918401682,-0.05850496987587092,-0.19249507652402864,0.12251880470013526,0.01220900070973005,0.020933664750762027,0.029423122178733774,-0.13170727714573005,-0.02545352748978108,0.10156786534964457,0.08817348905968136,-0.044845003982398074,0.06803648186156985,0.18426228708880465,-0.005403464488296622,-0.15349928948138622,0.049854087573635825,-0.15734912876427867,-0.16048705020624646,-0.13754734285605183,0.045309669208942804,-0.15177428017293587,0.12658364580059217,-0.10787980580202952,-0.019702024650181282,0.06704983179927482,0.07876526934996597,-0.02547724411100044,-0.13853511911647384,0.1980616908796038,-0.11161990742814494,0.150234515677095,-0.04836570141055008,0.16216647157322506,-0.028814319650822456,-0.13790375329860619,0.015800178084646455,-0.19132744517567782,-0.1854212986737876,0.15688766998939024,0.10204788082272137,-0.023339637328247426,0.1735479532375805,0.19992973244962942,-0.1082381646409477,0.15082298028904245,-0.19285102511080227,-0.05867763787415328,-0.031340922962232926,-0.04747155604636247,-0.1109508420205728,-0.08264717711669976,-0.14486959861938262,-0.18228877130423948,-0.14347853433487093,-0.09165051389838448,-0.1807541167053878,0.06976899609440823,0.1954806979600675,-0.19416349790911572,0.06333114322014205,0.14274050899449364,-0.13406661266924083,-0.042558928268221774,-0.10096838743133363,-0.19917519779010995,-0.06707742606203215,0.15553096348826845,-0.1131392238551377,-0.16815654030349975,0.07182209752589408,0.005464755541044142,-0.10648264487829202,0.12897665094164612,-0.08805157263432416,-0.15172717351568368,-0.05422949715611233,-0.18287437979892537,0.008121672747332914,-0.013890124698079376,0.07873173957744894,0.03204442597716267,0.007826978692208358,-0.01362975113544912,0.012160609206069761,-0.06515895598376736,-0.02920184374363713,0.07548849475612468,0.08668500974713245,-0.07652739133940534,0.15821443148751746,-0.06438012187156153,0.03433323622693463,-0.01951142834622202,-0.18836141209414514,0.1482059318891275,0.006245725293373278,0.12282688985476525,0.017363346828144,0.08354558665233658,0.1581743172133791,-0.07877196709927024,-0.1873819051788515,-0.10074002854254537,0.16310862898114292,0.10466623699292271,0.1755409648231061,0.04483822250510813,0.0024355853717434317,0.14791721172482458,0.10550449427700742,-0.10350283963122041,0.04106504396742308,0.08058095352621775,0.11719970160307264,0.12265080044506638,0.09717348726553982,0.09914187476725694,0.19264736064421745,-0.1896568651030612,-0.12030273399710155,-0.07214978257113938,-0.07857326578388087,0.17590174320487056,-0.07687807308309749,-0.15937496938301968,0.04730752902886862,0.036164239680309074,0.13570613259937714,0.12665155249525933,0.0791484693903276,-0.19130108836674406,-0.10390031138215604,0.09866607323396243,-0.11105100022929247,-0.09254075231854114,-0.10230797479263619,-0.11605003774629186,-0.04012096274159002,-0.1443639068954915,-0.08268513402653417,-0.16305558696951633,-0.19585259592310536,-0.16185908067676893,-0.0975394078780214,0.11179898352652196,-0.15777098590583727,0.17480121615001315,-0.12201191090259585,0.03328696703187123,0.0064419835845352935,0.027297273413992323,0.0004210749902127664,-0.10627478756403158,-0.11818992795555322,0.18171000404648047,0.08667356807884002,0.03687485841398655,-0.06706245132561445,-0.05377146618294787,0.0007260100833223204,0.0960124195685359,0.07422297345833712,0.07533710650545783,-0.05602663688833598,-0.021678084470048375,-0.19551605342827838,0.13615082052724098,0.15042463349649804,-0.05776136285923475,0.05084276716787367,-0.06729327749007341,0.026793546463248663,0.048117082380178644,-0.045411423406337026,0.19443092351695096,-0.017250112731083955,-0.17037384017632268,-0.07338084149435664,-0.16219671446803546,0.13752987705827702,0.1296086346309539,-0.19355706890898913,0.07688624409050104,0.07426124115898558,-0.08651817625855324,-0.16888690203211087,-0.04407929321501863,-0.008940790147967448,-0.11340021213862067,0.026368802375337175,0.14976193762007867,-0.1750499127787169,-0.12895345737413325,-0.18077367865368388,-0.19402708357319096,-0.16487903112524727,-0.01990712156202107,0.1719199916808049,-0.1518173926369677,-0.09218303154802623,-0.05609745833911123,0.055748688189181994,0.18018656017127505,-0.09053463508389825,0.042369374308773355,-0.0509032960053962,-0.1885237807102927,0.025935401148441978,0.16708886570895393,-0.028981156829785693,-0.1235941068309546,-0.1105682185550811,0.06151984604492239,-0.09491737442252664,-0.12863867912443727,0.1437521314095772,-0.1789970880644127,0.08828222340745506,-0.09071817695961473,0.06118804707212222,0.017528315247957227,0.11685537823312159,-0.13686416566611398,0.10306420984543935,0.055357470168084344,-0.09451603272936514,0.10497432421049363,0.0867397887979281,-0.057916012730322486,-0.07993914452760063,0.05204886039021933,-0.1990220104859672,-0.04758988611494103,-0.030087134692931894,-0.10916136669157073,0.09678530309820665,-0.00021343379118682337,-0.01158348420139435,-0.10282486798677928,-0.06783547062445772,-0.14451292582684944,0.07087249053680156,0.1934511879633264,0.06481375693077729,-0.1403277180124788,-0.0420480768449539,-0.027926484304211657,-0.03319428526508891,-0.11870407147330138,-0.011085169365772168,-0.02371133636676115,0.06246245797752126,0.12052116878958447,-0.11264479808479982,0.054801957653249134,0.1285465849096875,0.19694340515188663,-0.04292629793579553,0.1763701637144095,0.07678323486099997,0.11675565456774067,-0.022878883261959443,0.04760609373128269,-0.024089211277166622,-0.029887127458786467,0.16257538577057717,0.1343878900292455,0.10040092436826598,-0.1513418656951264,-0.17156144132115472,-0.07376282850905877,-0.08206796469153135,0.1514868250588579,-0.081514364412124,0.10811230802682248,0.1777809379872185,-0.09083321370761013,0.17113508547765077,-0.12830329428346712,0.16842766621801986,-0.142564397506324,-0.034325759670556094,0.0893397316157521,-0.040944589873332576,0.07149951181262404,0.022208942146275945,0.18963588972777645,0.1915071751892971,-0.13230027395869365,0.07554151445780627,0.14136735227855785,-0.08852967369138805,0.15672924395195953,-0.16871467994328546,-0.05750681544222713,-0.11953189442274584,0.0968667905220234,0.14132315310664173,-0.14107507425745658,0.04872257130549257,-0.15194451131846343,-0.10901624041918573,0.1133708917456362,0.12029410568715582,0.12287053071289117,0.06985853592230357,0.06609381592896418,0.07659262269570755,0.17998303928781817,-0.13602321543343898,0.15523606400825712,0.01769019383513576,0.04214653725703438,0.14612726200020926,-0.04954442247493568,0.017454777451568038,0.13494530864730842,-0.006120437124858297,-0.023349053547728177,0.16089238745906498,0.019535403598284706,0.057810678804308346,-0.15129317206798928,-0.057616621078449726,-0.17425058698946413,0.11463372745160355,0.1558941473969795,0.1832285821176689,-0.032634711710345876,-0.17617289695876562,-0.11434067134929533,0.14309420035654263,0.08737928171953868,0.06287449677900242,0.1510593413352666,0.00747822753167951,-0.17567851916805177,-0.14142872427620512,-0.05539210021952928,-0.17215421644313117,-0.12367875622107816,-0.1356023644455271,-0.16875605854849907,0.018275770821291726,-0.07989478920132696,-0.15034757393065423,0.14069392850098694,-0.1529701777111946,0.02194773146883966,-0.02997188628389455,0.013328953527652565,0.16748204518118887,-0.0995129995103258,-0.18838674201294153,-0.0998922334627693,0.036345949814015455,0.1423102401715034,-0.09095859348341923,0.16760561272497965,0.18421928201274568,-0.13828562612344728,0.07239448964556194,0.13567211031810456,0.08094591113006577,0.18279345368972216,-0.009864700098718787,0.18766290941990466,0.1623353671866048,-0.05016020534496485,-0.16512910456975477,-0.04399642154786729,0.11470783891790765,0.12419311511731207,0.0128598001149145,-0.010950791884675487,-0.07440382826101671,0.18649439211537483,-0.05109667918399438,0.10252768574944898,0.11430165021816613,0.01141436397386153,-0.08578953604367526,0.16163812450009368,0.12397486589809875,0.18979119385892051,-0.07975113487709473,-0.14847452240409026,-0.0677984609096324,0.13693068693431265,-0.028759530441973158,0.12275292663051529,-0.15994120934868203,0.05817215183518243,0.04035468796082489,-0.19902437991214442,-0.09927902943873868,-0.019853629984726867,-0.038138278449864144,-0.14495681675175887,-0.04932603151290546,0.10753500601750432,0.08930535867947659,0.180432203143934,-0.16543038557133932,-0.14102259858388902,-0.15317477531678217,-0.061364805858437066,-0.03812507934084755,0.08049586054695979,0.02642384859847749,0.10802616594458464,0.09493741561375446,-0.07736305154585166,0.07337519457500513,-0.02478053259357696,0.12441335046438207,0.001450455062094319,-0.04525922900439924,0.05426932598789813,-0.17010775458607688,-0.05555506089334533,0.18322538027119517,0.1206053443469976,-0.05362051022051606,0.15345570793673657,-0.1563305548549222,0.08918429628787344,0.19577152126756847,-0.0714158970718188,-0.0949448622323847,0.023276549498161714,0.03550893578227657,-0.04643318763408094,-0.02977201491305817,-0.08669379833276017,0.0516153107386475,-0.02241146114766268,0.17148476790226835,0.06282683394222532,-0.1380664165433359,-0.07274623533614655,0.01074576083546469,-0.07217471480882207,-0.03348780912401689,-0.02915719337087977,-0.007231593766053923,-0.09853122998510494,-0.09324295521035025,-0.10384091266241634,-0.07616080220884101,0.1293790638491662,0.168834325951483,0.11880759946786584,0.07130053297536892,0.13362034338999085,0.12544830598414197,-0.11905712075493824,0.17960863438763913,-0.010565198956358046,0.15278794356229491,-0.10001465547107768,0.015198628522250957,0.1420281135724628,-0.038987912921699314,-0.06493053816356129,-0.051023510443582776,-0.1812008848170038,0.07477946217092751,0.11818697013677842,0.05968802864677614,0.09129366877532918,-0.026656415559166036,-0.08174697771616045,-0.042833506729067855,0.0474333139862817,-0.03492557640936553,0.13752695023623568,-0.1551904832853815,-0.08954036196798168,0.1266261359839584,0.1174265080340639,-0.12262062213222054,0.15027428167992268,0.15704875982742372,-0.043105488870273406,0.020853426624418164,0.1709385403139959,0.18084652787358396,-0.17480387408624445,-0.18769712964857144,0.19071640631983638,0.11438590081363786,0.18799094174352016,0.018659244959172844,-0.15344202845773858,0.10071169553120313,-0.06771676371448754,0.007454207557628573,-0.16258135892074208,0.0750161236537975,-0.13008415488339145,-0.11731039726422435,-0.0015710162622535329,0.10099752148820923,-0.031100758486828195,-0.009166391454779876,-0.16470384585211084,-0.18223703356143456,0.04913747361426077,0.1812941730339424,0.1300019607458216,0.08093679341838306,0.1340510229041268,0.1937073525037371,0.15543536195289365,-0.07051766917726843,-0.11737325093332417,0.16653955218650812,0.1505625840567672,0.0269388012503243,-0.11121567306991187,-0.09725180115939187,-0.14739115969606076,-0.02625717830734614,0.12963617377597741,0.17797247397451604,-0.09887569478546308,-0.09824719722363683,-0.08902305241104101,-0.012795093312892719,-0.06370599717801939,0.10830149159720442,0.19127418547896247,0.037737137614281935,-0.10672765261188043,0.19780709092701992,-0.047606103749880724,0.0007098733247413169,0.0006436529725687146,0.129007664798449,-0.051162669487342244,0.024523067917122165,-0.19659663087391588,-0.13108822674948853,0.1521258740534916,0.12343258927110201,-0.06963937342143112,-0.11319700887181217,0.02555017261298706,0.13652364923015503,-0.06750487909446151,-0.10640131378641958,0.06169518387696754,0.1908043098681227,-0.09845017835286313,0.07312584299079877,-0.05750357117215607,-0.0005555848860731294,0.034820446906489,0.054164948179152905,-0.12763070562905457,-0.07033019698592,-0.15217922288634603,-0.17296808414747622,-0.1553898298451097,0.01648914950025482,0.15011064821378817,-0.08683995549534754,-0.1323501342517787,0.15238149215145952,-0.1820864793411805,-0.10688601408082166,-0.15496625076960982,0.016897758391164086,-0.042782595266977086,0.09791747646250748,-0.005947892736272664,0.0051937225806859,0.022602722250152057,0.030456334044162953,0.046486354021591486,0.10798081376574603,-0.15137604330275212,0.1503277887013792,0.12170110694770869,0.17708668047835502,0.05747631052406216,0.16155513282288053,-0.17889431451035556,0.1555004614183491,-0.07582265706912797,0.11490628225032523,0.17704980219467686,0.15300373307679188,0.1858566236342113,-0.1663397784196099,-0.15550775546457338,-0.043023167767974435,-0.09754638212589209,0.17353366816734817,0.03152304788903457,-0.1461704564628722,0.048958404556338125,-0.12086999127440867,0.07656889500843678,-0.09510132064497911,-0.049850293578186905,0.06883395001627324,-0.02396861375465456,0.15475512737048208,0.14844447609685413,0.035061581894352406,0.1456174649767788,-0.07823519582426038,0.10560576082953038,0.05384374485440152,0.07075985906034166,-0.13875607698084275,0.1495419185257797,-0.08345667383341633,-0.11844426969702787,-0.04851788909397428,0.16418231685186263],"biases":[-0.0028097167941542323,-0.15196759521646747,0.049223899665870624,0.19062778861062563,0.1817169461021445,0.02757118342684048,-0.11092961488122217,-0.047349320149748214,-0.13285935180357022,0.114965320164509,0.04656536553997226,-0.059870717313384864,0.09226548661183703,0.17817468953606896,0.13263800701219947,0.06452219777279211,-0.06703962521843174,-0.058104007223186566,-0.1311437540037086,0.06485509262471922,-0.02818408451957799,0.0696938710151147,0.1613741468951952,0.0858489031295468,0.15926841280329473,0.031363762738671586,0.05346454750666563,-0.08096382728837206,-0.056805719855927,0.1844553890690393,-0.09487881978383372,-0.07010026454756435,0.12208213177814153,-0.10353853092575634,-0.16819253419017477,0.1906779684008707,0.19920754752649072,-0.0913576481969713,-0.15574907267799212,-0.19549070582905995,0.13518151197709793,-0.09935023411166749,0.11457154149937704,-0.04618072895616221,0.162485136999102,-0.1938520658039729,0.05361091017055364,-0.1651110306464089,0.1797868860970862,0.019888992979087028,-0.016223285679684174],"K":2},"score":3,"won":15,"lose":8,"draw":5,"sigma":[0.05,0.05,0.05,0.05,0.05,0.05,0.05,0.05,0.05,0.05,0.05,0.05,0.05,0.05,0.05,0.05,0.05,0.05,0.05,0.05,0.05,0.05,0.05,0.05,0.05,0.05,0.05,0.05,0.05,0.05,0.05,0.05,0.05,0.05,0.05,0.05,0.05,0.05,0.05,0.05,0.05,0.05,0.05,0.05,0.05,0.05,0.05,0.05,0.05,0.05,0.05,0.05,0.05,0.05,0.05,0.05,0.05,0.05,0.05,0.05,0.05,0.05,0.05,0.05,0.05,0.05,0.05,0.05,0.05,0.05,0.05,0.05,0.05,0.05,0.05,0.05,0.05,0.05,0.05,0.05,0.05,0.05,0.05,0.05,0.05,0.05,0.05,0.05,0.05,0.05,0.05,0.05,0.05,0.05,0.05,0.05,0.05,0.05,0.05,0.05,0.05,0.05,0.05,0.05,0.05,0.05,0.05,0.05,0.05,0.05,0.05,0.05,0.05,0.05,0.05,0.05,0.05,0.05,0.05,0.05,0.05,0.05,0.05,0.05,0.05,0.05,0.05,0.05,0.05,0.05,0.05,0.05,0.05,0.05,0.05,0.05,0.05,0.05,0.05,0.05,0.05,0.05,0.05,0.05,0.05,0.05,0.05,0.05,0.05,0.05,0.05,0.05,0.05,0.05,0.05,0.05,0.05,0.05,0.05,0.05,0.05,0.05,0.05,0.05,0.05,0.05,0.05,0.05,0.05,0.05,0.05,0.05,0.05,0.05,0.05,0.05,0.05,0.05,0.05,0.05,0.05,0.05,0.05,0.05,0.05,0.05,0.05,0.05,0.05,0.05,0.05,0.05,0.05,0.05,0.05,0.05,0.05,0.05,0.05,0.05,0.05,0.05,0.05,0.05,0.05,0.05,0.05,0.05,0.05,0.05,0.05,0.05,0.05,0.05,0.05,0.05,0.05,0.05,0.05,0.05,0.05,0.05,0.05,0.05,0.05,0.05,0.05,0.05,0.05,0.05,0.05,0.05,0.05,0.05,0.05,0.05,0.05,0.05,0.05,0.05,0.05,0.05,0.05,0.05,0.05,0.05,0.05,0.05,0.05,0.05,0.05,0.05,0.05,0.05,0.05,0.05,0.05,0.05,0.05,0.05,0.05,0.05,0.05,0.05,0.05,0.05,0.05,0.05,0.05,0.05,0.05,0.05,0.05,0.05,0.05,0.05,0.05,0.05,0.05,0.05,0.05,0.05,0.05,0.05,0.05,0.05,0.05,0.05,0.05,0.05,0.05,0.05,0.05,0.05,0.05,0.05,0.05,0.05,0.05,0.05,0.05,0.05,0.05,0.05,0.05,0.05,0.05,0.05,0.05,0.05,0.05,0.05,0.05,0.05,0.05,0.05,0.05,0.05,0.05,0.05,0.05,0.05,0.05,0.05,0.05,0.05,0.05,0.05,0.05,0.05,0.05,0.05,0.05,0.05,0.05,0.05,0.05,0.05,0.05,0.05,0.05,0.05,0.05,0.05,0.05,0.05,0.05,0.05,0.05,0.05,0.05,0.05,0.05,0.05,0.05,0.05,0.05,0.05,0.05,0.05,0.05,0.05,0.05,0.05,0.05,0.05,0.05,0.05,0.05,0.05,0.05,0.05,0.05,0.05,0.05,0.05,0.05,0.05,0.05,0.05,0.05,0.05,0.05,0.05,0.05,0.05,0.05,0.05,0.05,0.05,0.05,0.05,0.05,0.05,0.05,0.05,0.05,0.05,0.05,0.05,0.05,0.05,0.05,0.05,0.05,0.05,0.05,0.05,0.05,0.05,0.05,0.05,0.05,0.05,0.05,0.05,0.05,0.05,0.05,0.05,0.05,0.05,0.05,0.05,0.05,0.05,0.05,0.05,0.05,0.05,0.05,0.05,0.05,0.05,0.05,0.05,0.05,0.05,0.05,0.05,0.05,0.05,0.05,0.05,0.05,0.05,0.05,0.05,0.05,0.05,0.05,0.05,0.05,0.05,0.05,0.05,0.05,0.05,0.05,0.05,0.05,0.05,0.05,0.05,0.05,0.05,0.05,0.05,0.05,0.05,0.05,0.05,0.05,0.05,0.05,0.05,0.05,0.05,0.05,0.05,0.05,0.05,0.05,0.05,0.05,0.05,0.05,0.05,0.05,0.05,0.05,0.05,0.05,0.05,0.05,0.05,0.05,0.05,0.05,0.05,0.05,0.05,0.05,0.05,0.05,0.05,0.05,0.05,0.05,0.05,0.05,0.05,0.05,0.05,0.05,0.05,0.05,0.05,0.05,0.05,0.05,0.05,0.05,0.05,0.05,0.05,0.05,0.05,0.05,0.05,0.05,0.05,0.05,0.05,0.05,0.05,0.05,0.05,0.05,0.05,0.05,0.05,0.05,0.05,0.05,0.05,0.05,0.05,0.05,0.05,0.05,0.05,0.05,0.05,0.05,0.05,0.05,0.05,0.05,0.05,0.05,0.05,0.05,0.05,0.05,0.05,0.05,0.05,0.05,0.05,0.05,0.05,0.05,0.05,0.05,0.05,0.05,0.05,0.05,0.05,0.05,0.05,0.05,0.05,0.05,0.05,0.05,0.05,0.05,0.05,0.05,0.05,0.05,0.05,0.05,0.05,0.05,0.05,0.05,0.05,0.05,0.05,0.05,0.05,0.05,0.05,0.05,0.05,0.05,0.05,0.05,0.05,0.05,0.05,0.05,0.05,0.05,0.05,0.05,0.05,0.05,0.05,0.05,0.05,0.05,0.05,0.05,0.05,0.05,0.05,0.05,0.05,0.05,0.05,0.05,0.05,0.05,0.05,0.05,0.05,0.05,0.05,0.05,0.05,0.05,0.05,0.05,0.05,0.05,0.05,0.05,0.05,0.05,0.05,0.05,0.05,0.05,0.05,0.05,0.05,0.05,0.05,0.05,0.05,0.05,0.05,0.05,0.05,0.05,0.05,0.05,0.05,0.05,0.05,0.05,0.05,0.05,0.05,0.05,0.05,0.05,0.05,0.05,0.05,0.05,0.05,0.05,0.05,0.05,0.05,0.05,0.05,0.05,0.05,0.05,0.05,0.05,0.05,0.05,0.05,0.05,0.05,0.05,0.05,0.05,0.05,0.05,0.05,0.05,0.05,0.05,0.05,0.05,0.05,0.05,0.05,0.05,0.05,0.05,0.05,0.05,0.05,0.05,0.05,0.05,0.05,0.05,0.05,0.05,0.05,0.05,0.05,0.05,0.05,0.05,0.05,0.05,0.05,0.05,0.05,0.05,0.05,0.05,0.05,0.05,0.05,0.05,0.05,0.05,0.05,0.05,0.05,0.05,0.05,0.05,0.05,0.05,0.05,0.05,0.05,0.05,0.05,0.05,0.05,0.05,0.05,0.05,0.05,0.05,0.05,0.05,0.05,0.05,0.05,0.05,0.05,0.05,0.05,0.05,0.05,0.05,0.05,0.05,0.05,0.05,0.05,0.05,0.05,0.05,0.05,0.05,0.05,0.05,0.05,0.05,0.05,0.05,0.05,0.05,0.05,0.05,0.05,0.05,0.05,0.05,0.05,0.05,0.05,0.05,0.05,0.05,0.05,0.05,0.05,0.05,0.05,0.05,0.05,0.05,0.05,0.05,0.05,0.05,0.05,0.05,0.05,0.05,0.05,0.05,0.05,0.05,0.05,0.05,0.05,0.05,0.05,0.05,0.05,0.05,0.05,0.05,0.05,0.05,0.05,0.05,0.05,0.05,0.05,0.05,0.05,0.05,0.05,0.05,0.05,0.05,0.05,0.05,0.05,0.05,0.05,0.05,0.05,0.05,0.05,0.05,0.05,0.05,0.05,0.05,0.05,0.05,0.05,0.05,0.05,0.05,0.05,0.05,0.05,0.05,0.05,0.05,0.05,0.05,0.05,0.05,0.05,0.05,0.05,0.05,0.05,0.05,0.05,0.05,0.05,0.05,0.05,0.05,0.05,0.05,0.05,0.05,0.05,0.05,0.05,0.05,0.05,0.05,0.05,0.05,0.05,0.05,0.05,0.05,0.05,0.05,0.05,0.05,0.05,0.05,0.05,0.05,0.05,0.05,0.05,0.05,0.05,0.05,0.05,0.05,0.05,0.05,0.05,0.05,0.05,0.05,0.05,0.05,0.05,0.05,0.05,0.05,0.05,0.05,0.05,0.05,0.05,0.05,0.05,0.05,0.05,0.05,0.05,0.05,0.05,0.05,0.05,0.05,0.05,0.05,0.05,0.05,0.05,0.05,0.05,0.05,0.05,0.05,0.05,0.05,0.05,0.05,0.05,0.05,0.05,0.05,0.05,0.05,0.05,0.05,0.05,0.05,0.05,0.05,0.05,0.05,0.05,0.05,0.05,0.05,0.05,0.05,0.05,0.05,0.05,0.05,0.05,0.05,0.05,0.05,0.05,0.05,0.05,0.05,0.05,0.05,0.05,0.05,0.05,0.05,0.05,0.05,0.05,0.05,0.05,0.05,0.05,0.05,0.05,0.05,0.05,0.05,0.05,0.05,0.05,0.05,0.05,0.05,0.05,0.05,0.05,0.05,0.05,0.05,0.05,0.05,0.05,0.05,0.05,0.05,0.05,0.05,0.05,0.05,0.05,0.05,0.05,0.05,0.05,0.05,0.05,0.05,0.05,0.05,0.05,0.05,0.05,0.05,0.05,0.05,0.05,0.05,0.05,0.05,0.05,0.05,0.05,0.05,0.05,0.05,0.05,0.05,0.05,0.05,0.05,0.05,0.05,0.05,0.05,0.05,0.05,0.05,0.05,0.05,0.05,0.05,0.05,0.05,0.05,0.05,0.05,0.05,0.05,0.05,0.05,0.05,0.05,0.05,0.05,0.05,0.05,0.05,0.05,0.05,0.05,0.05,0.05,0.05,0.05,0.05,0.05,0.05,0.05,0.05,0.05,0.05,0.05,0.05,0.05,0.05,0.05,0.05,0.05,0.05,0.05,0.05,0.05,0.05,0.05,0.05,0.05,0.05,0.05,0.05,0.05,0.05,0.05,0.05,0.05,0.05,0.05,0.05,0.05,0.05,0.05,0.05,0.05,0.05,0.05,0.05,0.05,0.05,0.05,0.05,0.05,0.05,0.05,0.05,0.05,0.05,0.05,0.05,0.05,0.05,0.05,0.05,0.05,0.05,0.05,0.05,0.05,0.05,0.05,0.05,0.05,0.05,0.05,0.05,0.05,0.05,0.05,0.05,0.05,0.05,0.05,0.05,0.05,0.05,0.05,0.05,0.05,0.05,0.05,0.05,0.05,0.05,0.05,0.05,0.05,0.05,0.05,0.05,0.05,0.05,0.05,0.05,0.05,0.05,0.05,0.05,0.05,0.05,0.05,0.05,0.05,0.05,0.05,0.05,0.05,0.05,0.05,0.05,0.05,0.05,0.05,0.05,0.05,0.05,0.05,0.05,0.05,0.05,0.05,0.05,0.05,0.05,0.05,0.05,0.05,0.05,0.05,0.05,0.05,0.05,0.05,0.05,0.05,0.05,0.05,0.05,0.05,0.05,0.05,0.05,0.05,0.05,0.05,0.05,0.05,0.05,0.05,0.05,0.05,0.05,0.05,0.05,0.05,0.05,0.05,0.05,0.05,0.05,0.05,0.05,0.05,0.05,0.05,0.05,0.05,0.05,0.05,0.05,0.05,0.05,0.05,0.05,0.05,0.05,0.05,0.05,0.05,0.05,0.05,0.05,0.05,0.05,0.05,0.05,0.05,0.05,0.05,0.05,0.05,0.05,0.05,0.05,0.05,0.05,0.05,0.05,0.05,0.05,0.05,0.05,0.05,0.05,0.05,0.05,0.05,0.05,0.05,0.05,0.05,0.05,0.05,0.05,0.05,0.05,0.05,0.05,0.05,0.05,0.05,0.05,0.05,0.05,0.05,0.05,0.05,0.05,0.05,0.05,0.05,0.05,0.05,0.05,0.05,0.05,0.05,0.05,0.05,0.05,0.05,0.05,0.05,0.05,0.05,0.05,0.05,0.05,0.05,0.05,0.05,0.05,0.05,0.05,0.05,0.05,0.05,0.05,0.05,0.05,0.05,0.05,0.05,0.05,0.05,0.05,0.05,0.05,0.05,0.05,0.05,0.05,0.05,0.05,0.05,0.05,0.05,0.05,0.05,0.05,0.05,0.05,0.05,0.05,0.05,0.05,0.05,0.05,0.05,0.05,0.05,0.05,0.05,0.05,0.05,0.05,0.05,0.05,0.05,0.05,0.05,0.05,0.05,0.05,0.05,0.05,0.05,0.05,0.05,0.05,0.05,0.05,0.05,0.05,0.05,0.05,0.05,0.05,0.05,0.05,0.05,0.05,0.05,0.05,0.05,0.05,0.05,0.05,0.05,0.05,0.05,0.05,0.05,0.05,0.05,0.05,0.05,0.05,0.05,0.05,0.05,0.05,0.05,0.05,0.05,0.05,0.05,0.05,0.05,0.05,0.05,0.05,0.05,0.05,0.05,0.05,0.05,0.05,0.05,0.05,0.05,0.05,0.05,0.05,0.05,0.05,0.05,0.05,0.05,0.05,0.05,0.05,0.05,0.05,0.05,0.05,0.05,0.05,0.05,0.05,0.05,0.05,0.05,0.05,0.05,0.05,0.05,0.05,0.05,0.05,0.05,0.05,0.05,0.05,0.05,0.05,0.05,0.05,0.05,0.05,0.05,0.05,0.05,0.05,0.05,0.05,0.05,0.05,0.05,0.05,0.05,0.05,0.05,0.05,0.05,0.05,0.05,0.05,0.05,0.05,0.05,0.05,0.05,0.05,0.05,0.05,0.05,0.05,0.05,0.05,0.05,0.05,0.05,0.05,0.05,0.05,0.05,0.05,0.05,0.05,0.05,0.05,0.05,0.05,0.05,0.05,0.05,0.05,0.05,0.05,0.05,0.05,0.05,0.05,0.05,0.05,0.05,0.05,0.05,0.05,0.05,0.05,0.05,0.05,0.05,0.05,0.05,0.05,0.05,0.05,0.05,0.05,0.05,0.05,0.05,0.05,0.05,0.05,0.05,0.05,0.05,0.05,0.05,0.05,0.05,0.05,0.05,0.05,0.05,0.05,0.05,0.05,0.05,0.05,0.05,0.05,0.05,0.05,0.05,0.05,0.05,0.05,0.05,0.05,0.05,0.05,0.05,0.05,0.05,0.05,0.05,0.05,0.05,0.05,0.05,0.05,0.05,0.05,0.05,0.05,0.05,0.05,0.05,0.05,0.05,0.05,0.05,0.05,0.05,0.05,0.05,0.05,0.05,0.05,0.05,0.05,0.05,0.05,0.05,0.05,0.05,0.05,0.05,0.05,0.05,0.05,0.05,0.05,0.05,0.05,0.05,0.05,0.05,0.05,0.05,0.05,0.05,0.05,0.05,0.05,0.05,0.05,0.05,0.05,0.05,0.05,0.05,0.05,0.05,0.05,0.05,0.05,0.05,0.05,0.05,0.05,0.05,0.05,0.05,0.05,0.05,0.05,0.05,0.05,0.05,0.05,0.05,0.05,0.05,0.05,0.05,0.05,0.05,0.05,0.05,0.05,0.05,0.05,0.05,0.05,0.05,0.05,0.05,0.05,0.05,0.05,0.05,0.05,0.05,0.05,0.05,0.05,0.05,0.05,0.05,0.05,0.05,0.05,0.05,0.05,0.05,0.05,0.05,0.05,0.05,0.05,0.05,0.05,0.05,0.05,0.05]},{"net":{"name":"pjg","generation":0,"inputs":32,"layers":[40,10,1],"weights":[0.1072557788531655,0.017868598367436206,0.1823436132576391,0.09321655117972927,0.05938186219031116,-0.10883287639491385,0.057553874058168586,0.013108162382995558,0.04859822758901161,-0.19827055514133188,0.06550670711866963,-0.003054960260551187,-0.057581350810996856,-0.11273212079591968,-0.13746865895140062,-0.014592818643877792,0.03728347920101199,0.03640517871229107,0.1571327634160981,0.07701615143329332,0.019954626471386572,-0.08936235993037905,0.04862295781896639,0.08421904672187075,0.06498348776867752,-0.17783383980918785,0.1258104069607841,0.18304305887930916,-0.18438796170743776,-0.17578683129446093,-0.08522747457708882,-0.144248275897375,-0.012714237528521632,-0.11630790794548584,0.07740010987463447,-0.10883828433103854,0.0978765587282654,-0.16682192948041924,-0.002522714810751392,0.15012328835241012,-0.11976958863805615,0.0899056156679171,-0.11398135463250672,-0.1912511089596423,0.17066974037934018,-0.11055746942448828,-0.1664289590954196,0.04378913347935445,-0.07318163657072949,-0.006410421656382781,-0.08697803568080253,-0.1168801295553112,0.12553432829476252,-0.12841502265810548,0.006753228946754841,-0.09856372300342767,0.004736341478752237,0.11474223333384143,0.06373199870477703,-0.125857290842948,-0.06229482300437558,-0.1738248632153832,-0.048772995144664405,-0.09296635602814574,-0.14981946864506313,0.06760748919991133,0.02023859166873221,0.014029916991106534,-0.06744430943171037,-0.13642206403915208,0.040718598368484654,0.0007112120824365742,-0.021085004326095114,-0.15990500834543583,-0.12525800373566626,0.1902745633808932,-0.09926578580994194,0.13541581315513618,0.0897000878546832,-0.08697246767939931,0.19972882165604816,-0.15144244995206702,-0.10849128471417267,0.14749073905955407,-0.021254940597426858,-0.163900769668272,0.0200195270940787,-0.19753829943465934,-0.17449547703271426,-0.1294570809432498,-0.06308892166055921,0.16107142524528756,0.14597193857635288,-0.07775910119374885,0.09773007293381913,-0.1686974099378431,0.11233865867925497,0.06628372548623285,-0.0581417457635193,-0.09611889368790197,-0.07579992566237506,0.11997355256417236,0.06407495340594255,-0.05906895399645187,-0.1582115691978901,-0.045547097486969335,0.14770162829690586,-0.0503044181381517,-0.09489217958330949,0.06823276116160021,-0.12530485258765447,-0.1025798450716148,0.029980731504745173,-0.18564936439053767,-0.14722205477860317,0.03834455914501725,-0.014852818995396339,-0.14452734935036915,0.19641898428909493,0.035623850109622796,0.15691678804932752,-0.12828820361403262,-0.14930158071623306,0.06740043884331859,0.03756060960669522,-0.05645330381402111,0.03189188684197469,-0.003912129479462928,0.05528413252293313,0.18336964459590066,0.11736782140153779,-0.12046079400358743,-0.05358120718810086,0.01444997311171256,0.051643298106080315,-0.12556676723654875,0.011848785212400958,0.18530256126670847,-0.17198403460448386,0.01831490635022162,0.055900393717733365,-0.041370472687577486,-0.09459879301145735,0.17250932615046793,0.11926580121041336,-0.1784499459298619,0.07167722811116323,-0.06877794490546352,0.11218086368115304,-0.06996713745756386,-0.12800961828211577,0.19620831026152635,0.18863654941850955,-0.036970594992234485,-0.07539754522577101,0.1764929695265242,0.12037274581655144,0.14130210421550454,0.19166106838858193,-0.07340495851670809,-0.11258708902385664,0.05458110647327069,-0.19074861687486422,0.01605573543633748,-0.13822528568252368,-0.1403023459052209,-0.1630692917625859,0.1714976244288331,0.007202696611768644,0.04140834582385128,-0.19044389277559617,0.03857941705314136,-0.07762609403833692,0.005136934976821911,0.08776738442518106,-0.03025267873811277,0.1881334388505202,0.04342751783537632,0.014246364440476722,0.07676614000547988,-0.09606053927405381,-0.17784934089759893,0.06595382217610835,0.10253159506711101,-0.1348034258794474,0.06600533762915806,-0.18268506367221857,-0.024861535199810797,0.184444358392779,0.09752408125780782,-0.13012884169106168,0.1064703149675365,0.04638941085699155,0.04819463627386861,-0.14987863833401127,0.08669915380251803,-0.12969251953741515,0.1128442920247893,0.12272392107125202,-0.0011834395020531296,-0.13001839565359508,0.15023783218424952,0.17412610717549998,0.19476365818423264,-0.19296617073222155,-0.10601240321926096,-0.09296596121937171,-0.0983772170385997,-0.1846617317997631,0.060755699252848405,-0.03223377383713713,0.18701568731059837,0.0669025999024025,-0.07353906378955744,0.06288401223762846,-0.1217470268215112,0.06818772285018976,-0.015230277186535524,0.04708186458065544,-0.02506625511151056,0.18710546613139467,-0.1272360937934808,-0.14815416485000688,-0.032089262308950595,0.01958898432878159,0.15968942675753112,0.015165514323198181,-0.06342572105399907,0.11341605601672561,-0.04585032512410292,-0.07430195915221952,0.1728554182606012,-0.17816897869749804,0.01890837834355824,0.049620729336053604,-0.1553536863451962,-0.052100187920859214,0.16057031843141623,-0.032090672278584004,-0.19916560403260297,0.12092622045478846,0.01710821522818859,-0.10108897819138507,-0.13566777173910632,0.04324686784257184,0.0685720491012985,0.17399820668255356,0.16542995820722323,-0.19025983801111154,0.02603499879058485,0.11954271087010149,-0.025383462773288457,-0.07797241558409188,-0.0473305105372738,0.07207200556145371,0.19207311672524846,-0.15383895462861796,-0.004281206029809054,0.13812898261142736,-0.06604242611332153,0.09530960044600656,-0.09600006718305752,0.16500039546011236,-0.014115244544525923,-0.09073377354028614,-0.10509261793572611,-0.03314909569786789,-0.13839166441995882,-0.027185147397607523,0.10084722218962078,-0.08016543935312469,0.05359388263307918,0.1166779656476768,0.12090188518369616,0.06849521027931615,-0.11539944101671705,0.058074341871626634,-0.14539443515475314,0.062410265237470786,0.05341273083811798,0.06715238972416715,-0.012300851762302945,-0.11930857272924121,-0.02718676829443148,-0.11024430314100826,-0.0350520017607181,0.13084147039171468,0.18936935721294174,0.025233971078044787,0.036288165706595876,-0.0664871062283808,-0.03466564796712185,0.07671687858816262,-0.12217612694371437,-0.1323362507670766,-0.036991241047527545,-0.07431788082267873,0.11384911255558211,0.12319485366658967,-0.09735354041573335,0.14055573169409613,0.13674928243304596,0.06365040071385247,-0.1892091047260733,-0.018308026701745556,0.04431547801000252,-0.0035732944247075515,0.19833040815150332,0.17501561406113064,-0.07368577155598599,0.08789954643360165,-0.02703969363973932,0.10693116534918795,-0.1745306144330442,-0.1794832779077213,0.12670873635973384,0.07802493234154567,0.0946362905971303,0.18702807329538018,-0.15398715318805423,-0.024618692138667964,-0.13500417380993313,0.09794158470467851,0.1769237231559152,-0.19865497065918475,-0.0917422434897282,0.0740755518869462,0.10490423012783429,-0.0949805648085209,-0.0029557231711012655,-0.018722568235734455,-0.04810059458763288,-0.027045560718681305,-0.12210911542766922,-0.11548617305238658,0.1806212403519642,-0.16063414918927343,0.056888724334016705,-0.14345542911248466,0.12144385834833854,0.1777459666660815,-0.17351516847565185,0.06656595685706856,0.09506893282608031,-0.19847993427304766,-0.09155588275302265,-0.014166297867872768,-0.19563116109759973,0.08651770418073729,-0.027257306295568107,0.11424274757501646,0.09075575424839799,-0.10351561032522012,0.19637443916350233,-0.03305384317215729,0.0913755023962618,0.06507236827719537,0.0769002264197245,-0.14957918062073183,-0.196326800591309,0.05334012512907221,0.1177163800545511,0.07803181866554187,0.12370146318362302,-0.1928774605815777,-0.13194151517592012,0.18229817667446196,0.1401905072137874,-0.014070255322600117,-0.10351040018220453,-0.04809574297852831,-0.07201432937424945,0.15443572141845596,-0.1396177013209945,0.08130600163347124,0.06987682545219165,-0.1423210985291844,0.16405860794301041,-0.06601812361427131,-0.13863150588729117,0.09690870288520415,0.16028945442996828,-0.1518389570971988,0.14174996074237373,-0.11971140074820959,-0.13431421447045644,-0.1996071291768292,0.07897890075280889,-0.16461765087521202,-0.19703847657981122,0.10988988002385441,-0.01101757301662909,-0.0468406743111866,0.011590510162610007,0.1540175929645048,-0.10524342779819094,-0.13135390470833314,0.07100762021435542,0.11676260459151816,-0.08388556584576926,0.08951040489018747,-0.026418248728521027,-0.10901251204356655,-0.089188047539559,-0.006586025823521802,0.10558896040325677,0.19737779014503581,-0.10180578174046202,0.03290111227297646,0.1270047893038383,0.1258098402544402,0.12811402384171133,0.10945929427931428,-0.07140315664093633,0.08944102181035135,0.10765591554038306,0.08555430380608098,0.09279936724590632,0.00008113638634163478,0.16760052743685128,-0.10821727179901615,-0.1566429715123821,0.10407084889653911,0.16238709665523893,0.14711785229204905,-0.16064566953171752,0.026593891913485657,0.1831205601052947,0.03449048737931423,-0.14308870894821518,-0.056986765195587374,0.06778225089246648,0.13152986258181276,-0.142698890738658,-0.04761182944724976,-0.169906314012861,0.10349172073904223,-0.04672175880411339,-0.04234343678459282,-0.17112731551320728,-0.05320805694305841,0.11842582305116772,0.017330938053272238,-0.055314630965576594,0.1744306668959883,-0.031049400734274535,-0.14087778807974774,0.004423227000278196,-0.1365473956579809,-0.06582698829728786,0.08568095184690988,0.08603669779486556,0.05967939644208603,-0.02135193879647207,-0.08314158345014394,0.15330447452350898,0.029876386334821786,-0.08304056006523108,-0.08494379214902265,0.11558970408685643,0.02458944616665998,-0.04926599743854823,-0.15779404849196155,0.08819264230115093,0.02299117924531907,0.03960585952000112,0.18306087903284762,-0.1854573061230066,-0.18236255809909832,-0.1001809004888675,0.052025489113415424,0.17614948415838666,0.01975001643036345,0.12682479269952884,0.01933707332441284,0.07953514748801815,-0.06471703498101605,-0.18474340779932003,0.1942471331030841,-0.15040908266213446,0.01673323686148276,-0.01687465305849295,0.18526606729088496,0.17936241354928723,0.009858680158867733,-0.03090509907543809,-0.05597626150478882,-0.00533517366156433,-0.09547093466453181,0.15322064691889858,-0.05688653076193548,-0.12203194936879669,0.15148151116696557,-0.03250519146184913,-0.13471843562502717,0.10417926318002702,0.10280586083009541,-0.1382311752188099,-0.12864986436183978,0.15122856701162013,0.03841239623021231,-0.021216962818398966,-0.18398819551692303,-0.04647082796542526,0.04128069618472577,-0.03465554379281244,0.09717108263403018,0.05561425470893522,0.06746471944075516,0.09962118705395423,-0.11089319327453495,0.104735053657455,0.1345587812589023,-0.1834516466489154,0.041405643329826075,0.1861597731335114,0.0581074611137673,-0.04554976507993133,0.12287697965310268,0.19306518285489122,-0.06295979570179835,-0.04109812797302101,0.08870718679609507,-0.010980718292400576,0.04313809194644849,0.0029434864419461415,-0.007643300037097844,