[
  {
    "Name": "omu/hza",
    "Parent": "",
    "Age": 0,
    "Gen": 6010,
    "Net": {
      "Layers": [
        32,
        40,
        10,
        1
      ],
      "Weights": [
        63.810891733448585,
        27784.628313074507,
        43.9018068328189,
        -4246.1914753436995,
        4996.879342418547,
        -0.873505895945005,
        1.5003265165326118,
        934.9525240399184,
        -0.24745348163534134,
        -301.60113713169505,
        616364.4455185739,
        -5.304916136354125,
        -3.853249299543368,
        -1.7048897923199673,
        1893502.4508819068,
        -2.757582986499499,
        63501859.585791245,
        -8891.759157386388,
        21.061439866070067,
        405895442469.12897,
        -370996292.69192046,
        1345.495268820312,
        -1035.4820944105143,
        -588.8802355358497,
        166806.8285144722,
        -14.315920054970878,
        721.5674856142957,
        117.08934087619747,
        -0.040443210109518936,
        -9243.982483487465,
        -2649.5172129224047,
        -77850749.34596695,
        0.33071370577143416,
        -9269.034534729051,
        185846.645459526,
        0.6095356035377205,
        -0.9497351923745836,
        -4.112580344938516,
        -421.65107681780336,
        -0.3537713465978035,
        -12.610888026261344,
        -1866632.4938909728,
        -107.32610333898204,
        -0.05932174245085652,
        -30660.849852628802,
        182031.2127371111,
        12.551323726005684,
        -2170494929.523749,
        -16.23563052196443,
        15.456489751198074,
        -6.145400022444851,
        -7419972.265730825,
        2.6921914296912868,
        -101.1750247221644,
        6088184.5697555775,
        -5.201071564920639,
        -0.6836907410692256,
        524.2676907337353,
        423423.11656453763,
        -1144.3443705000016,
        4.14190297420142,
        72.83896085306424,
        74348.3573791427,
        -5785.218174045296,
        -8.96860752323712,
        -1454293.4971307146,
        -20.45146934850684,
        0.5972575915054736,
        1.6609696963513831,
        -0.5646159901488733,
        21.218855035648296,
        -2155.2701383987346,
        -13.157804909572368,
        0.9932676693612132,
        -14.04786073263349,
        -9.133823298677271,
        1030.3343676428353,
        4.841680351469335,
        -65.18455280681262,
        1.108838182682208,
        -8299.733372254537,
        24238.364142308805,
        -21453.760338348995,
        -0.5493817000898765,
        -1349.0142692595775,
        -4723710.294540589,
        -34.068470891547875,
        -0.018830482281210772,
        8.875589308743152,
        488397905507.3422,
        -7.684439739690163,
        2.601232620349549,
        2508.2473021364935,
        -9926.604258082552,
        147.8519314946993,
        -444.57699781354194,
        -1940570.6228956846,
        0.8257225677714015,
        64952.19364424013,
        19727.612609287913,
        123697.48028923951,
        698.8684725265801,
        -107515.10413882887,
        32.889751986863224,
        36.41079719743324,
        0.05021503321721831,
        3803614.0902082403,
        -247600.45196799064,
        202015950.8950748,
        4949309021.19998,
        -0.32939601371169364,
        11.779667428742558,
        6.726895007461835,
        -59.29051225577285,
        4.282910453813694,
        -61.86773920403271,
        3.3528905391591954,
        -9.113821298140147,
        -8296125.991267654,
        233.9478475416886,
        -313.22797924601196,
        954.3539044852367,
        37.51481313852439,
        0.7918900078307451,
        1.6482064371151677,
        -207.2684804854428,
        345.05419562824414,
        20181.57812596101,
        4.345399432439577,
        77537.68540135366,
        -14667.745299951177,
        -18.193207228866935,
        712.6222455045194,
        48.21469825841706,
        332.25587080872975,
        1.7905447401184367,
        -76323.46399369507,
        208.99552321375688,
        1.634300248174396,
        -1601.9920217609142,
        0.5978308135959799,
        -0.19828630529759106,
        84.2633611199457,
        -11288.82535740259,
        1687058.1929945112,
        -0.38610951062678456,
        -3.5581715070365902,
        -10.675796216957288,
        7528.613057298295,
        39.74001792501943,
        -19027378.23098675,
        6762.6157308863185,
        -1167.511235579592,
        -0.15952594581556906,
        -1.0177063075168593,
        -3.277049335654739,
        -111.26989489287818,
        -16.59584300150693,
        -7343.797687032713,
        10.519034277614173,
        17.198300257576218,
        567.7784534378083,
        -9.644643101608285,
        2.01107504610107,
        -15.021061175745118,
        -0.8254761087928228,
        -22.45865663472002,
        -4892.567244309011,
        -21.835535738809078,
        0.4653829881721813,
        -1.1379765096618653,
        0.7470961211557104,
        -16.894449761268948,
        -2.230444781102279,
        2.143485755261174,
        6.187975414849881,
        -187559.06491475136,
        -2883.578780343756,
        0.0519654293910676,
        109.83673040609266,
        -1.8465160602994974,
        455.8738038634844,
        644.8165679926997,
        -830502.4431201551,
        -60.93313373263022,
        30.51004934086303,
        28.77135138093399,
        -5545.495712793978,
        1233.4953469125023,
        486.64878237744705,
        -0.4985390849700142,
        40243441.294047736,
        -1.7673411226647902,
        140.73904755003636,
        0.990471551584351,
        1034761.3868715548,
        -427.71964410856674,
        -44.60797006486344,
        -578.5025674251178,
        11.824952926256254,
        -2.4339726145072,
        -1.9385226768552273,
        110684.11204050719,
        -4.726633824179486,
        -6.284986113562765,
        -1.7547032309160637,
        6.425039696218904,
        421388.1834619942,
        29.21990365058607,
        -29.034223450194485,
        2.861643170430135,
        -67.84968157629974,
        -3.511311325130702,
        125.8180244654333,
        0.5449856375574244,
        -21.073993654407357,
        51.75290318639585,
        -45717.96208733324,
        27.538375489330054,
        -397.20866208987013,
        -1798.520266606757,
        398.80163600956314,
        -6.276659192623044,
        -85161.98956890729,
        2.857415458392743,
        6557.62234436098,
        33.037170763573315,
        -26.20713900353229,
        -66699.7041938237,
        -0.46825155067517316,
        12.780848958343887,
        -538.2699663528413,
        -159530.49583053665,
        2.2216923718707466,
        0.5978477592645429,
        -993.5654078579439,
        -99878957.90344709,
        -36149.07647585011,
        1.2806401215298833,
        -5346067.979303982,
        245772187.63793007,
        2.347462246768745,
        165634.37728205128,
        0.991674372328682,
        1.8617737797462142,
        41688.38330409503,
        0.06659500749220652,
        -251.8355914171363,
        23.684440936738635,
        11.199857642670441,
        31.462250199554326,
        -0.03978871766685489,
        -3742.3492795017737,
        0.5179897050158251,
        -1508.1411503403174,
        -9.438145932546387,
        0.22431352658104123,
        0.43451492454883545,
        3.3601283123665264,
        -43.32696211205191,
        11.286284015465354,
        -8.92101152142014,
        49.331043095343546,
        -7326.728917042302,
        -9.905459254069381,
        67.79759440054302,
        -3.3758363006895786,
        4585.617880622174,
        -41476.26735626934,
        -13491.721395648352,
        -5.219202377987538,
        -1.8045452911215034,
        7055570.882129857,
        -97532.46836822864,
        5095.161927106056,
        2212.3974798483123,
        -1.30390595785512,
        -4040776.683270046,
        -384285.6217143872,
        765.9493081668292,
        -0.008423894738831823,
        -10.0851798404339,
        -1117.6806340914886,
        9598.478120125515,
        350000716.16313255,
        -1.2754940432395214,
        -2973.5808852890937,
        -34.94359982968603,
        1.170829052086663,
        -19787996.457733836,
        -172.31411311444313,
        1074.8523641873205,
        10.758625931753164,
        -4.044956448657459,
        405.882650633615,
        -23.2502755612619,
        -344.80954349227085,
        -2.1900590626502896,
        1.0024415144656604,
        369.9186191180297,
        -2728.251902839268,
        -46.192020773073914,
        -5023449.392128886,
        76.91734223820717,
        -2.0850869934677356,
        -4.483762931704586,
        34.35597287737061,
        0.44112896728991924,
        20505.060739146487,
        36123.090157276805,
        0.6513584268829887,
        93.41895195746051,
        -13.789972441680415,
        135.8009320331576,
        -4.316256104728828,
        -0.32979564554451896,
        -51645.64383376502,
        290057.56698838033,
        94.13214945713183,
        -15.157810043977015,
        41.570786317230244,
        588300486.8843182,
        74350.13951777828,
        -10.374335275370028,
        426.85596373650765,
        53.32187379033423,
        641.1920073606647,
        8.300822711639942,
        -3.502624257263872,
        -25.967726853572017,
        530688.2121379008,
        -9256.600700011328,
        -0.14218839386688967,
        0.16740286966994042,
        -1.8036304707967838,
        -1.9370306637123877,
        54267.12752658615,
        -957.1495566394103,
        -0.4327261943973202,
        0.7504469062349416,
        -47120.15377872684,
        0.009187505807774788,
        0.0848064064485764,
        -16.410653692725113,
        -0.7475590482630838,
        -671.9217929744837,
        142.67667887819044,
        63.65960020005697,
        -15.126622150207215,
        -55955.87166525343,
        120.01589894259895,
        -7.3377217832530475,
        7.992797086748581,
        -34.54845065009547,
        -1594.1323932300015,
        -1.1072791753016202,
        -768336.8503909344,
        0.7955319675130055,
        35.01673904606955,
        1376.4220593470218,
        -2.488183281280857,
        -10.31652574006283,
        8.562177469051328,
        80.07812048136992,
        -6463298.485927525,
        23281203792.585457,
        0.43140687478380213,
        -1340987.1297841591,
        -3.9685966621501834,
        0.09711244801650397,
        6.828467052337703,
        -0.5423691649478001,
        268.44166741283436,
        -622.7983511299346,
        9562.56217996133,
        0.1546746242397893,
        -15222898.317175483,
        -0.4481742427520385,
        25040.17290591153,
        -968.2127945146678,
        962.9442310577637,
        1.3519250310403659,
        11.38472792454168,
        1426.4262117687006,
        64731970.37907836,
        -25.427998470616537,
        4.675195500953093,
        0.19944572199721916,
        16194.490779069905,
        4.734679454464684,
        12.651378583827738,
        1863.7105393544782,
        -43.67743980203937,
        79.77214080354153,
        19.676910760253943,
        -414.05538570889047,
        -0.07003005777045175,
        4877.5722937640985,
        6.228172893258894,
        -6013.199900406364,
        73.05297374083518,
        30866.47266906671,
        0.8094565051439336,
        2402482.8177122558,
        2.9002147711793316,
        4.779502659625652,
        1049.7050796580213,
        -1.197061104332934,
        -1786885.6325748325,
        -0.246238977391108,
        -19.712329800173055,
        -154640.50282973773,
        44.812235335244935,
        52437.75345068238,
        0.04237090803656233,
        4806416.494583817,
        -8.767248342952998,
        -23.43253979133617,
        0.06817531971790464,
        3.5388922315215092,
        647.1786911762548,
        -34.70178099087678,
        -0.29156946107662046,
        0.0977840276904557,
        0.1777236079216185,
        -60058.01686448575,
        -97.47879548330593,
        0.4940564800846037,
        55.113916679634954,
        -956.4018990457017,
        -1.5848487500291806,
        21.773409505460883,
        1.604235114815103,
        23614.274648140883,
        -71348.94698292871,
        1.650211941892201,
        -7.5480795262453215,
        -5.986715122640361,
        4.055988131187737,
        -7167.328753035092,
        470277.0397188708,
        108.49898601757519,
        -116.03060076841837,
        -3183.3028478900374,
        0.000266431263616772,
        -78.23482921650167,
        -1.2953853940644258,
        55281.52170168147,
        -53.882468578461555,
        -2616512.2304863273,
        412.71265127206254,
        -605.756664518227,
        876.5487751728125,
        -4.291142888450621,
        257700.70745830654,
        272234.8471239618,
        3.395172772632982,
        2.919529618805486,
        -0.610603927827848,
        -0.02795293828625337,
        -1962.7069302467662,
        27.58332411525401,
        402.286023404824,
        -129135.60562603104,
        1493.6338576105154,
        0.4802224722920395,
        -818407.6013765801,
        146.35570687334294,
        1.2633403288758724,
        -5.5196335117816,
        42.69971376005164,
        0.02278978746387368,
        -230.93571095055594,
        -4426.748957884997,
        -34.81887703494882,
        69.06457964839258,
        6562.372343459279,
        -8.832202234794249,
        -0.3831704713248042,
        20.79901712046131,
        3.857292344731685,
        -0.020557070285724142,
        -21.158501392932884,
        -59163.90029779254,
        -25.602167371110614,
        -138.24478688302486,
        -157245.15920794677,
        0.6093284156238225,
        1636149940185.9834,
        -25.224667769732232,
        14.053474564697186,
        1236.9425906183856,
        -80.49951007199537,
        0.5624047615988936,
        51.83557435723072,
        1994721.3895662224,
        -149.2973982519383,
        -1.7072489933880364,
        138030.81094456767,
        -1445.5405855931767,
        -635.1363923502593,
        4.649448291489216,
        -45991.067568474566,
        12.012976530381378,
        5539.219204507249,
        -284.7769084441798,
        2.095601164187028,
        6.8272506547873455,
        315.71530167146176,
        279.061690617045,
        -445.92898930287134,
        -115.68726014396009,
        -2.585271703375781,
        -1.3175225685439904,
        104913.59105204426,
        89.96327797534981,
        432.92828224644893,
        -294.3115585219132,
        -170595.39578204957,
        -31.996134514102412,
        515.8147832214498,
        -2.499980839354861,
        35.73581626898081,
        -1257642.9720766612,
        -333.4516522669912,
        -227.06893968287238,
        -19.608742064410194,
        46.41995021541106,
        4.887671405346904,
        3810.8734647318342,
        -0.31917213626230656,
        -537.2516278422854,
        -293733.12461415434,
        -26204170.48493664,
        180.4723480098408,
        -3507.502154252683,
        -3.0514499006140747,
        -96.91890126998877,
        47892565.479948655,
        -45.31501676316607,
        21947.43292025411,
        -162.30282449335476,
        -7.8957531904732825,
        7593.9302928263505,
        -2.717307745549274,
        485.40861609487416,
        119.67509441964137,
        -54.8028767131245,
        180.36228158389252,
        -6219.240372064548,
        -1.464092974995912,
        87884821.3834391,
        -0.5702781251515665,
        -603.3977864622951,
        1.5432564697320883,
        -35437.977805697476,
        10.641656933816524,
        243398.63257669585,
        482.621573644895,
        5146.200683544804,
        3.654781913941337,
        2029.1505198908967,
        0.055715535494087864,
        22.684769628957675,
        -6782.035062121218,
        -239498.02823528615,
        101242.71462772763,
        -121.12459763987616,
        335.33561930578526,
        134.65236437411247,
        235.91724806970373,
        -1108.248248386571,
        0.4318220127672768,
        -226.58478959971958,
        -253.83225301405815,
        0.7207399619848562,
        -10.506516458817163,
        -8.275180622478132,
        2332.5489854429384,
        -4086.65795315095,
        -24.647925310180028,
        12.964758436298661,
        767.1065328554852,
        -10.843823543981646,
        1.6473646295973148,
        1108.129106676495,
        9.036418802902386,
        -1512.3836126200179,
        -1973884.8113393132,
        -14.969335545086876,
        -75149737.89136374,
        531.8461668437459,
        -468.6428847969881,
        -10.77350049672795,
        -274.93368621589855,
        -299117.48771177174,
        2.472871494289621,
        -47.97243739636748,
        -0.042989701807761585,
        -13.759824354559457,
        1700875.21326639,
        -331606.46177209594,
        81.35867069531977,
        65.83098735810911,
        -15.753949394967558,
        -1.5442665886776763,
        -1632.6353054387803,
        -714.361932997378,
        191.90555912658368,
        23415.704638821553,
        -2210182.8709228244,
        -40662.18530064488,
        -1.6975604231521384,
        1.2802588502481913,
        -1625685.2232080763,
        -0.9517034811837767,
        -7121.51234301832,
        -0.31340736151728654,
        30916.230781841226,
        22.74816976861976,
        3.3468653675104982,
        13808.785944949459,
        6228295.4574895315,
        -4.416847149135295,
        14874.275423302186,
        363.8000591015059,
        -6.172562508031423,
        -606.3219745721179,
        -83.69520429812877,
        4694.741230231917,
        -2.232642083612504,
        -9969.415731000981,
        -2.0082460579463497,
        -90987.65745902718,
        11.412531398313766,
        8.439171345936401,
        -0.4616499408529978,
        -48.70237131848195,
        -18.54313388758149,
        11207.42352724217,
        6249.695198058687,
        -2.569889516275972,
        8941964.579000115,
        31104.790724548897,
        119.726829487835,
        16.748585034361035,
        -2726469.4430976533,
        2327752.1884827325,
        -1.0121812661764722,
        9465.7358559801,
        -8.39641338198193,
        -0.17762461187632464,
        10952.3854109035,
        14.243550373862103,
        -397.53753928214985,
        3513.1171220659758,
        -66.83421232321056,
        -1.092015449661504,
        27.447381460789423,
        4.130444220645526,
        160.69888971907676,
        -14095757.847338077,
        4.593830546061831,
        -6888.541301944546,
        0.4795413349809987,
        -0.08643951214107376,
        -0.3112603599523468,
        -215.53509576268758,
        118.92933221990596,
        4935.9820422681,
        90675138.41689348,
        -9.33023907681966,
        -2.2502175718231365,
        -0.257645036421432,
        0.41887412219850156,
        5.335543979596451,
        -9.34760799092629,
        -8920.610706216925,
        17.08462595605289,
        -587.1024049033015,
        -21.85774737202256,
        3.780632405901899,
        0.027993761163733567,
        -11.88296234557762,
        2255.0293428673754,
        1.9844263370335216,
        0.28521878703507014,
        -0.5116383973258728,
        -0.3675402639903956,
        97.52134459920791,
        -1781158259.2859657,
        -70.76966842220315,
        2733.0967701113946,
        -0.0038060879596963776,
        3.422086659194244,
        -2207728.2947284947,
        -7510.103267207432,
        -0.40361428564299806,
        5343.652130806978,
        1.590747795251267,
        3868292.831791813,
        -12243.82554073928,
        -341.79001350569735,
        -3.233006725599825,
        -95.4166592003173,
        -1.0685466852750864,
        118.93993182123337,
        -2416.1111599675455,
        -0.5740523796498129,
        9.9713602293168,
        -9.151489740827863,
        -275.81154103292596,
        4674.345804408391,
        0.4856972099241659,
        8359.507408631895,
        -1285.1873417447619,
        933.8389055997546,
        30.917424738050187,
        -150149.07651407574,
        0.00040354453191779956,
        6.2552586403172645,
        12.885030108659109,
        2.5462329499018734,
        1463465.213968217,
        6.22375061639414,
        -255.18997597652069,
        5913583.620226833,
        3251419.5103258877,
        3.267951240089071,
        -7.661171173128701,
        -109.89312567453455,
        6765.13705515269,
        -802454.1201478319,
        7.630475539627097,
        13.556727080926333,
        22689.457778186286,
        0.39286095356938044,
        -28499769.082421448,
        0.2717901649734494,
        -317.45246000603396,
        1931.0373805130214,
        43674.10840465786,
        0.6053098681727219,
        90.72185038027816,
        235.4251746767459,
        -33297.03511510392,
        311251.8098988314,
        -0.3787425995528425,
        -0.18151234156237628,
        1.4628505144585615,
        27203.215871092787,
        0.5065041732824583,
        4.688986339497468,
        -229.19543004048236,
        0.2543126364559555,
        116.11418048537719,
        -5.8060131521086396,
        0.250359774894103,
        1.7868521671337199,
        -2.0969417807104547,
        -17230.150818713224,
        -2160.888082378276,
        49989636.86615656,
        -61.19433534632666,
        18.05015034956344,
        -698.1195074793447,
        8.55521742821931,
        -8007.303130047794,
        -5.888198419979621,
        1934.9454005823168,
        -6.7159886691988255,
        0.04980601030984402,
        69.40417121455778,
        -3.196147687742323,
        -1.9198338085351634,
        -5.752805512313354,
        26.291133793352596,
        -0.3385237289785655,
        26122948.8376159,
        -1.8647814303880688,
        70304.05732194961,
        -59363.59695347362,
        21.734978415736332,
        -0.7600120069011813,
        2192.865968784223,
        147818.7395955104,
        -0.10864418767617,
        6.580903653466202,
        1.8540452877377214,
        -126.6746807103954,
        -8992.861348066652,
        -1114.1888195684837,
        1896.9883257647043,
        14464.213539440594,
        -279.6144659074478,
        0.3194098480270249,
        -3.325753695222601,
        -6.359541255121971,
        -56.83952883904482,
        0.4049558031691956,
        1979.4557415176982,
        33.47437694101579,
        -31.339668465906797,
        -1.5066936381530986,
        1098.9473878005738,
        -4.5229370299207625,
        964765.0383959692,
        -0.3827228303041248,
        -76644.09135338987,
        -213.67251746584407,
        -36311.14657271618,
        -44.64038111062135,
        9.221457803831772,
        -6140.941089254814,
        -0.3683485276268162,
        9286.731812565331,
        -0.148398953745826,
        -1.1096716764843417,
        20129616405.939865,
        -0.3427449474716942,
        -11.806800985120615,
        -3.4561383937180223,
        2032.2119240516804,
        -92.4303695354382,
        6622.01102072859,
        -28.518725631173396,
        79.58401990721912,
        32.6338693492687,
        56404163.81867749,
        -884536.6379077588,
        -26650466.631479252,
        -927.9170129054633,
        -0.7491370920180728,
        67359.85516509894,
        33.87892920388731,
        -24.451486295352726,
        13.611296180841759,
        -2.529589056549987,
        1.4882969248495423,
        -0.036714361268949766,
        441.9744034241789,
        487201.28251359373,
        -4636.092625192479,
        -14452.164539418658,
        119174761027.83496,
        16.977896635479837,
        -4695.089342288356,
        117302234.9433944,
        7.184089790945705,
        -10.218372918025805,
        1762.3444072572572,
        0.3109675851272521,
        4.420663698788784,
        0.13117455356666796,
        -27.783824051750337,
        -160650.85338759932,
        473.3047066521001,
        25437461.100020364,
        183869.3681027514,
        -24.01306446033979,
        -18.959637222917475,
        -0.029100257654153697,
        -16757.605264712573,
        144.37112134722983,
        -1.7992297325259632,
        0.07473603394273218,
        0.2488480824366312,
        20.383538652172533,
        2.471997709334367,
        -0.39606830852205027,
        -38.345697595047106,
        38981888.39162476,
        116411.17282189627,
        506832.4270462553,
        26.118384924036288,
        13907.239478775111,
        -0.956352794218918,
        -32.65583005808322,
        -0.007009803779657991,
        4.338234466086674,
        6.077594602848514,
        100.2113706006562,
        0.3806037960125107,
        1379.1708491509798,
        23142.627292459503,
        30.758252493937814,
        -1700035.4655752608,
        30648.723585442574,
        -118.25973175884037,
        816.4344301070234,
        -426.8036299675136,
        -36.46443323154489,
        8.572020758005761,
        0.8952736536939868,
        -450.9639203926101,
        0.9875694249933998,
        128.36159674867525,
        -534.5320399468071,
        -21753833.76186916,
        -16502.49432546327,
        2.0796894677991045,
        299.59920248671625,
        0.22245064478323706,
        2360.2186968437636,
        -6270.989220867307,
        -1.735205610481484,
        -0.22826992501790394,
        1.4991730458180095,
        -611.6461476450714,
        -306.23855684219683,
        -0.24516382898478012,
        -152.38510267032711,
        5980289.791577395,
        0.32973102350072186,
        -2144.4475862848335,
        -4.749184366634395,
        -0.24016345840307118,
        12.455466554434786,
        -0.35761597219564534,
        7.921621903497068,
        764.0141489511035,
        0.9303680718970972,
        271.655801944235,
        5.662255984392514,
        704.5834905493513,
        -2.1106666672627594,
        -0.6910235021195067,
        -14.440506687591313,
        -619.4977531069957,
        2.8071272422064886,
        -12.649501088083122,
        37951453.98509295,
        -4.453087447069556,
        289.4290947255384,
        0.623554469244578,
        223895.88284631088,
        -3.063986046841059,
        -0.26101168727364515,
        0.2958216078741002,
        -346.1703989996387,
        10.938984636564006,
        -29045969.755687587,
        -0.21832302625147673,
        -2.2276403323900675,
        2424.3844415794583,
        -20207.56509703004,
        5.158553835998748,
        16126129.629020562,
        696.0826530481204,
        -1274451642.2617917,
        4.582541280834759,
        6689.453149783692,
        -0.8316445438004112,
        37341.584860510695,
        7.049287735714478,
        8822.428983789609,
        -1.0830986832179266,
        -0.41349068280569146,
        51.362897415277516,
        -7.171607617403476,
        6113.663383532887,
        -99.58794146066968,
        0.7886587499910837,
        -6.5219870608825925,
        -4.728510161352922,
        1035.0393815974294,
        27.3865823910298,
        0.8057989185547421,
        183.67810835504505,
        65.14019903638868,
        -43.99300546527751,
        47484.25129954555,
        -2292.136676836638,
        4.036417765512248,
        26.105856790533004,
        8.984378360869513,
        -1719.8900110086195,
        -0.7519221546617479,
        3.4862685658205814,
        672563.2935569359,
        -14.245588146590077,
        1.3068029074761662,
        -7.801369884226745,
        -53.640234336319935,
        1120.8334613459217,
        233.01311766557524,
        -73216.32842102715,
        36.52173196621707,
        56.65554507237339,
        142.2170605686524,
        -13.759689102283952,
        -8784.809223777967,
        381.1523392123158,
        -3876.4101875186825,
        -56.22955326680463,
        -13.302114112056405,
        347679.4219101491,
        75.28332599266338,
        -293.2794455352869,
        23621173.172577076,
        -5.140027213062798,
        -85.3078737037172,
        -1.9279769986925903,
        2813.77907067668,
        3.253263098877645,
        -8.28851170717319,
        218832.30338391667,
        -116.464682568816,
        -11.685303645382312,
        389.12362631919507,
        437.27134209776546,
        -1432.077068259856,
        -0.007017366445168816,
        -16414131.370710602,
        -0.3710707508332401,
        -182509.45618730754,
        6.8978376709455045,
        19789.70344594243,
        2.836077871909713,
        13.684616224830567,
        2.364369982800497,
        -1.1856245763585405,
        -1.7577481692479615,
        -548.3356866349778,
        -165.36382647098722,
        71.53134749203579,
        -0.6648432140867523,
        -1.164981197131755,
        1.5593990594946416,
        -530.2892701969736,
        119113.36627871312,
        -666362.5067942906,
        41700938.769739315,
        0.20689234378483284,
        -1206.080429329646,
        8345.358513706044,
        21.343745153595666,
        74.23308461565044,
        592.4490312115105,
        -67163.32313279294,
        61.08792022047321,
        21738701.40586151,
        16.92556822154432,
        -6.223622080508083,
        -12901.293771564438,
        -39101.15608751338,
        -9.847817422014764,
        -301.50287024589863,
        -9007.832855217448,
        -0.08573940140220615,
        -280.22309138612366,
        192.2502703669796,
        66.05507392819732,
        9.656750105307921,
        55687.591854435435,
        1.9215750758964463,
        -1.0845902900039204,
        -175.59045367882086,
        11717.358487627902,
        -920518.028716347,
        -0.9018891794015812,
        2.2045142877590735,
        -20.99659885433364,
        1.420742862239987,
        -151695.13530291547,
        -14.992882624568132,
        -1884.3662383006993,
        0.5362044481882526,
        -16.176332583873684,
        550232.8088421918,
        -77.1537458308561,
        -0.10064056418135693,
        -13.573367811934974,
        -11.048688803730267,
        -1.8902775315368736,
        11371.991706227143,
        152709621.40230605,
        -54.715226440161935,
        255.07270168181304,
        -8.108101440313703,
        -12.700854327951324,
        7.81665495862332,
        -17362.853778933404,
        1.0949595798309757,
        -18.16051174411283,
        9.369841323981971,
        7.847373502100392,
        -0.507560510763902,
        -4.719151582021478,
        -1561.871115216494,
        9659042.477335306,
        -0.8498212806324646,
        40.322821723495586,
        -6658.290051774304,
        0.1907662172134115,
        -0.3844274962532631,
        -70182.25636511279,
        425501.5318278612,
        28.55278115509528,
        1286.0940892151218,
        -5.706754457994535,
        -102723.19798422401,
        294184.37230082566,
        -0.12016138654717926,
        -0.1587495602834471,
        -3301992.10843727,
        -21.993493391322847,
        -1849470.967053356,
        -58.14488034506187,
        3.211690496899047,
        -3533.640659953841,
        1.412926356059317,
        -5.663286358994281,
        -0.3247420150741971,
        -340.2981486166187,
        -0.5949660419828795,
        72673.74025256667,
        -16.179719451830046,
        -1.39483211101004,
        39312890.21091031,
        -0.20926048262646146,
        153.20328122544024,
        -0.21149826192929672,
        -1.1892429684736376,
        -14069.839083956645,
        28.432435355159832,
        -26974.806480932468,
        -306.2698660995586,
        -260.2684437294862,
        82459.79474420467,
        -31251329.520395905,
        -1357.0133865296777,
        3.9228333446908628,
        1.032303501445536,
        19.62112912590499,
        19.916322188776643,
        1010.1621297885583,
        -85.20250221660694,
        436.3886821046849,
        3.687590858524589,
        -0.3633476785984605,
        747032.9867743758,
        47.18403615875763,
        -31.796672553737665,
        63.00726917867418,
        -1729.3130396957924,
        -216111.1279483681,
        0.7302167482706793,
        -23.652833062866126,
        7322.788337346245,
        206.43624208885993,
        -11.340097035575386,
        -183.96068013443818,
        10098.389837112509,
        -44.7245459158377,
        1.6865710558051523,
        10934.534696164794,
        -1.2589607875503321,
        -1507.3132731003095,
        17050.212003383018,
        2.945576685939348,
        -1.1215249603428996,
        -167.45143087737918,
        -840.7047953151522,
        -12.632426758535576,
        67.85585855270833,
        15.45799951344031,
        -0.4423126568585594,
        -190114035.67945597,
        -390.0047635559586,
        4157.165737263537,
        7308565.946622958,
        0.6260857824797469,
        -0.726840458789223,
        -0.5778343758366922,
        494.15722584403534,
        -38575441.53543515,
        -2.0785647727023777,
        -9.246284201069393,
        5.838121197576263,
        268.27188159266996,
        66.91042704386089,
        22.90076440372382,
        -10.15622663114627,
        -1284228.8207770302,
        -6510.2885745210515,
        1492.2876781537093,
        -462.1958387861963,
        182456.35238535967,
        5.242796233624102,
        153406.94419321977,
        387.8203955904225,
        7.43499662640204,
        -158275.73781562492,
        -6.65583158802089,
        3465.9769858575382,
        -1446.5481154969307,
        -289977.02884666994,
        14631121.52767169,
        151.339281456506,
        579.5798548320173,
        -60.903047213880534,
        1843.1048976279305,
        1488.512028246625,
        6.910396160159902,
        -5.59765247762715,
        0.9645079252043461,
        3.255264587717379,
        -8000.050961935664,
        -92.41297022603334,
        28.65342349343017,
        -81.01148509768967,
        -39.7382057840337,
        1.4627781174165815,
        258294.157955729,
        268.9357992013477,
        34310.091707562926,
        -1953.3894332857462,
        -29188.48576149447,
        -1315.9379951754574,
        0.31458770235806743,
        -1.498025231471673,
        68899.18134388264,
        -12.031647081170561,
        228868.56546694043,
        -0.6554232574483515,
        -0.7334303654316806,
        -0.16316816792001274,
        0.8433005929781756,
        311.68901189805644,
        13874.356795196725,
        -49.37522451825041,
        -12.325299014125813,
        -33.24124606328521,
        5565980203.211664,
        -35864.85200039416,
        16.073664199953164,
        419.5068215083706,
        -1008.9357575119582,
        133972.74151665025,
        -71914.385907222,
        -153.20955486161455,
        512.3249377779326,
        7507.383601236605,
        720.1958972609582,
        2214519.5192144155,
        -159.64878838425378,
        1420915.4274367196,
        -300.3256809921288,
        367.76079184218554,
        148.42174620702403,
        -142.40964344979093,
        506.23661040205906,
        15.323516954988078,
        -0.3923359609256863,
        -129.30696699552342,
        -32.686541471803324,
        294.8869251693325,
        406.65644724869406,
        0.19623340012058052,
        2514.4693410492114,
        -4.707109921119238,
        -20.74401283038025,
        2.29059468934645,
        267670.8944228678,
        99282.23182896849,
        -1465.3443639592927,
        6.235496648215104,
        984.6337650600818,
        1484.3308221424222,
        -19481.484688678793,
        -3.8321955280555584,
        -4301.9095031409315,
        87.85404767107002,
        0.14156739909415506,
        -4.687557399503872,
        -117.15086766343036,
        2.5469192183519613,
        1.271613523505346,
        -81.75693609493227,
        901744.7238204336,
        2.7380014111092885,
        0.046246421599912865,
        -1251.4677911734163,
        0.24081821950756935,
        -0.06520612323574546,
        0.9885800987729477,
        -1806.3446556793042,
        -44.39818516974541,
        0.18373303629898766,
        1.8041245498380023,
        -116212.19658329323,
        -1998854.0705343047,
        0.39050568969566524,
        0.3762600151613672,
        32847.30534066966,
        367.9344343096812,
        -12.728515117477215,
        -1.2064958167638848,
        2101.554003073956,
        822866.1352580413,
        0.27774245888531,
        -46.37378215331431,
        -15966.935701029048,
        -280.3906525901852,
        116352.68019469349,
        -62.13949443731815,
        4.211221141369107,
        -2138.804560883339,
        0.41826563830019814,
        0.14090728363828156,
        -5.126325630061267,
        -125769.46049040799,
        3.024505254042538,
        1324.5603290379227,
        0.4804207456754057,
        20.089318971483756,
        264.1655692114047,
        89.70019513793592,
        -0.4128106691874364,
        -1.3675792749613453,
        8.692324088409206,
        -3848946.012356328,
        -0.41130373429982897,
        -1074912.9138441414,
        67467.73938315912,
        -9745.119179733178,
        -0.7308270342999713,
        190.07328932833974,
        8255.558788765853,
        -3.9682234059046,
        29957.32367933559,
        -731.3629207814245,
        1672.9455453153016,
        16815.218763496156,
        13.819812447705614,
        47.4746873701804,
        70.8930003174963,
        0.36233208265790406,
        -0.2754420283347224,
        -85641.01527779707,
        55.4684200282261,
        -0.16679545560467962,
        1261.0257543766982,
        -0.11897951612731644,
        9.644056900463536,
        4397.236323756367,
        -1.0682307089266914,
        -19.87133969959161,
        1.0194932812820126,
        -44.95638615455579,
        9325.755887718293,
        15254114.812462058,
        6.469420249853988,
        83993.58518488586,
        3.0983574890172387,
        -5.275567653009523,
        105040.96470513013,
        450.00485164256486,
        2975870.4016646175,
        212455.17878722388,
        -3362.7478493484937,
        20.281303367140982,
        6.0523879258875395,
        -672243.3502530798,
        963.7011269985867,
        -3.396277023708646,
        -20.076199365977814,
        -8.898131470643127,
        1.194037887387284,
        -6.569371705471616,
        -16.50292640858304,
        -66.10461824031485,
        235.2015414314937,
        -7391.579635586906,
        5093.401999945879,
        3275.4489304022954,
        14.72613154634154,
        -23513.38998918172,
        96634.98803564784,
        -0.20981968555541516,
        34.50525119439186,
        -1.927094866259121,
        -836.5326394068293,
        0.24267690053046376,
        -141.4900091044902,
        -565.201199181784,
        0.3262028637490712,
        -3.7850418929046037,
        -0.47221564932347465,
        -24.811087091438118,
        -6497.368751054008,
        15843.2823014336,
        0.11019132570790424,
        11826.399159841209,
        -0.4039583893564145,
        -14.83973215898674,
        -887291.8941462177,
        34.358976089801175,
        -3933.2421149459283,
        11401739.622963782,
        -28.15317028874234,
        0.9621711694461188,
        -1107.371552204808,
        -268.56416657378475,
        865.5948555505765,
        -53.92829450474896,
        53.307176969744454,
        2608440.2651239196,
        -171.92523192734032,
        425.4168473488418,
        95.3801946533404,
        136136.7316181469,
        -2685531.5674711806,
        -27.985823546947216,
        1.868895075025265,
        16129.828941031625,
        -3.2528308198927673,
        1123.8314305159236,
        0.26824566366207586,
        368.7215299947189,
        -0.0027303829576266897,
        -3.9171175482122886,
        28.955793538411136,
        -1.0200304759394976,
        -2.6449737516092156,
        -1.1735021049695937,
        15.879125409401459,
        6499.9492688739465,
        5.459929182866982,
        -134888.2089993181,
        276216.1500416731,
        -103614.70603029907,
        0.19386256851597697,
        5.965864196940645,
        -1.0311281843472726,
        -1035.5676646659822,
        21131.322478190323,
        -739.3228285708807,
        1653.647042610723,
        -2.1605019616800405,
        -0.4144053473732466,
        0.3778195445599146,
        23.5937679456752,
        849.3297733601041,
        229.80905597394573,
        -412721.7284584553,
        1.046203486892431,
        -0.45824881397844736,
        -1.7980451901791565,
        1.2083226481954283,
        -143.9448418261973,
        1.9963767481772308,
        897.5545111841975,
        11257.557707970615,
        8.57292471286223,
        3.1146975520809423,
        3633.4106704253822,
        -6.548177147454739,
        42.79063682058935,
        -56.25188825373381,
        -151303576.52070013,
        -57393.30587505188,
        0.47994051979653146,
        -4970317.719449254,
        -240.46530289711447,
        765.1079808318706,
        999.1875883485235,
        -1748.9452974752203,
        1.641856813999456,
        9.328805062211584,
        0.3527125183428401,
        4410380.943240109,
        71981102.34275094,
        -18.58850090741887,
        34323508.31324155,
        -1.04330131643766,
        5.202926306130144,
        1489.910947251533,
        -1.8313624347844129,
        -0.9620345118878995,
        -317.6646052643059,
        -6.296837152904409,
        -1.1057239600335558,
        -29.01934506552157,
        -39.22187848560143,
        -0.1377003473723621,
        12.110766296282371,
        37569.921184996536,
        0.9462289604940419,
        -1279.738817063298,
        526.5449020847741,
        -1844.646710428504,
        36.252735168786316,
        -101.25131945628243,
        -0.5652089805084597,
        4908.942673042731,
        -207.59394555757626,
        -0.340617665924304,
        -81207.25678686619,
        -7.196923669063864,
        0.14291397417309756,
        -9.790347012233234,
        7.226375859491605,
        -15.25876535111657,
        0.8233096938015593,
        -153.9787729028346,
        1249.0749485630859,
        12945.89020475939,
        367.11426120489995,
        0.4719566821367625,
        -2.149196244772378,
        -1.019801157820418,
        -25.554398343620672,
        9.941709169871423,
        41.86689511666588,
        -40.041070653361125,
        -58606.79217513486,
        -25.92281873807859,
        2152.313597637012,
        -2.361620309309535,
        144.83225083896698,
        13.204556123406174,
        -0.8482557497042428,
        3.859011082359729,
        4.304224979661315,
        -4.09386101157168,
        17.10349497944935,
        1.0022782887138473,
        -0.6055994992126991,
        -12.254312059375343,
        3542.466759153849,
        -146.2816498955036,
        -147.58039893917564,
        58.50646876255287,
        -96259.30164472041,
        24.2101732852392,
        4.34911926426237,
        4318.740310935153,
        73469.37074941784,
        -4.066169103101842,
        -115.77250900175252,
        -3.576909276468588,
        1.9192291228511822,
        1848.5238320290098,
        -100.67099526537714,
        25.492446425619647,
        5.472721145770053,
        -4859.98749032817,
        21921.71162271517,
        763.8335736698614,
        1.9319306283044877,
        8.21226530259371,
        -277.13516009524835,
        -0.09956113212560597,
        3834.842864175884,
        40532.74624697707,
        -15.473304703496197,
        -225.59724825672694,
        36633.863293464434,
        198.72714408070988,
        1446.143524931352,
        -6151238.655791347,
        -1352.0130438902534,
        17.27899619010626,
        0.3743095261729026,
        -3.2487576390762576,
        0.47222057924494537,
        5.3678622972523815,
        -2301.270983192766,
        -609.4203577653439,
        82.95416424264444,
        -0.71836730253353,
        0.8902729408825222,
        -751959096.3955568,
        99.22167630170225,
        -42822.471740921246,
        -4226962.390503116,
        2.007586807807043,
        -1538.3993899393042,
        85.15214369973391,
        -4466280.0974972695,
        151626.03016854305,
        257.74800043988375,
        6511.198328644394,
        -25.679932624359818,
        -12.703650175369429,
        -129.18703129803274,
        1.1495603319960104,
        1.1000743981747252,
        27321.39172086178,
        57.61911789870871,
        35.170825461227054,
        11265.753959237001,
        -51.394765872399184,
        5.129447013766704,
        -1.3748733289299497,
        2672.0501615769963,
        -27.982588993340705,
        176.3577759837072,
        58.80092404498155,
        -9553.660600593119,
        1.6913481475590721,
        -9425.606525184603,
        -77177.03396877307,
        -4.927586442961427,
        558.8319697958793,
        2289.4770025559806,
        2388.6916626925668,
        -11731032.540386267,
        1.3704326102497644,
        -3251.5075280169262,
        -1.242991947697321,
        132678.65973146452,
        -904042.9504328364,
        277.78016896953415,
        61.08239828106104,
        4697.554842837299,
        -1184.017897510885,
        864.3639394624573,
        -0.21990000818031455,
        178849.65628903607,
        10586.416045892938,
        -240.94903247569516,
        -3.0525473893120876,
        -0.2886251276710092,
        361911.33694127953,
        -17.283104212241614,
        -90285.54150921715,
        2.341716288234373,
        -0.9408773707532774,
        2.4033743831310934,
        4.344545389330291,
        -22.307865222961475,
        63.375853847406006,
        148739.12346909798,
        289395.6081490563,
        -11546.40017189475,
        -2.3604750737656404,
        -1144256.5013798357,
        18.81595960623119,
        -8.246698030075619,
        28844.851413385946,
        -0.5510936364691525,
        75.02055177698718,
        -6.3506553404013015,
        0.7514712859838083,
        -5.797936535016682,
        -15147.658003474258,
        -0.4803950742480915,
        -71521.48451579767,
        7.26086287093525,
        53.55184330388846,
        -28656879.94264944,
        4.406733497130024,
        -559140.4425689116,
        581.8834967804673,
        16162.558528067555,
        -64.97206052610906,
        -31131681.696229283,
        9.307414744128376,
        18.165024280964985,
        -1139.215320824202,
        -18638.75879618352,
        -5.389904942827051,
        34678.04457900123,
        3.8160815880693617,
        -940014.3422548288,
        8.648941959569811,
        -5247.955614117034,
        -2200527.1314645815,
        2.153069417498406,
        22.67894101740046,
        -914484.2236306178,
        -682.2582494777749,
        -533.9154829869564,
        1939.3280254391746,
        21.660450659469085,
        -372.96536432367463,
        -0.6397823342251097,
        -0.06895679996757864,
        0.1524029004841648,
        0.09878681186610871,
        -0.04557500334442764,
        0.11062404064799973,
        -0.2009842953182883,
        0.27501730137934327,
        0.07162366672351818,
        -0.05257326770772063,
        0.06118526606449884
      ],
      "Biases": [
        -1044.2511051460694,
        -4.399180296359439,
        159.91937137032482,
        342.6694567045044,
        8313.345048492116,
        -1394.9694133812866,
        -29.961746213188857,
        77.0605712423314,
        -3547594.300557168,
        2.9294969046138206,
        -6.53101984079902,
        1.1858041813258895,
        -286061.65967459365,
        6214.845443065939,
        -78118.67121830101,
        -2.613527179511871,
        -5.887460568017254,
        -324566.9178423954,
        2594.56018637441,
        -0.85819016373051,
        -20.104009658230794,
        -2.710317360257384,
        2.743718982374083,
        29757337.89949071,
        -27309503.182650052,
        -3976.234022180196,
        0.2034574225073951,
        -6395.700655411535,
        138.69313650354457,
        3362.897927338175,
        -22089074.58655515,
        -37.724685119641194,
        -49729.91308728656,
        4.616814675881933,
        -378.79678384543445,
        0.4006101924920862,
        -0.5317639349138654,
        -1863.7384497779096,
        -61373141.12240421,
        -1.4744454630022654,
        32140.762198527093,
        -0.764716841598596,
        -333.29556850766846,
        -0.26467157459987045,
        29159.8075726337,
        584.249628695717,
        -65.17258290526725,
        -0.8877859013630234,
        1108.725161020758,
        -544.549396701318,
        0.2827059980076247
      ],
      "NodesLen": 83,
      "K": 2.936558340243295
    },
    "Score": 8,
    "Wins": 21,
    "Losses": 13,
    "Draws": 24,
    "Sigma": [
      0.00008769427402962927,
      31.26865495943893,
      0.000011437216573696716,
      0.3037901318671294,
      28.40786587783642,
      7.062621591228034e-7,
      0.004410836245907048,
      0.044798947712753195,
      0.0002953710562553143,
      45.22224119148604,
      3090.8639578949055,
      0.12881213312204534,
      2.7241383473660804e-7,
      0.0015869527182205973,
      137015.24890504195,
      0.0006629491957552504,
      12925.96883510257,
      185.9863451933026,
      0.0000027582343001404673,
      25659572646.80589,
      21647612.524894744,
      0.23446410102786788,
      0.6649920459404707,
      0.08203275812865904,
      7340.843644313177,
      0.00020660260901193773,
      0.001965912237312017,
      87.1774062550058,
      3.417861807277437e-7,
      372.4040734654895,
      119.6245782874733,
      1114.493234147941,
      0.00005089353930823909,
      19.12136128570037,
      5596.002946703523,
      0.04309449670037656,
      6.61464538677873e-7,
      4.034825922890259e-9,
      0.9220692739683184,
      3.5715646192433363e-7,
      0.00004367205910291369,
      273.6770134356584,
      0.11450933200845295,
      0.002801410679461178,
      19.208791941612695,
      27117.636334442344,
      0.0022838271122995984,
      15438.293081796382,
      3.1651464820861017,
      6.506343663551857e-7,
      2.3839534227307006e-8,
      20042.79342595575,
      0.000005441623470095595,
      0.019461673317591386,
      8845.101280400599,
      2.0856975286460433e-8,
      0.043705782437626954,
      5.017521369739707,
      17861.79752877017,
      399.37332671747845,
      0.000020087073219909075,
      0.009188813766841716,
      2411.101584116364,
      829.5230929046406,
      0.00014273192216777785,
      127.4315709786961,
      0.0003576728006467659,
      0.00007993702752081517,
      0.013011722044493232,
      4.207049243537339e-8,
      0.38028983899413116,
      7.7609681957274805,
      0.1836627851764949,
      1.822406795491656e-12,
      0.000756284063095776,
      2377.362979313784,
      7.498818797653877e-8,
      0.0003961005422706708,
      0.09048706322790724,
      0.035529509254610944,
      295.20542917154177,
      0.2986029227886275,
      6.845621696619328,
      4.408765399804128e-7,
      80.70864955054881,
      333.25067441324717,
      0.013515803069914798,
      2.72835296959717e-7,
      0.000004168605263858492,
      88514542454.55167,
      0.00014575914052573796,
      0.000003901180857830548,
      11.452905860949084,
      3.1402565510950824,
      0.001293471987132331,
      4.815066226763417,
      10795.179171973658,
      0.047312198325980215,
      708.0449157750633,
      278.8516107328462,
      487.3003134507354,
      29.025790982640682,
      1263.3130387391689,
      0.00041525405500576296,
      0.7584047320426022,
      0.0380292692604841,
      81.30404627490768,
      14226.927056723922,
      4999828.880174351,
      16005872.652893014,
      5.841654665001276e-7,
      0.00001891339716914205,
      0.001943282487295668,
      0.12495097932778099,
      0.000008476649009081095,
      0.08087874627393421,
      3.8496548985969194e-9,
      2.037253576237243e-7,
      294779.83215065394,
      9.787024740651603,
      30.64711979985543,
      0.42774979958441695,
      0.16541830296323862,
      0.000010411796659566958,
      0.00851397838982399,
      215.14090599034094,
      5.71287320554314,
      249.0953696083936,
      0.019531217433709985,
      20755.264680330358,
      74.6922097558765,
      0.000005925588633721871,
      121.36097848845856,
      0.07517830951932249,
      11.388322561513087,
      0.11464068094032284,
      1881.1068731976732,
      15.649801715590058,
      1.2095965657964748e-8,
      1.3935197094997591,
      0.00006664163817145097,
      0.000001086069310197194,
      0.0009480490690421823,
      3.411997985671151,
      7806.300869214916,
      0.00018903519217549134,
      0.00005328373763843389,
      0.0000013830261049708367,
      1232.3506544025392,
      3.3636952540162994,
      7531388.049705496,
      194.91035456269688,
      19.655980574002054,
      0.000009688741499939393,
      0.004621418978567507,
      0.0002873652851538484,
      0.00000143150012966301,
      0.00018640789040973827,
      11.68983281964323,
      0.11247064561273884,
      9.618055243330799e-10,
      0.00004147406832898798,
      0.0002996508587192997,
      4.0190569114401275e-10,
      0.00007100773068399719,
      5.6126835018106005e-8,
      0.00005975269525771931,
      885.3515109818305,
      6.031526101585645,
      7.63452482404224e-9,
      0.0061914300969237845,
      0.5886847642909228,
      0.0006431839046909981,
      0.010545222748026635,
      4.969782042176868e-12,
      0.1064585347737888,
      0.27599898320356303,
      410.92034620697666,
      0.00006871436793612327,
      0.0003537593088634832,
      0.00005200741433261398,
      340.29734071333957,
      0.7677080338504569,
      170.6646942872673,
      0.005346627766756856,
      0.009296978035827479,
      9.2776177796817e-8,
      117.01127613840066,
      485.6304113464752,
      0.05093491858915597,
      0.000006999081233909349,
      988568.5177298047,
      0.20214126401039947,
      0.06523400564535642,
      0.0008772537245892542,
      93755.13952664775,
      0.7142511242111127,
      9.922132977109557,
      0.3400889832285148,
      0.001449255046294649,
      0.020206055821134526,
      8.026407427834495e-11,
      2115.3541073003994,
      0.0029584129845982537,
      0.00038729751860903467,
      1.0436496421263487e-10,
      0.0019656074752327168,
      80253.46861733799,
      2.5538501469553156,
      0.00005754724758606743,
      9.379397251516381e-7,
      0.002647390054552636,
      1.997577634378481,
      17.488669919636926,
      0.000022997667582083963,
      0.04428182811651176,
      0.005345939488860032,
      13.180732481746773,
      0.00009876886224138765,
      3.8447742839569257,
      0.08543085608668163,
      276.8183685972024,
      0.0003310495674085047,
      154.22099112249566,
      0.000006629600869028528,
      14.554913744757657,
      7.730591901864835e-8,
      0.0027895716437943852,
      9413.129313466978,
      0.0000012449403636925866,
      0.000012473611537695262,
      0.0023821037177948275,
      106117.31759028036,
      0.00003146486808276857,
      0.00794809263646202,
      0.1607494120855487,
      14927647.877745485,
      4.2838197101999,
      4.121257121479937e-7,
      8839.80180568012,
      20979039.422064424,
      0.0008981810150492312,
      26286.459131148356,
      0.00011030462891217515,
      0.00004845997899859443,
      0.020949577478122944,
      0.00010379792914988394,
      0.000002100008988686582,
      0.005109209749977183,
      0.00008587676683146369,
      0.00006926623382498026,
      1.125466726144521e-9,
      0.28672753743860613,
      0.00012994175976816798,
      15.502444420468269,
      0.9312337705276432,
      1.8515309535945625e-8,
      0.0011647380890759506,
      0.018565762380872652,
      0.00008384058842243504,
      0.37465735205113926,
      0.0004658216028516216,
      0.00009661840908981555,
      2.306952742599572,
      0.13355056715047892,
      0.000002636712873891574,
      0.000004794021775091593,
      16.67840843929899,
      489.3376826713713,
      0.03316165230007239,
      5.772775074959815e-10,
      0.0000019255717301194778,
      22453773.767821137,
      61.08049669349782,
      147.34495539770492,
      0.0002448413408247907,
      0.000006140445864834147,
      37516.00844860579,
      1.3824846452831596,
      0.010432098697446308,
      0.0001759746112356156,
      0.006866688197109447,
      1912.558587652317,
      0.13715377206614782,
      73657.53028061376,
      0.00009311873274019479,
      625.5840226030798,
      0.00016482641662365097,
      0.012309208399710817,
      12643.5498033727,
      0.2679315022338403,
      482.89524319787733,
      2.0918513043009908e-7,
      0.0036795821663061796,
      0.0000013228921281476636,
      0.00001664486803279022,
      4.653625005116592,
      0.0000623777234556347,
      5.392455158458673e-13,
      0.07317729131404647,
      45.793062071539985,
      0.23687736287670738,
      9832.097058443607,
      1.3060049249953853,
      0.000017172885906947018,
      0.11671452627652106,
      0.11327401130809123,
      0.0013617405913431055,
      1818.8057990756088,
      6.38123640481214,
      0.0001474102002000607,
      0.0003256666485423217,
      3.266170395596687e-8,
      0.03316064381137765,
      0.00688423424667286,
      0.0000033661477998209207,
      418.5954876772217,
      22887.969878768134,
      10.979923908033813,
      0.0002277276359568652,
      0.018130294968502398,
      3819669.78244647,
      331.5339739284824,
      1.3002291460618842,
      7.800335681448282,
      0.08759084092149422,
      0.32700197008589504,
      0.008711966897463853,
      0.09653948236131295,
      0.0006158488364332502,
      1346.4535676415976,
      61.582300320268004,
      6.500498628401008e-9,
      5.929879036763777e-7,
      0.012153015589632506,
      2.2168329859446185,
      5284.672509319563,
      1.9377090654069251,
      4.449301771188456e-8,
      0.00017617264630035142,
      2741.7397497738525,
      1.3352311570466687e-8,
      0.0017102525130254708,
      0.000046767298667986,
      0.00003436204461608261,
      0.0002152616841096687,
      0.005039483395779674,
      0.11205219469516302,
      0.009936224416841416,
      3745.836179649394,
      1.5911138205017703,
      0.00012988410631900796,
      0.000005385255203104105,
      0.0015092087060010534,
      0.06658806548396856,
      6.291791821444197e-7,
      396997.70579492324,
      0.0043972101374842535,
      5.615348366757923e-7,
      0.04404834056336725,
      0.37491715025270206,
      0.00047197747585371364,
      0.00018586098636383258,
      0.0013322971749694045,
      496845.88133930374,
      1665806277.801005,
      0.0005957165216051577,
      7384.928657816904,
      0.00026309432026125156,
      1.1308943740449422e-9,
      0.00004663754807886159,
      0.003139302414041058,
      0.019876014047504706,
      0.515574149639999,
      493.7879753211972,
      1.23127848072512e-8,
      1427103.5140170117,
      0.0037787299658510747,
      931.7824621789143,
      57.62604166072828,
      3.9633155245547194,
      0.000023277190077911707,
      0.000040053693274937916,
      61.064146769016766,
      1058724.561004484,
      0.0031976073003276537,
      0.00024434951437358874,
      0.000019307379579787988,
      606.6273459963879,
      0.000095823283406141,
      0.0011335260802738947,
      2.780540772513557,
      0.0006918235248740747,
      0.5048824670447302,
      3.5270642296431094e-11,
      0.2751474907285515,
      0.0007939104572311095,
      0.004657886740299276,
      0.059356552644348644,
      56.280056900744825,
      4.154419700548704,
      59.10318499797452,
      0.00005867191590207216,
      25166.033842690686,
      0.00011296313758013054,
      0.0003325714293073199,
      0.0017965256038533766,
      5.711962442942984e-9,
      1542.8371003548168,
      1.1684240093779489e-8,
      0.00008152861883414454,
      26849.27323597593,
      0.0000011925907635370255,
      5769.103862625064,
      0.0008291673953581679,
      31225.939992002855,
      0.06564443330137633,
      0.3182777900057314,
      5.732229376113201e-9,
      0.006109180618432101,
      13.085071080997936,
      0.0009371952673486467,
      0.000001223548508611473,
      0.0010795893083529315,
      1.7384374638789545e-8,
      48505.33263905374,
      3.608730836367914,
      7.3855786792466824e-9,
      0.0018712272415279158,
      0.8027199015783638,
      0.0002902196052659049,
      0.03607671477755063,
      1.6398984327104237e-9,
      0.2667119800758463,
      10.50147877618696,
      1.0391786009589817e-8,
      0.00012962794200874648,
      0.015435491277350829,
      0.0012497304490153337,
      2.1294415086873713,
      29563.604656151034,
      1.8847276093534235,
      3.9650831377719067,
      0.016548808739935347,
      0.00042099866035997597,
      9.111458241198966,
      0.0000710356227345772,
      772.3323544727427,
      0.00039780709187615455,
      10170.197991873794,
      0.00028042707918920525,
      0.0011268681752037962,
      0.18503146019064592,
      0.2253247525597132,
      7923.6517006583435,
      6981.925714168495,
      0.12915500230287788,
      0.0005990775051557531,
      0.00001052319299975592,
      0.0000032470125366488985,
      139.28691515601233,
      1.3832521288217833e-9,
      0.0006284697951480777,
      337.0387266733499,
      81.41812419548747,
      0.01412198729616552,
      41437.98619937376,
      9.832408613206507,
      3.2443464207150065e-7,
      0.005869831253311293,
      0.000004977073226923805,
      1.9966503469726194e-8,
      0.5692793529958051,
      0.474902020234143,
      0.0000016066008331874295,
      0.013595739624980027,
      0.6626924448004877,
      0.004306717265255771,
      0.0000019491763359176697,
      0.004267501647266098,
      0.024270982736465625,
      2.348728687216439e-9,
      0.002232616993664561,
      5293.760698450143,
      0.007384895067157497,
      62.42209801856012,
      220.1799007875255,
      0.00000400194219446751,
      30385967962.90608,
      0.00004245865719179789,
      0.00004080108987751552,
      0.026830441978240003,
      1.626193888478598,
      1.9312741418409347e-8,
      0.00010991632389199785,
      9289.569720355794,
      0.48757846102099006,
      1.4978983383010128e-11,
      81657.04984002141,
      6.592160486719649,
      73.44139720465323,
      0.010361367848453519,
      0.4602730308381693,
      1.8227122967283296,
      10.708269909467537,
      0.36315394592914235,
      0.004064846409084845,
      0.024280165019840556,
      8.156595130547178,
      7.024238971857029,
      0.02659270647663916,
      29.453198737184596,
      0.0010433056035244455,
      0.000002465062069687281,
      266.37847964014804,
      0.2676464616771157,
      0.9469223523455879,
      1.0758471478804343,
      327.8268083320694,
      0.00004923719915854748,
      0.007089121506882666,
      0.03058900511344789,
      0.0002590855324516452,
      409.7361838126769,
      0.0005552649111629382,
      51.10504269470222,
      0.00004896981473349753,
      0.010557895848521836,
      0.000022248392251956828,
      64.52409336685301,
      0.000001247524158629015,
      0.1064057418915669,
      60.15939381863064,
      979.1320951270229,
      22.715030946826527,
      20.568390669668425,
      0.0013071410609496194,
      0.000047768416606658684,
      1054116.1216553138,
      0.0004659045238650287,
      2438.1296562840826,
      0.0009930481345440585,
      0.024612090169968792,
      345.3946267624243,
      0.0077362807140020605,
      0.000007394651980425427,
      0.07190665440187693,
      0.0006068832228534341,
      0.011927756397247271,
      863.7978298117489,
      6.790365708030142e-12,
      1857333.2881863364,
      0.003670871472841328,
      1.3986162386324693e-7,
      0.000002265072793797383,
      548.4324668074213,
      0.00009093588981987342,
      5571.282856099355,
      0.0033083471791411595,
      34.27012962744519,
      8.546508851001111e-10,
      0.991823433141269,
      0.0000011678686416698755,
      0.014085654181654068,
      36.41416281470037,
      482.300290384423,
      916.7091693214886,
      2.0697151998845922e-7,
      0.009165749654352167,
      4.621204712040998,
      0.05417457275096434,
      0.029633676616518088,
      0.04313402130835714,
      0.00015957304726780372,
      5.51393838925708,
      0.00898871974979667,
      2.5351028175007153,
      0.0029240928394793286,
      44.87893517548081,
      0.27014308124417663,
      0.010132551226798358,
      0.0003441326205605281,
      0.004508398717734807,
      0.000010928984586971906,
      0.00008414053513876107,
      0.0005923037841871527,
      1.8128733350802027,
      0.2699345178941493,
      307.3659296917938,
      0.0000026606785220395133,
      21487058.92709423,
      56.18430807518691,
      1.7066057734116227,
      0.0017151927851771869,
      15.1267542252759,
      8505.63852562079,
      0.007771985691243827,
      0.000006486118088301636,
      8.792864126763531e-8,
      0.004977811658054202,
      114630.87732541181,
      1528.7411762682475,
      7.400928379143328,
      0.0051036653250111095,
      0.39785725614941214,
      2.1827757135837673e-9,
      1.3786057618224854,
      0.0000411905192997641,
      2.0782464589523815,
      3209.8102589181835,
      130530.13123559352,
      0.48391926061588797,
      0.07021094004010939,
      0.010271922197473358,
      760341.9626409886,
      1.6016534613770994e-12,
      107.43211627699499,
      0.011597147938231401,
      19.09970181656792,
      62.58980112633471,
      0.021503027281450905,
      140.33477415127354,
      2900.9104587440042,
      0.0014916767923778016,
      0.08002152735846116,
      0.00028731388333168317,
      0.0002763572173308215,
      1.065970937645437,
      1.5473937381295384,
      0.0034527435189633327,
      0.0022644766664360536,
      121.23688945050549,
      4.9569058643044356e-8,
      5.012283048597032,
      0.0002536105649167918,
      0.4205784233282139,
      0.000016950153355389953,
      0.0023038808492954134,
      0.00015862683538049526,
      18.443855951181096,
      0.003661823876700001,
      0.0000017378992280483949,
      7599.905697842311,
      1481.1407409835488,
      18.390996645170414,
      8.337259277676803e-9,
      2.1418257958818323,
      63595.64240380447,
      0.000024519041561563778,
      206.63497867793055,
      0.03469530581076284,
      7.612478073025555e-11,
      0.04327514764546218,
      0.00535414592156523,
      0.0062729065757997455,
      173.06577248430048,
      7.869387741198557,
      5.597665141251051e-7,
      0.1298511254890927,
      16.480139448025458,
      0.02417260565759858,
      1216431.0396401675,
      0.00006244230042774408,
      861.8095972365403,
      0.000006101284856725459,
      0.0004095294588408228,
      0.00156471610273239,
      0.0002854349378449498,
      0.10147875005673378,
      0.02747509536497069,
      597797.408615079,
      0.000035362539332948024,
      0.000007428735937512849,
      0.000013987795876077385,
      0.009553708202718687,
      0.00007802696732059803,
      0.039694459023853705,
      0.3190949609211421,
      1.6571081108598537e-8,
      5.771148956284708,
      0.0030705099424367614,
      0.000005148389404548821,
      9.236113540896288e-9,
      0.00041493408507464177,
      33.49132484398044,
      4.93671581516488e-8,
      1.3260143136753177e-11,
      0.000019122338924776063,
      5.021204918382728e-7,
      0.0007194611929598272,
      40551694.69787278,
      5.201373561695492,
      4.267564337969378,
      0.050487591276970493,
      0.00007668658733782423,
      63308.33721549232,
      219.81480593779312,
      1.0369799435174828e-7,
      336.59857422706017,
      0.020643329181142832,
      14191.698624137412,
      60.30928413707981,
      21.043754731790397,
      0.000038893447803774756,
      0.0013780332578282315,
      0.001574493519024192,
      0.012677680095450162,
      8.155243051583836,
      7.751358797126839e-9,
      0.0023364393194933468,
      0.0003604257298733084,
      0.13956099105522288,
      766.76479552681,
      2.204966954318292e-7,
      1502.3309745989618,
      33.73229931385433,
      0.00012339174268773562,
      0.7635603994539165,
      1601.0474346140231,
      0.00008733992820173222,
      0.9888897554985773,
      8.188336021390101e-9,
      0.05692387223262047,
      15442.626629963155,
      0.0013859596240703997,
      1.9842956810614063,
      7041623.712598218,
      7372.805841426292,
      0.000009644216576470223,
      0.06282161554050796,
      0.023682519282767156,
      612.418000143626,
      64.24493762421663,
      0.000327806096410876,
      0.0000031103718816628624,
      316.3419371014688,
      4.015572433887928e-10,
      8698.807101115892,
      3.510077719745207e-7,
      0.15153720316748434,
      1.294284941516745,
      0.07883279923421796,
      3.919543858024307e-10,
      1.1713528882447566,
      0.04452311264976401,
      31.728826747438504,
      967238.414951035,
      4.561411689940293e-7,
      0.00001955421847602513,
      0.0011407963915006996,
      2710.2711167847815,
      0.000005457139730237361,
      0.007446405080037828,
      1.6552905860237315,
      0.001473542406967628,
      0.7642166271916884,
      2.5117025820547746e-7,
      0.00000458822896269743,
      0.0004959567094513368,
      0.00041137375793564993,
      2433.0189326554114,
      55.853184396097134,
      8081818.036610837,
      0.1449736202285103,
      0.0056291845858244495,
      0.07621331874562201,
      6.297962536945571e-8,
      41.166639287576174,
      0.09890602477846899,
      508.4115309652612,
      0.00813296675763802,
      0.000012356382089250986,
      0.012462399187828753,
      0.0013581362690121518,
      3.2858045677638704e-10,
      0.0000016410182474202442,
      0.9637462596177566,
      0.0012667577706556394,
      501381.21786039183,
      1.0664082816851647e-7,
      307.7658356341444,
      673.6385680949007,
      6.4963365842949825,
      0.0000028195447557444358,
      6.808311764289128,
      336.35507629712697,
      0.0000015286870496179709,
      0.4157409059985343,
      0.00010707373028889793,
      0.37307458265139865,
      22.12213025209431,
      0.20125070503080406,
      83.78374661668451,
      120.60333016614263,
      0.03885426354367089,
      6.764770636704403e-9,
      0.00008110113627679721,
      0.000025718510833968635,
      0.028027235833819778,
      0.00007830630477825578,
      95.7919122333603,
      0.00000178857266800252,
      0.00021227751020712674,
      0.08364139998985709,
      148.38791240599306,
      0.000712089386533972,
      5811.082494539492,
      0.000014571006410591333,
      825.0651809415846,
      22.75166805949985,
      51.324573208673556,
      4.619678534025668e-8,
      0.00003827368701283828,
      12.02663810767454,
      0.00003330024528054188,
      1308.1111200112437,
      0.000018579343896756706,
      0.00031153471666630044,
      2245858661.162676,
      0.00027861262220531746,
      0.00006454458814167471,
      0.321007957033703,
      0.006064107368457823,
      0.008841902200939207,
      26.826848696196183,
      0.4964791771720189,
      0.004225013853216128,
      0.000012475516062024726,
      17865991.373466402,
      2835.7351327971373,
      10714.596298939978,
      1.9529234210353803,
      0.00005518798402469161,
      25.32883675743976,
      1.8012947597314244,
      0.0011168781576311878,
      1.3518573286215042e-9,
      1.6614713024841592e-7,
      0.0017733214670241347,
      1.4138221748764934e-7,
      2.6578640487028378,
      5.708428291131345,
      54.60091137743985,
      1760.9106047860603,
      19705550965.60029,
      0.00940620208682861,
      0.07318604659824088,
      2452.9684064263906,
      0.0074149633919991555,
      0.00000898736727531708,
      0.10355239305159228,
      0.00006543668986539817,
      4.938421146105733e-7,
      0.000003282670475605634,
      14.87766089825008,
      573.6544664077777,
      1.5636994196129161,
      3335958.993795831,
      10552.466009963338,
      0.0016082718404071231,
      0.002303712917185061,
      0.000028492758693362198,
      301.20084189867094,
      0.000004206719518583328,
      7.779726190656258e-7,
      0.002133815764151543,
      2.728616145321411e-7,
      0.00016060460434812372,
      0.002361228762312297,
      1.869807235154948e-8,
      0.014191580777754216,
      129889.14824782901,
      15455.456588217883,
      953.9061895892523,
      0.37650817658633506,
      77.19034579082054,
      0.00006263620688965512,
      3.8963336031923114e-7,
      0.0000032293270878913707,
      0.00002498074856378411,
      0.01898526994410191,
      0.5459102692189702,
      1.9603064662217522e-7,
      160.96480650567625,
      0.4537463082698362,
      0.4294293298668582,
      49614.847832253545,
      550.6825569596193,
      0.25849617265715585,
      0.3650686456030516,
      10.29055463816347,
      0.44422636434286183,
      0.002898387704378569,
      0.000008188692076812563,
      0.308036406992546,
      0.004997794148102637,
      7.015869340880786,
      0.03125502511063726,
      2618269.3929531556,
      0.008352841292853666,
      0.08306928329676405,
      0.049882379405197186,
      0.00006810071865606147,
      0.9312040010486831,
      66.24036523109864,
      7.145764242711617e-8,
      0.006445322778236104,
      0.000003796198854054001,
      0.559374603582848,
      0.0855202910967204,
      5.364684523661019e-7,
      0.0015130930705699217,
      450109.81600901973,
      0.000021776575945686288,
      1.5551989224742049,
      0.00040559684618500584,
      0.00013718493228731537,
      0.855721362760807,
      0.000003363832573074682,
      0.07766688277918929,
      17.958671166007115,
      0.000056501902319522804,
      0.04817132884361137,
      1.2228187525274058e-7,
      0.0003698617257180679,
      0.0012981425819975428,
      0.002067660365603481,
      1.4709559966459889,
      2.9066231879238327,
      0.0012194673264417195,
      0.0885859884501722,
      2532051.3186071394,
      0.00001667833487998195,
      45.433915287178046,
      0.0050429474585781614,
      30613.9018668837,
      0.001814954185634854,
      2.0857231360334244e-7,
      0.00005396645929786251,
      0.004829180691645347,
      0.02701623032906555,
      1455.15072650843,
      6.4359331584461674e-9,
      0.03530287588116015,
      0.0000010638072867458731,
      10.848882941595605,
      0.00003055964714193263,
      682438.7170795562,
      1.7363804094309312,
      112434068.51684469,
      0.00001723919153365128,
      10.420483313852841,
      0.00003925868121145717,
      133.67521411487837,
      0.0000013473536312100807,
      154.80569981011976,
      0.034556346530812194,
      0.030583812656962358,
      15.015722638080739,
      0.8635409510414218,
      51.696167968443795,
      1.1362934890608514,
      0.003179548641264357,
      0.0000017406531207373152,
      9.845486120481406e-11,
      0.0037891621336458335,
      0.17274121909772353,
      0.012154125125935906,
      0.7926256887107814,
      0.001492899488486288,
      0.07637027018778887,
      66.79417407999867,
      0.12166828718569611,
      0.00004953851476490919,
      0.000006790251429004223,
      0.0014830407667239965,
      297.51624480978035,
      6.877201803736793e-12,
      6.287937885367198,
      2546.3442849613793,
      0.0003700042936924869,
      0.02402705750423236,
      0.00596075100938516,
      6.836666032135564e-7,
      66.55292811164237,
      0.6160819901166597,
      5132.4233321946585,
      0.0016077163726998368,
      0.20626455308867334,
      0.046639313266826334,
      0.0000073527983232333916,
      93.99633479660312,
      36.7432095764044,
      12.187342700499798,
      0.00011179464338651424,
      6.005889561516677e-7,
      6686.5918439898305,
      0.01567309274352443,
      0.1758187711402641,
      674182.4328414142,
      0.0005462780038224902,
      0.01020470668239888,
      0.0021626161837956836,
      558.7371129564208,
      0.00010856865473312719,
      4.551470645458101e-8,
      161.83515297414516,
      1.9106559557712475,
      0.5701097736714609,
      3.864464547346082,
      3.9516009561001875,
      13.199375595518218,
      0.623284759958952,
      2344714.0473434213,
      4.02114307796256e-9,
      20.591680340248992,
      0.000020015377499098364,
      516.5010862398786,
      0.030032255254915503,
      6.745281577188705e-11,
      5.115698658524393e-11,
      0.0015156591393577625,
      0.000003608144009228718,
      0.00002300166174571047,
      0.16464946205430273,
      0.00000777000872527111,
      0.00007532127026809716,
      0.0009501222694551955,
      0.00002500231142417124,
      56.945528358150014,
      781.8735435553957,
      13703.117801215347,
      259376.1632588877,
      0.0006018224070238045,
      1996.316533478221,
      3.4391043406936004,
      0.04782217880776612,
      0.000026522431427756324,
      27.527665888580234,
      0.024863167009622412,
      0.00012699794777339937,
      2393237.429022545,
      0.5862442534023019,
      0.03659748549191586,
      208.1899963395234,
      637.7258027694373,
      0.00012063784733023333,
      102.29633662884733,
      186.55079387925232,
      0.0009200804913488808,
      24.736688326069313,
      2.7675710118177257,
      0.7630531686054771,
      0.000037736846108541296,
      89608.86231259984,
      0.03820564153746732,
      8.629549316898652e-7,
      0.04564397040350402,
      44.89322763644169,
      3063.3015426965103,
      0.011653969676817245,
      0.0034426279003272335,
      3.8430178888570063,
      1.2903992685092649e-7,
      18842.130616248374,
      0.00005607670271315222,
      0.8279796598271364,
      0.0005856352775332027,
      0.06767027723826188,
      17.92121336506601,
      1.2140380857274746,
      0.000011901765113573607,
      1.1469837662450234e-7,
      0.0021726312637938994,
      0.0029196708264573024,
      148.0631809425311,
      1559144.7947070159,
      0.00011215606716541856,
      0.000056889598828278736,
      0.0005667581388559282,
      0.0059195840028265865,
      0.00015692280310899604,
      114.2020008355925,
      0.00014410758121184458,
      1.6571977605711254,
      0.0000021073196696594467,
      0.000457125813113111,
      1.582456765077977e-7,
      8.628331601499132e-7,
      0.000031955366811136554,
      22561.736479486648,
      9.554492046200754e-11,
      3.191856025188559,
      50.67175261256144,
      9.685771621387837e-11,
      6.329202321109191e-8,
      1147.4119034035662,
      18271.25034587568,
      1.8857871058819655,
      4.070025603383124,
      0.000026005292041442552,
      159.66385129684414,
      24613.752864427843,
      0.0006603203674307316,
      0.0004287062588912601,
      35.092712026399035,
      0.000012291893163086583,
      1470.6588097795307,
      0.004359987761001487,
      0.000014647192153609483,
      17.267229693270973,
      0.0000025004397769670326,
      0.0028766613526662356,
      0.00000259569422428536,
      18.99501542434,
      0.0008597189145157542,
      271.421342651077,
      0.010669679441069906,
      0.0000030554813062387226,
      345.9192501180777,
      2.0910775789274363e-10,
      0.1315621395271075,
      0.000016278715158800302,
      0.00033938770244756466,
      2.374662740741282,
      0.25665368415799644,
      0.0317068276076323,
      0.002140371015133502,
      0.0010175753478390487,
      5232.397820456452,
      487019.39080097096,
      0.029630706443607248,
      0.031266148746836774,
      1.4321448764166573e-9,
      0.000060358944557266645,
      0.008142740757834709,
      3.16065821816838,
      42.707486216402785,
      0.4920554919592664,
      3.626159682835111,
      0.000033526561417519763,
      58.09476820599013,
      0.0077493448417522695,
      0.000006093445930330798,
      0.10861741407660758,
      33.40148729612263,
      1609.942640081546,
      6.80596853375438e-10,
      0.00004302295279094538,
      137.33791988180786,
      1.3252844108774746,
      0.0016256726749846442,
      0.04582841227849156,
      1.1611566233520703,
      0.11811355701656306,
      0.0010832889779984044,
      71.7325983961544,
      6.22858292964364e-7,
      70.25644966101,
      0.03751500503428118,
      8.033270790118798e-9,
      0.08474026133766094,
      3.01994552619209,
      29.15671446906552,
      0.0003609750076440932,
      0.0008435287500437635,
      0.07198008694444989,
      0.00003887411400711887,
      23404.018113294824,
      0.001820346325704858,
      140.45556363346253,
      2236900.1189569063,
      0.020858979675915303,
      7.766158232843998e-7,
      0.0000020745666530401515,
      19.85239543871957,
      46271.63979184771,
      0.0281021622405615,
      0.00014391736261145773,
      1.7561481378488566,
      8.833311632850672,
      51.97740403770907,
      1.0806059885004549,
      0.000025579979966179466,
      144408.29133710978,
      168.08115794442946,
      0.035325966300005535,
      8.294256821933168,
      0.009949691740950636,
      0.00009207028549441357,
      1049.3493239152908,
      0.0000033835680087218733,
      0.0008703293484522493,
      20000.48201003145,
      0.07794851976423273,
      37.6621318473047,
      0.007594119279540287,
      186.28806066997262,
      1203896.4773088566,
      0.5178532548988758,
      1.058027816350605,
      0.3812452194610795,
      24.90340556722305,
      11.377881046698874,
      21.703485124394962,
      0.00017306994667736902,
      0.002660114854547432,
      0.00004945975636204786,
      93.77454348091554,
      0.00020354647450626618,
      0.3909124859598953,
      39.517712408843195,
      1.0499596546096561,
      0.0003650231801957761,
      12267.306220060547,
      64.19110844025742,
      554.8984574145568,
      0.023854168521668793,
      1872.537764652306,
      0.045638701674652796,
      3.3980512045486055e-11,
      6.119595335104603e-7,
      1347.9442869170687,
      0.00024930361810921044,
      163602.51341568917,
      0.004001853065535948,
      0.00006327682133229086,
      1.523634710548305e-7,
      0.000005361502097780929,
      12.557904518508588,
      142.83092607126724,
      0.002110358702791641,
      0.000008187445503968161,
      4.815599074975761,
      53899673.397924736,
      248.88738713454734,
      0.003396427354814338,
      276.1704125643808,
      5.21916619590336,
      5.578854636458099,
      2656.858218082522,
      3.2103497925710593,
      3.328301882817866,
      14.885804708326544,
      0.30075584236519415,
      37903.16962934809,
      10.541271488775529,
      4950.066892913595,
      7.843621373223025,
      1.1381425462375871,
      18.16315396970827,
      39.83448015435853,
      0.09767203244284388,
      0.000007088488418230727,
      0.00006400495292570394,
      0.05457980465718595,
      6.551081086490395,
      25.080657696230716,
      11.074285908823205,
      2.5680324701282026e-9,
      0.3381707297936572,
      0.015030212732026404,
      0.0013393131499497702,
      0.000028447298699347094,
      885.4777896620076,
      6946.799524060154,
      0.0678292787661463,
      0.00012153025688711573,
      0.000002537485253959921,
      1438.5886653077253,
      4.7103444989440355,
      0.026372431659405466,
      0.958654106694801,
      0.34857016532060797,
      0.0016172879678430117,
      0.000031769495336555126,
      0.06603643314964289,
      0.03149190161056328,
      0.075955709736833,
      0.06862617480013813,
      291206.9191663092,
      0.00003302926426311099,
      4.316109025489455e-7,
      93.94804620490845,
      1.9590251844972847e-9,
      0.000039810131819327284,
      0.03295899531602206,
      261.9572396902901,
      0.08006346255616839,
      5.879180920461685e-7,
      0.00002407539790008401,
      883.1668137619179,
      19175.06602001186,
      0.0000017607496853950749,
      0.000052079027523601095,
      22.482832615913026,
      0.00376232378451805,
      1.71571045007569,
      6.628873272949021e-12,
      3.377699217088253,
      867.1753304698848,
      5.772303350099116e-8,
      0.17563930194295116,
      4.0982671993027155,
      0.9111076169672577,
      13781.074177286915,
      1.415182674879105,
      0.00005724030475383173,
      2.612524025640776,
      0.000002475176947209811,
      0.0004635036651707352,
      0.010712092346173768,
      4759.653063686345,
      0.03284445079576294,
      95.89268639376834,
      5.821712894928974e-7,
      0.0000028957311109019135,
      0.08531635668240399,
      0.00014064644818771697,
      0.0132119827927515,
      14.002134959840028,
      0.007288747790594526,
      3.9241123236349216,
      0.0014826162414526888,
      2236.536822044819,
      19906.86218874319,
      27.573633931073264,
      0.000026814134465259763,
      0.8458423688024628,
      0.003407394459877261,
      0.00393045637995502,
      1164.3686106839273,
      4.092726760540084,
      1.3927570073974131,
      2.9019845095681616,
      0.25616624237240776,
      1.7146029342003175,
      0.006640419146182702,
      0.009950114469325418,
      7.306194049032391e-11,
      7854.686629934016,
      0.002706590579872891,
      8.015426100257863e-10,
      0.4629246148598401,
      0.000004496952316403264,
      7.057446033790841e-8,
      74.609569491071,
      2.2729919667828199e-7,
      2.031175372591424,
      0.0004654313433695157,
      0.000001450712111548598,
      126.20626341739072,
      30448.133228384206,
      2.732406991376825,
      46351.94522426503,
      0.0020493551794850302,
      0.028736841365092202,
      701.2798526333473,
      7.127952861899309e-9,
      51784.267987431165,
      2946.937615694996,
      347.81422861675446,
      0.2784454597809822,
      0.0000094598225363592,
      68.57766561871291,
      0.0010463548195876688,
      0.022348012530775303,
      21.421006333637223,
      0.0006350858331804022,
      0.0001807696867676788,
      0.000016331295704031726,
      4.295881900523826e-7,
      0.14018137559614222,
      15.36633686273964,
      781.1423692561153,
      127.40966064421619,
      0.3988003560893028,
      12.784804370351214,
      2980.524574892135,
      74.51184998574,
      3.31134273297094e-7,
      0.02909181865675539,
      0.0033306040239460656,
      0.0003617860262909455,
      0.00004638797905130592,
      5.42542834452039,
      44.14003311002826,
      1.325393958972762e-10,
      2.044570773230656e-7,
      0.000012015516418873965,
      0.00014982932699469982,
      31.794597824266624,
      1.0798661253065296,
      0.0008600198029600357,
      0.005573199992002655,
      0.00003932117321190049,
      1.5649735895644175,
      236376.8200615305,
      0.016152008187122115,
      32.48815410902339,
      1360.4332344556706,
      0.2530584857600095,
      9.77832124405093e-12,
      0.015366812084432312,
      0.0044929367085335846,
      0.08848574465215378,
      0.00008982431913546615,
      17.770950245355156,
      356814.43713411456,
      21.06738093802927,
      2.129038298947445,
      7.1643563295386405,
      2293.302575770279,
      295905.4574183656,
      0.0003670793842496955,
      0.000042874109277640034,
      113.6602954198183,
      0.0001047804552483243,
      0.020620144622377903,
      0.0000034872619162378765,
      0.019896280076590504,
      0.022449565834032566,
      0.5573298075839501,
      19.408827253808752,
      0.000043857832148685216,
      0.0004486184959685649,
      2.3570993613494748e-7,
      0.4527269575773989,
      1123.8907970755974,
      2.819337283866443e-9,
      62.167791379352714,
      2052.2134466745565,
      990.7237213544445,
      0.000012159801757978105,
      8.939140551732713,
      6.700198387401376e-11,
      44.50775210390419,
      132.76520894543887,
      318.8345477971647,
      0.010450688582145493,
      0.04248430934303087,
      0.000003405313275017884,
      1.017983657072141e-7,
      3.572915737121436,
      6.527925529630757,
      0.00016131333380529426,
      449.35362314891444,
      0.000004578529851439361,
      0.008341778683745749,
      2.9183846332921644e-7,
      4.431819562217279e-7,
      0.009048205457883676,
      0.018391308442305326,
      23.512006297350215,
      1520.426462929197,
      0.0015425513080154134,
      1.4737158940877975,
      0.000053202730084845935,
      0.0000010025378573977177,
      0.1482259587599263,
      0.00010400137372645649,
      8433692.303568853,
      0.6034064987037842,
      3.132843204798227e-7,
      945723.9134156961,
      0.06391278522915302,
      93.85579686498758,
      2.1415529618867724,
      0.39740989986126096,
      0.0000057047563118391145,
      0.005569825021135621,
      0.000012592666360347483,
      249597.11053493686,
      50507.38380088699,
      0.05379089400634832,
      490618.2972017158,
      0.00000139081045201287,
      0.004815179191243414,
      0.22885934652840398,
      0.0000711266993045898,
      1.241422470140003e-7,
      0.00035805009695932685,
      0.18829105834595597,
      8.029472960837326e-7,
      0.0007914079142383365,
      0.00038164129187099363,
      0.0000033987955831160674,
      0.0002986500149407741,
      531.1862727005874,
      0.0007493362103184977,
      0.05582890447330735,
      0.05008728793142564,
      0.049727437619034545,
      0.0008210304067408278,
      0.0009392788953234312,
      9.00584935861262e-12,
      41.22818038435197,
      0.3487364887333313,
      0.0000018613020194024792,
      674.850025958032,
      6.901976382117836e-7,
      0.0000034256813916128597,
      1.1279966362676723,
      0.000003014135297794546,
      0.000056699062612780426,
      0.001097769441734474,
      9.135291580644223,
      6.345717097986064,
      0.1044445292619005,
      10.254337086497145,
      0.000018531096704254243,
      0.16464509984429385,
      0.00019895245119090385,
      0.00857057069506324,
      0.6363955206281855,
      0.26106140664723715,
      0.0001089527187317291,
      9.89438221489252,
      0.655892987470964,
      0.000016356088203219285,
      4.584364737280044,
      3.6318582013716516,
      0.06612214566365815,
      0.00011143370448627817,
      0.38633374747389837,
      0.012024279718968314,
      2.479939996463176e-11,
      0.0007696000523601456,
      1.6292541075725231e-10,
      2.446689510077124e-7,
      0.00027751122303839676,
      0.4565385184785053,
      10.311758527077812,
      5.291956092608572,
      0.007174691913146524,
      7.521371962433885,
      0.10220215147875046,
      0.000796780283106264,
      1.8420241962643817,
      3603.68732530973,
      0.020783897233977815,
      0.9506200962496567,
      0.0019611513957574524,
      0.009859600170342533,
      0.19607173540543232,
      1153.8515486308916,
      0.6068677712903265,
      0.04677812697035996,
      1.5693038759777194,
      275.1405812011848,
      1.99146405626311,
      5.9503567821905325e-9,
      0.00010814823571335833,
      0.023159105831191133,
      2.5364445658987137e-7,
      168.2845634768014,
      0.1404418035921735,
      0.00012132783454864289,
      0.028588713587713817,
      483.7945168473284,
      0.0004200470496527769,
      117.65145903796157,
      212378.77271022025,
      13.08590554396071,
      9.351786343048089e-7,
      1.2840016380614135e-8,
      0.00021926829575011423,
      0.01672511742045429,
      0.000012633167520225262,
      558.2097982021802,
      0.7738972765382852,
      0.00457127701343966,
      0.000009600086840981473,
      0.00007326840511579442,
      4574540.732904985,
      0.1609100447363534,
      1128.027558436561,
      41038.405362884914,
      0.0004683829833324584,
      0.00009845561206325833,
      0.0004593269779839506,
      597215.8984265659,
      722.6043579685609,
      0.10428985777263501,
      94.39115472035844,
      0.10721988636203324,
      0.00006745464998837495,
      0.005140195673307907,
      0.00009211132260762842,
      0.0000029009063170100822,
      48.23629541037211,
      0.21934740678213618,
      1.6040632709296094,
      0.010836988587996307,
      0.00039432639415359623,
      0.009384432951559135,
      0.000006057351360640094,
      0.07424754834746611,
      0.000008699253561278274,
      7.898589309112316e-9,
      0.016707293108327897,
      0.056814893722232876,
      0.0000777971614620391,
      122.36962604771682,
      0.7273870446326646,
      0.13990909324031742,
      0.00003128259726865341,
      54.25581974923641,
      6.204687575613171,
      602727.6072818494,
      0.00012442723612023603,
      10.306037390856991,
      0.0676184940526201,
      14672.199470811776,
      2699.178588950838,
      0.000012941744321201931,
      0.0000030191631132311474,
      974.0785531617224,
      10.133876343369709,
      0.000001131227503759751,
      6.79412778569967e-7,
      60.209085541855316,
      99.85159441493049,
      0.035525162931230876,
      0.06744166320317586,
      1.6540999700197713e-8,
      15206.245695992693,
      5.973479028342889e-7,
      0.001101096689506053,
      1.971424139997972e-7,
      0.000004382678362866838,
      7.442834424903074e-9,
      0.0020854091360896355,
      0.00004637351716278296,
      0.0000674768288456878,
      313.23913970449826,
      556.9844491436907,
      4.495931501652704,
      0.00007200690770854466,
      33300.961674156184,
      0.0016003603786798653,
      0.04169010362131857,
      0.6843881897273898,
      1.1436617748272789e-8,
      0.000031961043149104096,
      0.0000667008386060364,
      0.00023441266816597104,
      0.008367056766127376,
      2.033989769106439,
      6.338535943723308e-9,
      12364.981023911703,
      0.24817193261241283,
      0.000898657159635313,
      65.06862621357696,
      0.00008952040699911022,
      795.9072801218645,
      0.9132085432204591,
      346.6260294347492,
      0.00000980757921574321,
      1933971.8115675107,
      0.27121603437348696,
      1.7559727948762306e-7,
      350.9890084436036,
      6.723662874787297,
      0.0103926320487785,
      2000.3795719923398,
      0.000009697213110723677,
      0.584389333313335,
      0.000015901820655750985,
      29.031792343290373,
      16863.915009633594,
      3.044839461976378,
      3.2299787238766076,
      3065.2203411986075,
      31.232097494880204,
      0.22881481207530566,
      0.04752166478232539,
      0.000014875666918169874,
      0.001328775338024162,
      0.0000020842709339049548,
      0.00006489969613830926,
      6.857095063021568e-11,
      1.805730214107329e-8,
      0.0011827968696999612,
      0.0000020029913267055516,
      0.00006515250552825214,
      0.0035968003068056506,
      0.00004922219167956045,
      0.00022979668633161222,
      0.000005524379102645095,
      0.23280096273282747,
      0.00045376408849409503,
      0.0003513057263528656,
      2.021102840107107,
      1.4024991064200245,
      1616.423922794217,
      0.000001923560944719176,
      0.00022154167453147352,
      59122.58413699251,
      0.0000027364286157065605,
      2.568161475640921e-7,
      0.0008435499456368109,
      12872.230153426535,
      844.3818558515322,
      8.240275849985421,
      0.000014677662081764325,
      0.0000033307055932697046,
      69938.2954455235,
      185.6730293699691,
      0.000005108612539489937,
      1.187150983749257,
      0.055424270704866545,
      1.9505692983952252e-7,
      427160.0377166636,
      359514.79545115045,
      45.213120850646455,
      1.7897993963744118e-7,
      0.42042345815132826,
      0.0022000853712112185,
      3.2751474599905204,
      2068411.9167579203,
      1.9891670898167924,
      0.2697173154290608,
      0.6645579162596374,
      1.6832405521299545,
      0.0011405049555664598,
      0.006068396971904104,
      37.73537169824633,
      332395.12086097756,
      0.000009433210782956925,
      147.43150489570291,
      0.0011244273703626315,
      2.8176749846361253,
      4.7090883807607266e-7,
      312.9031532076241,
      0.31764072424667095,
      1.8943853915527034,
      0.00033211801927774575,
      145.3119891465221,
      0.18279278457430492,
      0.00016770591182185045,
      0.0005704708230725973
    ]
  },
  {
    "Name": "oay/lnc",
    "Parent": "",
    "Age": 0,
    "Gen": 6011,
    "Net": {
      "Layers": [
        32,
        40,
        10,
        1
      ],
      "Weights": [
        63.81044918926945,
        27701.1554286956,
        43.901798063321166,
        -4247.496163066964,
        4959.740495650734,
        -0.8735100387593142,
        1.4940640858500476,
        934.8415797546082,
        -0.24457525420750886,
        -175.58178837144132,
        606842.0547972188,
        -5.172653557018095,
        -3.853249763897701,
        -1.6950544026730177,
        642503.6715692016,
        -2.755751522288794,
        63469783.85506748,
        -8072.213504171654,
        21.06141951967163,
        323723348059.4212,
        -566368184.9684259,
        1345.2252087106103,
        -1035.1349091716393,
        -588.9784435609502,
        208859.33238943387,
        -14.315877914608816,
        721.5686443442793,
        5.63813697119452,
        -0.04044411180399229,
        -8899.266457167638,
        -2314.3459609598517,
        -77848369.58736622,
        0.331060098344104,
        -9217.935540098639,
        148398.62697286162,
        0.40867559057369035,
        -0.9497266307235329,
        -4.112580379782382,
        -416.59963468018935,
        -0.3537713040038176,
        -12.6109872936321,
        -1868249.6680382078,
        -108.02329883959013,
        -0.05221678136820012,
        -30719.722947193655,
        203096.0572744538,
        12.551612490487031,
        -2170493994.037372,
        6.202197680723402,
        15.456492541160932,
        -6.1453996176149515,
        -7368805.53489696,
        2.692155666323306,
        -101.25936471325291,
        6102078.648078957,
        -5.201071403166646,
        -0.8168605428722598,
        536.7982185535234,
        457538.1521935226,
        -2583.7843076087656,
        4.141886816760561,
        72.81550592596733,
        99684.47727570782,
        -11180.596330894043,
        -8.968876019497587,
        -1453513.2483533854,
        -20.451187931760238,
        0.5972085690724948,
        1.683312818663949,
        -0.5646163065813549,
        21.880774263091087,
        -2198.7094388769756,
        -12.668311038873137,
        0.9932676693562799,
        -14.048014902777808,
        2622.265596319254,
        1030.334368281651,
        4.839889711559819,
        -65.84970887790334,
        0.9267241844325299,
        -8939.29701830151,
        24237.297650420493,
        -21436.193504851824,
        -0.5493806245959378,
        -1655.727244568959,
        -4723945.163708103,
        -34.08109243085838,
        -0.01883167104384548,
        8.875578706487385,
        444268145018.2969,
        -7.685298151703351,
        2.601286472347413,
        2501.9555928213263,
        -9934.930465963804,
        147.85548978400476,
        -433.3801875584224,
        -2003702.4015623005,
        0.9891956328290821,
        65574.97852298671,
        20855.773982118986,
        122672.8922416671,
        670.726186528956,
