[{"Name":"puh","Parent":"wise","Age":1,"Gen":35,"Net":{"Layers":[128,1],"Weights":[0.17237799193343822,-0.3216773664541049,0.13203944299892303,0.6471871557357552,0.4506395958319822,0.6663190596000217,0.19601294132966365,0.3082932898357048,0.8266559424920108,0.8980278857564553,-0.11656449497722202,-0.5187330448829521,0.6883100019549536,-0.37129544269772247,-0.4438075188871671,-0.4386876712330982,0.5135575395804145,-0.8095890200166015,0.2289512635911622,-0.44280299056033084,-0.3592362562646253,-1.54972346384639,5.21511903755038,-0.39416029896333893,-1.076152313579662,-0.642431203254688,0.9836062640493088,-0.12707664659509227,0.2444158202577001,0.9310075656962695,1.4274818473103057,-0.9384673154199672,-2.5492345589638776,-0.49377854532486737,-0.8513529274225842,-0.23233030926597648,-0.7868460147330243,-0.9189193462669643,0.4105700070949794,-0.90388989458175,1.110731011159573,-0.6781112531213503,-1.0634514463119715,-0.34087543137327037,-1.570415465999873,1.1272010085683155,-0.08185327473134504,1.1845914374028732,0.9841580022041968,-0.9030020790081635,0.5264738151421011,-0.7393476715078129,0.3544084968692813,-0.19682910452686575,0.9567801461727777,-1.2176579206171596,-0.022874916045211774,-0.16670850920974495,-0.946619601698216,0.7646598482578187,-0.7351471998773083,-0.22538093106957352,-0.5653696370799767,-0.03080944019408272,-0.5856889710915414,0.8906589424566154,0.12487685512616545,-0.7599092998038343,0.6412398239836603,0.8161670657357712,0.3873115586859888,-0.04987934184894173,-0.3718277195333584,0.8952180927878892,0.6407285264119772,-0.4091161464369324,0.6031330388355477,-0.49580943201527106,-0.7611289698550839,1.9839069817556065,-1.5379155246917235,0.10202603211804777,-0.2795647085526153,0.4518065648506017,-0.2713943304957108,-1.6451044061330977,-0.9651295896995787,-0.7801705632517133,-0.9675009808195892,0.9981219635413986,-0.4719441007940221,1.1268327501553201,-1.0937091314105343,-1.4954157655648048,0.7962563962750401,-0.607141993284819,-0.18331333124762125,0.20691290318299949,-0.24492416646471837,0.8804456060452381,-0.6729597302409873,0.039345598698656906,0.5829525345183703,0.649622496109598,-0.4298398245041395,-1.129768200470569,0.43354810277372596,0.5009191416221211,-0.6813830499989975,-1.089474837568451,0.9103736896627342,-0.4728562892887228,-0.9839160796997396,-0.499551529546555,-0.6516673960164794,0.9793137396540973,-0.21986093479602464,-0.026653770293062748,0.4424889827810957,-0.3517275513387494,-1.9041451098516877,0.4517502033366252,0.5298722789469748,0.2607479095966602,-1.1989308955456803,0.7229593871324103,0.8416956894982115,0.5669481658383503],"Biases":[1.6742223938021499],"NodesLen":129},"Score":0,"Wins":0,"Losses":0,"Draws":0,"Sigma":[0.006798349008982327,0.025351225060736497,0.021199209173065683,0.05698155121743313,0.04215472283475248,0.16901978062996342,0.11127136924191604,0.020200580111451743,0.004724339808014733,0.12169341904164789,0.0032359939058536997,0.019842032215707548,0.07396023914694844,0.16406187638097228,0.1646273970551577,0.2554567909828766,0.013023620489780258,0.04466221397093805,0.01966091637599961,0.03504755168729301,0.11314520482082209,0.16216488758080944,0.8300826182480066,0.0052270034389381,0.033596471033422635,0.0036820126585460195,0.23735491749715767,0.017352794077708344,0.012442025808561413,0.13011861926620874,0.19717200825978673,0.011291101421757408,0.2659141404832831,0.06764674752435883,0.037592950286868064,0.005748026722850426,0.06670653170337851,0.10659408547202019,0.11743277781952866,0.018703858425363058,0.009228695081631903,0.0674360806323481,0.11257939095724526,0.11252497218855605,0.42169632530324413,0.17676272671760912,0.08496561091936908,0.07285552587746653,0.06931462188134743,0.012384610273349441,0.02319950723968319,0.08735418060988079,0.06320283160836891,0.04488444363135317,0.046880127578196186,0.028152735115221456,0.018145208893000263,0.002619995539458171,0.028296446021431106,0.07882859796838643,0.042321979870676506,0.2270508202251017,0.10871432079392464,0.017735349592659724,0.0057388946820843304,0.013002655190906015,0.012912474268857613,0.010817557319168796,0.008898090467980704,0.03035303724677825,0.008834477453387913,0.059745750084486675,0.06558899087000945,0.10100956270640248,0.03071668188861137,0.028178701691589488,0.01752170979534781,0.0175901044467634,0.03392611485948279,0.17142374522122922,0.2688732773776678,0.006775133367058043,0.08922843063279676,0.02754031535783617,0.04132571087096474,0.22248682109719864,0.004701156904283932,0.0741723494933904,0.010925372731002806,0.035927270612421035,0.004890448644386672,0.05613341538183937,0.33605707952194536,0.182725903476503,0.023048357938760273,0.07785819387780797,0.01431339081617796,0.042048836015417895,0.023470249790487115,0.12179482863427721,0.21829870156859132,0.06867521705815238,0.03084054946853972,0.026400026084605403,0.20330495318366404,0.47116204517898325,0.20140852443178642,0.014831555716512266,0.06003151981207428,0.011029441462738165,0.3500767148293364,0.05609681220497224,0.00477324769125857,0.019679967782771608,0.006348866679318975,0.005179184710997659,0.008401113643453278,0.02858488754159688,0.10220386901248159,0.011884107089480907,0.4789721309789189,0.032292246403403425,0.023365350325892775,0.40742014511012786,0.10632267242093912,0.37296615825847834,0.19989856871835374,0.08572209649696348,0.08300793911446482]},{"Name":"gaci","Parent":"curaq","Age":1,"Gen":35,"Net":{"Layers":[128,1],"Weights":[0.2509492870002102,-0.40959517953007085,-0.02460863994995109,0.4331180967000325,0.38742507408409294,-0.6799163622992412,0.2333061474469212,0.3720800544294312,0.8228314510121084,0.04871620214258468,-0.08159194203276646,-0.1706336919016489,0.6727655733727953,-1.3455058777697353,-0.5250066018842905,-0.029063633871441286,0.5036576815971093,-0.624939901320796,0.3362814285723274,-0.28009307911167414,-0.15005212752875774,-1.055000830923718,6.928003386119204,-0.37899351565810335,-0.9156947702738345,-0.559051495471813,0.7650771808429471,-0.13005199317656768,0.201014275661601,0.6631458555868539,1.3420998960583943,-0.8772408167113681,-1.4033145947690113,-0.5783734952245667,-0.9308401256792161,-0.22029129123463898,-0.8248185927714399,-0.9915571596052517,1.0100676395173875,-0.9232594555940058,1.131075942351877,-0.4508005757987765,-0.8939053457437723,0.20480595295528772,-3.0758997656850964,0.3913437949224369,-0.44147628396206196,1.1009708185319498,0.9783476419458685,-0.9318222797471619,0.5064742676828244,-0.7757307910770983,-0.13924769695260664,0.22907189890034615,1.0091829668145473,-1.3801059293216418,0.025368469980377905,-0.13929316695197366,-0.846837402225917,0.7979974619647945,-0.8516639628800026,-1.210649603447369,-0.8616019544489414,0.09336673730977355,-0.5940622912419019,0.8090015554582901,0.146554336646672,-0.7762702114293466,0.7214653253156658,0.7047535720332121,0.37100068772486555,0.008143744934652572,0.3108198978044887,-0.0638351516679427,0.40293590796681794,-0.37024486319567174,0.7679008394906172,-0.5740722294055253,-1.1309139072629801,1.4505863461854902,-2.7594322871538273,0.10229510406866678,0.07393991384240323,0.3490815261527664,-0.3531178619535029,-4.189562877412754,-0.9426803114324647,-0.04176477000893515,-0.9061860132922779,1.2756222558270347,-0.46225612938772864,1.1875198898775392,-0.5475759905713307,-1.0009661423124812,0.7486927450231454,-0.39267911141119943,-0.13313728531504235,0.17420695809677117,-0.18576019377738218,1.2088469016352288,-0.4136671879673538,0.021123995810112536,0.7090049471693844,0.5817533945536961,-0.15798856783956622,-1.5446005405214607,0.22907927541762407,0.6222288984576352,-0.18340041888937472,-1.1135973801833228,-0.012826386076330229,-1.1030388925754742,-0.9988526904462689,-0.35022033685165893,-0.6802901780295796,1.0308488256113353,-0.3119129961243964,-0.38047243635605715,0.22935027194655408,-0.40246339452283336,-2.643152836067828,0.3668144190618191,0.6169256862862198,-0.25082958037084335,-1.4219402135704629,1.1955030138546563,0.6051443747691113,0.3418678607079056],"Biases":[1.5309689636662982],"NodesLen":129},"Score":0,"Wins":0,"Losses":0,"Draws":0,"Sigma":[0.00900289699495913,0.008467239521218223,0.01663527631958542,0.05095735338619717,0.035605611932714144,0.2263145395994751,0.026708864758107003,0.01674044164649676,0.012576486905974312,0.16994770184091307,0.003733395521104409,0.039184916794466215,0.1651706927925263,0.14410474107104554,0.14368129081183875,0.12998385894639447,0.002179389097000788,0.1686945336016328,0.03073587803915092,0.05681189753585623,0.04102444558385996,0.11058360236551906,0.9909173133009507,0.0120977449477782,0.0886816284651086,0.011015714870804088,0.15841997218885814,0.005856023133596673,0.010221758441474847,0.13354002509984989,0.20438570603574172,0.006501368206557466,0.09990659047683756,0.029105189525492185,0.023452779146347323,0.003097938488755876,0.06730316978677116,0.0814129874327425,0.09001761086601727,0.03256793881194918,0.023179784574114397,0.036329231059735956,0.040915054243958755,0.25588802316660914,0.8467405312215269,0.033475741300583145,0.12781196180990437,0.046081462575947196,0.05632456079906653,0.010185708873061706,0.03855671484695186,0.06978854715017002,0.33642759715226916,0.13564381012942311,0.022035181397734284,0.07461110424926282,0.00924249306480844,0.005023454220721039,0.07559446602893359,0.21183874120460197,0.0595385229637701,0.250805957208205,0.15201396367997394,0.03900155080960259,0.006551811339168731,0.00514957118849731,0.046577493229044135,0.007204423031664352,0.03112988761600456,0.02153848974531236,0.0024656323101957373,0.027713794985890747,0.06092162210172822,0.15737075226935915,0.04384903779090577,0.03261846151282432,0.019307179460867015,0.01656402600676302,0.1969885268407272,0.0647760605766994,0.3288267374082856,0.010789322265348603,0.09520567491750381,0.018017594580180048,0.033380656327385884,0.65958959712402,0.00436567976478854,0.05484958430711458,0.008832192376934313,0.08475102465583116,0.010723834610887484,0.09852877802005329,0.2689844045197436,0.2069741521728792,0.0330803510217523,0.1346392031246836,0.04259393555675272,0.037981620355952005,0.06799919941117807,0.0742686925374284,0.31656518032184117,0.07214582447106632,0.0265527577175236,0.0383945547526949,0.24365939559741173,0.2337128640328831,0.4805403917772432,0.028505678731589535,0.03855531328819371,0.06854341226211862,0.19935289688979457,0.11783317087610055,0.015052176046805693,0.023256897938077788,0.007754416225839555,0.02300873780352811,0.02116567329481661,0.06579940344816068,0.07991593838582246,0.006596619428871045,0.19397172722925682,0.047053895582689395,0.030344339280225334,0.2071972472832366,0.04350191890593007,0.2730523937073319,0.021635151739042156,0.026234488920625028,0.11131903939031496]},{"Name":"dyzo","Parent":"foxot","Age":1,"Gen":32,"Net":{"Layers":[128,1],"Weights":[0.2502178898317809,-0.5766934079067014,0.041012972704728534,0.6094609704788368,0.3927072939040406,0.4349730232728531,0.20233463941311058,0.3869389036038457,0.8403677527338814,0.6291068517604242,-0.10447604197541958,-0.340225413877839,0.9496941174647046,-0.5471064138564959,-0.1987087212667631,0.18167477032472917,0.4941539564309972,-0.6715150572834451,0.4052752730059599,-0.3021762661245003,-0.015998469432381326,-1.0435518581753433,5.101192327017043,-0.37931037348467567,-0.8690129643794545,-0.6228020615296622,-0.005226424566983745,-0.11692293872038441,0.25973522533147353,0.7818037545795153,1.428118666833615,-0.9171367254099845,-1.9566931707799284,-0.4742857139336496,-0.7147510968994296,-0.23913630646380077,-0.7261508594684059,-0.9054286657547564,0.6954963639220565,-0.848481390737245,1.0859576253435002,-0.22611120952946787,-1.203647977418225,-0.3755460864253208,-1.306122722383172,0.7066099785651434,0.07673441630530041,0.6162603897623624,1.1544436780050518,-0.9146604932259643,0.43473589348262215,-0.9350459160351616,-0.024268565022091827,-0.3522526710712851,0.9875236063891775,-1.1680609775119384,-0.017718117299757176,-0.15051300113355584,-0.7749686683069698,0.8337728553368376,-0.8151014892890874,-1.6197819673888152,-0.6283338159850329,0.008929469319711753,-0.5920677526635322,0.8653047255546704,0.03148662962746262,-0.7678150856089526,0.6735966435500493,0.7645668300271241,0.38119945416027456,-0.026398420561059174,0.17390279789580323,0.18181755611222253,0.5032116477625789,-0.3266476332140051,0.7515099530849235,-0.559395635716631,-0.8678944531303904,1.3081136026506297,-1.731894950324695,0.06825754295524698,-0.1142265077960764,0.3800757049337815,-0.19840732609924347,-2.589073450200985,-0.9503934140022338,0.0007399621171680082,-0.9521396358373199,0.8585399871706703,-0.4429404386103266,1.0184779839142868,-1.7977936846004368,-1.5148840431271555,0.8049065987215035,-0.6313795703518247,-0.11003860223968057,0.07562737323238461,-0.29561005574569776,1.28074211627314,-0.2840087933563994,0.030770967626079754,0.6766818395496154,0.6643291319451529,0.4841228319732762,-1.1053236714865344,-0.3306702908646616,0.5221933274490915,-0.21754461112690668,-1.0727199131770178,-0.10536992432777262,-0.4772356261706509,-0.9694332998662437,-0.5434291318602906,-0.6899214724944119,1.021632069574766,-0.1495438912819978,-0.16403968347078807,0.45588570262262246,-0.40707319314413415,-2.551598700628603,0.4153839696296647,0.5374662262305618,0.9048557437412479,-1.2639001670818852,0.42653361583879423,0.7981262053957863,0.3527469817366145],"Biases":[1.1535869183834517],"NodesLen":129},"Score":0,"Wins":0,"Losses":0,"Draws":0,"Sigma":[0.007426892401591226,0.04077789234942758,0.009789264866170353,0.04005654627920802,0.0156682209841737,0.17300844311195362,0.07083823399650153,0.012255553651316857,0.005409260594131324,0.11408649547947171,0.004465553920540219,0.05218894378572986,0.14064540902571745,0.3690007764817946,0.0625710102198463,0.1168532752788499,0.0031485109990838315,0.1005946248547978,0.057835772054598826,0.022307319226877502,0.03703368175391567,0.16424104250392266,0.3811093879000852,0.006851191321786949,0.0460515997480567,0.011038774508813218,0.1239446087668225,0.01392289328292338,0.007608184375083532,0.09622382281912903,0.13274123540985433,0.016913067528835667,0.11664088007732466,0.04846423897458759,0.03825095695045898,0.005144384484770588,0.03518240740394653,0.04820395417474775,0.07596363663481294,0.017942223678784765,0.008106292806124866,0.03519140620674155,0.12305965938404576,0.17173461164014087,0.45146533521547333,0.08520146760361753,0.08965229392883012,0.07916474621358457,0.05301239219277466,0.027935361408155602,0.02507427859013184,0.0357269997704856,0.07723919483991011,0.06153848100823425,0.01933727340493495,0.04150057959419539,0.018562348237959627,0.005972628214442831,0.05487742808707419,0.11291916172978131,0.11477851819985929,0.25070994653754963,0.15183530636777628,0.02245935304355231,0.00493229722073939,0.007108696654988804,0.025293267753584536,0.0044667165969161276,0.01536215279904381,0.03653220350189249,0.0021405877265298595,0.03808304384644103,0.14016472597600058,0.18677945685247813,0.015331484065097262,0.04254736912833823,0.013901592644850781,0.00713606281484927,0.028807759416297558,0.055743387147823606,0.3301294800651038,0.015385899957003348,0.062170207684124915,0.010535955265621568,0.06129023300007082,0.3754729708820798,0.008877938061541274,0.08674268599081335,0.013096742993008378,0.11191417660787881,0.014516932101330553,0.07575838456392145,0.44907040965952105,0.1943964894830542,0.03139119142190228,0.10956757946327186,0.017734591953957796,0.04258365171211281,0.03651475996706907,0.1446601311211083,0.1802583148351205,0.10615064693873702,0.053531751781822165,0.0227592265456353,0.1709032714218321,0.23056854623061082,0.8182554353086654,0.017341587688030714,0.08085255431248473,0.023090980760510065,0.06249436241307313,0.08628194781914988,0.007123876283882312,0.062177222431227454,0.007353131508061895,0.004144216555301709,0.02219550580982714,0.09596580117748223,0.2052306617200636,0.009129927392089251,0.37062011828046776,0.023030002612842798,0.022531189322018877,0.16347320317670433,0.06844315349403592,0.1680727723751531,0.12986385564999645,0.02146200602639508,0.07032842677991305]},{"Name":"bovy","Parent":"pozo","Age":3,"Gen":28,"Net":{"Layers":[128,1],"Weights":[0.20785051770278873,-0.2206623705122825,-0.07597978368901788,0.3684676458864067,0.2955263575196183,0.32141630485518136,0.6977457564966496,0.40004509566289675,0.8551730038430526,0.6459106729854249,-0.10742399611271777,-0.0780769665469247,0.4543357773408476,0.02033013008525384,0.7583420256856869,0.649989678122951,0.502112955662936,-0.599218249642208,0.22374070927132156,-0.4366372224375103,0.2866961277641975,-1.2520582217986322,3.655783034480624,-0.37747613005480946,-0.9442309280569784,-0.6389908814920796,-0.06804297078404234,-0.15661026139249187,0.2332720876515817,0.5012427607926189,0.31122419646340127,-0.8836659171548725,-0.8933344320974116,-0.5153404372123838,-0.6285497238902572,-0.17901277000320395,-0.7698334219564928,-0.7311173557667721,0.4103705140728352,-0.9499550353940439,1.1315156580135006,-0.3497897122286414,-0.8865492133885158,-0.48515634595510415,-0.5815342776693666,1.1303802272046004,-0.0015930274834489513,0.8854839089143134,0.8719904473676517,-0.8747789883744406,0.5169263065424505,-0.7942174839927728,-0.35174571225951656,-0.6316433481728904,0.9863120760691302,-1.051485010872541,0.05335840252995942,-0.14565346019809658,-0.8678481500537223,1.0842619204733406,-1.0220470432089002,0.6093112093173677,-0.22976118879898993,-0.1161977758340409,-0.5609624990420112,0.8556806297159452,0.15419212803321414,-0.7458138938758183,0.7031018158456587,0.5984494720119379,0.3800540484484607,0.20835282365293256,-0.1767674129456171,-0.05871639859250319,0.4947176061401288,-0.4782507214790954,0.46690862641724984,-0.5469049532283795,-0.6929847626933793,1.4828809321164507,-1.6205817352699627,0.15028159069508215,-0.1327495027834405,0.31210134527915645,-0.38207573141971923,-2.502062296893167,-0.9210002613600395,-0.3187263447319081,-1.191076319052224,1.0745206243499115,-0.38258494911378027,0.7398140176360561,-0.6076674066871729,-0.7452744656442334,0.8493412544126526,-0.6810517178011088,0.07848290135556725,0.1334467291652491,-0.3487267649246532,0.655333785585525,-0.1342098502050597,-0.2418678220705761,0.7194671253061441,0.41278611458848635,-0.06794989765781752,-0.7959079670149759,0.2684026992408429,0.5025336731974116,-0.5563843210639319,-1.040141244328376,0.26068954181629006,-0.4875056844893785,-0.9581263360089781,-0.45846755433163394,-0.6102750280913768,1.0936863840834021,-0.1569312961520427,-0.2393084190532692,-0.21692280277031026,-0.41660455023273246,-1.8306475184826938,0.27925420505381604,0.4909245792976303,-0.06849163251956084,-1.249253256204425,0.8058099884206018,0.6780418932065061,0.5044708460212235],"Biases":[0.7903188435047204],"NodesLen":129},"Score":0,"Wins":0,"Losses":0,"Draws":0,"Sigma":[0.010165891634741624,0.07451039561478776,0.019025924087542594,0.03901109675190041,0.03235147369947153,0.0941672518712509,0.10212892549281172,0.014931665339187277,0.005524965801077004,0.05799788576054713,0.004585859599897685,0.04061338881203652,0.036592012508700617,0.07929130037971704,0.05848888635773385,0.26092703533336575,0.0062824768793828195,0.1239053836864055,0.051178657025581435,0.012788731423271171,0.14513275950921053,0.26975768746978834,1.1614158973509128,0.005004806147423251,0.0405040821318302,0.023903575755396506,0.11204338793914927,0.011700489354403548,0.019646489286862356,0.04411468203217624,0.15476094597924908,0.010452374014223246,0.1249189260601882,0.0520152347157196,0.047061119414206064,0.009014076052808713,0.09615534775407178,0.04141254404920359,0.04863815421005772,0.025696709776628242,0.013521456739326816,0.062405480783322795,0.041020509034818395,0.08394062382629586,0.4572214758777195,0.1123339032429692,0.10447831605116142,0.055982771889914844,0.19605104888725142,0.006447636792720526,0.021196390661024356,0.05157726554765366,0.08023491822679436,0.11998655679980048,0.026577404957491602,0.022652807727624635,0.011656953634802517,0.006470002264585117,0.049642736941105034,0.07916738969872832,0.023612682556353376,0.3066000531034368,0.08486058593053704,0.0346598880857968,0.005895752804526813,0.005947291126878574,0.025823387342714086,0.008068421994893663,0.023486502274035585,0.02779633825224742,0.007857103818582048,0.08791689603900532,0.04177140294938176,0.13514671501786588,0.013645626485118792,0.025576602779069143,0.0283666024767403,0.04372947152658188,0.03718354777598684,0.08458206640710988,0.5402475070244507,0.013140587001916436,0.058749620562078546,0.010930040676451163,0.09619866399019528,0.8998054177045826,0.00834821712078906,0.0427490392397812,0.0951203505318609,0.01885615037574798,0.03948328343719961,0.12515495233066676,0.08799835110757964,0.10697287589361106,0.05335301024573057,0.09342292367609804,0.04973743033106891,0.08555923902765228,0.11025188044125098,0.03503103865792813,0.119482236410487,0.1197471625691517,0.020459414224271933,0.040007532333651515,0.0694940208992837,0.14590694512321245,0.18679572871996286,0.005156771234137798,0.0826075142748676,0.0284146523640696,0.12019771118006084,0.07288425896497684,0.009105755278515133,0.014266997617242146,0.026673026483617822,0.02702308763222969,0.007511931565100878,0.06752341462742804,0.07552916163294324,0.016542089885742656,0.29486413378377685,0.023049750152173372,0.020193242492296478,0.3277972894604644,0.15027123986915503,0.2572167102691683,0.029202993774437684,0.05176286450324394,0.13973480850140366]},{"Name":"fad","Parent":"bizyv","Age":4,"Gen":34,"Net":{"Layers":[128,1],"Weights":[0.22454619072258875,-0.4415285422108464,-0.007097607634880838,0.5925162032834792,0.46079650882081724,1.073170305478751,0.20201820942635199,0.3958778427124822,0.8543358171834466,0.7556205202426486,-0.09274567132808156,0.7510689875048122,0.7712120993829421,-0.2555755335106635,0.08648433800946219,1.5904990311919605,0.5011641105209813,-0.5883138442012813,0.27537029050493317,-0.31102166486238725,-0.2302403253636855,-0.5355605788525717,3.2122947537266016,-0.3959166879949916,-0.9804676649458518,-0.5555480917986394,0.5023333193143609,-0.12782019723601792,0.22744236170494003,0.9026194950766893,-0.08374684243670448,-0.8705282998948781,-1.4800135495904172,-0.45761649763279477,-0.7546935625636156,-0.1965820413537792,-0.6992847651037254,-0.9220905979877211,0.7196131351411134,-0.7613618532156956,1.2001656197043917,-0.4541099120512567,-1.4600588670860968,-0.3540009853227421,-0.9237585447850647,0.41623042294434864,0.1255998937308002,0.32857675679285375,0.5638206418744993,-0.8904912914079038,0.5621389570177793,-0.9615681122089015,0.24354802763935102,-1.0086654279571714,0.8868884453962325,-1.0889491928129762,-0.050995938156329815,-0.1499902196317943,-0.9340717993894312,0.9413548057621407,-0.9919097923324095,-0.7709174534828428,-0.2886721913407312,0.03817987556942073,-0.5761905219709629,0.8660779085649516,-0.14776142741191958,-0.8107817048379685,0.6918631797592754,0.6706427839971347,0.35935193625888284,0.030805707385061887,-0.11858681522249928,0.5249211547250897,0.5017134063928603,-0.4255618154777872,0.5226469539972536,-0.37223886507954423,-0.8448479210949514,1.4383597143519427,-3.5894143893071893,0.12924014934357178,0.03450721249760477,0.5734404217969659,-0.29932061864921655,-1.6616714638517416,-0.9538450824919308,-0.04350901489502159,-0.8745501615287763,1.0738287484683915,-0.4757449442245798,1.0966189894656655,0.17428538575028074,-0.6019155916916075,0.6350812185317652,-0.5847501253665552,-0.1070237111362412,0.14008070285463514,0.029786538926787027,0.6632877650266542,0.21856850220701463,-0.16911258200927745,0.5345801433469027,0.5648139188466311,-0.32591454326738895,-0.6452501094737365,1.0209737165511321,0.4507103683499678,-0.2189082105651804,-1.0794753942624962,-0.1038271896062534,-0.557315941124783,-1.0794763633697333,-0.44378925478540315,-0.6623347577103745,0.9995649575797524,-0.1777932385695853,-0.36047481087068595,0.15934363889485176,-0.3806670702081104,-0.8537878993672544,0.4149747815810408,0.5668301065926629,0.3866626207315407,-1.7702546936210757,0.9540818195156338,0.7287026327978188,0.4852395526128452],"Biases":[1.5961255382248782],"NodesLen":129},"Score":0,"Wins":0,"Losses":0,"Draws":0,"Sigma":[0.0048447475305687495,0.02854672111772575,0.008772030107400674,0.03295596474574205,0.031509411509500096,0.12753498169183855,0.04383078354302149,0.016537997060106547,0.008968957642479956,0.04251810603340407,0.004288656352712472,0.10983956099009697,0.07909106108661824,0.056638519504990395,0.12686664112402746,0.6550366035240489,0.0035523342387553717,0.10397365704756183,0.04861935682248408,0.04863339880304194,0.11236481286304978,0.19548196259563388,0.7880367578486093,0.0026261156034704165,0.026257059506798852,0.016142373379984403,0.2649859067724596,0.016872728586388896,0.006506728533257226,0.051593193445387014,0.22905223607286865,0.009954046474072758,0.09560741948027883,0.010583029956645158,0.03535406430162022,0.00490237794110735,0.03354302823026968,0.041418769866437465,0.04921585380305466,0.016098283364001428,0.03233620564268881,0.02232746704360003,0.10677848384474817,0.11082099085318052,0.648620200464006,0.16198077582819667,0.07144928968674784,0.04878008305948904,0.0974257249647124,0.00535735221983815,0.018140546402838565,0.02488927408886059,0.10811191282996599,0.06578490242782221,0.049480151855713875,0.028318227178598287,0.008685120863938162,0.004141710250158837,0.14732865868114303,0.08561173056987299,0.11973272429250605,0.24582630043985215,0.06937772580065822,0.010298279041332533,0.0017372868401138188,0.00697722093160366,0.028055526103234942,0.010936068974615862,0.011755573379328197,0.014561071337106534,0.00941390210750801,0.1001800313265697,0.0490533496814562,0.12796909825035968,0.014701277190707997,0.08700726534782799,0.02763215525800197,0.022294433105802765,0.04548729389317173,0.07927504836803884,0.47133082379021823,0.012263186213620037,0.1036975195626708,0.05412467261674199,0.053893514054968256,0.5908186013020564,0.003100438591567444,0.052658001114318814,0.02858708187522133,0.053505902230021385,0.009974817806836648,0.07050788164370324,0.4862794467730189,0.10030011244356457,0.014154478568134734,0.13566110866753142,0.02853981398765438,0.02906572223362564,0.07604633448917875,0.12031630496991412,0.35532079831198854,0.08092659366564252,0.061853285099164504,0.09891233311376561,0.06294256794627412,0.3782308289951732,0.43022916791758165,0.009527804559587932,0.12753068762765254,0.04869723331915197,0.1311768557951159,0.1626109987683997,0.044198477398883204,0.018548888976647717,0.007946056353556231,0.006295402007648498,0.003131421189151427,0.15938789316751445,0.03295151611297602,0.005744975776755872,0.3320674103120936,0.014114079736563968,0.008318424493987219,0.2503393806755221,0.10515406726190407,0.12034572025850174,0.11288854530590756,0.05275687377047729,0.11014373624637436]},{"Name":"cuv","Parent":"zuqy","Age":1,"Gen":27,"Net":{"Layers":[128,1],"Weights":[0.22220091042637355,-0.32444451156939097,-0.06856346901123894,0.39155966091692823,0.27089746083623234,0.4828931808864586,0.25557649429724527,0.4108026868908084,0.8467201472070484,0.7291625638783883,-0.11847596908750649,-0.012343686130148622,0.45773574504268455,0.013127187723404432,0.6175067445909226,0.1598845348924749,0.5014963059018385,-0.550119776849106,0.25551682428031636,-0.47014063465334077,-0.38188818061264235,-1.0173103139956174,1.6754074023098586,-0.38062078503251345,-0.9029195308036483,-0.636176004332909,-0.0246879428505892,-0.15072992746310676,0.20807732049219427,0.6101796334983242,0.8212456910950203,-0.8715329597814989,-1.0476166875004362,-0.34070320728221676,-0.660986563463715,-0.19360224855669922,-0.7786123245687389,-0.6530388808450773,0.6166103486026465,-0.9056996479533066,1.150196594192153,-0.4232719663633392,-0.7155159459149752,-0.36722993602870235,0.3961015447802232,0.6732783061127883,-0.1291795311077224,0.8320736348289672,0.723467122172841,-0.882306195313165,0.463857765660945,-0.7429787464933457,-0.3075119964366069,-0.3288227008605029,0.9407177591654463,-1.0778869575323828,0.027421371446938732,-0.11569340399909595,-0.8724342042907175,1.061354709844966,-0.8814746778227218,-0.4463501087127261,-0.3233428698318406,-0.078178286609921,-0.5658642172434132,0.848913284276726,-0.013148892158415757,-0.7521081024069618,0.6212644745233591,0.5435041782829585,0.37832344064958245,0.2556196138336297,-0.07876950150674267,-0.14091729363188377,0.5017338972724854,-0.4982892241927696,0.6346547042396234,-0.5202936097292891,-0.7716589136019202,1.4903132175950302,-0.39764807636749866,0.11099063799471312,-0.045662488329654374,0.2963245062156659,-0.29137872678299215,-2.275537283981494,-0.94037965359643,-0.17165580032118483,-0.894783325781593,1.090131826603397,-0.4663439455244656,0.7098461432681695,-0.29094255406874925,-0.7472708059358436,0.9834540216393035,-0.9202686260821037,-0.0013409688970988931,-0.01880457207698239,-0.4035480614648608,0.7994478295471557,-0.32045360100550174,0.07143983352917478,0.7334996545983198,0.4973783297535639,-0.16561656821259346,-1.7990932477246577,-0.4932510722209431,0.4927788609497942,-0.5352798076282594,-0.9582468752387938,0.31522738436506714,-0.4218382739741071,-0.9854741693798961,-0.459895454554395,-0.7432365575004704,0.9965511357091934,-0.16604514572636886,-0.42569058496442647,0.23319104782138333,-0.3555877694569021,-1.3143783995289424,0.3450149226711381,0.5309323497361237,-0.37391787095867923,-1.2158695832004656,0.8306146454831541,0.5867573691350801,0.5372255944924059],"Biases":[1.1859982934428812],"NodesLen":129},"Score":0,"Wins":0,"Losses":0,"Draws":0,"Sigma":[0.004029867668455503,0.04601373495393351,0.024251248699673173,0.044198129301832756,0.031769200452725986,0.12607291967163012,0.1132382970510188,0.01725596423001775,0.0069790989812988325,0.03350799794451551,0.003860218462006929,0.04240384345985542,0.04319643017236981,0.09300616505023404,0.07364351706493057,0.4821725777633137,0.009055400289671185,0.07955257504811747,0.03321523551582191,0.040058301899039764,0.09607977264511497,0.10076405757948563,0.6002912679197497,0.005720736642347244,0.04642559790753508,0.01543634293260887,0.19736878965491272,0.006130005466956599,0.024818485218978337,0.03331201438126299,0.29249731375822285,0.007552271887580235,0.11607454136989631,0.02574534938679944,0.02361594806400583,0.013946274012117938,0.11405151137574564,0.0542751976534695,0.05624708438087416,0.02497244559777315,0.01807255985739729,0.05458757992749145,0.03711294701001461,0.05169309393860777,0.3726723889648135,0.1258417862095195,0.08536022347112779,0.09497767451212556,0.1626467361449896,0.01015457526510583,0.019577004500866725,0.05123865742407233,0.08725044078254877,0.08912548272514019,0.04334614838957122,0.032429259505712495,0.011360486174360439,0.006699508157315306,0.05197560817694826,0.10216980171747463,0.05649626776797995,0.11349908266124713,0.08632676106427649,0.04496389058063448,0.0071457281431154636,0.0058490534634508306,0.04324838382581091,0.009263631185409201,0.02384506556626377,0.01959960200524545,0.003931138534430063,0.08110002586141649,0.05096590645895686,0.12765380740422044,0.016790571846206147,0.03271692016753056,0.03906533491322671,0.02392509899525796,0.05361864096160868,0.06003406960123959,0.5851963259193739,0.016384740999970084,0.07047681229166529,0.01022091690170879,0.06623345963019543,0.5506794845989903,0.010277709515376914,0.051081188153981265,0.022476905577760914,0.07146628721185304,0.024283416952542058,0.17451899180702193,0.0939707508724712,0.03622191051167023,0.054328996255461066,0.11907793024010298,0.040254014189103855,0.057533280011128604,0.07108349142719741,0.06707495568712156,0.4020784215313743,0.10191291522654208,0.024017467751198503,0.058436284125397135,0.08628221630238309,0.4117308947514936,0.22647674092061923,0.005778494509383386,0.10298924000224759,0.052701681438260504,0.031932178231806115,0.042549112586835615,0.009426076260937668,0.01728783177281427,0.036271279697357536,0.013718264445881357,0.012277486297247295,0.11612191137685517,0.09336355033734854,0.0174936220234335,0.18281372543581542,0.04726112597495201,0.022201022225663374,0.41710467646444144,0.1390249225683353,0.15252189263721827,0.054896920441649,0.03851840183922905,0.09599383038266673]},{"Name":"fese","Parent":"vome","Age":4,"Gen":30,"Net":{"Layers":[128,1],"Weights":[0.2221133181716413,-0.43627764175435146,0.029508615191623587,0.5359733820272894,0.4315562757168485,0.292500404724393,0.13180565444878156,0.38017351239133984,0.8408945208998996,0.7183821085917768,-0.09573845349558646,-0.2723030031998917,0.7128013222844155,-0.1916398746532441,0.031855488050315864,0.010333555837011567,0.492210728809933,-0.616550528339823,0.34091061357200114,-0.20074544620706097,-0.18264068934516153,-1.194472631402198,5.263301810238016,-0.3898378081082332,-0.9361311982480419,-0.6643322645234514,0.3707056663976205,-0.14383454283244795,0.23651901316864754,0.7662514191866904,0.863784903576671,-0.909098305575841,-1.8430048352005535,-0.48089739182120217,-0.871807825630215,-0.21981657810010327,-0.7653076998990636,-0.9591996993142834,0.6966838643204849,-0.8289324168197288,1.1211127386874011,-0.3700813912033409,-1.2595157995919581,-0.7380099448452664,-1.1630437828777556,0.6334579234939155,-0.04245432004971708,0.9746987697647558,0.8830077183802238,-0.9685747434590773,0.45246160380667777,-0.8120862901617257,0.21188610530092714,-0.2814178772686537,0.9328388303645893,-1.1426255749602652,0.028137060326183662,-0.15277812589709,-0.9172476679794963,1.1035654616187458,-0.8218818243851662,-1.3025186491518161,-0.245987895760391,-0.0036187662844838417,-0.5823967188790848,0.8531209574778115,0.052787291326951986,-0.7721378112740789,0.6732003788273444,0.731658123907243,0.37700590862474764,0.06810996646689717,0.06463465509759352,-0.09851057614190811,0.5339207737624287,-0.4201507648905656,0.6823135990803411,-0.5703533912906336,-0.7511847073227874,1.369638669527133,-1.9307010398116289,0.09943509614817586,-0.08063449481265851,0.41973551154064853,-0.2419673995689554,-2.173971347985429,-0.9576847326907723,-0.044135494947857234,-0.9175859777173956,0.9787643615799434,-0.46089579582505946,0.8491672917264068,-1.2510965586953298,-1.2294847610195452,0.843973686114786,-0.6977553302069106,-0.13013613269043217,0.13956300272571368,-0.20316742543997968,1.0956008911165906,0.44677914188740464,-0.07250716008347399,0.6101378914601779,0.6257133199712196,0.1526271535100169,-1.5374437721678427,0.01069714374003733,0.5409799992434825,-0.36707242260551937,-1.0458298296581907,0.15685369776150104,-0.569070011013567,-0.9565183577679848,-0.5022524943712964,-0.6805168304413293,1.0102624939839422,-0.13348158887724887,-0.16724230151147287,0.4276038871280869,-0.38444281253690243,-2.472364897782122,0.36850831827759706,0.542004145322011,0.7278950618819083,-1.5071227495186323,1.085985838818612,0.8518676963215607,0.38290865503108396],"Biases":[1.194055666956952],"NodesLen":129},"Score":0,"Wins":0,"Losses":0,"Draws":0,"Sigma":[0.011122219459007255,0.02720277873381782,0.021544088313737667,0.04003894990836225,0.03446323662664568,0.21989431277687507,0.05215692797733859,0.015920176557813526,0.009608836201123783,0.08524013909383371,0.006750461805092085,0.04742354989932682,0.08259507957026785,0.15856907218307312,0.09543739349968428,0.1291824891780594,0.0043273222675995005,0.0789166182927593,0.06371926869744632,0.07361826493858693,0.0639474125059672,0.21639845068278474,0.4941946642757473,0.005634395810247789,0.06385420737874463,0.01803238067189754,0.14371270851490756,0.013119891245712808,0.007782486978508464,0.11370685496683648,0.1720091942933891,0.011622258350968605,0.14693620728535192,0.02546511330276934,0.028696594061396734,0.00437883032654314,0.04274447530065757,0.057761968504511325,0.08974765197925226,0.02551646212880315,0.015725121279505427,0.04895110055299683,0.10262664605935742,0.07757008463885426,0.4998003969603094,0.10465838841956658,0.06934164832611098,0.09987081510242359,0.06854223119144756,0.01817592330681143,0.01724009979143998,0.03595246961956363,0.06879446837969529,0.05352049882637372,0.02105158232661974,0.03593595605416621,0.02595453952453814,0.003729328526056758,0.07343623674710055,0.08046335673847513,0.08309260289211043,0.3539798839123024,0.12047181433649999,0.032605930111431564,0.003340381419014961,0.00621475227842065,0.026855745239791333,0.00718774615024929,0.02027574025252247,0.04841742962130795,0.00546623254489206,0.07252681335301261,0.09228698788129255,0.08930493731448552,0.0474919913834432,0.03405906534974935,0.03035424822715714,0.013513838130674622,0.03907280835062744,0.06877100248662714,0.1789056378185217,0.011046871545602967,0.061785574139548084,0.02473398021711382,0.050339041320995884,0.40807009514457593,0.004646243487590965,0.07043141106690821,0.025359871509006142,0.046306379136339525,0.010875164308509459,0.10573896294753939,0.48332808133674393,0.19877426066072465,0.04672230997286565,0.07955766260056207,0.013925639718996902,0.043593835827984914,0.025429214839400204,0.08987298751829263,0.2690780171036844,0.06896875181603265,0.03160272628674148,0.043713137325692014,0.17385434706809824,0.45400967274710224,0.38163299241690485,0.010132723455163655,0.10672046840423825,0.035239824605889675,0.1301056903267704,0.06287750311201601,0.007703970947172333,0.027270230452162196,0.008091899019061172,0.005186072542745854,0.02027416407741736,0.057565487262496065,0.13649539759164125,0.010844897994899199,0.34788824836862203,0.02143805908282557,0.021380658060975426,0.3523624161207795,0.08377544621330418,0.22724261151692068,0.10002298392678903,0.04165039949748618,0.08469265893334552]},{"Name":"fiwi","Parent":"cabu","Age":1,"Gen":36,"Net":{"Layers":[128,1],"Weights":[0.17574121823348085,-0.34979138019488887,0.1437062691888677,0.5889654362173754,0.47241386259856716,0.5173196133145488,0.1262803272372085,0.3745711040587876,0.8398988738708518,0.7931899504980315,-0.11813751372669144,-0.49821860148386143,0.5602620752334876,-0.8694469324229921,-0.7400998278381974,-0.9040618908527731,0.5388820811396384,-0.8830923935755117,0.11465845078754874,-0.49608244699535226,0.006396369084298137,-1.6596321542401313,5.082423743448745,-0.39365394666806774,-0.9672171926538677,-0.6384428636795948,1.0454758997740785,-0.14630207183977073,0.2794577122756907,1.1177892951511377,1.6867954066052486,-0.9200032121299891,-2.5234125465596633,-0.5247540238760972,-0.9280611025689666,-0.21843985713191005,-0.7305488533529383,-1.0345157112504286,0.7294680424936307,-0.7934170467383221,1.1235364699568102,-0.5450672594083955,-0.9747972585600838,-0.25528927717959016,-1.2006591590434512,0.6773421025652216,-0.2581026904645476,1.387107831999016,0.9007039579551562,-0.9251086592913392,0.5321872737114347,-0.5109401959960795,0.608019877366295,-0.16050531371214985,0.9852747863343136,-1.1462663310042107,-0.04483180649498775,-0.17356687428454523,-0.9313416795255182,0.6103669626240747,-0.8152584269465304,-0.36825219960881705,-0.39981437259205005,0.009541954382246837,-0.60440350809336,0.8964868305362867,0.13234284680461275,-0.7563961335316052,0.6294647681194435,0.8071846794996579,0.38463266625486986,-0.07197334851594564,-0.30935259205742077,0.8650954554713235,0.6116936845040878,-0.3556596549848545,0.6636079868465159,-0.5478070593344015,-0.7399878317890385,2.1750056252139545,-1.3672818173128585,0.0877033692926413,-0.5497719589184094,0.4421351572308122,-0.2260609072878488,-1.6633631092294427,-0.9525500432476316,-0.743447002912235,-0.9398667087574781,1.0188021678229244,-0.4805205381239658,1.2220285936846107,-1.0292283335455128,-1.8645523784487716,0.7287624281924058,-0.6614404762575024,-0.18693778395174268,0.13511776070808132,-0.11831532998251457,0.8453960517680745,-0.35747188394251195,-0.12571596585477876,0.6362557234917102,0.5926923780143136,-0.23700774269151675,-0.8395433387994387,-0.08957860998110406,0.4965373313325759,-0.7226172638673974,-1.0848179089357846,1.2914542579562949,-0.48309613477716573,-0.9759724225325344,-0.489259690826783,-0.6534122764909022,0.9854090502095247,-0.24437273310671415,-0.0005740844361199369,0.4003329550099233,-0.3347670475950022,-2.2848803633553403,0.3870169487929089,0.6182572090970774,1.290773931213446,-1.2128318201343857,-0.07373901605582966,0.728850207032884,0.6558737147888344],"Biases":[1.3584252106303194],"NodesLen":129},"Score":0,"Wins":0,"Losses":0,"Draws":0,"Sigma":[0.006304300577493013,0.03302108718571562,0.03054238572781484,0.050640506768152,0.059836365030567794,0.1311846927762175,0.09780765167329807,0.039254000614194706,0.003038380211972887,0.08343811828768893,0.002332239772087336,0.02607692865911833,0.10000561292786761,0.19099863076908669,0.20186720864414895,0.26740086661974194,0.01946559991331556,0.05638200189226488,0.04997405720286314,0.051266342618210524,0.14199020005088345,0.20623829534733065,0.5859263221257778,0.004119067386614956,0.04080194698149473,0.00688434633546594,0.24741989813147275,0.01922837463677749,0.02126448004494481,0.06738686908911894,0.2610317095274631,0.012596145702226353,0.2810836536832418,0.0510056264915573,0.037077659512140315,0.003869907261515644,0.058278859051569445,0.11985592385647627,0.1036517179669372,0.02770071456018509,0.012561798254879724,0.10223529512681176,0.09604481447129866,0.17905387974720152,0.4596043554515436,0.2460461767304638,0.09114141060608692,0.0815353188910814,0.09036708285261362,0.017903273878271973,0.01319357006291237,0.1655924208253061,0.14971316276552407,0.025534872543304915,0.05502996457675652,0.031576198907423025,0.03869966507916082,0.00532601265322357,0.021502162136143237,0.10472462929250952,0.033961416173520394,0.24410590662464082,0.06140654499320785,0.021683609874467095,0.004872126532934561,0.017343862324861674,0.017557620651529073,0.011961738045125502,0.008673131572300544,0.03212728341977448,0.008114323231260883,0.04852343053029364,0.05195069611698927,0.09457913114381916,0.033561524144851654,0.02006717942869441,0.019304420262422833,0.012770141317540907,0.03161414921669574,0.23745732077927767,0.36791218002156284,0.005412485048239237,0.09736159007861267,0.02652000267413331,0.03979070758769015,0.09918444166935463,0.005534220483995812,0.05131892111635844,0.012639924485967636,0.03980217465000319,0.00456841068209415,0.08314388277275726,0.42831719387988304,0.12910884633681102,0.03935869797570301,0.1364747396587259,0.011241259269594371,0.048068722595139564,0.023579422033716307,0.09566297858137682,0.20837323824815615,0.037551030570501166,0.051351917912027485,0.016166736560789766,0.19399090971350974,0.3072111853114412,0.3507019451114763,0.015370797620419409,0.07170767082291249,0.018310391424440044,0.24908778298608392,0.06938274682001801,0.007762730203477706,0.020960919272929826,0.010841921241875085,0.008323439011733087,0.01089274782798891,0.038664410647359614,0.08440682243187242,0.021908096999560048,0.5897792719272622,0.021428691824448367,0.02059853621440939,0.40879272152239793,0.08046163487904068,0.6597585052669378,0.22523990554285406,0.0546968388098756,0.09235671741896168]},{"Name":"fyjy","Parent":"poro","Age":20,"Gen":25,"Net":{"Layers":[128,1],"Weights":[0.21848395204917945,-0.3403959825816535,-0.053630365510470096,0.41534528287710504,0.2857178044768398,0.6128009190716411,0.5322146581301217,0.37368259460555703,0.845424752963332,0.6503705176344041,-0.12070909373407866,-0.06799950554107602,0.43356330163811435,0.1913624002481269,0.6322942779558103,0.3633138781742909,0.4908832356619499,-0.5100201029270549,0.18756232973173298,-0.3829628724067218,-0.22287691326557735,-1.0200334457491491,2.7159791482012396,-0.380891598557574,-0.8493353754012104,-0.6226245747421081,0.14716191212740243,-0.1571142491670158,0.22340572453095622,0.615280170899304,0.43243376754684937,-0.8791469649580308,-1.1937678042719382,-0.33937750315762333,-0.6937462513277496,-0.20649596146789614,-1.0691727787093237,-0.6508324524657418,0.5747940681324629,-0.9130852931462701,1.1302048276269323,-0.4586845196635778,-0.7343974379315359,-0.3762435559412595,0.5408794356287044,0.8788812905993673,0.026268908594265727,0.90395002272368,0.7095927516558476,-0.8693710237695125,0.520883083299797,-0.8270808402522966,-0.27180662218314056,-0.4178183135495357,1.0188793040542032,-1.077661530043962,0.04091750574174467,-0.13243873662939612,-0.8563460351823233,1.0775073698891067,-0.9586389656510764,-0.5317890409424622,-0.3160820537522397,-0.017586260562116544,-0.5736748578062932,0.850346910629215,0.04002160253400589,-0.7596656311943004,0.6622012982321852,0.6088939654959877,0.37113567681290305,0.1278721941215985,-0.08704550615628551,-0.054092298464165224,0.520246083581435,-0.4706935111641628,0.582775212672752,-0.5211386227729508,-0.7203118513941533,1.4415476417979884,-1.4473658630693746,0.12213578969287893,-0.0709343881751614,0.30833373673983283,-0.3635111833943087,-1.8132487963132942,-0.9313038798520836,-0.22960164434035168,-0.9249659283740204,1.0921636134799622,-0.4644994344240491,0.8614555720861743,-0.3923972246784498,-0.7675625543401686,0.8965325802089179,-0.6637393471003851,0.034298059875807016,0.022076694532119148,-0.29968153569700756,0.801429277739189,-0.35942629134051385,-0.045700026196982046,0.7312795079392733,0.5048748762373305,-0.15738592727625622,-1.051154437239145,-0.2398775256497822,0.4967479293312593,-0.5342721244980462,-0.957726770235322,0.3639664558583894,-0.5043645560078196,-0.9620542758704016,-0.4598462379485661,-0.6827123118041493,1.0161571404140157,-0.1495615728912303,-0.3514804292261285,0.14878942776585913,-0.39932238350021343,-1.328470756897525,0.3503498141114199,0.529539677292417,0.13288758494540698,-1.1954003194476726,0.677944946226935,0.6456539865849468,0.49368124965885885],"Biases":[1.1378309825582644],"NodesLen":129},"Score":0,"Wins":0,"Losses":0,"Draws":0,"Sigma":[0.008341702433328487,0.04584898355360784,0.02565888851990161,0.03951909962649643,0.030309096913387252,0.15178882770703195,0.11513907235207299,0.014772447134129693,0.007701810790368877,0.05101303620281059,0.006261081041629679,0.045037784090437044,0.042484731665304795,0.11400213094414641,0.08987677295017353,0.18672783953260186,0.007966667679777889,0.07368078679736913,0.05669696402748427,0.036999681296863596,0.10583637082689148,0.16270506590355197,0.9913216520922843,0.0037388794058202026,0.040157688449550026,0.019122145901301325,0.12502459737701435,0.008439225398412081,0.018622620433901938,0.03696400575596291,0.232846230667545,0.008106144672033556,0.1143511356616294,0.03726944073025364,0.022699523722473896,0.011926940178030513,0.16349257226488179,0.05895467542911405,0.04202203557899751,0.026520044302864906,0.016307596415003962,0.052770280087660715,0.04256146360066445,0.053050046496051516,0.4640069070132249,0.07161279374099844,0.08931284135212555,0.09041018869007325,0.19291817935175765,0.01029820379881322,0.022325237681320453,0.04552213257923894,0.09075898857966129,0.09874264987775493,0.03844712805539064,0.03667319480176485,0.012679517480744829,0.009512215184943123,0.045810593011979664,0.09783744072957598,0.041076550001153136,0.21954639939444695,0.09097745302477979,0.04399525462916027,0.010637364334906632,0.005375552567557818,0.041941898567556285,0.012280289741251948,0.02128615832776193,0.03272530839631774,0.0071735511470701115,0.06477512214607706,0.04988983103286736,0.08239448522190065,0.018741595296505084,0.0225476175453862,0.031696863627712665,0.032159264937049244,0.05399673866616649,0.07219167838414477,0.33537855645806636,0.019943813973261823,0.09450804478685124,0.021056365810274525,0.0586399290553494,0.6170416847604971,0.010359672659638336,0.0561524306213694,0.03587328431957619,0.03901971427894152,0.026668683422583692,0.11427853459109469,0.11991374148308509,0.04755936732972211,0.057815292965156265,0.08395475944220782,0.037274655553155366,0.0572782124507515,0.057328777344522505,0.05944618554570629,0.2373240900679414,0.09282232951540835,0.029696225746084628,0.056765521947264926,0.07583925395401524,0.24293281575259462,0.19758612873403888,0.005482029407862967,0.09308713226499038,0.038953169239246056,0.07566921869857941,0.0448341754240181,0.00939448309108255,0.030303610266731847,0.024115700108583722,0.013954385170875763,0.008958207167737903,0.13201932972896957,0.088636212226376,0.015320680703841976,0.17954944208138313,0.03619591231785128,0.028946270407416343,0.2579243269971774,0.1354805597730268,0.17694382504059614,0.054137885645336954,0.03999282394625856,0.13211384817528485]},{"Name":"dacaf","Parent":"fese","Age":1,"Gen":31,"Net":{"Layers":[128,1],"Weights":[0.22022878120850267,-0.45970551040508906,0.0628998158708268,0.50960991986207,0.45070747293806046,0.27073916493347694,0.12123510365177331,0.35259259841224183,0.84167063785693,0.7616428671399991,-0.0884205234512702,-0.23254321604852862,0.6060058185878741,-0.21039488046272833,0.05575601997779934,0.18792612052404967,0.4980747283327421,-0.6569802330340773,0.3579069309547449,-0.25270078247674344,-0.3018845359483885,-1.2304654960417336,5.858772688829254,-0.3783761601097235,-1.031139474631789,-0.6530327683504418,0.3106119710800906,-0.1561733133945184,0.22278603968197347,0.5090303760215737,1.2135265264008908,-0.9006247212600965,-2.084239598999169,-0.49117001086985485,-0.8907125833926953,-0.2213016346450412,-0.7322947991664253,-0.850690215982894,0.5753539342150669,-0.8241324673570051,1.1195572285577793,-0.436742740143937,-1.1710130097424203,-0.5425534406726689,-1.8929438138977634,0.6174765854314329,-0.1024515126913951,0.8767625496105521,0.850095207778455,-0.9993619008974762,0.4454883053103608,-0.8566355361578585,0.20545974450027543,-0.3361355244091452,0.9578366493518814,-1.131357647710598,0.03895477568288154,-0.15322473854771063,-0.8407952756579898,1.1210567721587157,-0.873813877360314,-1.0904862170904508,-0.2335504060990107,-0.09255677288360223,-0.5755832782614355,0.8348389434768247,0.04992253356730937,-0.7766411810623722,0.6806318165208588,0.7783976864268561,0.38150575481260396,0.19172953990880076,0.23123977383964778,-0.3595093024665952,0.5187418021248321,-0.4309783722057831,0.7023141989584483,-0.5634150063241424,-0.6370384608888937,1.3440569952708465,-1.6239251054529555,0.09888090283134124,-0.19628085214719268,0.44546493783567953,-0.2585483555322221,-2.3213332673879044,-0.9479086329530324,-0.10577869820084912,-0.91774736389621,1.0186864477195055,-0.4475438063557051,0.8581964100545302,-1.4842659775367784,-1.0889348287452298,0.8812171395643467,-0.7902471352211135,-0.10910655225507082,0.13734776537792615,-0.21628833169382544,0.9407857397967845,0.4046633920843277,-0.16002411744936318,0.615492180943383,0.6832975094217612,-0.11940134218598428,-1.199195949834152,0.0032735690828905664,0.5362079876947271,-0.3730497276817753,-1.03620562820091,0.1552562083485572,-0.6213747501515449,-0.951653994395668,-0.5101375480435539,-0.6686662597697689,1.0082563345179718,-0.1436860737077442,-0.11737325553482307,0.5686138893344407,-0.39076149304148333,-2.6118208980405404,0.31762538836352483,0.5180480045708054,0.7387265938967152,-1.37832866520755,0.9256280411006762,0.7662363874618338,0.35152857845777946],"Biases":[1.2053212167104144],"NodesLen":129},"Score":0,"Wins":0,"Losses":0,"Draws":0,"Sigma":[0.010526627853234282,0.026525915443677984,0.022491820972607483,0.03567141556912197,0.03615774416381312,0.22445005115156888,0.03993853613866497,0.017827173153175516,0.009581191492657631,0.07448479380975662,0.005173269344527841,0.03258770140752212,0.11676985909794177,0.1619496569596278,0.07860551643565072,0.1463516880088169,0.005133278190084673,0.06132538975502349,0.06811221270909469,0.07378124217778652,0.06225711770563184,0.16187112685914662,0.6871168719792962,0.007497181808537834,0.055847280788048834,0.021779930296123566,0.16353344560600785,0.011871830750432372,0.009795865462497673,0.10403040972364926,0.21024469881798946,0.009522496930472288,0.16227529487832276,0.01779416499805351,0.02723132735103266,0.0042713044610703365,0.05233306515688734,0.044844059048731726,0.10113239687924111,0.02676553724041614,0.013487967968842982,0.03916172649699398,0.09620978470112514,0.09322177565099275,0.46819898764470746,0.11510732496627953,0.07210405266538969,0.06923925209203186,0.08366475307131284,0.01808340569718712,0.02133524480290118,0.05060025097852434,0.06316874860988035,0.04509447550048727,0.02032452175687931,0.029348788170198002,0.023430497999219202,0.0036782632709711533,0.07792469948631016,0.06566241658389214,0.06267384581422619,0.33764226991421187,0.13546632811810025,0.03568288634381834,0.0044181341407127424,0.008648120857495343,0.02417302092279993,0.007321695422129371,0.01468932208143005,0.0450212032523888,0.00408797014174029,0.06626437027684115,0.13351100921560616,0.11700625619454842,0.036466764708474764,0.0397106432127887,0.02876338629412918,0.018051555267326436,0.055577004071719026,0.06883150865937426,0.20245899378109047,0.00908303405537456,0.057684367004943254,0.026572630268275818,0.033482085341522444,0.449109249383399,0.005960156943049559,0.0702260375229699,0.03056326552063861,0.04539570515653595,0.010099603656009044,0.08806729611237243,0.3565485064302627,0.14295817160764004,0.04421830794153943,0.08991863323257983,0.014973787758816507,0.031107962587102266,0.024714569224519922,0.09228535299686559,0.3530520275249889,0.06681263679176067,0.02803697069463172,0.04674848929096259,0.17097913004679674,0.6519725485072856,0.561151664970716,0.008364930531988174,0.10285956274171539,0.027912196312026183,0.11320110196834254,0.08451122341425216,0.00578323841723202,0.02762072737002771,0.008394285178914777,0.0029686899228471334,0.025840868448808414,0.048129115163323764,0.13102091196060378,0.011544007190549372,0.3921431352015897,0.02704628375125138,0.027291503863044752,0.3402414076678465,0.09866362948658361,0.3358547742761683,0.0767947592584401,0.04325649697965658,0.07398712389066339]},{"Name":"diz","Parent":"curaq","Age":5,"Gen":35,"Net":{"Layers":[128,1],"Weights":[0.2605840129550547,-0.41619691501718387,-0.027837084644999996,0.4385336019866072,0.42475107638031767,-0.20543244394968765,0.23872644460739262,0.374600334316521,0.8395700894129785,-0.04346413860105747,-0.08784606620415067,-0.22389944263371267,0.8829354151709338,-1.2167940181887313,-0.2248215369866037,-0.2294396978688179,0.5008547195373886,-0.601873770790139,0.35137024659035937,-0.3013996241917805,0.036952673590490585,-1.1726648636933366,6.588186460774298,-0.41210921735366324,-1.043156066819342,-0.5745999313578585,0.6703866079609175,-0.12954725524143929,0.21894766321436915,0.650253008852673,1.4245085997673437,-0.8867194528809886,-1.4577007426453972,-0.5725251489928834,-0.8814100809705143,-0.2209876096021844,-0.8633159070731564,-0.9829894003344035,1.0594138921893923,-0.9874692228309537,1.1427724704271551,-0.43050718100470914,-0.8972439279491812,-0.0767692514398051,-1.652689171862998,0.3524915504218097,-0.40258670435083005,1.087895418505903,0.8981364918743114,-0.9497204583507614,0.5354657131496637,-0.805663241900535,-0.5262575515791517,0.11971960560883782,1.0208885166803476,-1.256303370524252,0.029008426583222415,-0.16062616264140592,-0.8272380073111649,0.6901040883907343,-0.8673779211573424,-1.2686692089937415,-0.8421278477323894,0.048373043340120034,-0.5794828105311435,0.8104845057290959,0.1737640500539482,-0.7576453125987528,0.6587315932684512,0.720889216098675,0.36937644855535684,-0.017928897703434164,0.2590495292304503,0.20323091331623333,0.3719651454175261,-0.36416434348665727,0.7796502894463277,-0.5495421304094538,-0.8463545547339574,1.3549148682409202,-2.4648727295628743,0.10744441003066389,0.33086146689531637,0.36136647994284415,-0.33039418704058,-3.3527987940795105,-0.9410499608508395,-0.007239628039094288,-0.9139282367711916,1.3838582036860638,-0.48198215570382713,1.0470358526593602,-0.9330358800596504,-1.1448081182144962,0.7713213926517822,-0.43853240607352933,-0.11295869504044903,0.279093934419359,-0.30522439485309494,1.287543493059932,-0.07892102127770685,0.10319745086569718,0.7522846998433943,0.5422571381753446,-0.7307608562091181,-1.4249660309270584,-0.48093641993223374,0.559986113778556,-0.2873871581830371,-1.1246846805565616,0.3209494520443373,-0.9899401889869909,-0.9879118432413844,-0.36461972864314585,-0.6822555459007856,1.0147795278291012,-0.2888131728122793,-0.27455396887970435,0.25778395520471376,-0.4040904039167415,-2.214916398696247,0.3544355314075446,0.6452486930248791,-0.13155555248209513,-1.4070125392658415,0.8905778013521977,0.6045863375776633,0.32625802653172215],"Biases":[1.4742236167040759],"NodesLen":129},"Score":0,"Wins":0,"Losses":0,"Draws":0,"Sigma":[0.006699674081803756,0.014961471720988157,0.015000672776024146,0.04646702658745776,0.03066197392237351,0.22466526422378844,0.05241606969199628,0.010587447085423547,0.006156961847825161,0.1321579640181384,0.0030524685089228787,0.024600418573990368,0.1802914223330577,0.11217428130003242,0.13334610655627724,0.11403660292836285,0.0023545045064063586,0.09602998321695516,0.04534040189418518,0.0412668031768873,0.041897851907641906,0.08266417971629131,1.086993953241904,0.009411536962269255,0.10401505046852817,0.011080513394512902,0.09471916772437397,0.010632032557739538,0.010911612110876164,0.10788657672926334,0.1850092966843315,0.007910741643984611,0.07893229000630146,0.024311162296765592,0.031336027068677635,0.0039163966866629955,0.0646254156943831,0.11341430375655569,0.05494323618707351,0.05226008757034704,0.023138897938286915,0.03218075649961188,0.028617287019870843,0.26431757463268324,0.5534545611223278,0.0479157938811157,0.07013031484224672,0.036480372762622004,0.07645118108752479,0.010228262199181899,0.03287953713948816,0.1043284006272736,0.31473125767137483,0.06682190608075225,0.0233648779524465,0.04409616466238352,0.011234890206892714,0.0044527954345324125,0.06176097249057482,0.1825684369944017,0.05527172402659917,0.2550772780179477,0.09206760381943413,0.05586435319671344,0.0056395465460482505,0.006073944247384459,0.06255629856797443,0.006625804530449049,0.027661241232400227,0.019051417076072916,0.0029722065097626824,0.016807946584050184,0.06155627857470494,0.2027916934469176,0.04841523602215624,0.02672641738492894,0.020944299963812467,0.017690661702136165,0.11258357126578555,0.07450243434202718,0.2596311699612989,0.011073592302406546,0.09093981878546285,0.018187244681431847,0.03866045835995849,0.6147128409055185,0.004374667766719047,0.05710916198398899,0.012573114018184927,0.07987559182916497,0.010727734717526883,0.08867829445152993,0.21944562952606986,0.136910250310636,0.02948193451166399,0.17237359223086646,0.02586746111654286,0.03176450668238993,0.05104128790077513,0.10313662630955067,0.3494521153808657,0.05290691209784408,0.030367480857758696,0.048032953838652664,0.2013341431130633,0.23905686155114453,0.527337849632641,0.025376753459858473,0.043091504492068805,0.03796803540482606,0.19696563848284757,0.1845073090741184,0.010595906848558956,0.02888855888767556,0.005047804831877114,0.015585075458733966,0.019195503102369792,0.043423419205399376,0.09545202687520006,0.00730945516559167,0.28717024079952064,0.0427442904774922,0.045888105527731544,0.2747924085133305,0.02217783499478035,0.16904188796776468,0.0243150127697395,0.03148149894905975,0.14503880682709994]},{"Name":"gudil","Parent":"vome","Age":1,"Gen":30,"Net":{"Layers":[128,1],"Weights":[0.22376140834641706,-0.3976777291153232,0.005317839864842012,0.4220420746118961,0.414745503606961,0.6924535584060956,0.1325529344325072,0.3873843205673253,0.8345483063954553,0.7447900011799514,-0.09913174101743472,-0.10565005579412587,0.805005065227751,0.09949981537813482,-0.2884834505049825,0.03205048133905613,0.4897789584821838,-0.6635364757743765,0.43483466577047636,-0.3163396260451995,-0.08430821147954745,-1.1182427992761086,5.057604835978085,-0.3931235302594492,-0.7838236498979542,-0.6573567276571386,0.2296058032394,-0.13194509810437016,0.24943903784727328,0.5568774426757995,0.9245446381742866,-0.9074179713029934,-1.7242068126651342,-0.4897038051763866,-0.8149221383017805,-0.2162568769133794,-0.8334160989699463,-0.8436516163764859,0.2767045788647383,-0.8563783051619026,1.0955800962883016,-0.24239938889322363,-1.130361839696429,-0.43130242308782396,-1.7389057173805331,0.6694441676342984,0.10097766558276805,0.8318487253389338,0.9738862935195413,-0.9225292899926179,0.48877905758109425,-0.8717684844337528,0.22873738557595094,-0.25970609716321263,0.9632420825927024,-1.0966671046774605,-0.00981610724963278,-0.15171702508229098,-0.803526760713233,1.1154052909188512,-0.699013844807512,-1.2671901490895519,-0.6578473591212325,-0.05512429692200306,-0.5822105096737913,0.8573994214695387,0.10063601121307786,-0.7773520243464286,0.6950300720002339,0.737833822219987,0.3824861024317735,0.0846999358675575,-0.07487389114332313,0.09282023155833997,0.5437446770822978,-0.3758779806139344,0.7672215600430051,-0.5503486293234816,-0.7363958690193743,1.4854144186080922,-1.5532426469601968,0.10553485205901507,-0.14216702781305068,0.407684055069694,-0.2183824708120064,-3.1350158227327762,-0.9500180048755069,-0.04762563080552364,-0.9683218109088316,1.084228033724377,-0.4522571018477203,0.9832941228773757,-1.2386984199604953,-1.2947772893912854,0.9465525062332586,-0.6146055203418075,-0.15458119207622378,0.139269004207125,-0.2503758152212207,1.274962254680069,-0.27767405936544803,-0.12851928233210175,0.7135742786083863,0.6399371744395752,0.09320713461105293,-1.40256823090122,-0.10624022744552378,0.5440895427862892,-0.5885776630341903,-1.01253514357291,-0.06345791686236625,-0.6027021895166822,-0.9661560755566004,-0.4225589847933471,-0.6726116094759379,0.9989061337449758,-0.14616228975375084,-0.17657289113067132,0.3409455376261097,-0.38772798980296375,-3.1400061785251205,0.4214452583922437,0.5815096517502458,0.19912846983414956,-1.5056017092820817,0.9853214834988018,0.7709663865888191,0.3578065013666389],"Biases":[1.2153180949482494],"NodesLen":129},"Score":0,"Wins":0,"Losses":0,"Draws":0,"Sigma":[0.008584172781321226,0.016318315016482943,0.01610187243676438,0.07258480317667529,0.0266114207979428,0.18869233846635086,0.07310105176768572,0.01045519822723913,0.0050419407403457656,0.08853759728825646,0.006522281918559234,0.08587488797742482,0.10936710079390709,0.12008134564722588,0.08626418330790549,0.10601445082127331,0.00500389237629468,0.07259983311464953,0.08198605242171961,0.024421511205617995,0.04048339156138556,0.17811873206307022,0.49045274325694904,0.006180480756427862,0.04600429430957208,0.014656057113722596,0.191644516618821,0.011801954582123289,0.00815191829794466,0.08816966879709297,0.1966249746880188,0.00825414044702723,0.14698219979383528,0.03955919814484036,0.035366592971325335,0.007551240179796947,0.04292197214225493,0.06429357999504202,0.137516710126391,0.02819919167604481,0.009691401511526164,0.06433544764012938,0.09030399741096339,0.10209117338888955,0.5706779916692937,0.08841195390311606,0.08696279801212702,0.0630192206063776,0.058389627484655156,0.01295986143418277,0.013521399552850913,0.045949436499270094,0.0733572380009025,0.062418375937394126,0.022844549455754162,0.0383382121994045,0.01425098376287261,0.004544824978346512,0.07806760105569026,0.12382477894521682,0.08164862942629357,0.3089679476456987,0.13450554084292146,0.034064621168693826,0.004236239421122563,0.007335111648734252,0.03256676144769662,0.007994852707562908,0.021766604268482485,0.0315401743095838,0.005279641483083979,0.052402990408097316,0.08650517260404036,0.11636173359785702,0.04577790626341109,0.024018407790248178,0.029375703458489524,0.012818553954970254,0.03582930209086408,0.061790755280798235,0.319200766288164,0.011533639358594777,0.06768346107907709,0.020009095492210485,0.04980435056642497,0.390806186905868,0.006227805009794404,0.04754655941019461,0.027372670336419016,0.039981536748167214,0.014217948172588373,0.0617119984543534,0.1549760714347278,0.16966698248681777,0.04416946650566987,0.09466051624170171,0.023497465182162707,0.05618317016771338,0.01748830092962333,0.08251071472295023,0.22416688680628258,0.05699205933322845,0.03191362241555359,0.039332324794675036,0.12156469954540464,0.41152575639199174,0.4268317198072863,0.014965295212524552,0.1454503324137709,0.0323331279659862,0.1423996522239246,0.06718423875915672,0.012007793848720288,0.030611439390384767,0.005037329824163993,0.007839796161212515,0.01834700791384016,0.05012619763604996,0.06960330577253022,0.01303748996893956,0.3128489319337145,0.017926724745189308,0.03033578860599337,0.23987822146023227,0.04924950288247103,0.31514920915501304,0.09391892020678798,0.03138425803683934,0.07015021865874087]},{"Name":"bynyt","Parent":"diz","Age":1,"Gen":36,"Net":{"Layers":[128,1],"Weights":[0.2583763005282717,-0.4148809970613271,-0.011342589376234415,0.4458542071467263,0.4211926513540845,-0.043073782293754775,0.31031466117736445,0.38694607441004175,0.8424238141099099,0.07782915133363347,-0.08057481076202114,-0.23060912555800064,0.7487975938993001,-1.1743582511747959,-0.32472582352601564,-0.11695451734889085,0.4996884731562679,-0.5668354961931904,0.3483413250887939,-0.32285363154054647,-0.06265696490557615,-1.0778616230941964,7.271246724979584,-0.4207868227643389,-1.0317205460486387,-0.5712356726414686,0.5079519664311745,-0.13220299534859853,0.23270475841311467,0.730266798155297,1.457948469283919,-0.8798405438291511,-1.462488823160746,-0.5481463170265184,-0.9137135430162084,-0.22262273954637743,-1.1031877785196962,-0.9547863092726456,1.1391003711431,-0.9559169767632042,1.1450210395907652,-0.46884926031098134,-0.9119374995616366,-0.09582184420032733,-2.0660292707319705,0.39209490194697505,-0.27517132744313627,1.1572552904749522,0.8428269286189355,-0.9418311619974961,0.5314420387424239,-0.5458933990623482,-0.7119416048466418,-1.61676744533934e-7,1.0373511244296165,-1.1312085859656194,0.017345226245609573,-0.16061909536813754,-1.0175664216233231,0.7177289153367397,-0.8579609744186926,-1.0465788366302662,-0.8225504698123667,0.05724514180465664,-0.5780614048178458,0.8167770685591136,0.24972314601741213,-0.7522765522602691,0.6338300339779503,0.7034910844852096,0.36967734949904785,-0.019865083604514312,0.2915884152051853,0.4253949159256747,0.35548976826293166,-0.38534725141706583,0.7663012842660272,-0.5597928219029945,-0.9289619724585102,1.3743371489299214,-2.250815239966041,0.1101252925305008,0.32839137272854657,0.32368398161070044,-0.3291989042746691,-2.925114137436859,-0.9440674844123056,0.02796179165320791,-0.898899212945716,1.2379191330539034,-0.48111360108569806,0.9771578171893571,-0.36904297445862877,-1.3417656534737483,0.8502184945484916,-0.18429224738523486,-0.1132634217229165,0.3027598550833591,-0.49017489880811344,1.2830165583749293,0.0640354335600659,0.22871261463764947,0.691844045117145,0.5586994681879593,-0.17763005786936825,-1.6123857270714603,-1.2440362564066672,0.5617671021696077,-0.23836928332371046,-1.1628815921145579,0.4548543938524512,-0.7122180692901864,-0.9979129423978501,-0.35874168636781867,-0.6832975594728822,1.015131097306232,-0.28158611661049815,-0.2831127147643961,0.2848900731057316,-0.40506804796308615,-2.33348761276405,0.3186811935877946,0.6043047693936464,0.248667921459132,-1.4199978904931663,0.7079742848915667,0.6234504841200497,0.2846997374650402],"Biases":[1.4931463355349737],"NodesLen":129},"Score":0,"Wins":0,"Losses":0,"Draws":0,"Sigma":[0.005231985659945906,0.015458128652838483,0.012289884606506127,0.06597381899893892,0.03398650893992772,0.18703723881333212,0.0517114904920304,0.011948002082665289,0.007018598198293702,0.12193046582224727,0.002821591287048913,0.020718142062706387,0.24850905995957911,0.09769764906924364,0.11699470232397632,0.0880060014704168,0.0024036546047161516,0.14145477082126182,0.044617988123289994,0.04234553872857775,0.05070758775298358,0.08302691716282765,0.8980493202150768,0.012171388972769863,0.0844222287670625,0.012064290642588273,0.0927151914451614,0.009108391407590689,0.01208884781534474,0.10147065441158556,0.2640133214892681,0.007824209472580309,0.07300379574117939,0.025044850889983608,0.025153548987436998,0.0036979131567393157,0.09770962983226689,0.17895907021695476,0.09398452110132567,0.05307734879131201,0.023551442405248577,0.032130365269656534,0.026113695832089882,0.26158263607890064,0.5532778638311602,0.03376581912005109,0.0780161779604395,0.04227410372258957,0.08701711957111363,0.00936385053703943,0.03705086208822711,0.09553280525567351,0.327903753122496,0.11486320644048752,0.03032664773389117,0.04471240426456536,0.012535521656403672,0.0038700976461971794,0.07706009070873769,0.16769646470790056,0.054970160659351786,0.24598113482548326,0.07185981257798763,0.036674977705629996,0.004897627985669849,0.00723498026135945,0.07709160516408933,0.006767337029565623,0.02489295349716415,0.01910536084715898,0.002977723160549047,0.013351498760805347,0.06875672703283972,0.26747164452775174,0.0434124930130795,0.022388017733850085,0.021921845429918166,0.019297219235718543,0.08805235612388693,0.07810633275166898,0.24477680307282834,0.007980680970625788,0.11489182495456401,0.01950652270309942,0.03875010782328854,0.650499197184195,0.006751892430316388,0.041841787230849345,0.009747589085709215,0.09907636235854568,0.014430450279141646,0.07749932936144018,0.19932513447742092,0.11602790602831525,0.03875366472682475,0.2477438577830589,0.024134155400778425,0.029331663857378093,0.07367402579767536,0.08042280224710498,0.3653476534704958,0.06096803114659397,0.02948772172298793,0.03979426827278071,0.22222102741709998,0.23470708358548725,0.6722271748488483,0.025048586285750022,0.0684473329548918,0.04486349296640902,0.16463150058413964,0.2717900210497206,0.011397987660170488,0.029972930741676968,0.004916622391110191,0.015042728198483022,0.013028581994996912,0.043261436211147274,0.09120351700132674,0.006689791620913002,0.27404439775165795,0.03329091252877863,0.0528650148179117,0.27619502024224274,0.023287886386947163,0.15604441012432213,0.01933471636648718,0.03561696542536779,0.1362204429526074]},{"Name":"vome","Parent":"ryv","Age":16,"Gen":29,"Net":{"Layers":[128,1],"Weights":[0.2273859877060714,-0.4132540138013699,0.01571080934595263,0.4907230298680646,0.4295551886176753,0.5915819695539034,0.1891308170107913,0.37837292049121146,0.8365497144785974,0.6864143915532618,-0.10505415897434234,-0.2738679607332233,0.7803615148042862,0.04570233237818969,-0.12249888798612858,0.0034339712989491233,0.4939559378117823,-0.619624664799219,0.290880811328755,-0.28965367289432153,-0.07037228357659997,-1.1541583927635386,4.394156200031731,-0.39114642143640327,-0.8649757037233616,-0.6466090954777148,0.49303307930786167,-0.11978073611597972,0.2456233734011482,0.6016771074702557,0.8990491325432539,-0.906665922940349,-1.7981344019731291,-0.4919534098350813,-0.8503665635700599,-0.21888738469789462,-0.7264249825724138,-0.9376938835767102,0.6022484896675666,-0.8273354366213074,1.0935015945872852,-0.3751907645238518,-1.1476442009855221,-0.514863913007118,-1.0353363876238504,0.7473203286388329,-0.05720169622775151,0.8339687790159015,0.9167003538625644,-0.9405718780117481,0.4890486763588457,-0.8454104487698708,0.16742734752121385,-0.2895666529646721,0.965502103232457,-1.1527628553883524,0.008461487230180195,-0.15050235547760396,-0.8469131338326948,1.0038020482812875,-0.7599858454536026,-1.1231586662232387,-0.46608700525883345,-0.0352450787545144,-0.5823081239109158,0.852808834287045,0.06377043896014632,-0.7669691064453188,0.6907373690505096,0.724816516544585,0.3786934183600824,0.07335922411205212,0.017994582853959516,0.04667801258941439,0.5257848101973726,-0.3975285420287665,0.7173925801437988,-0.5379533779590632,-0.7620924980803475,1.399943773795175,-1.8747969610896034,0.1060913936212114,-0.09946483471897587,0.3826472751416226,-0.2652189827489095,-2.112601707212242,-0.9508541825123203,-0.05196243144836608,-0.9326536741466342,1.086514197599888,-0.4563894147533497,0.9250755843879054,-1.2208955975907592,-1.2873616434789494,0.8776592297921798,-0.6542312682550833,-0.13520283281232578,0.15471395478221708,-0.21421028147672921,1.0504044401875765,-0.002204368360568691,-0.07883564431336386,0.6550430074422491,0.6214086561710339,0.14336032934700876,-1.3263941448594494,0.08840650072336886,0.5233139458909815,-0.3868360430188319,-1.0396484342055472,0.0009820211522750533,-0.6416746614709194,-0.9656597216303126,-0.4651837720920085,-0.6783373136310457,1.0094104887106512,-0.16382257840454778,-0.21905035170924667,0.38204015624673876,-0.394576224162246,-2.6289103999953385,0.4019295684318152,0.5600298111899065,0.33787530020411605,-1.5273163951613662,0.8442096119645508,0.7834040904930324,0.37489316475047296],"Biases":[1.2198548344367748],"NodesLen":129},"Score":0,"Wins":0,"Losses":0,"Draws":0,"Sigma":[0.010896077768510593,0.02433730488556495,0.01699927579135383,0.04781822878426876,0.029750722526626534,0.16723833436367594,0.06364457615842362,0.01372003086194476,0.005953420327346717,0.07949959821980691,0.005916948996130571,0.05972566065906563,0.09391728636513806,0.14758989896532218,0.09703821760616343,0.12482974101478064,0.005209189347744327,0.06963321886408794,0.056373524834240546,0.04650658547987403,0.048577661852612704,0.17381859544168243,0.5297176207309118,0.0053542735348161685,0.05820531888969034,0.01244779542905337,0.15882353760164297,0.014079167529457074,0.009815025973957248,0.11135946771630818,0.17936480833678048,0.01087161923085058,0.13082539830120032,0.03406204383828206,0.03343233120419893,0.005971112977596036,0.05962145767857807,0.058254790660392,0.10581387738017071,0.023515374732581425,0.011270263802639058,0.05020633076545534,0.08940655702820356,0.09658359388673608,0.6184284882411468,0.0922707014812527,0.09520778773857043,0.08068134536772023,0.08027496567408048,0.015026357526984132,0.01702047171453681,0.03728288975417429,0.07395025935197021,0.06691314754211321,0.021840703307936797,0.032045690923134584,0.016752200892407705,0.004592579588204248,0.06463231906368576,0.11710112334927499,0.06746107865554153,0.2953717591288935,0.122910222328056,0.03114244155827352,0.0035257552280642014,0.007105466319267058,0.031354388795122916,0.006773136584931022,0.02074367475731672,0.042695933612147095,0.005321772977947527,0.042513556047482075,0.11027617385232343,0.11095619913827283,0.033367245183896166,0.03272401047090634,0.028696679575390658,0.012448424611252881,0.04042518892202662,0.06911881494172821,0.2664088637959996,0.012944380948408742,0.055898050033210224,0.01973201809941387,0.06447391822225926,0.4573476314097724,0.004726315702404429,0.06947436384908778,0.021090141362986904,0.05795625069127668,0.00986388329742927,0.08234079437607719,0.25958444808289755,0.15611206967183922,0.05380469291122742,0.12376355293118674,0.020833180567827164,0.042685383673028876,0.025493238140653417,0.10032058418709698,0.2361009215946314,0.0694545303250193,0.0322568666741291,0.03297815494457961,0.13580635372741567,0.34077365561832224,0.4572171771145483,0.012524471202862344,0.09794411429001633,0.030865961511384512,0.15003988996990306,0.08572115071448504,0.009992931208851183,0.026193175518089844,0.007778137219657087,0.005966809884343513,0.01385856077514489,0.07093211518613304,0.11054826524420483,0.011787737937140504,0.3692194837131035,0.015883277610590052,0.024790721413068956,0.22579549130097254,0.06795750969980784,0.2741630985246159,0.08545948932625849,0.034446706157959694,0.07041871726342173]},{"Name":"curaq","Parent":"veped","Age":6,"Gen":34,"Net":{"Layers":[128,1],"Weights":[0.2519258967706479,-0.41248672015466453,-0.02785167598553786,0.464139681445417,0.4474548061935153,-0.4446505981910567,0.2172334312136918,0.3707744486375773,0.8330921305614692,0.010740416332002373,-0.08834184286645842,-0.20498878452765568,1.007296868352036,-1.1450185523858503,-0.26431397959734193,-0.2283086340222068,0.5009582832875048,-0.7307742826301056,0.3358801046975193,-0.34506448203137824,-0.048653483467890134,-1.1118210764486085,4.929743414689527,-0.4051235020001142,-0.9527032099599736,-0.5750807861517079,0.7350164816465878,-0.12479504558341212,0.21203215998830177,0.7464391464096253,1.4609043906360437,-0.8798297724396161,-1.4460735047405409,-0.5512948752944702,-0.9111152802311518,-0.21984960314922214,-0.8431395790541146,-1.0216424265934463,1.0566111118786627,-0.9497004495037382,1.1252350279344965,-0.41075051176632615,-0.9051140012080443,0.03745821433661084,-1.5545548916796805,0.40481125124352385,-0.3568460905193994,1.0946802473998318,0.9218648893281088,-0.939989996634772,0.5021147559951823,-0.7764870945691312,0.20699862132386143,0.09921899196506637,1.0282373814690082,-1.2758436440400558,0.02501484059279009,-0.15065597698730762,-0.7995524453622964,0.7423526063539975,-0.8820984636026798,-0.9426056718591338,-0.7426072298879149,0.11181028623921938,-0.5907713254563391,0.8075915368017177,0.15502977195785278,-0.7660983900902895,0.6525235592091168,0.7159878325751768,0.36603828836275687,-0.01092339322859993,0.22195223405948802,-0.056006615476285146,0.3767283786842923,-0.32791746223449375,0.7260955820317844,-0.572838709530173,-0.916841158599805,1.414492986220968,-2.3898870982455653,0.09946694616259426,0.15256823688554116,0.34735158003320477,-0.3090274921348388,-3.7923319048805184,-0.943779352258656,-0.051373550973126104,-0.9091639114526019,1.3130970744580337,-0.4649476909688804,1.1996435942358068,-0.7004424984097998,-1.0603201123444062,0.7490782855973591,-0.7261510270040724,-0.13682417582458098,0.20836614898918016,-0.29278889702654715,1.2312291802158943,-0.0719995584849171,0.01581696118550091,0.7586200066177908,0.5598301642904108,-0.44308757049110614,-1.3369183061183798,-0.3282113518009111,0.5618818777968857,-0.16241316619482557,-1.058113843649959,0.12180764302034995,-1.0440807795709262,-0.9935138683271193,-0.37413000584628653,-0.6820067572307402,1.0229292311682145,-0.28922543216684427,-0.3635755436617328,0.32035626980773096,-0.3961190801680425,-2.6239119130941,0.29644756647142745,0.6484059216797292,-0.3095318897983046,-1.407334920475854,1.1065280494149874,0.5934549712640461,0.3198190685734813],"Biases":[1.4998847780561322],"NodesLen":129},"Score":0,"Wins":0,"Losses":0,"Draws":0,"Sigma":[0.007715724290990782,0.008567044532663014,0.015647004735081217,0.048077555877668446,0.0285573107831425,0.26081070952828384,0.032825243379164364,0.010176882458036208,0.009568328022881673,0.14238766585507795,0.0035439205286901605,0.03522245611838984,0.15782757272038608,0.15876172113805329,0.1304795962471723,0.10014205867092558,0.002683676872151896,0.13839403070724035,0.027556047079107224,0.04472435993591611,0.03325988614167313,0.09623725606774468,0.9319761652276047,0.009462607629206438,0.07807497182746902,0.010685565768316542,0.14229155676922517,0.00859744286897811,0.00936846596406465,0.1079022720770905,0.1821798360073244,0.007252843680114455,0.09644601730094683,0.027433652169682042,0.021985394295331133,0.004013448115002685,0.07600824072603035,0.11733876330348704,0.0555357750412591,0.04484972995523779,0.02259702646653138,0.03715558345827159,0.029201186175497038,0.249993692523538,0.6359024342334645,0.05037596111519526,0.10655933472216939,0.04422429209727518,0.06232503295637876,0.008007995750990636,0.026390356957900356,0.08106015636700284,0.2575863453306512,0.09442775655222775,0.016351497051149685,0.05672406313536898,0.011525923091343754,0.004021951373361545,0.06068319089635592,0.18435808503507808,0.056839459979260286,0.3247623395330686,0.08970545313825151,0.06003613247401863,0.006465616968964091,0.006632260327598584,0.04826851892441344,0.00813650934391441,0.023010459026435406,0.018494469968929485,0.0030289767765915568,0.021242386027771842,0.06350827543448916,0.1409061653649781,0.04273983487489393,0.03102645009674219,0.020992608094149198,0.01789415367010023,0.13363899242309615,0.062265939368423506,0.3296790287473699,0.013107568599265956,0.09386828173759415,0.015150251187047385,0.040969778852023325,0.6946311911630199,0.004374188361532082,0.05628375429726936,0.010858708201468593,0.09863966157896505,0.011642039069855625,0.10652268292507858,0.2289877013335815,0.19212383215010878,0.03321351400056863,0.13004274197768453,0.028681900294976994,0.03325528714046973,0.0550737298013719,0.10464138954157659,0.3371719722511263,0.07221666194903806,0.029422346160027434,0.03667661238501784,0.1577888385229905,0.21691166566116316,0.4957429772591094,0.028535628973896932,0.053684265871964884,0.04511402440993012,0.17861476881163,0.1324451903012949,0.013290064039530017,0.025150681703634038,0.006953657431124377,0.01605401764332838,0.019192538851181017,0.05951036663712537,0.0954904760709216,0.0068187236340374975,0.1922083229745514,0.03736771056789657,0.034963341645552,0.2446862062488968,0.023391657593906875,0.2460562638435683,0.02498037276030514,0.03402351829429277,0.11236755952505657]},{"Name":"xocoj","Parent":"byzu","Age":6,"Gen":32,"Net":{"Layers":[128,1],"Weights":[0.2393723831319808,-0.4174698263198487,0.024421502445929038,0.614499055522011,0.4147742215293821,0.6848368633216161,0.1876965335931043,0.3923366178815619,0.8455456900750176,0.727414896279633,-0.08979671166979243,0.23947039404573842,0.9071146016933553,-0.18496607656457262,-0.1580390692067316,1.5097017180607315,0.49244104606928624,-0.3733923957542135,0.2699252578054309,-0.3275404136704687,-0.47195300740759716,-1.055658970120263,4.906997578875527,-0.4000195262569323,-1.1138843702318733,-0.6171092061980372,0.5562340719973075,-0.11776560536595017,0.21616132497810472,0.8407545428884423,-0.3362972138125459,-0.890065650835092,-1.2537364112483442,-0.41254189631765803,-0.7778858994088473,-0.19532291328409554,-0.7349306523123638,-1.0268138888715066,0.6119411253201881,-0.924267985599962,1.1671249052623436,-0.5498332699499239,-1.2942265653425917,-0.5080530916012564,-1.5523064924780465,0.6035549899258386,-0.03284314803043872,0.26453261813434803,0.8732421521164275,-0.8808581077607562,0.6362234387885622,-0.9359756598955442,0.09778687768524016,-0.8255704264940212,0.9600445247200744,-1.0799728411812546,-0.03948180494778485,-0.14952525807990766,-0.7680754110354622,1.2748500304289716,-0.6900458325489777,-0.6239545726069959,-0.39903503422814773,0.01586253944000844,-0.5748872959403956,0.8631517058158658,-0.05413813244156267,-0.8043798218023243,0.6804545591711922,0.5845833493067938,0.4018027752432444,0.36712739820407697,-0.08277869503919069,0.2620458004258267,0.5298734407619282,-0.3537555783252407,0.5597251130554785,-0.3935764163681066,-0.865667583823507,1.3311089662651174,-2.820707363763952,0.15855779424950037,0.1708895657734142,0.4796154624759351,-0.33324725743352596,-2.4352043267317964,-0.9333262470804577,0.03973138737821627,-0.8655955756417563,1.0039580436647253,-0.4615151302282453,1.1515682372054814,1.2348259301992512,-0.7845122056883749,0.7391063306321788,-0.6792253166892901,-0.07586812879705876,0.12906399880174824,-0.2361341685368623,0.9575263615354795,0.1196691555697561,-0.17934818014250317,0.571938373603728,0.637561010230567,-0.15610198691809835,-1.1164479506114107,0.5012882508503391,0.4906285554669879,-0.22220848938405527,-1.212422427676052,-0.01877360703880529,-0.6564132512903524,-1.0157378481241965,-0.4390166934806697,-0.6792180422987226,0.9978995645685912,-0.18404115294611798,-0.5923426599618646,0.14672061770986697,-0.3997872873295987,-1.4485235996235695,0.3867323350214077,0.5593785210600357,1.330450564654141,-1.571249977718316,1.0225387708968783,0.6602945846427173,0.5726492676828141],"Biases":[1.617774843044381],"NodesLen":129},"Score":0,"Wins":0,"Losses":0,"Draws":0,"Sigma":[0.0070752970928387345,0.024783043456964776,0.007558173872492253,0.02580812672793382,0.03363262170882237,0.17159984624667515,0.05774306449597315,0.008186616957541285,0.00793731119146162,0.0358868733130627,0.004750342494809442,0.10848840254980417,0.0938455051843386,0.16285591196221336,0.17804582477404457,0.3661730756686528,0.004323469893626975,0.12726248023801537,0.0392514511521379,0.04616897144689599,0.1384588584409143,0.1984630416417406,0.9299073020169818,0.0029388066813470443,0.06552633850969375,0.011220802568957312,0.24562814770820943,0.008446973792256018,0.006421722808701452,0.05520703602216939,0.3755895055133677,0.007350658215565224,0.11151670103023403,0.025180309826610625,0.025882233170319072,0.005522798256920375,0.046673862521804665,0.04725392492942378,0.04430578258493457,0.026049718127428532,0.014111197762056906,0.08051129465852112,0.14089239499898448,0.1102489678922966,0.5440716907308989,0.07532215653658225,0.07574695267418802,0.08523463890259596,0.07900731114714184,0.012429521026193394,0.025493829358066968,0.04172772881951051,0.17475446201560943,0.08561220314295395,0.04507758527075092,0.032096494602327094,0.011472553099989548,0.006735622392905471,0.0715655838546524,0.08978670492642171,0.1193573915212067,0.23435541278981628,0.14188027512935517,0.020322857757748728,0.002065070410172982,0.005117553618500399,0.03356081864053354,0.006652194375883879,0.013925407354655823,0.041643594533379374,0.018281729933907524,0.08025536410023569,0.027199199168141407,0.09232502575807257,0.019971175088662987,0.03842686415138619,0.042644609507764324,0.015501326941589908,0.03540726523280758,0.046972728244547464,0.5152819137211877,0.008816355908937028,0.08813785211026381,0.07124716187606747,0.024796346737354466,0.6063872042786548,0.005227893441135565,0.05537805811504022,0.03342080827603928,0.04079422422006982,0.012945596600245139,0.058513927037499844,0.5577694339991038,0.07017655143232936,0.03435764015084107,0.07602184387071499,0.03621667284086409,0.02706079008631133,0.053820735319621525,0.08683267740517074,0.24763711722785625,0.09066047732837172,0.036786386155746455,0.04262576413538986,0.1043421129200365,0.3330003462270414,0.22377304763209785,0.011541630670899397,0.07860729181382373,0.0310363062315829,0.1057616962690235,0.10753212715433684,0.024465855402044736,0.014631704751575887,0.008913276382541455,0.010650861638547712,0.00369582316218936,0.1292766995853941,0.05780103263989813,0.006810186088740478,0.3823440956602094,0.014000942323114766,0.009526018063324275,0.262140555690677,0.057757638583201876,0.09118142796664912,0.043528229622188025,0.05793568070215457,0.27254023751091944]},{"Name":"vyw","Parent":"wise","Age":2,"Gen":35,"Net":{"Layers":[128,1],"Weights":[0.1610794605668045,-0.32999962179648945,0.06485864363579794,0.5326663734190221,0.38391194025716946,0.2188693489061554,0.2719812899138645,0.2921380814187181,0.8387622546115747,0.7975740094434445,-0.11140487310179996,-0.4878183864498826,0.8844822605616753,-0.17297633850904667,-0.22320525293449225,-0.6897728377612867,0.5282069145737585,-0.8407291298158058,0.17195751865352765,-0.5379471584174256,-0.1764574494507593,-1.7388293540119637,5.629753245406708,-0.39293234804719723,-0.9892854532517261,-0.6515161152540895,0.9547348553228224,-0.13804683319182443,0.22741525508603386,1.0489068728482085,1.7740184735856948,-0.9348151792942727,-2.1214227215708457,-0.4628434495055497,-0.9165689547061472,-0.22183054051087897,-0.7134377895968557,-0.7368131227419764,0.5660163527235186,-0.8590727652744987,1.1556930996960597,-0.6703583193093346,-0.8937042596933396,-0.32019872743635863,-1.3184327910582896,0.44482630428738185,-0.2826420151170007,1.2286370348048026,0.9000901364685615,-0.9406569733824792,0.5268468566968195,-0.9528123088483678,0.3748803958507639,-0.15922901275329354,1.0146319848631127,-1.1387558691420225,-0.02693706540436514,-0.16823937960255209,-0.8934172969464035,0.3547654136685603,-0.7727867523007705,-0.20953420375320977,-0.45242810795638816,-0.009996781476463299,-0.5773744345532031,0.8481514642147179,0.13632357687642963,-0.7407504917458742,0.6417809975569612,0.8533148407012413,0.385094840734844,-0.04270150262342682,-0.2685842643160348,0.7107574029978393,0.6482806275165417,-0.39609529653598374,0.6468977682247734,-0.5262925843934075,-0.7330092148136925,1.5882806331054655,-1.714705427984613,0.1025082353457945,-0.1832813669775792,0.46792171112420816,-0.19603950363165235,-1.3317953712506574,-0.9630219873232402,-0.6495327021709213,-0.9703937628125947,1.0305930395972467,-0.47950557485403705,1.1488099048005647,-1.075599920950201,-1.6607308429697383,0.7612376108458825,-0.5040645255754029,-0.1816185971271495,0.1579003219875069,-0.14684505999329414,0.9233127616869391,-0.8948214012962578,-0.009992447444439011,0.6091535881004989,0.6161461607319418,0.017702074626309246,-0.3812224889835166,0.10806578707912703,0.47689060452594273,-0.6469148885426651,-1.0803941962218964,1.0761050668850733,-0.4346818035499455,-0.974076161926085,-0.5114483588858926,-0.64850179061177,0.9896473061380249,-0.21402636895996768,0.03201536750413463,0.5220827050894459,-0.35977284425762684,-2.5167290886737756,0.4191835860067748,0.5579277560943435,0.13497327242924617,-1.2769158221056507,0.44957614371662,0.6860728030505323,0.493074350559628],"Biases":[1.5736445899574472],"NodesLen":129},"Score":0,"Wins":0,"Losses":0,"Draws":0,"Sigma":[0.007867298019512135,0.033060970432867036,0.034964199536499097,0.04879585910963948,0.04589909078557586,0.27295866659262913,0.09800405081378015,0.034738663573444545,0.004165453557054653,0.11373653332107965,0.0034181824554346415,0.018701338575828532,0.1482918687510003,0.15995855504337386,0.20291028643384773,0.18534549765701339,0.014287058405259602,0.03391073369492495,0.021655529316198456,0.05244232932263391,0.11214697179359842,0.20394170483258925,0.7438321710758077,0.004054837770721618,0.03529791272854116,0.003994774250171609,0.2054442578614918,0.019154295730579134,0.014506549684322568,0.10050076338115033,0.205877778341925,0.018769891831115704,0.1957324238997908,0.05233848010672062,0.02343647470078277,0.006165604838289863,0.047792635344027105,0.12394993827205077,0.101502534815039,0.017672990049390627,0.01577504470718897,0.09251214271294637,0.10575769083899753,0.12355626357662058,0.35489660602874484,0.21505379416157033,0.12208079989253863,0.09634886702542975,0.07008887691808173,0.012821514452498156,0.019293538845555736,0.09952490127143973,0.05993060605940929,0.03491258595615465,0.035576435738343216,0.023363532651013614,0.02720794338874117,0.002624206092144095,0.04173808108521699,0.15443398305080355,0.03361268335300545,0.23461370262105752,0.13318157430195873,0.01700457786349669,0.004879691087715961,0.010998539847095283,0.014665329263191165,0.00956210609277247,0.015585358153621913,0.0436233791228682,0.005576171748320452,0.05013386509747524,0.05310022306339476,0.15149261111337475,0.022597715351371735,0.023952198792312106,0.01930911760853224,0.017935520176496217,0.03382860422074745,0.17534116007783973,0.2061357330751269,0.004727519765460729,0.11489916924166982,0.01803829315234621,0.043701607199264414,0.2607181191791234,0.003324002565514985,0.06470650392366815,0.012928651703001372,0.041988646744923044,0.006647766337535647,0.05410184344081726,0.36300770695838697,0.15137343176956697,0.04509347183649041,0.13086472969725257,0.015089622997276703,0.02877023605835838,0.03608475550671837,0.15494660137312888,0.25540670742001825,0.04963161332915589,0.019007186525318125,0.018630449056625698,0.1872606431810221,0.23869385526713094,0.23745492364113047,0.012466780533821989,0.0733525320743727,0.012220609901898135,0.37856786034691514,0.07931305112857787,0.00655793092857307,0.031948702034160135,0.008223453001069633,0.010613593422445762,0.011984134705311298,0.04576044779330029,0.08693099332815721,0.0168720211519707,0.5430790165274256,0.03040987873146621,0.0197609605690982,0.7660181216297723,0.08636211272080746,0.38735807298472014,0.13772885677407445,0.09120405938983671,0.0616878237200556]},{"Name":"lyhad","Parent":"veped","Age":1,"Gen":34,"Net":{"Layers":[128,1],"Weights":[0.2441712143419553,-0.40956767326619564,-0.050225820394130316,0.41507863941499895,0.44307386522816117,-0.30980809706373613,0.20306245679055657,0.36897660938846505,0.8344529344741717,0.17492020866280106,-0.08861778346391365,-0.18100136643489537,1.3915467894317475,-1.0211954735877338,-0.12379636968563776,-0.22666067150609195,0.4988110001829652,-0.6469976726837271,0.35354025913350645,-0.3725040145350085,-0.07626006780746003,-1.0396416671105106,5.135634390268338,-0.41303928709428583,-0.8629306744712983,-0.56212042576237,0.3703557598761195,-0.10654173265716818,0.22779884680070672,0.8662490927667638,0.6835609852112848,-0.8830740858983654,-1.587347092288191,-0.5899366080193216,-0.9215709286934239,-0.221199526805729,-0.6715261836186829,-1.1066134007513646,1.0747479237462387,-0.8750486893931319,1.1080266839372923,-0.42481757573367906,-0.9237786511775624,-0.04743544288049978,-1.8529947105489777,0.4432708884687498,-0.4259980856351395,1.1575492563002652,0.89970372923196,-0.9304904818717031,0.5728786502779226,-0.9173415302720882,0.2782345787877628,0.17080107097747174,1.045624281961673,-1.1916590712520947,0.0020143410407157565,-0.14541533217287744,-0.8038354512338972,0.8288875868104206,-0.74493460748989,-0.6289165219513174,-0.6574093533029751,0.09960955814101484,-0.5721083052449731,0.8301805693938206,0.07885565019037795,-0.7677942399570976,0.6416844514267874,0.7235321267698587,0.37590396734164677,0.003225703439320049,0.1472181781418809,-0.08905572375858868,0.4379622608924648,-0.3859768349948347,0.6896283945362591,-0.5800494812329493,-0.7318639419933297,1.4368373379811352,-2.6508110976819825,0.09897378002103248,0.14999857720596016,0.3590963713432259,-0.39740614867496515,-2.8362498123857485,-0.9414590507742877,-0.0024442202583016756,-0.8952974097108076,1.4583659684841308,-0.4790988214805165,0.9871148235365372,-0.7996621970221915,-1.2142538971114945,0.7148243617226073,-0.6620972119378863,-0.15170954004606071,0.234646505846412,-0.24431347477045012,1.260016575090117,0.636174891375158,0.05336962627124435,0.7881387941527698,0.5824680950606275,-0.12940205337581825,-2.038687025321077,-0.4297899586639067,0.5637457241568772,-0.19388309380261026,-1.0454046324461101,0.05068529590173057,-0.9067757515228694,-0.9934188676456859,-0.395964291939279,-0.6885878765337127,1.0157929969422463,-0.27130194732011514,-0.3120101333907651,0.22386371733342386,-0.4119439855917648,-2.6614933089573016,0.31991104918129015,0.6296910341107247,-0.8945654453324843,-1.4161426724815644,0.802594359864682,0.6580090440960666,0.31990444075147945],"Biases":[1.5194047203071577],"NodesLen":129},"Score":0,"Wins":0,"Losses":0,"Draws":0,"Sigma":[0.008375056757288554,0.00870987270198708,0.023120323387143427,0.05191475021174008,0.03074120502547298,0.26255922377735974,0.03068980312407259,0.009277063514945783,0.008267034727653387,0.19362321576046831,0.002099588109315877,0.029336965399577673,0.2670064419111492,0.17215308803193968,0.11319772817499982,0.10629566084599097,0.002119489173830016,0.1452802398659286,0.029792063920741758,0.03553726137827402,0.05703269422157397,0.10123550626248821,0.8194990660760085,0.008099914683648653,0.09573192422213113,0.011979653816272612,0.18381259857261842,0.012553089986731962,0.008595455686244435,0.09240844395684024,0.20931037128730348,0.007539686285364538,0.06479910902620875,0.02505618080851697,0.02481248135256655,0.006184116973743078,0.047408759864084646,0.10616119641069906,0.08049171211388993,0.034345540020900435,0.027581357087568877,0.02848673682225036,0.03144705566998099,0.21179657518817638,0.49458423521633565,0.0827406262983749,0.13533005664482042,0.04883433003353785,0.09586037805821264,0.008120296600831826,0.030640125333078357,0.11741077356439146,0.22424830679916885,0.11649906588293146,0.016201464849896218,0.0685335048284676,0.01135140246292368,0.003982333155099488,0.04859862912819641,0.18665887198112371,0.06194136425892866,0.302487654569763,0.08107795938397619,0.04679485266666663,0.007977732529962868,0.006762319601600415,0.045099274854679315,0.00876603307063937,0.024302076438588956,0.026139604534202728,0.00286904078736067,0.018640170148878643,0.0937435670036976,0.10809558072182977,0.023588213005843156,0.04056484053560372,0.011958657165269091,0.019812126587828265,0.0644869125177281,0.07376778249142957,0.34770153012254995,0.011330044184374258,0.0673514837267355,0.012424630980879411,0.03511188230103518,0.8539161704337855,0.004638680845622857,0.042729293670189974,0.017050141223262105,0.12133878404112033,0.010730987065505806,0.10202169382452597,0.20652449067994358,0.19893072942102666,0.04957690658983796,0.10995335701817675,0.023820434220816512,0.023190955580897822,0.061957378511245616,0.08789468640701045,0.1889657530529517,0.08381614224743161,0.02221144301845167,0.029079143747771003,0.28098403260232896,0.31725231581156493,0.5030559912000042,0.02935590971053756,0.03627223173302817,0.042250250243063836,0.18883567919546418,0.08483661431549432,0.007905490623738121,0.018136917187892312,0.011226182625117606,0.02123410641267089,0.012817152739596426,0.06901660002640578,0.09719743414110943,0.00805749531194556,0.29306156746487727,0.03579726733218149,0.02455369333600235,0.22270252831782816,0.036447419098735556,0.2620923520728789,0.04052403058877774,0.026511331379695333,0.14967663832723954]},{"Name":"bype","Parent":"bov","Age":9,"Gen":32,"Net":{"Layers":[128,1],"Weights":[0.21961462212743765,-0.40160301971855017,0.010573957163107958,0.5466167499312792,0.4577087382897748,-0.06357200301492882,0.25447153993175115,0.38122160518539344,0.8308394070167293,0.17723623030118735,-0.08711893246114527,-0.16118456582268442,1.1805251151136555,-1.1768890127257698,-0.2787873715378893,-0.18453648699641467,0.4996054699929602,-0.44356741376536446,0.2871412836364435,-0.31804290123477774,0.041527383170692087,-1.2375146195909865,4.406407051696412,-0.4094080439528141,-0.9537092748159084,-0.5838056634362989,0.6798152085726089,-0.12463990401261407,0.24473484811508453,0.8194443083325657,1.1567879978904874,-0.892304604838681,-1.6146248544416606,-0.5230975245408387,-0.8884807045740746,-0.22305657605543644,-0.7784993825465227,-0.8884095465185332,0.9278390498315336,-0.886508364377193,1.1303315613923604,-0.43610196252785094,-0.9360762524242119,0.037987759699988466,-1.275857952470011,0.4776503700369504,-0.33631460162281057,1.0631192630474176,0.9895187431239815,-0.9306054645382466,0.48238306882848253,-0.8138675722960332,0.12291654665809698,-0.029989329627371886,0.9988992405363782,-1.1801505733112214,0.005830078207447328,-0.15316981819512923,-0.6456838622437817,0.840818236438796,-0.7789793223058223,-1.5782213181414884,-0.5892501016302971,0.05297290975899478,-0.5874320557481395,0.8355566526389256,0.11532864388624767,-0.7692348416179858,0.686192853180438,0.722300644682252,0.3705601602533463,-0.0023766286622740433,0.16911553231547058,0.024169706381994893,0.4562418906932974,-0.316677955739658,0.6968776685101088,-0.5789346091294741,-0.7632987680156043,1.4425053093411644,-2.1110864164882517,0.10874716930036896,0.18119012730528722,0.3777258355435334,-0.3383605270309656,-1.9870425557497633,-0.9508550320853564,-0.014784728171290378,-0.8936907275410905,1.1898134784168364,-0.4807247179265901,0.8876861481102016,-0.9166857931378933,-1.6086357516391954,0.6825304166935994,-0.713521577916085,-0.15065988988534362,0.16996244525720966,-0.3025498806922764,1.1803440678461044,0.34915915083105686,0.09160018327030574,0.759701713487028,0.5557937712014365,-0.13743448599542749,-1.5541128611439563,-0.16655474784203878,0.579427696980485,-0.16157304237653436,-1.0714974150228966,0.23158630590742557,-0.7613538474448216,-0.9895995173223755,-0.389466321046787,-0.6806346979968544,1.0182798663192694,-0.25421732660434065,-0.22944063978459622,0.4808993860838473,-0.4147132228496167,-3.0700862455274205,0.32624218297361446,0.6394178432739759,-0.2699952184915666,-1.4863167926213723,0.8502395318880989,0.6290307463286777,0.32646191430530896],"Biases":[1.38142259326038],"NodesLen":129},"Score":0,"Wins":0,"Losses":0,"Draws":0,"Sigma":[0.01040786155924475,0.009415510439525298,0.021676961410683232,0.04138428762256096,0.020853201489656303,0.3215891281627542,0.03217599204579631,0.012480775979664448,0.007895021465390166,0.14051849862467775,0.0035242806248369,0.027696899269898843,0.18153710915769689,0.2866008887598405,0.11811858499850042,0.10743209870788499,0.0022215481461226494,0.15311197668662618,0.043884529488721354,0.03187321198158691,0.04944738006163797,0.13956771670338058,0.6845753991144596,0.008224559140711275,0.07562045430131915,0.016187380722309807,0.16485388421019226,0.007955396081532718,0.007708640269332413,0.10759159879828076,0.22913271623991757,0.008201968103446379,0.09020353545353224,0.03088424448701523,0.026995305499368176,0.004993693789060028,0.07239485518378072,0.06940957688010976,0.09760448087253125,0.03619417076642123,0.02658809389330772,0.0322450909083595,0.05198615663444097,0.19269296138552397,0.5310314634980479,0.0765184540791237,0.13285533385334053,0.055911571781831364,0.049699468256113384,0.008799896802731938,0.023162151237700077,0.07244944191588144,0.12474703532601733,0.13420628849794047,0.01930200588896437,0.038362124379132216,0.011208911413559924,0.0034634669159256106,0.05543215449323711,0.16288103787626523,0.06158416480406804,0.36601791030164704,0.12736210763528663,0.043493698620364625,0.005775189596652891,0.00803482694089706,0.03332869159613107,0.008250648621970261,0.028713422736526415,0.021090218348385363,0.0043268903834760486,0.02648100609255935,0.1282043177403108,0.19657900928569283,0.026233620453093996,