[
  {
    "Name": "hei/oay",
    "Parent": "",
    "Age": 0,
    "Gen": 6010,
    "Net": {
      "Layers": [
        32,
        40,
        10,
        1
      ],
      "Weights": [
        63.81044624682337,
        27701.03941071028,
        43.90181456384284,
        -4247.274069637217,
        4949.258197051254,
        -0.8735102405835816,
        1.4883958493868992,
        934.9194003107243,
        -0.2444982164557708,
        -203.4664151210768,
        606352.2921624959,
        -5.195703070099933,
        -3.853249482019737,
        -1.6981407015745205,
        982823.3248640702,
        -2.754598516806753,
        63473405.86873553,
        -8009.983557458729,
        21.06142416496108,
        361394508826.1282,
        -541346036.9403228,
        1344.9617558156274,
        -1035.7692334429235,
        -589.0556117018391,
        210679.53969096625,
        -14.315980752324169,
        721.5661743678605,
        -39.19637896417879,
        -0.04044393094590929,
        -9571.852543769834,
        -2378.7757603953664,
        -77848467.5659525,
        0.33109760926570403,
        -9219.547434532045,
        155832.98222277884,
        0.4039264591705673,
        -0.949728155066779,
        -4.112580381342594,
        -417.523650101071,
        -0.3537711324818073,
        -12.611096740092716,
        -1868684.893448324,
        -107.62160661425551,
        -0.052992884976634604,
        -30733.565409641615,
        212684.05695163953,
        12.548523531131183,
        -2170480141.6148434,
        5.264370770716304,
        15.456493838601755,
        -6.145399601612295,
        -7367074.180615944,
        2.6921603953145,
        -101.23952814947778,
        6089896.123552428,
        -5.201071418764627,
        -0.822397976227504,
        543.9911191012125,
        475424.8215289765,
        -2676.662376095983,
        4.141866563418858,
        72.81380211987118,
        100073.86418386849,
        -11984.843542761155,
        -8.968826303808687,
        -1453672.189594411,
        -20.45151185846525,
        0.5971898376347158,
        1.7287027401123296,
        -0.5646163317846449,
        21.71725480214522,
        -2187.304378192193,
        -12.84048224145171,
        0.9932676693585331,
        -14.04682935049866,
        668.5449178997526,
        1030.3343682781376,
        4.83925726597387,
        -65.76813427399435,
        0.9258105821040669,
        -8879.504956397892,
        24237.27682910043,
        -21433.241817647133,
        -0.5493809233879681,
        -1496.345549059053,
        -4724194.6547868885,
        -34.074584524172536,
        -0.018831393441300324,
        8.875580665130368,
        560783792008.1265,
        -7.685367006496967,
        2.601288050674287,
        2511.852031918665,
        -9934.247198334702,
        147.85420446876677,
        -438.83354184577695,
        -1986679.868399341,
        0.9784585873446592,
        63493.13050815084,
        20809.41186743151,
        122972.2889304566,
        690.1690407917828,
        -110801.77680102295,
        32.88912780376923,
        36.58529868019487,
        -0.05762559262506434,
        3803051.9048651494,
        -245808.62536459294,
        201239633.66707897,
        4948981684.406944,
        -0.32939138783418764,
        11.779661021602381,
        6.724096687540772,
        -60.141650150971344,
        4.282890932951901,
        -61.43911595982675,
        3.3528905609039508,
        -9.113821800524107,
        -8053818.964673589,
        223.74309121771665,
        -315.664003521026,
        955.6116115788872,
        37.60195918347341,
        0.7919000241307218,
        1.6699543414044873,
        -565.2039991697594,
        358.30062304337446,
        21505.679977084823,
        4.36641681669242,
        53411.41331580172,
        -14570.596871623033,
        -18.193221358550932,
        232.90696456132915,
        47.66708334192361,
        275.89852888179354,
        2.623363022116321,
        -77492.84790659035,
        67.130911419054,
        1.6343002430625009,
        -1595.0577312827998,
        0.5979103746293198,
        -0.19828307468389855,
        84.25861469382963,
        -11281.686486207445,
        1718896.7389533804,
        -0.3868264225693773,
        -3.5584656681212254,
        -10.675791401873564,
        4324.901429695027,
        24.136314136314198,
        -55352704.9265334,
        6291.647688757108,
        -1134.4426835976392,
        -0.159479658018033,
        -1.0237611554187587,
        -3.273277291563343,
        -111.26989434167749,
        -16.595834048532645,
        -7377.588264765178,
        10.083619577388111,
        17.198300248593736,
        567.7781359249146,
        -9.644787203934527,
        2.011075045949091,
        -15.02125109161158,
        -0.8254757650083083,
        -22.458782422368824,
        -8184.824780667612,
        -2.690653593654657,
        0.4653830341401262,
        -1.1359995925765498,
        -3.0100506916432277,
        -16.89642483287424,
        -2.295231098150881,
        2.1434857552481588,
        6.6977919738260665,
        -187558.68423871242,
        -3717.80247980822,
        0.05150621816389553,
        109.8355970517202,
        -1.8465445492207593,
        1502.4115636591575,
        645.4550447717158,
        -830220.3736087106,
        -60.927280418380725,
        30.50297445591217,
        28.77135201391246,
        -5347.774628984079,
        1865.2191070005267,
        486.7756100107758,
        -0.49854129415617576,
        44002592.34572428,
        -1.5046290484058056,
        141.19000736350569,
        0.9940402511578311,
        638069.1710943289,
        -428.6288279116919,
        6.0462849792155815,
        -578.3952515147736,
        11.820139953095127,
        -2.409074625814727,
        -1.938522676925296,
        119463.0159242167,
        -4.7363269771455885,
        -6.288785931314846,
        -1.7547032309070043,
        6.428175385264005,
        567318.8098379738,
        32.596193561390066,
        -29.034643636450795,
        2.8616415952534267,
        -67.84306247605598,
        -1.0298858383603489,
        27.663753001792877,
        0.5447473325861384,
        -20.708853405406156,
        51.75172787620579,
        -45654.63491461805,
        27.53792443004022,
        -380.3276521005133,
        -1798.3926227099787,
        -856.0122393569127,
        -6.275715497770624,
        -84947.78333143212,
        2.857461602956698,
        6511.31016980215,
        33.03717089496695,
        -26.20233734181983,
        -33160.19594325188,
        -0.46825200325149335,
        12.780879468022146,
        -538.2815524701124,
        -598663.7194856926,
        2.221654582339118,
        0.5989505403999001,
        -993.3415342730137,
        -2353276.182617858,
        -36155.92950801125,
        1.2806398202932534,
        -5351143.293846888,
        216117360.67478126,
        2.345318122852262,
        337009.3281401653,
        0.9916553968547216,
        1.8616950761184727,
        41688.44658006779,
        0.06618686767909901,
        -251.8355999481016,
        23.690443510681266,
        11.199802815058838,
        31.46207257922848,
        -0.03978871352872557,
        -3743.260870362488,
        0.5173643780387982,
        -1423.4704165174307,
        -4.439812565234942,
        0.22431335951397968,
        0.43529106356453867,
        3.5045741250772906,
        -43.32728728419711,
        12.16285135853366,
        -8.920869245491183,
        49.33070450937018,
        -7322.839814413271,
        -10.004616712349867,
        67.79759682005474,
        -3.375817126783887,
        4631.213393304456,
        -46494.81153934289,
        -13491.853528259422,
        -5.21920237968253,
        -1.8045446276105197,
        86472139.96167672,
        -97837.95921489915,
        5524.721496579119,
        2212.396496650147,
        -1.303946071584533,
        -3866136.6711248797,
        -384283.02799382166,
        765.9031889105969,
        -0.008576264737869602,
        -10.084458439630541,
        -13823.70006952876,
        9600.878326646698,
        349362134.2542647,
        -1.2755246599211396,
        -136.1062084668414,
        -34.94206500944551,
        1.1444805202164767,
        -19790021.811522428,
        -171.25635924931206,
        1483.32155982117,
        10.758625201094082,
        -4.040966278505599,
        405.8826455437944,
        -23.250196448752103,
        -345.5267746145619,
        -2.1900866425032683,
        1.0024415144712744,
        369.8648802806863,
        -2739.454070674569,
        -46.07855390003312,
        -4975625.491618187,
        77.38215867394833,
        -2.0850993947595575,
        -4.285837340282249,
        34.98057313536334,
        0.4435153440905381,
        18908.74750916752,
        36154.94397261925,
        0.6518513511684543,
        93.41893466450703,
        -13.789972226304364,
        135.98451619297805,
        -4.335252779448061,
        -0.3297972079168893,
        -52609.03898985243,
        213541.64179523027,
        28.66502555918836,
        -15.15551611654767,
        41.62917464252355,
        588933341.7590516,
        74242.13982372714,
        -6.1273757299870555,
        451.92204533564126,
        53.512279670744185,
        642.9782107183547,
        8.29990373464911,
        -3.0062216174922933,
        -25.966817422187027,
        519720.6111455825,
        -9396.901411775667,
        -0.1421883525729342,
        0.1674001204889913,
        -1.7815449646860988,
        -22.963037691752646,
        49770.83811337261,
        -956.9115057968075,
        -0.4327261755625511,
        0.7492357023584826,
        -43485.56785855397,
        0.009187432316101161,
        0.08407181608172709,
        -16.41053621545333,
        -0.7474068611712792,
        -671.9219140737041,
        142.7002627873203,
        63.65515658229768,
        -15.13788705107806,
        -96356.2820397893,
        124.17182250729226,
        -7.337625300002678,
        7.992798279456844,
        -34.55049362256496,
        -1594.1701979903544,
        -1.1072668817622717,
        -727661.0911884253,
        0.7755391233726976,
        35.01674319036896,
        1376.558643899836,
        -0.49834445738257604,
        -10.31455104842164,
        8.562638391233543,
        80.07219065339011,
        -6018251.630443666,
        15962095076.8308,
        0.4300236407089178,
        -1315894.8873492768,
        -3.967414225697356,
        0.09711244099465333,
        6.828476350421129,
        -0.5571175857862568,
        268.37955715230464,
        -623.1683873214537,
        9987.590700779529,
        0.15467448656203264,
        -14142818.581868814,
        -0.5037000187867257,
        30922.36248598282,
        -1223.6053680985121,
        925.2052871114462,
        1.3520164349528982,
        11.384964485602904,
        1175.7352154380685,
        68264122.54837075,
        -25.430862672309203,
        4.676928416606016,
        0.19944214339649294,
        20098.506949637576,
        4.735111955304028,
        12.652575631380394,
        1861.9639549264073,
        -43.669334903654494,
        82.01211000831098,
        19.67691076022597,
        -414.3846261667154,
        -0.0717494232488806,
        4877.574484974441,
        6.076541181665022,
        -6244.695243105324,
        57.386819423199675,
        30680.68081702946,
        0.8096333134796672,
        2236430.3344496903,
        2.898841457311184,
        4.78000602116874,
        1049.7085625270702,
        -1.197061112325409,
        -1788595.7387645163,
        -0.24623894425181803,
        -19.711730418916012,
        20241.225351973408,
        44.81223858576372,
        37990.95010074048,
        0.04003193674489613,
        4816819.931151113,
        -8.734288702825005,
        -24.00664204897968,
        0.0681752628897061,
        3.5436793680934064,
        662.6277282291057,
        -34.699550304197466,
        -0.291567610585467,
        0.09229198137611334,
        0.17772369305843408,
        173400.73459632634,
        -112.57586463554344,
        0.4940564831532243,
        55.11369007310984,
        -957.721401555474,
        -1.5849695649587585,
        22.032334751758885,
        1.6042351157569803,
        23613.702910280634,
        -71326.07794778702,
        1.650211967974523,
        -7.548527377082688,
        -6.121138821173792,
        4.0605860463429675,
        -7152.751779679224,
        537521.6395147628,
        114.35323693164638,
        -134.67637164005404,
        -3183.2411871257573,
        0.0008300759303315861,
        26.24307734416324,
        -1.2954955169904718,
        51453.47878291454,
        -53.88051033170466,
        -2640966.561232965,
        412.7109420345039,
        -605.7615008351644,
        876.0065210493563,
        -3.2922961301372435,
        265440.55630018323,
        265711.88661862345,
        2.6883995739682764,
        2.9156290320045937,
        -0.6105188128705036,
        -0.027944752901933146,
        -1754.6959498300146,
        27.583324126208606,
        402.2807309594388,
        -129039.4154477729,
        1416.9726663162442,
        0.4652509698534455,
        -641089.0095341098,
        91.94383315339272,
        1.263339755594267,
        -5.521097200915256,
        42.69973585040719,
        0.022789806068593,
        -228.24497964111777,
        -4426.782215679227,
        -34.81887281593811,
        69.0172288751258,
        6560.384409311682,
        -8.879696273763072,
        -0.3831654710824417,
        20.8118498388606,
        3.798769195220101,
        -0.020557079769408727,
        -21.15896781199214,
        -32749.10975204567,
        -25.60000185905222,
        -72.1410002754379,
        -157148.0843108188,
        0.6093281400290945,
        1729634015938.0447,
        -25.22467333342561,
        14.053649742328904,
        1236.807346500359,
        -71.75956571731822,
        0.5624048788256467,
        51.83665628684379,
        1942348.388472259,
        -148.7386394941093,
        -1.707248993294819,
        -25901.501558889893,
        -1450.469030674112,
        -622.7176512808101,
        4.634398312924737,
        -45989.90840404137,
        0.48394655185503754,
        5560.831585313487,
        -284.0191281700083,
        2.0699517182653935,
        6.822263945001275,
        250.56315799821348,
        273.77329963615585,
        -445.84170055126225,
        -0.31885343244439923,
        -2.5811043062503063,
        -1.3175296871620419,
        104837.92750372044,
        88.23086382958327,
        430.89105201253614,
        -302.68498214271153,
        -168226.3194223954,
        -31.996371160263003,
        515.8150683246397,
        -2.6286943790336372,
        35.735808151209994,
        -1255074.8322258813,
        -333.4498772661999,
        -369.44978877651704,
        -19.608821898771964,
        46.49150063672577,
        4.887680970325191,
        3949.4541750148483,
        -0.31917473458135387,
        -537.6567475364569,
        -294275.658721667,
        -26207752.44342125,
        29.788599113314714,
        -3535.8795798343576,
        -3.045383566971418,
        -96.91871061393701,
        49374121.0150002,
        -45.31362320116447,
        17467.857274665403,
        -162.30202676859253,
        -7.850911550723965,
        6055.6742612148055,
        -2.7119714863884945,
        485.4086332968403,
        119.75351562116515,
        -54.801138838415184,
        180.30900146571807,
        -7051.261809529913,
        -1.4640929749354452,
        78655211.03299838,
        -0.5503813076217934,
        -603.3977862201472,
        1.5432585028919616,
        -36890.93626164313,
        10.641475858443277,
        240782.6124807067,
        482.5922000732014,
        5091.632518471264,
        3.6547819164742146,
        2018.163886596244,
        0.05572715759771404,
        22.616159744481024,
        -6870.057714645877,
        -237597.67596069467,
        104683.71660098188,
        -121.12459786429847,
        335.28090293881866,
        118.36168987276181,
        235.40746710684593,
        -1107.9333876801868,
        0.29669016369244977,
        -226.584418931214,
        -265.002549430707,
        0.7477136548965706,
        -13.311803620437562,
        -8.279827528982146,
        2592.025851243463,
        -4088.2766302920004,
        -24.65751265486316,
        12.96331938903492,
        767.1038825428941,
        -10.843873830618245,
        1.646865780253096,
        1108.1296505883147,
        18.6748762958363,
        -1512.3425900546827,
        -1975609.3588898217,
        -14.969329773846495,
        -3701874.195862246,
        693.811706733185,
        -474.55860887971204,
        -10.778578049308951,
        -333.17281331247733,
        -295353.3070592202,
        2.4864180711689254,
        -47.97243590691767,
        -0.04298991965839379,
        -13.729376245742795,
        1975872.0477726667,
        -325208.1770412975,
        28.07112838804941,
        65.8467734170991,
        -15.728922309479042,
        -1.544266589250037,
        -1627.7430687463425,
        -714.3616683560753,
        191.61527496068692,
        14834.68082527822,
        -2860143.1925826864,
        -40663.77705238516,
        -2.0001748628111753,
        1.3233708259597505,
        -4148453.2923729797,
        -0.9517034811876157,
        -6987.06468277904,
        -0.33327084413721847,
        31000.30205646221,
        22.354940272923542,
        3.289860576237916,
        13185.79121585182,
        6231034.041306201,
        -4.422288962454573,
        14874.045369706675,
        363.7978292571761,
        -6.1733768764005745,
        -597.3404370919081,
        -84.44619893148534,
        4694.730263673105,
        -2.2212804230568,
        -9546.770082255905,
        -2.008246084484283,
        -90980.7548178682,
        11.4125126046765,
        9.80435004010036,
        -0.4615480384010599,
        -48.67783571216161,
        -18.54344597822041,
        11172.905666535522,
        6249.686163877553,
        -2.569883529911361,
        8923653.457018381,
        32227.128787605405,
        -51.406979821069186,
        16.748585069115872,
        -2726468.559441136,
        2402082.625479158,
        -1.0122411710952415,
        7275.628579226094,
        -8.365340397080761,
        -0.17762461176084268,
        10952.848512547278,
        14.234438359692167,
        -397.5534984929563,
        3920.631533204083,
        -50.6388167475224,
        -1.0920140088788064,
        27.224728675924446,
        78.82727389806475,
        160.77136123413118,
        -13976934.732830111,
        4.593480143370053,
        -8845.365429679627,
        0.4795525629242682,
        -0.08996128076360471,
        -0.30590361333127375,
        -215.5358026378721,
        118.79975203081797,
        4936.059927324733,
        93186211.18005604,
        -9.33019863634417,
        -2.250192190007563,
        -0.2576451216616881,
        0.3797735804194994,
        5.33517670617603,
        -9.268269881809944,
        -8921.527303795707,
        17.08462595315208,
        -621.9359316643857,
        -21.871434691383897,
        3.7807014402094374,
        0.027993762251032398,
        -11.883429207253275,
        1914.5656169865981,
        1.9844262948839586,
        0.2852187870619795,
        -0.5116084628221073,
        -0.3675405535055478,
        97.5189950831526,
        -1774631223.386535,
        -55.929251297820386,
        2727.955064900176,
        -0.016747966681890263,
        3.4213969502450583,
        -2440237.058166994,
        -7972.440564555905,
        -0.4036135150725322,
        3914.394228180058,
        1.5764272805706478,
        3770812.485425862,
        -12043.63594972304,
        -289.5957644880225,
        -3.2327323812806172,
        -95.41284159288138,
        -1.05739935289107,
        118.93555200181007,
        -2472.69015728554,
        -0.5740523476966121,
        9.982810506756728,
        -9.151890680594345,
        -276.43638917478825,
        4209.164603338209,
        0.48569748276891267,
        346.3603556020093,
        -1076.359778920257,
        933.8382052736271,
        31.008583698871362,
        -146808.05606280803,
        0.0003175096657507462,
        -3.5965781714387743,
        12.885030104531848,
        2.8969726684467196,
        1379968.9984683427,
        6.229517096160362,
        -248.84479129434143,
        39218682.82239949,
        3247461.6734085483,
        3.267981098218727,
        -7.582065308132195,
        -109.85485056292401,
        7049.865335001411,
        -802518.1021002651,
        7.629300408037733,
        13.556746189035207,
        22472.950965446515,
        0.3928609540269867,
        -28460605.06681766,
        0.2717881047829201,
        -317.8037508600216,
        1935.6198878547812,
        43673.79894920939,
        0.6053098662760175,
        88.86893488659081,
        235.67763377197585,
        -33496.73582102409,
        2603821.260625212,
        -0.37874435629836956,
        -0.18151644701561065,
        1.4617128049619115,
        27566.374742578948,
        0.5064937727399582,
        4.705309511681352,
        -227.77754315260037,
        0.24590423630978533,
        120.02578999951547,
        -5.806013608338029,
        0.25035393316321797,
        1.7880454685520708,
        -2.0982799757120976,
        -25082.813417276415,
        -2006.7323373060517,
        14293646.202086931,
        -61.295299521794576,
        18.06826333040909,
        -698.3298056421177,
        8.555217849979442,
        -8077.357334356956,
        -5.469507320583776,
        3492.9560961054895,
        -6.785915525927617,
        0.04982919938194585,
        69.41085507932904,
        -3.2026128733927144,
        -1.91983380963051,
        -5.752809403294855,
        25.722443435800017,
        -0.34357591398135146,
        25502749.928661995,
        -1.8647799977143367,
        69332.40537181508,
        -57989.38088406383,
        -13.528289478799525,
        -0.7600158917454447,
        2201.008952432529,
        147882.62009249907,
        -0.10864227760020535,
        5.88183690728892,
        1.854399660422113,
        -126.38802649882095,
        -8954.26782919558,
        -1112.9609495713205,
        1753.3211045408175,
        14699.80960217167,
        -279.76801524541895,
        0.3194097720499265,
        -3.325784374605545,
        -6.359581591488221,
        -56.75520816906916,
        0.4054582890498618,
        1704.458740183177,
        33.474374144345916,
        -31.338547016141494,
        -1.8329883938980192,
        1037.7635743091703,
        -4.518631484210612,
        1004774.422657247,
        -0.38267208037382083,
        -73130.12387119835,
        -245.82708983467256,
        -36585.85363360018,
        -44.64038116582711,
        9.22132037080382,
        -6095.7724079311,
        -0.36848323548984346,
        11428.711381951462,
        -0.14849424549072648,
        -1.107444537628984,
        13571300976.965086,
        -0.34412382844227785,
        -11.80685620010159,
        -4.82729222315006,
        2032.1888078011414,
        -92.5055645171316,
        6478.6141458308075,
        -30.729252904421017,
        79.58531556955512,
        32.63383938397983,
        104687563.33073378,
        -860675.226070264,
        -26534048.681880563,
        -928.3316661007653,
        -0.7488089079582106,
        67356.74080145289,
        39.61602080904843,
        -24.45107581937133,
        13.611296175439538,
        -2.529589326889647,
        1.4764294485856264,
        -0.036714986108669787,
        446.11439356108593,
        487228.5788751996,
        -4710.155059166304,
        -7743.7321000683105,
        92741287162.95691,
        17.01302218502102,
        -4695.635176120299,
        117291156.11938915,
        7.121891182673862,
        -10.21822888458264,
        1762.3301593613,
        0.31107266016308976,
        4.420661831062248,
        0.13116797628912474,
        -52.72601525863934,
        -161255.02721762145,
        478.9753230289386,
        35570482.65247272,
        327133.13475420163,
        -23.99780875220468,
        -18.968495264871184,
        -0.028820045017476176,
        -17187.071966237112,
        144.37111021476562,
        -1.7992315663721985,
        0.06897166202723139,
        0.2488483013952669,
        20.38351696690164,
        2.486347713073995,
        -0.3960683283621122,
        -38.369805795673635,
        39146689.80640705,
        115005.22574150779,
        505229.3266474718,
        28.903997583106623,
        14208.649764957376,
        -0.956115193560871,
        -32.65583039860215,
        -0.00698020845332224,
        4.338250873550532,
        5.733335247392242,
        102.01995020547203,
        0.3806041343563552,
        1395.5789876039905,
        23145.54131133965,
        32.32616231054117,
        -1477505.2784449456,
        28581.205134664622,
        -116.89643958295632,
        814.205150875532,
        -381.47486820949877,
        -38.718932612856584,
        8.549320341567503,
        0.8952657699500511,
        -450.7486807380555,
        0.9115506823589757,
        71.49211590891365,
        -534.5179252181263,
        -23373560.732324224,
        -16502.51765384378,
        1.3834464929000823,
        299.7335675508698,
        0.22226342701540333,
        2355.7169141408704,
        -6248.300350954063,
        -1.7352052434834342,
        -0.23414875046470066,
        1.4991952348982152,
        -614.471540515271,
        -306.3747815406821,
        -0.24516623714621813,
        -152.3799466753038,
        4408173.4044694565,
        0.3296822963478374,
        -2141.5462120362995,
        -4.746656131586662,
        -0.2401577344977132,
        10.896644137821331,
        -0.3576036309544275,
        7.930984004364635,
        963.8821714443324,
        0.9302062506748697,
        271.71265547912066,
        5.662255545001931,
        704.5801216003804,
        -2.1186123823270635,
        -0.7047327590192448,
        -17.85904209638226,
        -630.8093410596038,
        2.811840797279233,
        -12.998721646911287,
        42744386.915814586,
        -4.453027683438697,
        337.70472032154197,
        0.6272602059973095,
        339802.6884318492,
        -3.076774534087139,
        -0.26101132623558787,
        0.29600080240196425,
        -346.1643550323553,
        10.9058757603333,
        -29044281.413348805,
        -0.2183230186625754,
        -2.160245435604105,
        2424.3844450726,
        -20222.20315181581,
        5.158360335415304,
        18621886.063864045,
        700.1135524599898,
        -1875839452.9774098,
        4.582572493773867,
        6780.974033849715,
        -0.8315064274222045,
        37640.987989558154,
        7.049283685137762,
        9571.438139822994,
        -1.1033969464386657,
        -0.5142233665779157,
        -37.434517993556796,
        -3.1914428549951825,
        5856.414495336392,
        -95.88629240272606,
        0.7621916808815071,
        -6.521973596786823,
        -4.728510161235332,
        1035.0393395023527,
        28.231874051505844,
        0.7448945951937831,
        182.896895011904,
        65.1363034075897,
        -44.167390550204686,
        47349.430476784044,
        -2292.2208104212077,
        4.036563853667012,
        26.10585024123855,
        9.010056785567214,
        -370.7034874853693,
        -0.7519221546073567,
        -14.897340138950131,
        675108.6218017436,
        -14.246628141931298,
        1.2793483410685278,
        -7.793954026902256,
        -53.640237691994884,
        1292.0019713454737,
        234.7700643811357,
        -63203.42154860754,
        36.53609353271779,
        58.891781312730636,
        142.21092583146577,
        -13.759680868844093,
        -8380.134266302379,
        124.43808859290243,
        -3932.8082794079837,
        -56.22939241417958,
        -13.302116336154898,
        341387.0293872056,
        75.29785167353235,
        -294.4575285471672,
        24701072.806826245,
        -5.136929291081932,
        -85.33284243270087,
        -1.9261597709416651,
        1802.6786627595804,
        3.2533189357701553,
        -8.288511612334261,
        218815.4515852833,
        -130.04840885735257,
        -15.219411511780716,
        370.8708101361118,
        438.1206397670984,
        -1518.8157973013701,
        4.3122707709720665,
        -27469737.769350354,
        -0.37107074082677005,
        -182469.7080717213,
        6.89790466060707,
        18439.34887484074,
        2.845336791800194,
        13.684616225222754,
        2.364369982635379,
        -1.1864546695823563,
        -1.7577656012410685,
        -548.3358579432015,
        -164.92362115256768,
        71.53134750757681,
        -0.6649619925111365,
        -1.1633717923656186,
        1.5595726026762666,
        -778.2419208257371,
        119830.87466006962,
        -753763.4972439386,
        42479479.770047955,
        0.20376908551115328,
        -946.0853538810312,
        8346.435042212453,
        21.437794188272143,
        74.23287852970012,
        485.7202682123101,
        -67163.262459791,
        61.08784520212041,
        30415606.913536467,
        14.891532526262983,
        -6.303718348973921,
        -13992.590707489297,
        -36009.01438131767,
        -9.846227351054639,
        401.96310297280996,
        -9569.922022991137,
        -0.0779938550318284,
        -256.8211164652406,
        178.48994483397342,
        63.115129534278815,
        9.656747725920578,
        25790.0083795389,
        1.9722446087134609,
        -1.084591955901791,
        -175.06579501799803,
        11638.80529493786,
        -923115.7458211462,
        -0.8794197447454902,
        2.208976011294307,
        -0.37622148419948864,
        1.4207423792670735,
        -178940.97274070574,
        -14.99315184706408,
        -1883.0778881370472,
        0.5332092659411886,
        -16.035080097795603,
        550242.7204267642,
        -76.01654429382502,
        -0.10056538617946968,
        -13.573367374489104,
        -11.054167181750675,
        -1.8979498234976284,
        11791.354606388839,
        142150436.9041916,
        -54.71606579353063,
        255.07284852226528,
        -8.10846824898404,
        -12.70368560132146,
        7.816823974903898,
        -16894.79986006565,
        1.0951690615199499,
        -10.474655191347814,
        9.369835758187802,
        7.8502344913006326,
        -0.5075617272815962,
        -4.719152849786943,
        -1561.8710194545208,
        9682016.663722511,
        -0.8498212810994962,
        58.9824320228892,
        -6640.902590592446,
        0.19076621695220325,
        -0.3844273543082268,
        -71348.40664642568,
        407266.23812361644,
        33.13698564612155,
        1285.1681680675638,
        -5.7068193604177955,
        -102919.76386917876,
        92206.47151117,
        -0.11795517528370801,
        -0.1566362890328034,
        -3301966.7388719027,
        -21.993531578863852,
        -1865912.5839117684,
        -58.131656302436625,
        3.2116069115988157,
        -3485.167042253876,
        1.4129145966117125,
        -5.661531381209975,
        -0.3247504592769593,
        -219.9747887834959,
        -0.5936340926093613,
        71524.25508212371,
        -16.22659284534754,
        -1.3948562962951858,
        39311435.87617646,
        -0.209260481070135,
        153.131314114694,
        -0.21156621711262805,
        -1.191309992884015,
        -14056.583560078969,
        28.478862367544977,
        -26974.90166114936,
        -306.2656489865483,
        -260.26641063302594,
        48117.264461538434,
        -35274114.508543156,
        -1357.031708448732,
        3.9022936464998406,
        1.0323035044780196,
        19.620881936205915,
        19.934552798537254,
        988.3312087640946,
        153.60333336001793,
        429.8817594179077,
        9.221850817563485,
        -0.36333487175722057,
        747013.9865932639,
        47.25926414520305,
        -31.796656535276576,
        63.143811112660444,
        -1362.4799315905937,
        -216712.8395724807,
        0.7302167505746255,
        -23.65295781068908,
        7081.515814770612,
        206.81091547858642,
        -11.329872317316852,
        -183.80046042065533,
        10088.352755013913,
        -43.90881647456482,
        1.6867968437540937,
        10861.670420996828,
        -1.2589610816894863,
        -1694.2627707109662,
        17050.318299360042,
        2.945576677904594,
        -1.2743845597753267,
        -155.92657471696523,
        -886.4715097799162,
        -12.631882998188889,
        67.85785516984777,
        15.206340187248665,
        -0.4422474495627483,
        -189965859.14888465,
        -389.99614274951625,
        4292.805861729215,
        18321196.043131888,
        0.5060774522639309,
        -0.7268382055947693,
        -0.5778219035360412,
        578.9631369832277,
        -38379325.253464356,
        -2.1944354040431406,
        -9.246671630574937,
        1.5529485166422934,
        335.89776865285717,
        1.3443032081551465,
        27.562871158759858,
        -10.156085628470102,
        -1603528.5538658656,
        -6591.949669260125,
        1492.4350463095775,
        -464.58636138916245,
        182456.32389161838,
        5.2428805556695055,
        158488.57453631298,
        387.82039830250017,
        7.436790797405249,
        -335795.41256227926,
        -6.622723908802128,
        3821.6727832371557,
        -1446.5528522759173,
        -289023.6484610348,
        10766727.408752639,
        151.23652559108444,
        576.0907905943611,
        -58.680568041032274,
        1895.9803778308662,
        1498.39635294609,
        4.119318306260534,
        -5.5973820936123015,
        0.9689180825828668,
        3.255091795402859,
        -7908.506659778362,
        -92.4118123892561,
        29.705455462393708,
        -118.46163212427918,
        -37.936414670438644,
        1.4641751587167262,
        220350.63605475696,
        -58.79928157438687,
        34293.61244322315,
        -1953.3348267208867,
        -27273.823493695858,
        -1316.126282511719,
        0.31458770229199484,
        -1.4980315086488913,
        66945.11368259387,
        -12.031042808458912,
        598282.876819836,
        -0.6306837189616812,
        -0.7332489892563114,
        -0.16316770203166023,
        0.8433102436768337,
        382.90110290130445,
        13650.30286207106,
        -49.371719433422534,
        -12.325393445788272,
        -31.955459223022725,
        5809247840.91193,
        -35057.444696249186,
        16.068503783549293,
        -2037.9130952118544,
        -1026.6298688076945,
        133940.89486890676,
        -81907.97538731156,
        -150.45506900108057,
        520.9419062359392,
        7473.287480672241,
        719.336976315691,
        2121423.9232277474,
        -145.038524109291,
        1433475.253309493,
        -403.9690707373028,
        372.51936919149,
        160.16316443231275,
        -8.779920135296365,
        505.63097674312246,
        15.323540319520458,
        -0.3923257572240893,
        -129.3881932909715,
        -9.162605548147377,
        121.60419115176893,
        403.97268573426965,
        0.19623341318571527,
        2516.349524668904,
        -4.732292310341353,
        -20.746778471421997,
        2.2902824958238273,
        275620.8331907199,
        38409.228975991886,
        -1465.4244237547573,
        6.235800688998204,
        984.6337542345261,
        3992.8866075217725,
        -19464.422969961794,
        -3.873370922336489,
        -4288.500748933866,
        86.8005054079393,
        0.14064121088363704,
        -4.6874261698485125,
        -117.46443327570162,
        2.158927338247499,
        1.0167517559818566,
        -81.86753924259796,
        1377528.9432104663,
        2.737884781504008,
        0.046243647410961965,
        -1212.9252208980317,
        0.24081823468328536,
        -0.06530324574884697,
        0.9319898803463642,
        -2265.1419942878397,
        -44.573509481011044,
        0.183735043204074,
        1.8043089922714868,
        -112507.43622989809,
        -1953968.7313674358,
        0.3905163276783854,
        0.3760242212301983,
        32698.201167574047,
        367.91634284529607,
        -15.74300542087807,
        -1.2064958167418243,
        2126.653240689093,
        823445.1603350444,
        0.2777424318448648,
        -47.05224728204238,
        -15978.981617032001,
        -283.9224120371895,
        115519.26075924172,
        -58.55474856776168,
        4.210604278813993,
        -2145.582028542378,
        0.4182529310134299,
        0.13811080678645665,
        -5.010449625605709,
        -130925.35169731786,
        2.842596464782563,
        1658.9242434049424,
        0.48042102415520277,
        20.089311072249487,
        263.69269796411317,
        89.69979392263679,
        -0.3465531812004653,
        -9.877526515598989,
        8.713032917385714,
        -3848946.9182754196,
        -0.4028322776140067,
        -1059957.3392382655,
        192096.88271852772,
        -9852.792464309416,
        -0.7306541331462894,
        194.5908994499237,
        8255.571405942772,
        -3.991266603577652,
        29307.458735776603,
        -758.8435617817527,
        1677.676112164301,
        16806.347437098742,
        14.317290728927766,
        56.55042828959845,
        70.94778359353744,
        0.34972151053370537,
        -0.27544202796423367,
        -151871.9472974915,
        55.48306283796152,
        -0.16679546201669165,
        1260.6611309779917,
        -0.11895263395360484,
        9.644056789257803,
        4714.912919816063,
        -1.068233685118315,
        -32.332329476691754,
        1.0191733922981991,
        -44.95638790940438,
        8956.806181489272,
        15235438.15325856,
        -14.9789360223178,
        -81091.46286076598,
        3.099316471383543,
        -5.063352810258556,
        104828.21736059392,
        450.00485164697835,
        2827674.234597035,
        202532.46555657926,
        -1585.8393634473455,
        19.68612636231942,
        6.05236991700596,
        -672613.1885434467,
        963.7020832535668,
        -3.4191258327977336,
        -25.521645940836443,
        -8.895723259968383,
        1.193895762926247,
        -6.569372472713776,
        -16.502926095788467,
        -66.6522742922268,
        291.89469390416247,
        -9409.908892106116,
        4999.275908182564,
        3270.4340261789507,
        40.29741822585247,
        -37001.0522976493,
        96629.40109165158,
        -0.2098178740423468,
        34.72000711311595,
        -1.9374283067442666,
        -836.5335129099354,
        0.2427714367410232,
        -135.55532020856785,
        -640.1877326562468,
        0.3262028644748697,
        -3.7850411396615744,
        -0.4722457139087334,
        -24.811555630383562,
        -6675.861760663666,
        15840.286273987082,
        0.10640093773859625,
        11826.386602411703,
        -0.4037671283295253,
        -6.182504333589962,
        -1394541.2589522507,
        34.32082906786857,
        -3842.2299874467803,
        11407793.983888924,
        -28.763338266827812,
        0.9621711694260061,
        -1107.4320083109187,
        -268.556931197629,
        865.4760692992171,
        -53.92762982160919,
        114.88888559392922,
        2690013.725194023,
        -113.19824850170596,
        420.7112088316975,
        52.63772553042587,
        145441.08993651345,
        -4733322.875545964,
        -27.985444303229137,
        1.8688311425142734,
        17059.78405853447,
        -3.253231722602503,
        1123.894094659048,
        0.26828467130742,
        368.67038541969646,
        0.16164576256903646,
        -4.2079672749154575,
        52.1124626459739,
        -1.019548595584373,
        -2.6476664641359404,
        -1.1735011485353455,
        13.083502497393871,
        5411.799410523469,
        5.459929189819418,
        -134759.25254835622,
        261787.11988295775,
        -98244.22824632986,
        0.19385515286616264,
        -15.196100352749548,
        -1.0311281842911049,
        -1353.1423606710798,
        20546.841104531093,
        -1557.5554552813494,
        1653.6136926879815,
        -2.240371660314129,
        -0.41440797193873613,
        0.37781920634810895,
        5.284284747548851,
        837.386484297518,
        229.80942089753722,
        -409291.1079186405,
        1.0461934187684092,
        -0.4451650867899926,
        -1.7980452725145286,
        1.2083248338584058,
        -144.01634808859905,
        2.12028888415576,
        853.5456343276455,
        6530.510495357751,
        8.573256731207884,
        2.6962512062780575,
        3633.4108026217777,
        -6.548174145044572,
        42.72742522631778,
        -56.251843544663615,
        -164482210.59337303,
        -57396.231796585846,
        0.47993787516681824,
        -5919549.891753511,
        -240.6457962930416,
        1376.6269636350928,
        1007.6471457030398,
        -1750.3120515220453,
        1.6418312268611501,
        9.369651445388465,
        0.3527612053462877,
        4311987.759982303,
        72116461.8815475,
        -18.40600805244015,
        35120157.80140146,
        -1.0433015018853344,
        5.195545775789692,
        1489.5393299911166,
        -1.8311755038378328,
        -0.9620350771524351,
        -317.6644320144349,
        -6.747805936909803,
        -1.1057293710038825,
        -29.018358005166903,
        -39.22144113134329,
        -0.13768787007862393,
        12.111543711118564,
        39185.91370413917,
        0.9467830576640279,
        -1279.9625881728607,
        526.2468998178206,
        -1844.5804412968562,
        36.24933124719512,
        -101.25124669411055,
        -0.565208980482434,
        5112.430830701306,
        -205.13304905414535,
        -0.3406153560614905,
        -81338.35034744268,
        -7.196918085528547,
        0.14289331262196642,
        -6.878637624607108,
        7.226386762510113,
        -15.25876948313803,
        0.8251658823578348,
        -63.79996572390599,
        1266.4220996175009,
        12945.982490713453,
        371.29701773529627,
        0.47190381576765206,
        -2.3692388118070076,
        -1.0208286791171284,
        -25.57206586847436,
        8.580685282326685,
        43.01955098304074,
        -40.04087123635133,
        -58614.63096471712,
        -27.90655238253825,
        2152.3135624524502,
        -22.801489423842085,
        142.19276625208408,
        13.103412378161424,
        -0.8481144428922645,
        4.389332660596077,
        4.158025227566798,
        -4.093861011460461,
        17.102386740226073,
        1.002278288783726,
        -0.6056014943383919,
        -12.257083373021446,
        3543.3846564216683,
        -108.08358673860248,
        -166.25818905989743,
        58.48466827224456,
        -96272.82772914895,
        24.15474564218375,
        4.342397806776598,
        4317.4912283783415,
        57520.546112003794,
        -3.9535620081442113,
        -117.97293646372566,
        -3.5655203087014082,
        2.0843820775568975,
        1848.2970871976813,
        1352.7151951792503,
        23.684915664671237,
        5.545689288460542,
        -4855.241112832572,
        23097.46714321432,
        763.3182677452937,
        1.9319306159322949,
        8.211779023417895,
        -277.1080382806843,
        -0.0995614762324182,
        4396.569818163966,
        40531.94172936707,
        -15.473281151945313,
        -225.6644551465503,
        37887.46875762672,
        198.72665685038137,
        2187.7914325984148,
        -7624539.015219465,
        -1398.1898401342705,
        17.278993167098164,
        0.3743095152397067,
        -3.2504707126566657,
        0.4180376564996425,
        5.3678918637740995,
        -3158.812581477077,
        -611.7533587929507,
        82.93361387810357,
        -0.7183841372742374,
        0.8904194209100041,
        -782315650.7833986,
        98.61754602040098,
        -45020.785088678225,
        -4333480.893305065,
        2.00578674690242,
        -1538.3994574927085,
        85.14839719811751,
        -4486391.0425019935,
        152333.89211498149,
        257.38647692588484,
        7015.7617642656,
        -25.33892505035851,
        -12.703515812970478,
        -129.1667641715352,
        1.1499283549389663,
        1.1000645342527524,
        27292.866824840246,
        57.7439056963214,
        42.32247959345295,
        11265.739662966369,
        -51.39212458430599,
        5.132957275478865,
        -1.374919009315048,
        2672.5057542527306,
        -27.982603254235684,
        176.35777598634587,
        59.0068618029109,
        -9553.621927838045,
        1.6917207857221446,
        -9811.894749816283,
        -77178.88978159575,
        -5.330067349526598,
        558.8320355116055,
        2538.5130155117945,
        2351.599943857765,
        -15447640.39672643,
        1.3684602816555993,
        -3264.8850547068732,
        -1.445235805478074,
        183306.14964503303,
        -902076.549555514,
        277.7801714085094,
        61.08240005549928,
        -2551.3056564710273,
        -1158.7719839063634,
        864.3639423642435,
        -0.2198997170145477,
        178862.94970409476,
        10790.913295775425,
        -240.87110525429563,
        -3.2870804593407703,
        -0.2886251103035824,
        324670.18883766135,
        -17.28310587881412,
        -90285.53355606852,
        2.3417150938537206,
        -0.9408590412912308,
        2.4033743832769763,
        4.3461044099139725,
        -22.307875390253738,
        63.376777507095156,
        149515.1262659369,
        290764.0809985729,
        -11533.019988723618,
        -2.360749251727963,
        -1281122.697172581,
        18.80725498751193,
        -8.154399725517068,
        28840.49619287149,
        -0.5510936607645314,
        75.02057098111875,
        -6.35085078745934,
        0.7511079232088976,
        -5.81433395523767,
        -15149.056244880276,
        -0.48039508695547734,
        -10016.004545219435,
        5.667214318802371,
        53.5520172275009,
        -28656741.564427707,
        4.407068086867724,
        -561367.5682560761,
        582.4999863030024,
        16297.41143803925,
        -64.97214626788697,
        -3332006.208449323,
        8.557742509272895,
        18.165023850977175,
        -3300.661895559,
        -18637.641135384187,
        -5.364552404728098,
        24174.029618095636,
        3.816036175457368,
        -940015.0214289357,
        8.648908231303402,
        -5280.844955743855,
        -2183023.479213158,
        21.77140530118542,
        -1.0701217200728106,
        -906875.896621653,
        -785.8997892015037,
        -534.3108264257454,
        1939.280644072722,
        21.660393294054224,
        -372.97609376301756,
        -0.6397870494049829,
        -0.06898421819301927,
        0.1524029000119014,
        0.09878682819079339,
        -0.0566240682779053,
        0.11062412859361781,
        -0.20088872216852444,
        0.27554939937012374,
        0.07174036411225387,
        -0.051837047336248346,
        0.06120196776995784
      ],
      "Biases": [
        -1046.2548309552433,
        -4.399797791998379,
        159.91865664124407,
        343.32527205186153,
        8319.275400613773,
        -8423.301420477577,
        -29.96175272154955,
        77.06104879407222,
        -3765438.509584002,
        2.929482426895261,
        -6.531021420683263,
        1.1862869586385505,
        -201675.36127953752,
        1684.535510874372,
        -78115.27985371888,
        -2.6135508501733464,
        -5.887467338681948,
        -198089.76837867033,
        526.6550708218329,
        -0.8582055269788103,
        -19.446216961460873,
        -3.1294112141042083,
        2.7437186767476827,
        27829648.0417924,
        -24506667.99178879,
        -4132.486704761477,
        0.20345734386792505,
        -6392.8398069616815,
        138.69704571844423,
        3364.88509827441,
        -18250383.138895713,
        -23.2892388261242,
        -49729.73786948982,
        6.1356246611418115,
        -374.81011630634663,
        0.4026908182016347,
        -0.5293383366668359,
        -1965.5789853720846,
        -61618686.97361994,
        -1.4744415031801976,
        31374.459751621842,
        -0.7672722446037524,
        -311.47141817141863,
        -0.2646734901342932,
        27346.84239439823,
        584.708857406667,
        -73.74209990038955,
        -0.8866928042442893,
        745.6204449254607,
        -542.3176877552112,
        0.28205558010662624
      ],
      "NodesLen": 83,
      "K": 2.931425425354135
    },
    "Sigma": [
      0.00007303002419041487,
      45.97749172808238,
      0.000012541034033448503,
      0.22865920925975325,
      22.8207467273108,
      3.916548311040943e-7,
      0.004365266607230366,
      0.1572922735585481,
      0.00033626155045732536,
      39.07085888053961,
      2226.231617544599,
      0.09202368460008467,
      2.444190185679928e-7,
      0.0023328282147922815,
      152090.3266471826,
      0.0008773048255059411,
      19009.869685234327,
      204.03786918142882,
      0.000003987285000292335,
      39998243302.78329,
      45250328.389154606,
      0.21280837372020872,
      0.6076924851246127,
      0.048519082757917074,
      8134.073343598338,
      0.0003075980211907203,
      0.0018908491445658474,
      118.48719512038488,
      3.6321982511187764e-7,
      631.0898176919821,
      71.98520062998365,
      2379.706038854957,
      0.000044402615330529104,
      16.36663267404569,
      7027.5890796838785,
      0.02261110308407794,
      0.0000010804581403707851,
      2.468843193502824e-9,
      1.6786806048786092,
      3.495327165764811e-7,
      0.00009625391680916392,
      393.16609265753743,
      0.16821295266361716,
      0.0018281183947670065,
      16.09625385938608,
      18458.127363953416,
      0.003260457021952022,
      10819.36337487634,
      2.8587831393754524,
      6.508879029064258e-7,
      5.4138204794248366e-8,
      28260.701115940847,
      0.000006864132214798429,
      0.014711542017088984,
      9933.291900929327,
      1.637381931860702e-8,
      0.02984518561192809,
      7.084630233310831,
      18257.463825351537,
      373.15939584485494,
      0.000018589807787664888,
      0.01036558528193523,
      4437.315992018041,
      1075.763447408227,
      0.00012623931348674838,
      97.97557903813224,
      0.0002781053470180003,
      0.00004413450646146351,
      0.023028007467208005,
      5.531902900109966e-8,
      0.37027891567583343,
      10.421040713692232,
      0.29217349266612536,
      2.2901731593469797e-12,
      0.0008279910860312879,
      1510.633242866999,
      9.147072928120993e-8,
      0.0004996058852417061,
      0.08788405664484737,
      0.028239405676239743,
      209.6792371156444,
      0.26104731507299245,
      4.7280631780521984,
      5.195948627833045e-7,
      148.01568285419356,
      434.8969484038703,
      0.010306891345948997,
      2.572913692642055e-7,
      0.0000035267279220249522,
      66716861121.13419,
      0.00016153528026490428,
      0.000004122449666182613,
      7.474961115292557,
      1.2539541256116393,
      0.0012695011728865641,
      3.439697062879613,
      11764.796480032062,
      0.06981540370790318,
      1368.3420332750554,
      171.65584124809936,
      288.20259069106464,
      20.103308934955205,
      2066.4700137960253,
      0.000473854692973565,
      0.8520903205021809,
      0.027273991630956118,
      77.2399328140462,
      7040.325021877351,
      7676728.408947975,
      14320678.08891908,
      6.143567083719295e-7,
      0.00001759503360148319,
      0.0012761234950686763,
      0.13912395440035705,
      0.00001036398200219767,
      0.08321783518358794,
      3.810987940361901e-9,
      2.1695454639707165e-7,
      867977.8875028001,
      8.534132120303886,
      11.501832837892406,
      0.30666190721400344,
      0.08721870075838375,
      0.000011948612602582866,
      0.00787319582690739,
      212.92459454215862,
      4.962626490410575,
      213.9732348934816,
      0.021186458824129124,
      14433.256223560938,
      42.677604160522506,
      0.000010107709692718096,
      153.90104892240115,
      0.09422337423843394,
      8.622906140063833,
      0.20474365738373299,
      1935.3633021266342,
      15.983718171451567,
      9.897655559926211e-9,
      1.8407747559546108,
      0.00003664887324716584,
      0.00000141131343116215,
      0.001427125353926583,
      3.1546492636384906,
      11268.259924713127,
      0.0005543185153291907,
      0.00005644463551407344,
      0.0000010934328449614238,
      1440.6287977783743,
      4.787256698479109,
      12571393.90952606,
      211.07895262059327,
      15.481048708918207,
      0.000018329830657830673,
      0.002593989619639995,
      0.0008940828106721074,
      8.696584988970023e-7,
      0.0001575317153226487,
      15.233641883682537,
      0.09161931559204092,
      1.4017236774979843e-9,
      0.00004900292060726831,
      0.00022284231469591397,
      1.5198150631934254e-10,
      0.00009442601159569079,
      3.248545876174156e-8,
      0.00013317435880952184,
      717.4308128701753,
      3.804237762864394,
      5.482052851472857e-9,
      0.004747639541668165,
      0.3277103838149558,
      0.0004249731142423268,
      0.017688835745499943,
      4.579354842151082e-12,
      0.10248995880833937,
      0.15793392076587617,
      476.1938651710913,
      0.00005069723250319897,
      0.000425252762147279,
      0.00007373965869800611,
      239.92566809145677,
      0.4596244815006809,
      210.1990167020157,
      0.007808942033549412,
      0.0056329294383284595,
      1.038973414227394e-7,
      155.15531718086493,
      344.0897096187319,
      0.03220728349622402,
      0.000009425127341453878,
      1003433.0350747136,
      0.08856593551132734,
      0.13073918497539086,
      0.0010208955213620542,
      64215.571555428236,
      1.0198962730125747,
      5.7049572873029035,
      0.36425794919951576,
      0.0013386760782880534,
      0.015142099969947014,
      1.111765135158816e-10,
      1541.0501693301633,
      0.002976186357469412,
      0.0007093870313270758,
      1.1063414145040984e-10,
      0.001217917632726428,
      38971.00094271241,
      3.7275293053573946,
      0.00006712230538853641,
      7.721405735506864e-7,
      0.002243100749256621,
      1.2003750259648611,
      18.175146449578865,
      0.00004594905558048278,
      0.05913455688533421,
      0.004191094623335782,
      6.267782321454584,
      0.00015390689761490736,
      2.4404716009430922,
      0.08686521162308253,
      255.7065260810493,
      0.0002829484208815075,
      127.44052602605113,
      0.0000029860078562073126,
      10.210454340221846,
      5.1120278296969685e-8,
      0.0036345362822804103,
      4054.0547537688244,
      9.975911236465228e-7,
      0.000016574464875151256,
      0.002554309901358221,
      148879.21919522787,
      0.00004374240688252272,
      0.00871828581871254,
      0.26907647988224015,
      23666443.704017695,
      11.061833857849257,
      2.2128078036528794e-7,
      4760.969040719294,
      26422083.618913386,
      0.001142706147938801,
      22222.333298739544,
      0.00014404293084222504,
      0.000024384858281488682,
      0.013564602138113752,
      0.00008400166362453045,
      0.0000020787691894583586,
      0.004742134638454412,
      0.0001465270959998411,
      0.0000569410539671757,
      7.556751719079174e-10,
      0.11901499695827072,
      0.00020945577662319806,
      16.91363239602594,
      1.0041397895034103,
      2.1112050151466508e-8,
      0.0006630248374289513,
      0.012242611915039373,
      0.00002631044747884132,
      0.11138942187087242,
      0.0007104545123457436,
      0.000060947116624462404,
      1.586416182218105,
      0.11138833628799136,
      0.0000014247285550556897,
      0.0000031512381743121615,
      12.758829707765607,
      688.2120652396331,
      0.03341824366816539,
      8.978957096748479e-10,
      0.0000013426899142248236,
      22389473.32795215,
      86.58772168698214,
      66.44032326178912,
      0.00041219690571478055,
      0.00001135289484894299,
      59752.555240433736,
      1.2459204946147575,
      0.013121673335280422,
      0.00022135924330935296,
      0.005292995636860787,
      3683.0442661652446,
      0.3145394684257686,
      94307.29806055751,
      0.00006772262182891799,
      571.9730271532065,
      0.00023452979551819,
      0.010108569804030219,
      20521.927481672188,
      0.37879271630427136,
      712.3261042659987,
      1.579779956201987e-7,
      0.0029228496214533024,
      8.904848383747942e-7,
      0.000016348820006286966,
      3.889860649311649,
      0.00005775763103146177,
      6.448752316192646e-13,
      0.059270696951445816,
      19.202730100321016,
      0.26385591256329877,
      7934.277315945732,
      0.7032816177890101,
      0.000015293768176221534,
      0.17371789556884557,
      0.2692150992933512,
      0.0009958027097655652,
      784.9699030687735,
      9.678113502441677,
      0.000126673975389932,
      0.0005532168184337907,
      3.8811512953159446e-8,
      0.036382496840153704,
      0.004383236725696069,
      0.000001907919115988195,
      240.48842353518444,
      7241.523257437901,
      20.492976728753643,
      0.00023840816167912046,
      0.015804859066546603,
      3844729.383231962,
      429.9585041360457,
      1.1917246225748939,
      8.897843121106375,
      0.13167756465177488,
      0.4591973980590967,
      0.00944882919448379,
      0.14598309884725796,
      0.0008154623598757241,
      1793.4279220350884,
      21.833214024876746,
      3.4572656013378396e-9,
      5.428842662852665e-7,
      0.009083247349580329,
      1.403837031231361,
      3246.7660990617333,
      1.2760873569164923,
      3.698018826272138e-8,
      0.0002732730559958916,
      1151.1542301599563,
      6.755269495317682e-9,
      0.001245216098754689,
      0.00002812515933048418,
      0.00002822358821417412,
      0.0001731442535194325,
      0.0038085364088889183,
      0.122674439759862,
      0.008559813724813488,
      5771.377843516537,
      1.3189923990564125,
      0.000058474669513328955,
      0.0000031011457938002893,
      0.0015293826611473369,
      0.07523633264892601,
      0.0000018063117656383066,
      361198.1162002759,
      0.002721995101342241,
      5.144223555575258e-7,
      0.041630143873113805,
      0.205345326551555,
      0.0006430765717221873,
      0.000246963429938211,
      0.0010144488115765963,
      1100366.1198013376,
      2763712927.4155073,
      0.0005650950571984318,
      6825.135307679031,
      0.0003844446538747231,
      1.8802882156751266e-9,
      0.00007157461236822827,
      0.00279090548115139,
      0.020025020813319614,
      0.3474850037805836,
      564.7376760691977,
      1.026506118030108e-8,
      1552076.555546325,
      0.004241356615000254,
      1397.4354619307774,
      33.34096677119733,
      4.5525479256506145,
      0.000019447458955062592,
      0.000045591760517361704,
      96.2354332327497,
      989935.617552323,
      0.001925683378368103,
      0.00048246432016571945,
      0.000024353651773857652,
      681.1790029494391,
      0.00011440536022742597,
      0.0007129794989885794,
      5.489469386008739,
      0.0010098294461705628,
      0.4446503851625307,
      2.7466967666788315e-11,
      0.5139289511207374,
      0.0009999600233349204,
      0.005821627948330034,
      0.039152862598225396,
      40.90588629668511,
      4.88530165544114,
      112.25573261528393,
      0.00007469346872839395,
      24089.13706550668,
      0.00022591148676672166,
      0.0003844244466210344,
      0.003352729373390785,
      5.780216176731771e-9,
      2595.5234827637905,
      1.4939053513753758e-8,
      0.000054144471617332917,
      45088.19434472725,
      7.428268474751841e-7,
      9496.791082586333,
      0.00044655868640570105,
      46101.93482823941,
      0.0582019012435002,
      0.42615564184739313,
      6.20721782399968e-9,
      0.006607937624837832,
      10.137680195659218,
      0.0004208543948584377,
      0.0000029258950199847025,
      0.0012808552169984967,
      2.26324651843395e-8,
      30804.23023656604,
      4.870353109053859,
      5.9691867106099665e-9,
      0.0009372436228217287,
      0.5570287774939113,
      0.00024386699146745162,
      0.020110240654444687,
      1.6473396532465153e-9,
      0.3999956211959306,
      10.824149953898727,
      1.0864070893037998e-8,
      0.00014072253606076817,
      0.012270168839484875,
      0.002411573397281124,
      3.7718305290029366,
      19328.25243247961,
      2.444634841990432,
      3.9519220124454577,
      0.013139512008760823,
      0.0003520094148272992,
      8.492194985504163,
      0.00004425778453962975,
      608.6781799562914,
      0.00023268641328268,
      10976.956444914402,
      0.0004627337417054905,
      0.0018486674955876209,
      0.21317231127855507,
      0.29987507525122203,
      6219.919014299231,
      5926.98045124804,
      0.1887172999030825,
      0.0011068888187549114,
      0.000010480311473022743,
      0.00000247425562852868,
      93.46215208119048,
      2.545973725284892e-9,
      0.0021417063732614735,
      226.2532271658572,
      85.91727416902407,
      0.007990915763402936,
      55832.322860157685,
      12.087948610822897,
      1.9201088702646382e-7,
      0.003872752930548854,
      0.000006120059459824055,
      2.5019109926634945e-8,
      0.7299036558779705,
      0.9853483501178231,
      0.0000035083654483156017,
      0.014794999069356458,
      1.471530094381259,
      0.005612202506596397,
      0.0000019921874614199,
      0.006040252565991052,
      0.041602259380112916,
      3.0290626349068505e-9,
      0.0017968678355805207,
      5698.284960464962,
      0.007761238621896303,
      56.26063027089219,
      117.2200063941127,
      0.000004044184081482386,
      26789066239.018265,
      0.00003737777417411074,
      0.000049073664928996164,
      0.026261509001838934,
      1.435065262061337,
      1.597103719684367e-8,
      0.00020227193351573565,
      9550.499969213632,
      0.3553288738924338,
      1.5881917925703642e-11,
      56552.44383775128,
      6.013319783313896,
      41.3336970067498,
      0.018421471556160963,
      0.6331486642175255,
      1.1651761672697385,
      8.826315240568569,
      0.3077929041628831,
      0.0032724049915938986,
      0.04527267440390114,
      6.480368698016011,
      13.195906013443492,
      0.02958058563927839,
      27.590307023623872,
      0.0012310295078696192,
      0.0000013914787004088958,
      169.2421934030985,
      0.42563817513207014,
      1.2114601773610463,
      1.1169446468151771,
      550.4227497221653,
      0.00006113580166411383,
      0.005738971262399347,
      0.044522939249123886,
      0.00016961866489590324,
      605.9544523250865,
      0.0005011506620634653,
      47.80654154973718,
      0.0000500468331393432,
      0.011408141389813681,
      0.000012128602268866779,
      82.90186688091306,
      7.8493145499151e-7,
      0.11690807697856415,
      93.36610935488947,
      486.44984640125904,
      18.796178318921363,
      11.974230724302693,
      0.0024530907700755773,
      0.000030496599421055815,
      1055942.8044101424,
      0.0008776183574470918,
      1727.4626335175442,
      0.000607706779159054,
      0.010536913967158475,
      401.1181817127011,
      0.0076866653187057125,
      0.000005213842999406164,
      0.10172484986965785,
      0.00039798173693439545,
      0.01045815630159828,
      771.8401385204787,
      4.205045724492666e-12,
      1667447.5598113418,
      0.004165784021861665,
      3.109760740798039e-7,
      0.0000027541838641152195,
      379.22146623786176,
      0.00007371697946518254,
      8473.005027362846,
      0.004918069163121673,
      24.39276828299575,
      1.2610295167013535e-9,
      1.740628034721336,
      0.0000016890350391319178,
      0.012832147427177231,
      25.47999843082816,
      422.77929678282686,
      1396.9732170234963,
      2.0281436394843827e-7,
      0.007061925525331019,
      11.132037510301473,
      0.08438837476404683,
      0.021553153306772585,
      0.04150796368397371,
      0.0002280875156465937,
      2.816299081828535,
      0.008727441055872627,
      1.7475258249515546,
      0.004886380905452211,
      40.73845375402875,
      0.36314355728090486,
      0.012942833627686189,
      0.00048750701898217215,
      0.004105356231222504,
      0.0000083944802273972,
      0.000056854431417325897,
      0.0007292414990372382,
      2.4324747394900292,
      0.2585845115772529,
      232.66895219796538,
      0.0000026142348796406757,
      21029348.629444934,
      28.552413550653288,
      1.445836326220357,
      0.0010419301421484947,
      11.94434011774248,
      6472.945899312656,
      0.0034332449255701594,
      0.000009182710147528747,
      5.565824891718318e-8,
      0.0039062342731289563,
      160627.96464168004,
      1512.0256725246222,
      5.176439783755431,
      0.0034444774655559697,
      0.1046949944955687,
      1.136572782769623e-9,
      1.0319051135525927,
      0.00008029249985054856,
      2.5623060920672285,
      3508.494488406587,
      226549.0780081499,
      0.5682792669261334,
      0.20477263733295303,
      0.007525267230644631,
      440977.42732965475,
      2.3725381229311385e-12,
      200.96469997994026,
      0.01003339408265372,
      30.864010783724506,
      23.683714645826406,
      0.022437587193202855,
      227.9239450083621,
      1678.6612894517034,
      0.0008432376827323723,
      0.05982285636514733,
      0.0004216743528801492,
      0.00020939553286814566,
      1.049001643487986,
      1.1065418972927843,
      0.0027814033454854115,
      0.002265266915074518,
      72.54318892950012,
      3.602538177664013e-8,
      3.460273164232622,
      0.00022468886340084205,
      0.3857850753758738,
      0.000023383644019517175,
      0.003304517336694636,
      0.00023604752651340278,
      30.74631987071823,
      0.00497589828138597,
      0.000003529972685994248,
      9499.330005368736,
      1371.265211548148,
      9.107528556894456,
      7.470339319204153e-9,
      4.395467972380147,
      44032.44881125997,
      0.000025366286514292588,
      369.8500236649293,
      0.035154591667013485,
      1.17866433826991e-10,
      0.06190711377164116,
      0.006675470906383409,
      0.0063224112667623735,
      93.39315127894874,
      4.192260186779114,
      8.152813294240775e-7,
      0.08571857006645413,
      7.9546855005444,
      0.015434682621095538,
      852281.1595384801,
      0.00004818434196920668,
      978.0980227971805,
      0.0000019024951097726856,
      0.00048484702852200735,
      0.000867481905268382,
      0.00020670308036065617,
      0.0540016684781242,
      0.016295097293193818,
      678680.3757674969,
      0.00004920598134867239,
      0.000004633850739684502,
      0.000014477322699302129,
      0.014528675606204005,
      0.00010882693472861763,
      0.03096396252705878,
      0.26214813125344394,
      1.3162969436603687e-8,
      4.221233665593923,
      0.003541898911241317,
      0.000008551081603256777,
      1.1608100304791139e-8,
      0.0003779630789608671,
      54.40399538720952,
      2.9323614532536907e-8,
      1.1351733208656421e-11,
      0.000016784816171005577,
      9.600879655957274e-7,
      0.0008353653700034365,
      38690261.555450544,
      3.372058279247869,
      3.002982204778636,
      0.02765779544121482,
      0.00017166384411001795,
      60545.95735644354,
      119.59250098252683,
      1.3566163765096427e-7,
      356.31905854163693,
      0.016071006126153954,
      35495.006348622504,
      49.75903909604315,
      24.5800845944164,
      0.000032917482889446776,
      0.0008242814681322937,
      0.0032915890688119073,
      0.009623301879055796,
      15.479383862353197,
      9.43856706345858e-9,
      0.0021119848200400987,
      0.0002848448677320188,
      0.1811211593123008,
      286.39066514886673,
      1.8964612783943158e-7,
      1298.4032035014584,
      28.866125411665188,
      0.00015947516756428877,
      0.6495614668242455,
      1376.9853715872866,
      0.00009604278696248589,
      1.0076633579799266,
      6.727865787300212e-9,
      0.07428203407267789,
      22575.544843457916,
      0.002689496179174025,
      3.902224418107413,
      6321276.935155123,
      8343.684212598968,
      0.0000036615825487758784,
      0.08832241330612203,
      0.02891665447707188,
      655.1991436885621,
      36.13862185799562,
      0.0004188369447213289,
      0.00000666293955307019,
      222.27304347644863,
      5.194162407477367e-10,
      9879.769562816682,
      6.215175006874798e-7,
      0.23891858792845536,
      1.1665362929233523,
      0.048237503278761765,
      3.257251350904246e-10,
      1.5597528805168848,
      0.0233347151484525,
      60.22743844550719,
      1533295.9276496128,
      5.404399470719313e-7,
      0.000019026805930587722,
      0.00075234190302254,
      3818.3261660960816,
      0.000004579353984563122,
      0.005221249379673249,
      2.1252059910753274,
      0.0013229342287872181,
      0.6801500446680028,
      2.7536877056686345e-7,
      0.000003893418387552718,
      0.00045560973515765816,
      0.0003000908419264299,
      1590.9842226223718,
      47.349244153652116,
      8982868.005433556,
      0.10372764650694899,
      0.00245956133227567,
      0.060520764937758306,
      1.0419178116553157e-7,
      43.615961370469826,
      0.30663062382278966,
      766.7191649784162,
      0.019111304891140563,
      0.000010951825883825982,
      0.02788271759691448,
      0.0026480359125988593,
      1.3682994063933185e-10,
      6.281886065595558e-7,
      0.802201691745885,
      0.0008811325654250745,
      541826.7859488582,
      1.2703962899135855e-7,
      175.12771941721337,
      476.09965407499635,
      8.587974561491333,
      0.000002681994790029148,
      4.341696718190501,
      215.41451377503745,
      0.0000025770309554444206,
      0.35369605103556795,
      0.00010403727095033863,
      0.34301985997875833,
      24.984779295532242,
      0.3371128611789303,
      121.00807674090518,
      186.90981146563493,
      0.08698941100600235,
      5.892981070458012e-9,
      0.00005540994656453963,
      0.0000412355984440649,
      0.0377773062919021,
      0.00006422616286490638,
      74.81561242617057,
      0.0000015864084473121615,
      0.00045925146822963284,
      0.0503972597524096,
      97.44744926555504,
      0.0005834042654442697,
      8278.908728794488,
      0.00001620631955631279,
      387.45084664354334,
      30.019640182591093,
      67.32358329976493,
      2.9141845518032047e-8,
      0.00001856317454145553,
      13.608890521968473,
      0.00005558681140163148,
      1036.831002446706,
      0.00003205768544029568,
      0.0003462380565963127,
      1388412040.7171578,
      0.00027955506560477873,
      0.000053651369829139255,
      0.21109263984525464,
      0.005468254093861601,
      0.010915021396256271,
      24.827122358391946,
      0.1975545672346536,
      0.004590210403214318,
      0.00001344389791863489,
      19752913.672064293,
      3960.0056474111107,
      14875.514980906535,
      1.4948320493376406,
      0.00007403211348983683,
      23.556970609348024,
      2.6749688072490554,
      0.001888349910694267,
      1.8893466294433765e-9,
      1.5508932018162143e-7,
      0.0027666689285371334,
      1.7190922635427805e-7,
      2.817364433695519,
      6.178820518065345,
      71.15322085293079,
      1465.077990987362,
      8681879102.139242,
      0.023058671023261028,
      0.058503140483095746,
      5447.316853854865,
      0.010158654586371274,
      0.000014515401966723366,
      0.03585002819213429,
      0.00010548190509973555,
      3.169285746640462e-7,
      0.0000027935139741455005,
      6.1552884004464135,
      519.2284785255174,
      1.6778344471388584,
      4346733.255057287,
      14489.083678218693,
      0.002107572211673965,
      0.0022483067585630156,
      0.00004162194111330352,
      248.7572367760363,
      0.000007065597010994961,
      8.918377603943659e-7,
      0.0016520636207154834,
      2.168770547068274e-7,
      0.00010758604374201065,
      0.004081428641013741,
      1.1167419235361607e-8,
      0.015160614359924328,
      49303.78312311813,
      4225.74449867652,
      863.2044114154396,
      0.500039411376656,
      127.83256187217347,
      0.00010199951718029024,
      1.8975496037752206e-7,
      0.000003590429949567015,
      0.00003323452991622193,
      0.02667989147649192,
      0.5308069801669977,
      2.2939543062254703e-7,
      123.34465983251508,
      1.0346585827993555,
      0.5643715429882553,
      28109.232431333614,
      550.8807995034791,
      0.25726740734270886,
      0.592846517560249,
      10.20520690601915,
      0.16270482524029375,
      0.00263460638639771,
      0.000004687152500891292,
      0.4448641907867525,
      0.005803563023572561,
      5.926449863485994,
      0.03870537655441553,
      2521380.4694401748,
      0.013348919895734224,
      0.042217636025467666,
      0.03669700193116863,
      0.00011330202583311061,
      1.1349912169568992,
      32.62975072562999,
      9.472378942066938e-8,
      0.003103009171367375,
      0.000007918579643251946,
      0.44959159062962734,
      0.05980479172385527,
      7.176370248146763e-7,
      0.0012540287216817692,
      524114.0259034311,
      0.000016152841680059658,
      0.5682713366235141,
      0.0006039817898426973,
      0.0001358977319460043,
      0.8935253538368175,
      0.000004268703868026059,
      0.03689680103653572,
      12.263656576968712,
      0.00005447504803911798,
      0.019651953388642677,
      1.2669252232549297e-7,
      0.000694909466696997,
      0.0008492629463770746,
      0.0019385401234887616,
      1.0856616218518507,
      2.904583666047708,
      0.0007005074097401439,
      0.09191463077347219,
      3408170.3369255606,
      0.0000190855685074608,
      45.17705436054621,
      0.007493477601301034,
      21751.481217643974,
      0.002600400422261809,
      1.5517865078446796e-7,
      0.00003759399354102916,
      0.001923401900447675,
      0.026351471637718876,
      1274.6584483291401,
      8.664221904069871e-9,
      0.052140983983873374,
      8.206718514017527e-7,
      5.502646700935835,
      0.000020527687029798356,
      973346.765273653,
      1.9019970649374622,
      82220425.23967911,
      0.00002273371141049068,
      24.56769890725857,
      0.000014487441418268481,
      157.66130287154817,
      0.0000016234205958828212,
      154.04992056805264,
      0.0380785543353636,
      0.0415239373753747,
      9.737505476330382,
      0.5005278654330548,
      86.58612181701949,
      1.5999700814148146,
      0.0027324730374139895,
      0.000001989536408361,
      9.859490143542036e-11,
      0.0016826035254906878,
      0.14711877136117868,
      0.014740251542451248,
      0.5502570436967132,
      0.0011388582842763925,
      0.03224949591931436,
      65.97134743220072,
      0.0745901925828607,
      0.00002877841702244758,
      0.0000035961884864062704,
      0.004603628930726337,
      280.53886539037757,
      1.034407902000784e-11,
      3.836118126531714,
      1450.0760499135797,
      0.0002078670249432258,
      0.02284862053390475,
      0.006416219433198017,
      6.812771701067432e-7,
      77.38748096474379,
      0.8522760502048409,
      6455.106235850933,
      0.0022927553644017137,
      0.31999674837864406,
      0.08618211572110912,
      0.000007324358402399258,
      150.91775443131877,
      36.942303718008546,
      11.589330636120625,
      0.00009764829718370288,
      6.427681719126246e-7,
      3648.034322739076,
      0.006654241839239451,
      0.11460753687742518,
      386544.1306375787,
      0.0008300550119635364,
      0.012344197510448116,
      0.0025016938899411543,
      359.41722950508233,
      0.00016997433545057905,
      3.54121617831021e-8,
      86.40328768935979,
      3.6809441117911734,
      0.6144806938868348,
      4.505317423731836,
      2.979472059066309,
      10.051391489883951,
      0.421421854329958,
      1744539.9727545064,
      4.2155409999272276e-9,
      14.897326442591195,
      0.000019059118633251482,
      904.2991787762265,
      0.027656597521456137,
      1.339154199739635e-10,
      6.641812884176836e-11,
      0.0014074797653254483,
      0.0000022613914226550733,
      0.000028107376500070592,
      0.09145427392838426,
      0.000006682884410738535,
      0.0001352408742894507,
      0.0012981513882292354,
      0.00003309462431553731,
      39.29546415427153,
      524.3792399257591,
      15188.83884143627,
      195669.22461948954,
      0.0009209208829781569,
      1678.7079077929704,
      4.57103206229059,
      0.03094393005494977,
      0.000046580571741957026,
      15.544927786160837,
      0.008917693968099112,
      0.00012194925496388565,
      1463209.6023970873,
      0.390091317985496,
      0.05029458153572583,
      133.7024065685864,
      792.6702817191332,
      0.00021378139692752272,
      43.47725080428108,
      269.4933165142828,
      0.0017633878294104745,
      18.73979460566164,
      2.777715391516327,
      0.7222754756519177,
      0.00003044132858861169,
      70993.34675108004,
      0.01764644627730122,
      0.0000010531252232614963,
      0.060469419300650855,
      18.823914888711418,
      3457.743793220666,
      0.015382972333351733,
      0.002501118664695291,
      7.333010332510529,
      1.2188915641881978e-7,
      10933.145110095033,
      0.00004752533266173567,
      1.5114759046572017,
      0.0007867943900958734,
      0.044016286000213546,
      17.441630311092272,
      0.983442484243793,
      0.000008309897754219099,
      1.3204942547460548e-7,
      0.00314083637094456,
      0.003779549465186193,
      102.72337819555109,
      2071425.1286821326,
      0.00013685923001041975,
      0.000024817358519416594,
      0.0003687771136135605,
      0.009986262524686393,
      0.00013171034230956134,
      229.11757527206998,
      0.0002452673719853088,
      0.9667892235894364,
      0.0000025495749226227424,
      0.0006034917687337564,
      1.4129163078212235e-7,
      9.510831327447334e-7,
      0.00002775911034549871,
      38463.59707208793,
      8.38133092809837e-11,
      2.4619800651504136,
      40.47555213969924,
      8.991327399451639e-11,
      3.764392737227036e-8,
      932.8134225863091,
      19128.963444820423,
      1.0106641792525302,
      2.886139205851031,
      0.00002635358740132312,
      136.2576360705083,
      34686.20565395009,
      0.0009471258847762464,
      0.0005806457737136108,
      29.11093895805483,
      0.0000248926015869662,
      6176.318906175168,
      0.0023720420343578833,
      0.000016223901750894327,
      16.924741642835674,
      0.0000014866366387626018,
      0.0030235184765668114,
      0.0000022493537073055666,
      15.618379463012447,
      0.0006283425869559806,
      296.99262060986797,
      0.009926472103819752,
      0.000003779362104051979,
      291.1671398216771,
      2.2378050567549505e-10,
      0.1372450268067205,
      0.00004316706611706491,
      0.0005653411546104953,
      5.8431386684765725,
      0.17279457108048632,
      0.06647090286301675,
      0.0016878620305637215,
      0.0006779688675836108,
      2189.245464410101,
      604775.2544096257,
      0.021378093370864056,
      0.06251497688555696,
      6.439494713229201e-10,
      0.00010000130204249118,
      0.007108045918916553,
      3.891342131755115,
      55.155461609055735,
      0.44996489305604015,
      2.7767188025315384,
      0.00004782965190324967,
      39.45917946409548,
      0.012740835476589302,
      0.000005914158818447738,
      0.1374188294516404,
      63.659154742662345,
      1770.8188060312798,
      6.111391958066077e-10,
      0.00004391225354598498,
      199.25492700951048,
      0.7933535307626631,
      0.0019923391652413576,
      0.0303295182399781,
      2.1310646872635317,
      0.09960253954886515,
      0.0006957009458121694,
      33.55645041421648,
      8.381528899532816e-7,
      55.79192927048344,
      0.05716940183998878,
      5.981053501426604e-9,
      0.037192809873181354,
      2.151949247091295,
      18.360746339514645,
      0.000452152020668056,
      0.0003476507095695011,
      0.07971982496388236,
      0.000036233200244219627,
      22498.95598477142,
      0.0033532562908672875,
      66.71367633868041,
      4274574.040524058,
      0.014983401562530856,
      6.030645426632372e-7,
      0.0000037030370111552718,
      32.183727205071975,
      40902.41723447272,
      0.04208140227118806,
      0.00009634574768951589,
      1.202543220949192,
      10.981445410450252,
      50.45286255482973,
      0.9242573776192647,
      0.000028306352204415484,
      121825.51752855808,
      247.45336786526715,
      0.07495269219682103,
      6.3032337584507845,
      0.0065900105224002406,
      0.00007633285430418549,
      2580.0523779864548,
      0.00000481070631953,
      0.0006889036161833612,
      25007.322933308587,
      0.07214793381112942,
      40.73227265892658,
      0.004063695208310164,
      215.7906902457016,
      1031564.1537570419,
      0.5328040952923274,
      0.8705578529241262,
      0.5558727401415744,
      23.510648578388874,
      11.365527500465756,
      11.887215597201314,
      0.00023809547938068471,
      0.0031785496073899735,
      0.0000220457429709167,
      69.22731828072834,
      0.00026492443416718017,
      0.25440033544101126,
      41.71720606780109,
      0.7938968325184211,
      0.00025660790533578014,
      8684.691337838509,
      140.83714492246767,
      512.7204039928479,
      0.01472977401334063,
      1624.7807392019336,
      0.0491184907589639,
      4.8391664510206066e-11,
      0.0000015798880312091712,
      1653.0677277145905,
      0.00021146528574896942,
      100975.1288366267,
      0.004676564864012439,
      0.00005973806305781758,
      7.450446893413783e-8,
      0.000010278134129231854,
      7.616057149779184,
      100.52290842941639,
      0.0016308913908860718,
      0.0000200497715528717,
      3.373723713201715,
      57894913.52482762,
      304.3507955046946,
      0.009113414500307159,
      260.3811322805606,
      4.288683208930828,
      4.282385787865471,
      2627.1679720574584,
      1.6367837700679044,
      3.567014648753999,
      12.620023566675151,
      0.14160295691144836,
      22650.41157541076,
      5.552108951761012,
      2960.669996407201,
      14.866452738236788,
      0.8164249587924135,
      27.62337148610111,
      28.690526806493384,
      0.1021391522975799,
      0.000007212540505276371,
      0.000042055355508114195,
      0.06387835258710325,
      10.546610356571643,
      22.336760502037105,
      18.735497293634364,
      2.911084502976919e-9,
      0.2792924982220521,
      0.006625307814076649,
      0.001039063000008571,
      0.00004370661154054127,
      1970.2727532976078,
      18044.493781146484,
      0.044546941452974505,
      0.00008301855133341906,
      0.00000285996997724257,
      491.67791435434987,
      4.356270832807453,
      0.04972091415244627,
      1.5420528772766846,
      0.4018687586240776,
      0.0008519432304548507,
      0.00007103581698237529,
      0.09507312888778086,
      0.045473341030761776,
      0.06505112874478186,
      0.03496601915907871,
      545026.7556052877,
      0.000030039753271465506,
      7.232787362453697e-7,
      91.77553638334716,
      2.169366471270573e-9,
      0.000057018259036131644,
      0.11975570570022842,
      162.10492982189754,
      0.06956348766408776,
      3.398458619758328e-7,
      0.00003330024565431545,
      1232.7052424542023,
      13390.881019154145,
      0.0000019374630747643504,
      0.00006990404271926525,
      15.884773363945607,
      0.002603211581488601,
      1.0755598921279172,
      8.056514920276369e-12,
      5.496932577917255,
      1216.0872127929497,
      4.8110249651973735e-8,
      0.3167561338112722,
      6.687385652312605,
      0.3725661736737501,
      9632.210689882348,
      2.6287222931056893,
      0.000056077542113520306,
      4.249068493030012,
      0.0000031151668308320527,
      0.0005290591318271085,
      0.015334964278560436,
      1623.2089901553531,
      0.050984583718282406,
      77.68317186597345,
      7.133983188999751e-7,
      9.434408343479844e-7,
      0.04576046997713974,
      0.00009021553362252207,
      0.0068092435068133,
      15.163315998179176,
      0.012068061847055082,
      3.6077155336125606,
      0.002864275094708119,
      3086.695347421913,
      15711.106094630548,
      33.01420872574405,
      0.000052917339770779784,
      0.7730960658129249,
      0.0016216464242495984,
      0.006780746340668806,
      712.980927204931,
      4.061088373215753,
      0.35389153444584276,
      4.076160438100199,
      0.4020414469315416,
      2.004544927830571,
      0.0072296229558379,
      0.020917680886543947,
      1.1330943766196798e-10,
      6279.940420011507,
      0.005954038157515418,
      1.2186792163098602e-9,
      0.5464519842768948,
      0.000004014444289935189,
      6.505504736098304e-8,
      106.30989138532172,
      3.605836722291006e-7,
      1.8671104392783076,
      0.00035496426705684857,
      0.0000011346487500011227,
      137.89917187252618,
      23972.736336135826,
      1.8981639668254349,
      40088.31275106637,
      0.0031761672227330552,
      0.030759606832246787,
      685.673683883768,
      6.068693831169507e-9,
      39071.12919492161,
      4231.964651267881,
      539.6438929793735,
      0.18844210748964152,
      0.000006836362105169209,
      62.32160323198606,
      0.0005143965978225435,
      0.016630351965352508,
      19.404235765634326,
      0.0007933720655246076,
      0.00025111957353392506,
      0.000016730457771831716,
      6.264819840876586e-7,
      0.1009010113901449,
      13.72164082190079,
      1113.6629454293386,
      149.56461893673546,
      0.7062113372950808,
      8.747110925631914,
      1325.3388134421643,
      63.19658089445267,
      5.780680727041676e-7,
      0.036982092106776734,
      0.0024226905235812434,
      0.00031478801340715915,
      0.000029111563520627198,
      6.180388248057211,
      24.399063607688163,
      9.284703527569481e-11,
      7.630068496242797e-7,
      0.000007431711110208347,
      0.00015981210783934304,
      12.051237780716528,
      3.8010956795730957,
      0.0013820184774439674,
      0.007702952688121228,
      0.00004081547556407351,
      1.1101752770600197,
      235330.76359519397,
      0.008729462390782153,
      26.334489972265235,
      2034.8295446475304,
      0.286112190640439,
      1.934606349851021e-11,
      0.01523372547967442,
      0.003383147988113698,
      0.16625099518246073,
      0.00020183087108490043,
      15.267351234303693,
      449276.3983713857,
      27.88577055212783,
      4.970768418769544,
      8.192654681582166,
      2326.0738221355323,
      718404.5952167498,
      0.0004327492655449146,
      0.00003021277520567553,
      70.75294402159732,
      0.00010028005510449772,
      0.013936318581680828,
      0.000004781228483643487,
      0.026540887825861385,
      0.035599064967058655,
      0.3686325067860615,
      18.86339048006622,
      0.000035192875662205396,
      0.0003150410091501556,
      5.510523604037963e-7,
      0.2930111717749784,
      595.3741919764914,
      3.236433496074502e-9,
      131.8215089331801,
      4467.519401522795,
      334.5815154813064,
      0.000013965109392523593,
      10.096650407747182,
      9.061917938996953e-11,
      79.61774138592493,
      110.96449692194875,
      296.70271622714176,
      0.019157884584052626,
      0.018895499064624312,
      0.000003251098510221662,
      1.569825406186772e-7,
      4.233573464216974,
      6.733302763320285,
      0.0004424939502322016,
      530.0233758919627,
      0.0000046249856859886105,
      0.012720139180979646,
      2.4308990785207356e-7,
      2.2385830644810234e-7,
      0.008202910251615464,
      0.0182373497722827,
      27.201046066849376,
      1568.3619485478762,
      0.0008795372875108951,
      1.0416142391679757,
      0.00004010460199892791,
      6.541235734024013e-7,
      0.06428962276197625,
      0.00012132985098536124,
      6272650.297035995,
      1.1745045417794517,
      4.2013770918712605e-7,
      750066.8760084067,
      0.044050647013880964,
      300.91963319162636,
      2.30835742642678,
      0.3071320974040885,
      0.000007950887831729601,
      0.0074495926788124295,
      0.000009026873934406282,
      301712.0990095268,
      131988.23219466725,
      0.051810772540133554,
      512865.1193277181,
      0.0000015492457021883171,
      0.0038490386266426127,
      0.12461331309173208,
      0.00007791773442452336,
      7.04105120826828e-8,
      0.00015640828984381092,
      0.1752250778196841,
      6.961873201135042e-7,
      0.0016114483070761123,
      0.0008479208607453079,
      0.0000035253961674325665,
      0.0001410804917976636,
      1039.8223710554018,
      0.0005016518367526272,
      0.0863165279370548,
      0.09644766711452907,
      0.03436980957323033,
      0.0012898894368714494,
      0.0005836246526144024,
      6.383699166592174e-12,
      72.85966145275363,
      0.2670082693208841,
      0.0000013820751121476182,
      185.1992181809482,
      0.0000012002215531759272,
      0.000003948252967391283,
      1.1212115431293082,
      0.000002187247507580491,
      0.00004643395693141591,
      0.0016079619573178563,
      16.551726157521184,
      5.643826104607687,
      0.07692376252342245,
      11.329758131724175,
      0.000011306308845790876,
      0.1827501105813905,
      0.0001602192152842233,
      0.0075377117683649575,
      0.5455665450634971,
      0.35901637508755574,
      0.00013726123023427605,
      17.708818625873928,
      0.6221224887691555,
      0.000014669312405771182,
      2.5140161888006003,
      3.3352729943408197,
      0.07347163261387707,
      0.00011391023308589482,
      0.5669700455250499,
      0.015103983738079209,
      2.8950245212525912e-11,
      0.00049068886736811,
      8.494989889851187e-11,
      5.40568492641701e-7,
      0.0004859519107127087,
      0.49233891505865723,
      7.040745653724984,
      4.930435363903008,
      0.008342632113031158,
      8.780463077779041,
      0.11130160479711738,
      0.002609392061581365,
      2.0666922870716133,
      1818.7536094458076,
      0.027237118447720313,
      0.8312586692361442,
      0.0019648892878523275,
      0.038095210966715184,
      0.17183122876513157,
      1924.5277544187372,
      0.6311268706116534,
      0.05702160811186227,
      1.4488279015164394,
      262.6897598612327,
      2.6386613857696815,
      3.4488939077814047e-9,
      0.0000760148778973411,
      0.04019790118242182,
      1.7066934450036418e-7,
      141.46546110096227,
      0.13825673530474553,
      0.00007145059728347602,
      0.022501350542880626,
      261.7558994384038,
      0.00031663294953906534,
      83.04264483937602,
      178188.38305740894,
      13.203511863943772,
      3.9811291380248896e-7,
      9.203338142509925e-9,
      0.00031009812818560105,
      0.025277989074293437,
      0.000010996419743911938,
      255.86011545213623,
      1.0091840584465746,
      0.006583869787659321,
      0.000015381281149360283,
      0.000051370837001635,
      2063111.683406598,
      0.12343703559804482,
      697.1278736854988,
      20554.711390098197,
      0.0003840987996537108,
      0.000042091060789237055,
      0.0003735226598795707,
      317337.8691440264,
      1348.1627050581292,
      0.13327381706694283,
      122.05515656144276,
      0.09362128964474008,
      0.00013873506886649814,
      0.004542979899962126,
      0.00008222845941309523,
      0.000002420408842224652,
      34.56464082564371,
      0.19264697930259278,
      1.456793748245489,
      0.010669197417859481,
      0.0006131971944225366,
      0.004364748657754847,
      0.000003705798918279513,
      0.06610573508179554,
      0.000005877510115149399,
      9.564159996390156e-9,
      0.01352565726742731,
      0.053024089136838884,
      0.00006931301393591827,
      44.34704282922893,
      1.0925179394131388,
      0.23350787552527008,
      0.00001970479351678348,
      24.796469447294683,
      3.6219285129664773,
      899662.0275726698,
      0.0001995096354307834,
      17.81620648551803,
      0.11206509610773402,
      9337.242281434443,
      2283.664842042615,
      0.00002456251984103273,
      0.000005237315912526234,
      1274.1511893995569,
      9.798444589881257,
      0.00000118534942058233,
      4.3071969555580485e-7,
      99.39780468108458,
      170.17095894676015,
      0.026446185148236157,
      0.04482182499929697,
      1.3229446134603452e-8,
      14327.917110428318,
      2.891706809244664e-7,
      0.0009024085969392601,
      1.815813975743719e-7,
      0.000002195051529328012,
      3.010642641617689e-9,
      0.0035560098205568713,
      0.000028118968276534406,
      0.00020115233636731647,
      289.71788388888024,
      414.38388717323073,
      5.039570474064586,
      0.00007774377048296011,
      16135.485680648948,
      0.00137670150112605,
      0.04043719961623141,
      1.1758484151049218,
      7.123937255187824e-9,
      0.00003095679741767639,
      0.00007552116071282138,
      0.00022761504102112478,
      0.006973713173688805,
      1.8121961001016564,
      6.405224234247682e-9,
      11986.167697696952,
      0.4817966674680869,
      0.0011685967917770806,
      106.5718445670431,
      0.00012835333272320475,
      938.5619176144245,
      0.3837222843624598,
      256.2799838061254,
      0.000030329175804194062,
      3446091.104294318,
      0.3188291399243294,
      3.115491359591287e-7,
      227.8729681330534,
      9.968006988671485,
      0.008615236412192862,
      1859.6143046157983,
      0.00001007108048828644,
      0.34193233830904834,
      0.000009856485209284569,
      31.607718544314647,
      21158.762337352102,
      2.6794349471977426,
      3.4283870214007703,
      3096.4525154504477,
      29.1687086454872,
      0.25627017212687225,
      0.04533348011212613,
      0.000012958169417725187,
      0.0018320706819529445,
      0.000001557920997832684,
      0.000039080266001836665,
      7.714153547106979e-11,
      3.8034229874986615e-8,
      0.0016055838352060678,
      0.0000028525953001801647,
      0.000157069424796507,
      0.004607138778038971,
      0.00005369610207434728,
      0.0003917611915021125,
      0.000005938721231005631,
      0.2845092388894773,
      0.0002381574433075183,
      0.00020163324859222642,
      1.9048774174656182,
      1.291259160527582,
      2105.142798605732,
      0.0000021845662992770997,
      0.00017817308431555522,
      39666.624653951265,
      0.0000014075984350066537,
      4.0944415224154406e-7,
      0.0002463546491449259,
      10227.84417722944,
      870.040768062814,
      12.733356003230496,
      0.000006540638662003306,
      0.000003981037713918294,
      47175.606095821095,
      312.5791508804762,
      0.00000457289888472554,
      1.3712511744638058,
      0.06568459498996908,
      1.0127085957085188e-7,
      274392.7669469504,
      530129.3489911623,
      49.95478084209455,
      2.0093959013759742e-7,
      0.5005131256053975,
      0.0023875633316676427,
      3.338330003401381,
      1031503.4408065727,
      2.7595571091156077,
      0.29825525139134745,
      0.6006624949517742,
      2.2734565393834294,
      0.0009384732616746382,
      0.005071021971862365,
      12.146885599331297,
      605730.6032769338,
      0.000008862423643930902,
      105.98692031761426,
      0.0011819442735481918,
      11.570782296883861,
      3.7116898325734e-7,
      417.5911853356674,
      0.17572358863456777,
      0.9538609412991258,
      0.0002596675271812784,
      168.18721288283228,
      0.22056243802205364,
      0.00016295193807509028,
      0.0010907872574270176
    ]
  },
  {
    "Name": "sgw/xde",
    "Parent": "",
    "Age": 0,
    "Gen": 6012,
    "Net": {
      "Layers": [
        32,
        40,
        10,
        1
      ],
      "Weights": [
        63.81062331297383,
        27573.65381044313,
        43.9018304420031,
        -4246.8120249603,
        4923.040748006908,
        -0.873510386779754,
        1.4862470745568304,
        935.1199192124144,
        -0.24525538411240247,
        -225.23041095673594,
        607446.0531046015,
        -5.067935351243548,
        -3.8532502321756503,
        -1.6977343411468588,
        347407.7508189853,
        -2.7546465487671727,
        63472069.66971505,
        -8012.028588934099,
        21.061429247458292,
        282494315366.3236,
        -585367745.9939779,
        1345.2722395228595,
        -1035.7877972393771,
        -589.016716146627,
        200554.08552332618,
        -14.315285564290514,
        721.5718151125111,
        -175.18242282029195,
        -0.04044335308382751,
        -11923.63584285988,
        -2488.5709039254525,
        -77842141.67052391,
        0.3310846552038511,
        -9245.55063105525,
        152500.26044913012,
        0.37711419832120535,
        -0.9497312703767532,
        -4.112580384875968,
        -419.29575496059647,
        -0.3537691078121782,
        -12.611262142012565,
        -1869077.785688201,
        -107.05126968864816,
        -0.052548887692737044,
        -30732.483846980722,
        224949.630580628,
        12.54237483448956,
        -2170452766.517054,
        3.6376384159591426,
        15.45649404838617,
        -6.14539958067495,
        -7365800.792385334,
        2.692181060802306,
        -101.2685927320872,
        6090366.828155326,
        -5.20107147355753,
        -0.9397562114996355,
        527.4860598488416,
        468263.5084583901,
        -3176.8731851261277,
        4.141893254772848,
        72.82686128106467,
        105230.26439905548,
        -10779.744768761157,
        -8.96901641246891,
        -1453673.4293113467,
        -20.451997831913413,
        0.5970976858211892,
        1.7090230601207663,
        -0.5646163101366082,
        22.035129190493624,
        -2162.0368885644734,
        -12.474473825988516,
        0.9932676693574655,
        -14.049012894510254,
        -239.78382294436972,
        1030.3343680125151,
        4.839077925521188,
        -65.72899219220734,
        0.9689687513244751,
        -9077.467926391193,
        24236.261364948183,
        -21417.714430535685,
        -0.5493808885627265,
        -1629.8416503837416,
        -4722361.967195172,
        -34.11119940437403,
        -0.018830944203903445,
        8.875582387674717,
        372956073633.74164,
        -7.685050587165407,
        2.6012800485204086,
        2531.907446857939,
        -9932.942166292552,
        147.85578823781088,
        -445.9100064774615,
        -2028327.951943874,
        0.978448402841435,
        61612.291451315825,
        20834.19708086274,
        123593.05724548618,
        695.0111541295613,
        -112413.31044287496,
        32.89003021995989,
        37.047796764929934,
